0.75165115192277709,0.41414021343175378,-0.68073988379283579,-0.54860631992263231,-0.65265023263720501,-0.17048900414202839,-0.31412295126084722,0.38077847747720917,0.18134578287186409,-0.8312263889482554,-0.043814540717364459,0.81135200199390334,-0.9188432973702898,0.37235578085884846,0.24726234568356364,-0.78394969971579953,-0.97450454973831047,-0.43188682360182185,-0.95373911163012637,-0.17736696037074218,0.1661833380564286,-0.36704300744208362,-0.50285303900438061,0.73952749105513926,0.26229310957218077,0.46849444769519755
-0.17220190372439004,0.82177522141859538,-0.53747088471570192,-0.32730453743840893,-0.58629542068891904,-0.44338500360912558,-0.82197394191943185,0.60835792478284545,-0.3923225139320563,0.23439599538914613,-0.3332825041966998,0.82739061196869157,-0.86381090281788997,0.76900941621140451,-0.25575839114510601,-0.34727596939564709,0.52314477821446981,-0.27612802059887498,-0.35526368570503242,0.97374828012580106,0.65520600869010881,-0.78557941233160511,-0.7046932001551669,-0.76944461937728126,-0.038654929620531187,-0.49549804859890823
0.96031617693735782,-0.03788573624724445,-0.6163063208565529,0.84106479668965073,-0.58997459905019389,-0.47528616573026095,-0.38004279962646326,0.1345381254304201,0.62507748834977406,0.29679659477008724,-0.74680857833100123,-0.79909384843939701,0.26253902808327068,-0.68205786366599308,-0.51619794867579705,-0.31110866046107044,0.64969855748284222,-0.76124122584429554,0.083756907382079415,0.92393098571344079,0.20697745925677169,0.4012166772803254,0.58538620484910697,-0.13642689379816342,0.11044099877933666,0.73846629359888283
-0.53877782313934297,0.57297711922389261,0.87654224526304803,0.29712762240923074,-0.68307653631950682,-0.4043254437577013,0.36002555370712619,-0.33821160315316767,0.2009097687464827,-0.48411816816218023,-0.18447221072216435,0.21063388299373309,-0.38790878528566486,-0.097305452305150197,0.76503895041569603,0.09157144970508635,-0.67382735511059555,-0.18530609853465152,0.44652758009711446,-0.32418374673285877,-0.39927611099261928,-0.022733292391170723,0.53507885240991215,-0.61203547022622917,-0.66815650675568783,0.14108280291240094
