0.82635964749199187,-0.26421949074346651,0.71898632801587659,-0.26589973705047942,-0.72505909323261508,0.25060861844491145,0.049512827760694655,-0.72368559753653439,-0.038104603725063857,-0.03359749777333354,0.99673211460613853,-0.93345084495937725,0.79391922421082506,-0.85319337313573973,0.85833793288478022,0.76463910377002464,0.92497901854534503,-0.069766215214095872,0.11331384521833265,-0.042201612029579172,-0.1610490951316097,0.80920814482581171,0.89445818457489223,0.6507761013664366,0.52786039961592701,0.99158424688037927
0.11633427388193818,0.050106979296599796,-0.07035080279949435,-0.53401507581672636,-0.51263061512938002,0.62393114131641214,0.40850744504902603,0.16382003594856109,0.56814450775234304,-0.49701827141093191,-0.34650893726069443,-0.56996696197283558,0.032931711438672906,-0.03122577084206446,-0.27332444659084865,0.41391888033166802,0.81612843753604136,-0.68474631393591912,-0.84526232303705662,-0.93497269561314944,0.015073403061943713,-0.90221274424574283,-0.88791226389776234,0.70557011399447878,-0.28989469681651059,-0.590366430972036
-0.40444498206599189,-0.11155927614140615,0.83566824153927977,0.15839602353717819,-0.66841405698284451,0.32067529337523126,-0.025717005699422479,-0.19550243786355748,-0.94300028783864742,-0.72051493710647541,0.26885109129447859,-0.19314256825029719,0.86521167613859529,0.28210594807016642,-0.90273908522277391,0.91643142264641808,-0.7607436063009656,-0.49865959511017088,-0.0036706545225497766,0.86024391515051257,0.85567114586093229,-0.41914366655154933,-0.087587004913074917,-0.95642363116596019,-0.45585712117407917,0.7941864979469857
0.28015477286142199,-0.6247372068259085,-0.77948190500219416,0.10851412587649123,0.86512104353989239,-0.07507665672807784,-0.64707711025834702,0.27348849300623512,0.73792652613386478,0.29023614810146325,0.44652709438534122,0.32640071234519108,0.68841788019394334,-0.61499580040541058,-0.97954432463227592,-0.17999276320649726,0.94257839465788829,-0.82374511371189585,0.97922222703975303,-0.93990651868329822,0.067145191700265006,-0.8465916886034146,0.37072269782204281,-0.82901911053212696,-0.60681288317997195,0.51869828690618736
