0.45787227088853322,0.63628558165916593,0.95994064980410521,-0.90029397229988217,0.56680870167521036,0.20535604287419074,0.077278213992872935,0.36847054780433286,0.14223982133833468,-0.84862897876747412,-0.66920761864284106,0.27301718971181788,-0.11196466533798022,0.96835869401639285,-0.26170149826049638,0.31218453519644052,-0.4207206804169481,0.11789158407609679,-0.25765517872411747,0.19932878216535532,-0.54925032953065989,0.94208553660494765,-0.16050846762575643,0.67523227399339625,-0.030961718399040716,-0.82050171386843118
-0.29929268265807152,-0.96174420020621931,-0.39198853736197892,-0.61424713082093807,-0.85502148259141042,0.12770073020359596,-0.012152847105855846,0.14326243914470793,-0.6776427208149407,0.49699058678983632,-0.40942946357322407,0.93567711933063835,-0.8714381184010731,0.36610281748232953,0.3387504522753948,0.01068460730223908,0.87219211969423527,-0.71568623468922632,0.21593381055524441,0.96054208950680975,-0.61075016567277385,-0.60495482768938502,-0.4864893290511827,0.84078456998845064,-0.70741257434621829,-0.84340069943121976
0.52245857245960248,0.72630281178497991,0.8907870359922454,0.67205025625196191,-0.22681676530508543,0.75423617342086735,-0.99103713574567198,0.76490423890867754,-0.89915600375227034,-0.02030300670644869,0.072197458930028047,-0.30196045200929467,0.48315170627047443,0.26122731757992268,-0.74517308370331237,-0.74769791298811983,-0.69718925802443121,0.75254095230012674,-0.46764786116508117,-0.013569783716076422,-0.77236682851767191,0.32164520616913816,0.93516679739786412,-0.074002642638863136,0.88320278318215095,-0.23252418799597807
-0.17900183817683657,-0.97841950017022072,-0.24454286473366382,-0.5475042423937182,0.028014043206297634,-0.48665213804652785,-0.9395892097464984,-0.89863140467116454,-0.28010632051270523,-0.57634374594528937,-0.11848431269118542,0.49695536329007894,0.48616873729126486,0.64489181202788903,0.1877956257166582,0.007162625822892954,0.724740257960242,0.15437039078025672,-0.77546851667668237,-0.38308033512451223,-0.69798205770987565,-0.090539736961343653,-0.72600002350997328,0.30884700620865901,-0.54268073873102596,-0.54008490896389616
