0.57006089670262461,-0.67079211834700603,0.75369094008199711,0.53395672427700003,0.63506112882915766,0.12554449279736368,-0.018231489002725532,-0.82196790201092274,-0.46210624925017663,-0.98653261463527997,0.63824623511385892,-0.32392376164092473,0.83083095813207986,0.77829245091834665,0.6891518894784614,0.89896361827910432,-0.76122310420982253,0.7111837135647987,0.062487131481012259,0.75865810445901727,-0.095879757968685864,0.8602710419124926,0.18468741272257372,-0.73150940221679872,0.97742816570598068,-0.35975139835948022
0.81171771696489481,0.1010663833896337,0.04505094568204604,-0.84882674076032605,-0.18969032382462414,0.20773157344197246,0.94873967026651851,-0.010879795382685131,-0.069659515962790186,-0.081674331013778412,0.56018084208428753,-0.2580791476021056,0.38270168585421516,0.67352614488012863,-0.02571935579094542,-0.68402539223351289,0.482853654046141,-0.66489286369255129,0.52804681147601573,0.246310833213647,0.24331281103819702,0.63041004290440328,0.69253321936525647,0.78996677980518792,0.42038602517862378,0.074973599242783351
0.18496269732675796,-0.25507116938038732,-0.16012326459600024,-0.49117618020653997,0.3006394177597258,0.47919903507564454,0.34540457868559415,0.76849917818035873,-0.30919594438644005,0.21850705906763279,-0.34807686491810408,0.24452489430032265,0.78830683470358887,0.22678586577454163,0.93608473831322891,0.85370875762958787,0.78520437224650319,-0.33099786076080551,-0.51289752707259928,0.21882409243718359,0.83641396818555913,-0.58709671082288528,-0.13199065501114493,-0.090747922707948847,0.80735978551795617,0.76814576636339282
0.78420840232812838,-0.60719342359139361,0.10003996432152507,0.28526653969916294,0.14252420880332117,0.080873807867792635,-0.26867390025932059,0.32186113079269441,-0.4512215243395703,0.048874367065740776,-0.085185988743346375,-0.3884897708889774,0.90844240474643545,0.69040707976965288,-0.56756856450631266,-0.59737332216849715,-0.86836467256665473,0.71408301917768524,0.89050546282580156,-0.67078609489731744,-0.66906563056559909,0.66553218778743362,0.56012766274829495,0.66585689313740737,0.059062286956536703,-0.5763364854969979
