0.59918672905563386,0.82389099028176371,-0.14295831067319398,0.74462286322024895,0.82646987375885073,-0.58266085121358024,-0.31323860415642013,-0.73208396848973778,-0.25427298419580069,-0.69560750199845733,-0.98497680849028635,-0.42802055957854401,0.5430660188900911,-0.41131256587922649,-0.31274126151571746,-0.68535896620144032,-0.72434189648795932,-0.018629044770329228,-0.4414905941299454,0.56000771877167943,-0.20842372136462251,0.43097773298457231,0.94741803564139992,0.05435672714469475,0.40839711061448902,0.16898604470323586
0.8580426925314053,0.0755182571197337,-0.34446598449169419,-0.41494635156218562,-0.54586213776796577,0.041643148666148155,0.33106881955042189,-0.71395631477547994,-0.75726411686512995,0.017774313196946334,-0.46622618617275835,0.46493410348596864,-0.92284695271707151,0.87535918978593297,0.078593900897859559,0.82205618487877996,-0.079391955100293288,-0.033461963061319544,0.47369313408595426,-0.71666518259159639,0.3871184684719966,-0.35594020141294158,-0.58736407653470479,-0.68969306579279954,0.82211964404549098,0.12861413124164089
-0.31162068225667428,0.4599209151437329,0.60017131533462509,0.78800663217690814,0.84963809713929539,0.98091558683529056,0.0069248797107015481,0.77740608999730854,-0.97024165234678428,-0.85542660219231448,-0.27948228234123773,0.71675767132403556,0.61325887546825175,0.058931971127370586,0.47566383200036699,-0.14682453099899306,-0.4986958519348681,-0.50607562653318583,0.52931511384777119,-0.55186770585174805,-0.79509088359449476,-0.22905509818526326,0.074748385086665925,-0.49540613191206018,0.9244618679019998,-0.91091630612187746
-0.51575938231225393,0.49116008375282116,0.93206256110863217,-0.051974495538786414,-0.61105683143340017,-0.20579768591559655,0.060776514193399356,-0.45898865187491333,-0.37658149730405133,-0.24615657431808158,-0.063933921752737488,-0.7025283278607084,0.81484672462217,0.42005548522622349,0.44070724603935352,-0.55926996643722693,0.67874957637555822,0.072613817597137142,0.4542770409374115,0.62080694722000307,-0.7207401857609832,0.87303629127131166,0.49310999471053862,-0.21468066142832676,-0.22087980194699219,-0.62670724083677309
