0.70495945065737065,-0.34375014861754694,-0.43601405835300633,-0.24089168496001423,-0.58943806601843063,0.029853233598153173,0.69520017359548514,0.83794240243810059,-0.52853145929559475,0.10486895073263924,0.23644208087041929,0.29434120613731252,-0.78460706149336512,-0.56257790314848322,-0.95804224284749151,0.54677213106650635,-0.96930704366628206,0.30971345124069627,0.12671616875731662,-0.52803424115428621,-0.59186317100827002,0.99735696842548771,-0.55826998081019452,0.039519556415302803,-0.25774507860332996,0.32668485564209893
0.51614141961147975,0.31607757406686821,-0.054431846091396618,-0.51428633828311399,0.23189107077313742,0.85571673456162523,0.64453402932101134,-0.41230263058100269,0.87303073560636801,0.78233315289517869,-0.87281596329763356,-0.6802037885753951,-0.57147517508030754,-0.44725828191792605,0.7158842915512944,0.75341211495429783,0.047255709692218817,0.67593427083701751,0.84947822506604065,-0.22195849898150843,-0.18454573189884949,0.49107098887423417,0.22387270199299225,-0.83220912224980292,0.94518631316751156,-0.068851351304999975
-0.53455863540532289,0.77928321807937784,-0.2971573404966672,-0.63946963391543354,0.56701048912547236,0.24689827209506099,-0.66129740162836725,-0.56356706249111732,0.7304345838236872,-0.61027374179033478,0.026861189617940928,0.30634894829009363,-0.92469159230587783,-0.16964394765095814,-0.28486174755769667,-0.47567126329640419,-0.4651486963223268,-0.69867641680183534,0.69646457071561274,-0.88816045097676377,0.29323061404973494,-0.97419468990968694,-0.51855100845807267,-0.014224668678752161,-0.43267698377690489,-0.020534542741073025
0.72919104643412913,0.77956558366601758,0.12283079279494635,-0.12522369346030504,-0.10388110218923563,-0.5131834156435755,0.39038482269373231,0.23223376486404135,-0.41989965154559417,0.82245805644116143,0.93232801525310749,0.021636474368331271,-0.162578109753863,-0.071026780558663738,-0.26685942279412145,0.26112992235464438,-0.48483789893763984,-0.26820308931737635,0.1626298404507498,-0.032583371482663104,-0.0047459432260490431,-0.43033129815413962,0.52103145078193047,0.030162454826835106,0.34495590954762423,-0.53860954209075751
