-0.16881219550451321,-0.86550528752181588,0.33812736959619238,-0.81787660363228176,0.72347369105860837,0.66362573329246821,-0.67179556129308438,0.97897729593104921,0.58092695187719401,0.96876580106928034,-0.74809393179108441,-0.346583768727319,-0.050053804406204883,0.27836576512113664,-0.0488693486615146,-0.31465305902586582,0.52690831195066123,-0.56694057128552311,0.37879167214541409,0.17962145608181301,-0.55172878931652369,0.68406845975767272,0.03059385730088926,0.62197667067948559,-0.16685276912015956,0.48906569248459442
-0.3747388229506714,0.31199558501692715,-0.44382229884141466,-0.99659254617512461,-0.29801524790803224,-0.8230856574065355,0.8943675997145184,-0.38958750720210777,-0.35172215975727572,0.16919592088168933,-0.94316316004149825,-0.54519013389630144,-0.91827718523551605,-0.86722930151823885,-0.78888977161336271,0.049667786203488884,-0.69487780442321534,0.49621404155504978,-0.90148059960608751,-0.059599358849254047,0.74057200697535319,-0.45757898334807501,-0.54644961857565821,-0.50407412649531436,0.9594373351338501,0.99448717874613402
-0.12433395347868981,0.77893354253175118,-0.60057903335513751,0.48189334034368914,0.37273214163022139,-0.352999645714414,-0.066189022233590578,0.73744304516816994,0.53430080342121622,-0.85304335048166413,-0.97949233565299254,0.17735312020621641,-0.2783795940588154,0.387923306290475,0.44763585067699263,0.20073006802806725,-0.80445466142896183,-0.91221805501533537,-0.86812029975979432,0.12462129121543852,0.028266926786249202,-0.6986604616136145,0.66871755080627748,-0.10426229633723949,0.67531468190323163,0.49169888698390807
-0.40592547466795392,-0.43077613478766819,-0.038746313224279794,-0.95474928219790378,0.74706351987007924,-0.42259986190950571,0.56339862312525879,-0.9362109654154207,0.30698884376427782,-0.64466681712373886,0.87953370962396393,-0.97174912552143078,0.62974361414281943,-0.92095905276303203,-0.65694980631883526,-0.24594853636474223,-0.55365129597850649,0.40600479946252488,0.13373731073151918,0.032125033815058712,-0.74022075475984228,0.67664955204501109,-0.75809633897562789,0.80672954454826651,0.45936155523283984,-0.54892615743960671
