0.68587801986555896,0.85093523496961132,0.30983064660645532,0.37423220876905416,0.87735352468778727,-0.82513684755116201,-0.64316976318931252,0.35952182604195104,-0.68150041593966648,0.24283580380874903,0.51403646860806074,0.5514433169636439,-0.50423454920786615,0.94458719392921608,-0.22858540896416768,0.50690037219053963,0.31627878932302012,0.86353390803707364,0.10928485757071549,-0.23779764543176807,-0.91756280462653206,-0.33166421445986671,-0.21233380804589408,-0.64829727843419738,-0.72084199410378869,0.71822630699761114
0.63693741715193686,0.35238198895392103,-0.40738266454618866,0.012539435170853652,-0.677331837121806,0.65122890331055094,-0.53186611512310855,0.12605460850835715,0.77981211322663757,0.51100641846725603,0.26897766784940469,0.30500487895986206,0.34931892201486048,0.30704515838835933,-0.80209405715370674,0.64292233417140032,-0.80698033794218249,0.21017449496100804,0.62452892755867806,0.43843992904275386,0.41834577947247165,-0.39150968351129656,-0.039961784701194158,0.073160018370116653,0.16693162274624029,0.0153123001957709
-0.70007106699333232,0.38248633373152896,0.21368929786435698,-0.49042702528823301,-0.78215422408865232,0.1327711257362576,-0.82850651133689412,-0.54393988436796503,0.15928348760957767,0.80245694206613338,-0.62328237978518319,-0.78043276719634536,-0.24632472037517283,0.38670083407564682,-0.58002243357787076,0.95722891869081028,0.14362056950247526,0.30230885161533405,-0.16367800617235395,0.96428135905252921,0.82195156347678111,-0.97418564445686617,0.89250238136919302,0.024168083427992704,-0.20104307696843904,0.33910661186448121
0.45845395680900936,0.84741394840102058,-0.31251767463181301,-0.17045451935641398,-0.89834585155763902,-0.28369656768113183,-0.1031513828092292,0.39148961621454115,0.61197903908246332,0.73677996015935787,-0.93685945259255754,0.069767203866696992,-0.38453502927077077,-0.59346612512189156,0.2263343894464156,-0.25037030927854809,0.66312984979592859,0.36209046217277563,0.79656063451273984,0.0011200219912466114,0.90095450233740371,0.079495781660351872,-0.66807689907392453,0.85403360179767329,0.8430420666791727,-0.47417645027029498
