0.29144192738773,0.45795293643724522,0.61278739632512336,0.20512773774280091,0.76447330669150637,0.68613858362710944,-0.59603102927437468,-0.66955600087542355,0.2216235035085139,-0.69509330637608469,-0.085442164820930255,0.19595779734470464,0.96868769289758005,0.63378614709818648,0.98796315290758185,-0.31184982670254247,-0.99050563099743449,-0.5446156857618949,0.62466797369632476,-0.31298910037246408,0.56375811081748695,-0.65804649559792527,0.23836734385021097,-0.74632768240981173,-0.62332375292492714,0.52549728513550731
-0.23824477979310332,0.30200237935011032,0.38952025277533742,-0.76620947301190601,0.91612172262632785,-0.91968140635267748,0.46548809695003346,0.49083619268554668,-0.42273153432736632,-0.99386971216814568,0.05729550729990418,-0.88137726411548867,-0.29795060650000216,-0.46965122725439445,-0.49885318499464226,0.1206094594893834,0.38494122322617286,0.028251405488088022,-0.18334307837057207,-0.15143199056382906,0.74382506585826746,0.27683155967135309,-0.019855128963452984,0.70823550583473738,0.065874438452125261,-0.31376465853485458
-0.051275240076215978,0.21043353373435725,-0.58931137297295488,-0.7132196535635813,-0.56614330663546353,-0.32153535041286618,-0.51604435947997618,-0.7707810581846577,0.1625819847611647,0.34840211983822034,0.79769653824943898,-0.52904645929776373,-0.46522435259548289,0.68664752909949645,-0.16101802061522852,-0.22901675406234556,-0.27626883497500421,-0.34673665701148448,0.94579152297887492,-0.088022163316706648,0.57183968579538003,0.49169478717231763,-0.62114040085137412,-0.84346550853656499,-0.10472044037140238,-0.085259728098558307
0.38597202804079056,0.99880831320724073,0.48270938847682365,-0.4896530604215541,-0.37762963371029623,0.284784874768093,0.90243884225134141,-0.018328077246125396,-0.24403850284307183,-0.26148938890290907,0.074699126548002814,-0.47065827758536605,0.10078159244074203,-0.53394609341937449,0.079834506238824599,-0.75621448443201955,-0.42340927575724852,0.29595440806278228,-0.99144800575569358,-0.94653898766546196,0.2942050193234742,0.51663212494068889,-0.19770458786174405,0.32589113921868584,0.27648888236686209,0.095919729019426914
