0.29144192738773,-0.32095950072437707,0.050970160605587012,-0.6203930717212478,-0.25545225215391376,0.68613858362710944,0.67051594318915608,-0.69618145331260584,0.2216235035085139,-0.69509330637608469,-0.085442164820930255,0.19595779734470464,0.035334959422196999,0.36225654795055839,0.81486781206440262,0.093585333742356447,-0.99050563099743449,0.5865556642212284,-0.023094638721388172,0.025247778907766083,0.56375811081748695,-0.29673549635076424,0.23836734385021097,-0.74632768240981173,-0.34153908344749695,-0.60356918971819251
-0.23824477979310332,0.29241113542708885,0.38952025277533742,-0.76620947301190601,0.89905733152805078,-0.5369139939748595,0.46548809695003346,-0.57796455214109788,-0.42273153432736632,-0.99386971216814568,0.05729550729990418,-0.88137726411548867,-0.24862951479792983,-0.46965122725439445,-0.49885318499464226,0.1206094594893834,-0.42986599616582777,0.58215119603637411,0.022562808469946516,-0.15143199056382906,0.74382506585826746,0.27683155967135309,-0.019855128963452984,-0.67350468467205582,0.91923665139971411,0.89655960474313967
-0.032571290713625745,-0.3419313559853272,-0.58931137297295488,-0.078961900013560404,-0.56614330663546353,-0.32153535041286618,0.28583477188436923,-0.89661997778394498,0.15722456235094473,-0.38353783910892059,-0.2471264720253632,-0.52904645929776373,-0.56987795104125971,-0.21948357002104135,-0.16101802061522852,-0.22901675406234556,-0.27626883497500421,-0.15771103707108569,-0.58048210592985994,-0.088022163316706648,0.57183968579538003,-0.222285545823665,-0.62114040085137412,0.3987170228186816,-0.10472044037140238,-0.085259728098558307
0.38597202804079056,0.99880831320724073,0.35550751837728489,-0.4896530604215541,-0.37762963371029623,0.284784874768093,-0.52005720472159722,-0.018328077246125396,-0.082871322172186401,-0.089664651045775035,0.79611569582160602,-0.79680559123387651,-0.66282205438852371,-0.55396440803759561,0.70086521874905228,-0.36644119422690746,-0.99678148328332439,-0.12967906435631282,-0.99144800575569358,-0.94653898766546196,0.2942050193234742,0.51663212494068889,-0.19770458786174405,0.32589113921868584,0.85253052468005386,0.095919729019426914
