0.29144192738773,-0.10459716349972314,0.050970160605587012,-0.44961475495872394,0.32442186823962427,0.68613858362710944,-0.59603102927437468,-0.69618145331260584,0.2216235035085139,-0.69509330637608469,-0.085442164820930255,-0.52225431192300786,0.035334959422196999,0.36225654795055839,0.81486781206440262,-0.91372851732617821,-0.45490471733747118,0.5865556642212284,0.93847583703783122,0.025247778907766083,0.56375811081748695,-0.29673549635076424,-0.57434454112843114,-0.74632768240981173,-0.34153908344749695,0.52549728513550731
-0.23824477979310332,0.29241113542708885,0.38952025277533742,-0.76620947301190601,0.77559521091440042,-0.32386444842482898,0.058972047024037799,0.041552648821862714,-0.42273153432736632,-0.99386971216814568,0.05729550729990418,-0.88137726411548867,-0.24862951479792983,-0.46965122725439445,-0.49885318499464226,0.1206094594893834,0.38494122322617286,0.58215119603637411,0.84838225596998407,-0.15143199056382906,0.74382506585826746,0.27683155967135309,-0.019855128963452984,0.70823550583473738,0.69272592914112918,-0.31376465853485458
-0.53669094950676755,-0.3419313559853272,-0.58931137297295488,-0.7132196535635813,-0.56614330663546353,-0.32153535041286618,0.28583477188436923,-0.073566905089828216,0.82050001625423907,-0.38353783910892059,-0.2471264720253632,-0.52904645929776373,-0.56987795104125971,0.27748099634620282,-0.16101802061522852,-0.22901675406234556,-0.27626883497500421,-0.34673665701148448,-0.29684671174411781,-0.088022163316706648,0.57183968579538003,-0.222285545823665,-0.62114040085137412,0.22451583970045119,-0.10472044037140238,-0.95858988125480504
-0.4376487438027723,0.99880831320724073,0.48270938847682365,-0.4896530604215541,-0.37762963371029623,-0.93613048869966042,0.78561198784997499,-0.46354759432359161,0.74880013969230608,0.69968547964608296,0.79611569582160602,-0.47065827758536605,0.48005655083521126,-0.53394609341937449,0.079834506238824599,-0.36644119422690746,0.25070343873230505,0.37017959887639496,-0.99144800575569358,0.12884453238152171,0.35594620648540287,0.65938124351618743,-0.19770458786174405,0.32589113921868584,0.78428313269554395,0.095919729019426914
