0.29144192738773,-0.9587183664742267,0.050970160605587012,-0.75228465264480482,-0.75299839997792395,0.68613858362710944,-0.59603102927437468,-0.69618145331260584,0.2216235035085139,-0.69509330637608469,-0.085442164820930255,0.19595779734470464,0.035334959422196999,0.36225654795055839,0.81486781206440262,0.093585333742356447,-0.99050563099743449,0.5865556642212284,0.93847583703783122,0.025247778907766083,-0.54851016837897637,-0.29673549635076424,0.23836734385021097,-0.74632768240981173,-0.34153908344749695,0.5891250076648793
-0.79666391833467243,0.29241113542708885,0.38952025277533742,-0.76620947301190601,0.77559521091440042,0.46530541640847223,0.46548809695003346,-0.77761992796096968,-0.42273153432736632,-0.99386971216814568,0.05729550729990418,-0.88137726411548867,-0.24862951479792983,-0.46965122725439445,-0.49885318499464226,-0.408331517788036,0.38494122322617286,0.58215119603637411,-0.18334307837057207,-0.15143199056382906,0.74382506585826746,0.27683155967135309,-0.019855128963452984,0.70823550583473738,0.69272592914112918,-0.31376465853485458
-0.14051908295644466,-0.3419313559853272,-0.58931137297295488,-0.7132196535635813,-0.56614330663546353,-0.32153535041286618,-0.2889580750698848,0.47632821309873519,0.15722456235094473,0.32926230993512018,-0.2471264720253632,0.74169510011168227,-0.11660307383033763,0.68664752909949645,-0.16101802061522852,0.41756301029711862,-0.27626883497500421,-0.34673665701148448,0.94579152297887492,-0.088022163316706648,-0.88670571958173539,-0.222285545823665,-0.62114040085137412,0.19549126532659256,-0.10472044037140238,-0.085259728098558307
0.38597202804079056,0.99880831320724073,-0.51829716373397483,-0.47652643241636183,-0.37762963371029623,-0.71190707088348093,0.90243884225134141,-0.018328077246125396,0.64347653791940584,-0.089664651045775035,0.79611569582160602,-0.59015096178904747,-0.66282205438852371,-0.53394609341937449,0.079834506238824599,-0.36644119422690746,0.25070343873230505,-0.12967906435631282,-0.99144800575569358,-0.94653898766546196,0.2942050193234742,0.51663212494068889,-0.19770458786174405,0.32589113921868584,0.85253052468005386,0.6974298347340806
