0.29144192738773,-0.49516149214769811,0.050970160605587012,-0.15967960291364869,0.32442186823962427,0.38966597258215097,-0.58373501485359469,-0.69618145331260584,-0.41691311440880585,-0.69509330637608469,-0.085442164820930255,-0.85611996238197907,0.035334959422196999,0.36225654795055839,-0.9610541017106744,-0.38655112214865794,0.25243948700171615,-0.16940260119651507,0.93847583703783122,0.9686843354587189,0.56375811081748695,-0.29673549635076424,0.23836734385021097,0.75981668193830942,-0.34153908344749695,0.52549728513550731
-0.23824477979310332,0.21025488651466007,0.38952025277533742,0.27849944650467351,-0.18433536940550765,-0.059488042887007486,0.021576588863378321,0.49083619268554668,-0.42273153432736632,-0.99386971216814568,-0.26110228332907903,-0.88137726411548867,0.94739340525320048,-0.46965122725439445,-0.3976973890330846,0.1206094594893834,0.38494122322617286,0.58215119603637411,-0.18334307837057207,0.37360218538234702,0.74382506585826746,-0.8288821387007872,-0.019855128963452984,0.70823550583473738,0.55469397902021322,-0.31376465853485458
-0.032571290713625745,0.18808431501015588,-0.58931137297295488,-0.7132196535635813,-0.56614330663546353,-0.32153535041286618,-0.98793136986861252,-0.7707810581846577,0.15722456235094473,-0.96374364955810354,0.6874736641567849,0.48752275214708951,-0.56987795104125971,-0.7878779285075086,-0.55588987060060235,-0.22901675406234556,-0.27626883497500421,0.30094376227679764,0.94579152297887492,-0.088022163316706648,-0.13734205047203796,-0.99037564547283563,0.79877325629223472,0.3987170228186816,-0.10472044037140238,-0.085259728098558307
0.38597202804079056,0.99880831320724073,0.48270938847682365,-0.4896530604215541,-0.37762963371029623,-0.081082958254193427,0.90243884225134141,-0.018328077246125396,0.85348066334609718,-0.089664651045775035,0.11596242773830823,-0.47065827758536605,-0.74294283142918283,0.096117521373913384,0.079834506238824599,-0.11270291902693419,0.25070343873230505,-0.12967906435631282,0.51429116204777925,-0.94653898766546196,0.2942050193234742,0.51663212494068889,-0.96702472119209748,0.84448287747715622,0.85253052468005386,-0.68453519473414715
