-0.32676611785160747,-0.49516149214769811,0.061130595151357214,-0.15967960291364869,0.32442186823962427,0.38966597258215097,0.17348346496520328,-0.69618145331260584,-0.41691311440880585,-0.69509330637608469,-0.085442164820930255,-0.85611996238197907,0.035334959422196999,0.36225654795055839,-0.9610541017106744,0.093585333742356447,-0.99050563099743449,-0.16940260119651507,0.040298494772562421,0.9686843354587189,0.56375811081748695,-0.15482870573525198,0.23836734385021097,-0.74632768240981173,-0.12167879171798113,0.52549728513550731
-0.23824477979310332,-0.82393118356816464,0.38952025277533742,0.73726890803485845,-0.17536563987249942,-0.059488042887007486,0.46548809695003346,0.49083619268554668,-0.42273153432736632,-0.99386971216814568,0.75066211045143283,-0.88137726411548867,-0.77409569254061616,-0.46965122725439445,-0.49885318499464226,0.1206094594893834,0.38494122322617286,0.58215119603637411,-0.18334307837057207,0.37360218538234702,0.74382506585826746,0.27683155967135309,-0.019855128963452984,0.70823550583473738,0.69272592914112918,-0.31376465853485458
-0.26638382459837118,0.18808431501015588,-0.58931137297295488,-0.7132196535635813,-0.56614330663546353,0.8446596385516143,-0.36218135446902355,-0.7707810581846577,0.15722456235094473,-0.96374364955810354,-0.2471264720253632,-0.40326196164797379,-0.56987795104125971,0.68664752909949645,-0.16101802061522852,-0.22901675406234556,-0.27626883497500421,-0.34673665701148448,0.97763093074131713,-0.088022163316706648,0.57183968579538003,0.87669034736658724,0.79877325629223472,0.3987170228186816,-0.10472044037140238,-0.085259728098558307
0.38597202804079056,0.99880831320724073,0.48270938847682365,-0.4896530604215541,-0.37762963371029623,0.284784874768093,0.90243884225134141,-0.018328077246125396,0.056842004222276143,-0.089664651045775035,0.11596242773830823,0.17412648378513751,-0.95658984422415139,-0.44423335098906147,0.079834506238824599,0.27127115461672835,-0.028559741270026695,-0.12967906435631282,0.88802602649888951,-0.94653898766546196,0.2942050193234742,-0.76120579523053089,-0.96702472119209748,0.84448287747715622,0.85253052468005386,0.095919729019426914
