0.29144192738773,0.79242149453575039,0.050970160605587012,-0.47538695146859755,0.32442186823962427,0.38966597258215097,-0.58373501485359469,-0.69618145331260584,0.95226168434226488,-0.50799015104508172,-0.085442164820930255,-0.85611996238197907,0.035334959422196999,0.36225654795055839,0.03986311674084253,-0.86921809071553202,-0.87864288883099295,-0.16940260119651507,0.93847583703783122,0.10418908686953987,0.56375811081748695,-0.73880774169339625,0.23836734385021097,-0.74632768240981173,-0.34153908344749695,-0.95663996267915974
-0.23824477979310332,-0.82393118356816464,0.38952025277533742,0.56938867406390248,0.77559521091440042,-0.059488042887007486,0.6001831470710326,0.49083619268554668,-0.42273153432736632,-0.99386971216814568,-0.26110228332907903,-0.88137726411548867,-0.24862951479792983,-0.76880997713247279,-0.59062692433502106,0.1206094594893834,0.38494122322617286,0.0099284685512799342,-0.18334307837057207,0.37360218538234702,0.74382506585826746,0.33763771740634363,-0.019855128963452984,0.70823550583473738,0.45358190860401293,-0.31376465853485458
-0.032571290713625745,0.18808431501015588,-0.21473229486935375,-0.7132196535635813,-0.56614330663546353,-0.76691017706936249,0.71314733541621855,-0.7707810581846577,0.15722456235094473,-0.96374364955810354,-0.2471264720253632,0.48752275214708951,-0.56987795104125971,0.68664752909949645,-0.16101802061522852,-0.95748767879555041,-0.59948326535492935,-0.19602266564075155,-0.29382114997680775,-0.088022163316706648,0.57183968579538003,0.87669034736658724,-0.46308485874712169,0.3987170228186816,-0.10472044037140238,-0.085259728098558307
0.38597202804079056,0.99880831320724073,0.046139055283994423,-0.4896530604215541,-0.37762963371029623,0.284784874768093,0.68420567937916976,-0.018328077246125396,0.85348066334609718,-0.93449149196744874,0.11596242773830823,-0.24528612391239224,0.55585707036986176,-0.69190780907212934,0.079834506238824599,0.27127115461672835,0.25070343873230505,-0.12967906435631282,-0.051707819034954694,-0.94653898766546196,0.2942050193234742,0.51663212494068889,-0.099632647190645462,0.5682306377821098,0.48056664797753101,0.095919729019426914
