-0.25282237357402804,-0.49516149214769811,0.050970160605587012,-0.29206285338411697,-0.5485010868763367,0.38966597258215097,-0.58373501485359469,-0.69618145331260584,-0.65893928292686565,-0.69509330637608469,-0.41765429665199671,-0.58464981812620964,-0.025404072700951463,0.36225654795055839,-0.16481625710582581,0.093585333742356447,0.66752457199955195,-0.82574532079346952,0.39108723659124611,0.87241819019137767,0.60615592651369354,-0.29673549635076424,0.89794940216228225,0.24397091698529749,-0.34153908344749695,0.52549728513550731
-0.23824477979310332,-0.82393118356816464,-0.86235707797766858,0.56938867406390248,0.77559521091440042,-0.059488042887007486,0.84825287403464467,0.49083619268554668,-0.98166526292206968,-0.99386971216814568,-0.26110228332907903,-0.88137726411548867,-0.24862951479792983,-0.46965122725439445,0.98432951744741981,0.10190840386829403,0.38494122322617286,0.58215119603637411,-0.18334307837057207,0.37360218538234702,0.48608999351137894,0.27683155967135309,0.40421787715391821,0.70823550583473738,0.81599816341002795,-0.720042266507537
-0.032571290713625745,0.22767164726788791,-0.58931137297295488,-0.7132196535635813,0.072988892423476059,-0.32153535041286618,-0.97911013553690673,-0.7707810581846577,-0.68430435365109599,0.090639528611520692,-0.2471264720253632,0.48752275214708951,0.4910342016926339,0.20591704839164593,-0.73323477711471208,0.84684340234559485,-0.27626883497500421,0.39676770801886518,0.94579152297887492,-0.52419699538726272,0.57183968579538003,0.87669034736658724,0.79877325629223472,-0.97419557300294857,-0.10472044037140238,-0.085259728098558307
-0.57270902847526139,0.560819945148604,0.48270938847682365,-0.59261406376064718,-0.47414886957974578,-0.12126491604671963,0.90243884225134141,-0.018328077246125396,0.85348066334609718,0.78064490484465554,0.11596242773830823,0.89433566546048704,-0.59813195633512839,-0.4875359571254827,0.72122828455921262,0.27127115461672835,0.25070343873230505,-0.12967906435631282,-0.99144800575569358,-0.59345075915347012,0.2942050193234742,-0.81984757090859595,-0.96702472119209748,0.84448287747715622,-0.64332070083601889,0.095919729019426914
