-0.76974706854491348,-0.49516149214769811,0.050970160605587012,-0.29206285338411697,0.32442186823962427,0.38966597258215097,-0.58373501485359469,-0.69618145331260584,0.5357294572552187,-0.69509330637608469,-0.033926474277588659,-0.58464981812620964,0.58285066829321197,-0.88432870691251741,-0.9610541017106744,-0.17358835611306311,0.66752457199955195,0.28183092906430685,0.39108723659124611,-0.8431241581717821,0.45058207773102121,-0.29673549635076424,-0.3624185828430222,0.24397091698529749,-0.34153908344749695,0.52549728513550731
0.91124516918938991,-0.82393118356816464,0.38952025277533742,0.56938867406390248,0.9018381924896588,-0.059488042887007486,-0.86727237576172644,0.49083619268554668,-0.36172320243949896,-0.99386971216814568,-0.13436816840095211,-0.81354773570544303,-0.24862951479792983,-0.46965122725439445,-0.49885318499464226,0.10190840386829403,0.38494122322617286,0.58215119603637411,0.32525954422304704,0.37360218538234702,0.48608999351137894,0.27683155967135309,-0.019855128963452984,0.70823550583473738,0.69272592914112918,-0.26468353958753399
-0.032571290713625745,-0.23123497697947126,-0.58931137297295488,-0.7132196535635813,0.13656198976955269,0.82589972627322994,0.53831294547534347,0.47939005673726021,-0.68430435365109599,0.090639528611520692,-0.2471264720253632,0.48752275214708951,0.4910342016926339,0.68664752909949645,0.069954341217970839,0.84684340234559485,-0.27626883497500421,0.39676770801886518,0.37399943385436862,-0.52419699538726272,0.57183968579538003,0.46384573858962885,0.39475471789493422,-0.97419557300294857,0.67290546492729719,-0.085259728098558307
-0.15886221764788111,0.99880831320724073,0.48270938847682365,-0.4896530604215541,-0.33012243671451458,-0.12126491604671963,0.90243884225134141,-0.018328077246125396,0.85348066334609718,0.53779966592380135,0.11596242773830823,-0.47065827758536605,0.55585707036986176,-0.4875359571254827,0.079834506238824599,0.27127115461672835,0.25070343873230505,-0.12967906435631282,-0.99144800575569358,-0.59345075915347012,-0.7088300534009826,-0.81984757090859595,-0.79408810743286429,0.84448287747715622,-0.64332070083601889,0.095919729019426914
