0.26837027191796214,0.19586219169708707,0.88981511646626665,-0.72260969204736991,-0.53898314178085993,0.38099076103294238,0.87869642797528646,-0.43834749594102229,-0.50026285730587206,0.046334526745480886,0.065729605119706269,-0.0010931025904523661,0.27742147864650235,0.1371625061788242,0.83437754686867205,-0.28459323099267442,0.73091645737247268,0.63843511683779286,-0.12433379615411577,-0.17710329369852396,0.60581354070884741,-0.96711628769122271,0.023947510347849255,0.60208341435381985,-0.8672310958539664,0.73553392095418046
-0.86773092359900539,0.66321258325158627,-0.2213439721249757,-0.45692674038793024,0.61625092591150943,-0.40776666054715371,0.3001351757974553,0.49742341362378273,0.51116365323514312,0.57818240176023172,-0.90592684082750496,-0.12414782706355965,-0.15306452777315482,0.78150172952188579,0.2184764950745639,-0.21651710254739931,-0.57144091255538654,0.77924786331208673,-0.66543876092233578,0.63643419770251275,0.030453835514982819,-0.094594426599548198,0.53137405118712944,0.56412394335826033,-0.17924514872659847,0.93841509497705311
0.49314466870406259,0.92858551763314123,-0.71744279196604355,-0.026556561083503905,0.18138668558867588,-0.03555636832289033,0.98940585356933752,-0.13283459761239991,0.18101505509446247,0.12025103963656059,0.24896766005129689,0.64322452570363486,-0.56452937161153049,0.24759419097405488,0.35920254182881206,0.94520006262069911,0.014036740800557945,0.38354946613923802,-0.82425408720899229,-0.35740827803353259,0.34839796090105146,0.24562415386390168,0.056090813164326514,0.24089505729358573,-0.47299108014298485,-0.38121546755273772
0.71797601141663958,-0.99111765893691461,-0.93664350844337241,0.64812684377475582,-0.82013398373768442,-0.48517843946614425,-0.80933351533122178,0.8004134262865461,-0.28357072407707884,-0.63234364081894534,0.39129818744040801,0.66679545626396064,0.16963647030270845,-0.69332959499164359,-0.29615161435176951,-0.83530924016285635,0.21990554101117943,-0.44306413213785967,-0.016837551087266922,0.17103000160205029,-0.14055710654882314,0.11608506877527502,0.30106628715776473,0.75846803030676258,-0.98328081301337633,-0.30779143394101194
