-0.17090540069934068,0.044241207604277522,0.050970160605587012,-0.29206285338411697,-0.64844614812995616,0.38966597258215097,0.27224662759171525,-0.050748813465207432,-0.99790383444612241,-0.60711034092807692,0.12392596740557149,-0.58464981812620964,0.72443377416317101,-0.52611207168101926,0.53909365323964198,-0.17358835611306311,-0.45474500866397038,0.67466001942656351,0.39108723659124611,-0.8431241581717821,-0.33670196051896362,-0.29673549635076424,0.87894022283565199,-0.1815405480205079,-0.34153908344749695,0.52549728513550731
0.91124516918938991,-0.82393118356816464,0.38952025277533742,0.56938867406390248,0.9018381924896588,-0.059488042887007486,0.80641922928415211,0.29368189788171506,-0.36172320243949896,-0.99386971216814568,0.3758268060489931,-0.81354773570544303,-0.24862951479792983,-0.31520745254965221,-0.49885318499464226,0.10190840386829403,0.38494122322617286,0.79365817618698054,-0.51534956480327887,0.37360218538234702,0.29176122982817021,0.27683155967135309,-0.019855128963452984,0.70823550583473738,0.69272592914112918,0.58359701590504831
0.0037716875192363997,-0.23123497697947126,-0.58931137297295488,-0.7132196535635813,0.13656198976955269,0.82589972627322994,0.53831294547534347,0.5907757358002228,-0.68430435365109599,0.29842431986327012,-0.34283908547446873,0.48752275214708951,0.4910342016926339,0.070545010859738744,0.069954341217970839,-0.0051324082258663584,-0.27626883497500421,0.82397483201174082,0.12024190894932119,-0.52419699538726272,0.9773682998575195,0.46384573858962885,0.39475471789493422,-0.97419557300294857,-0.7472417697688154,-0.085259728098558307
-0.90423992402202868,-0.46027835432187536,-0.78125615836353557,0.87216150212416754,-0.021968130820592124,0.73898671943445948,-0.47834357089143165,-0.96556994850617106,0.85348066334609718,0.53779966592380135,0.11596242773830823,0.23921917823567207,0.88882181900538915,-0.4875359571254827,-0.53410806590308502,0.27127115461672835,0.25070343873230505,-0.12967906435631282,-0.99144800575569358,0.45406597568044105,0.53202221865426602,-0.81984757090859595,-0.91178152146833513,-0.090507696700945051,-0.64332070083601889,-0.14313338488674221
