-0.3291654492467293,0.044241207604277522,0.050970160605587012,-0.29206285338411697,-0.64844614812995616,0.38966597258215097,0.27224662759171525,-0.69618145331260584,-0.23658138125702166,0.48510286676743908,-0.033926474277588659,-0.58464981812620964,-0.76043623678701877,-0.88432870691251741,0.053427324003187948,-0.17358835611306311,-0.45474500866397038,0.67466001942656351,0.42985532529639592,-0.8431241581717821,0.67897747627383453,-0.049142392151751757,0.07685837011667318,0.24397091698529749,-0.34153908344749695,0.52549728513550731
0.91124516918938991,-0.82393118356816464,0.16904932560842889,0.56938867406390248,-0.33859012095004326,-0.059488042887007486,-0.86727237576172644,0.29368189788171506,-0.36172320243949896,-0.99386971216814568,0.25794716187275002,0.13748698386886371,-0.699804425524297,-0.31520745254965221,-0.49885318499464226,0.55027965776901255,0.76660381974449487,0.55433813210057448,-0.24607538609672752,0.37360218538234702,0.48608999351137894,0.27683155967135309,-0.019855128963452984,0.70823550583473738,0.69272592914112918,-0.26468353958753399
0.55782278411287045,-0.23123497697947126,0.78298131730143261,-0.7132196535635813,0.13656198976955269,-0.043673099883301925,0.53831294547534347,0.72955997294772157,-0.58719682572510234,0.090639528611520692,-0.2471264720253632,0.48752275214708951,0.4910342016926339,0.68664752909949645,0.069954341217970839,-0.0051324082258663584,-0.27626883497500421,0.39676770801886518,-0.49570439061574167,0.049142886109035278,0.9773682998575195,0.46384573858962885,0.39475471789493422,-0.97419557300294857,0.67290546492729719,-0.06216293953399199
-0.90423992402202868,-0.97888093970699042,-0.012691326929348712,0.87216150212416754,-0.30790897000116146,-0.12126491604671963,-0.7713808601949117,-0.018328077246125396,0.85348066334609718,0.53779966592380135,0.11596242773830823,0.23921917823567207,0.55585707036986176,-0.4875359571254827,0.24341081795893071,-0.46894568591718699,0.25070343873230505,-0.90095301788624571,-0.45988389705765775,-0.046619991190272936,0.53202221865426602,-0.81984757090859595,-0.53002804228306832,0.3754127058102501,0.69353018352454199,-0.14313338488674221
