-0.41163601575254427,-0.46615329316887366,-0.66855840292220092,0.43003612364391852,0.38957037497612701,0.94344259552946719,0.07874055421157089,0.40950343498381314,-0.99698217855833526,0.34354976359934764,-0.17312978104351284,-0.67128597110180088,0.23088512858460386,0.94902277363797971,0.29446775841034145,0.29089546532686028,-0.76323481030048956,0.064217630480194021,-0.72262302384321808,-0.073414666099161252,-0.55991337385353446,-0.044802663989246261,0.69992545176710519,-0.44485553187465654,-0.14639214451074856,-0.95441025445745198
-0.11664556698178896,0.55496098356889556,0.44899106926910726,0.41231016072202831,0.3860463502043634,-0.78279229313639953,0.90722757727682946,0.044082737974353803,-0.55149063807161536,0.67878211721927406,0.73628491412480912,-0.083761539084833858,-0.73196647029054773,-0.043742688380514982,-0.02030671347612456,0.83567057691697011,-0.65228419622448897,-0.87664727792790953,0.13102886880907949,-0.17826135191145975,0.98455445209629722,-0.68561374895939364,0.48028637538203678,-0.20543272369382293,-0.86397993230578973,-0.49949048131597551
0.44002039534609705,0.27506828310318188,0.27455268247936315,-0.43333412764468049,0.79587248811910905,0.38315985708659417,-0.58928086870054086,-0.71797334854371764,0.45770910445587898,0.23889652062909428,-0.25216416509942952,-0.78341852332993223,-0.59834870146066987,-0.96832047990456038,0.97270775384380403,-0.19522862930457507,0.79936137368811377,-0.25763122314819009,0.67751615410441679,0.84000701302012604,0.57424567760913536,-0.51496437245052062,-0.84307327911260188,-0.05662394312062724,-0.13585129860610246,-0.41199860455674719
-0.85686926297939547,-0.62772794369173002,0.16676317695833887,0.13656708092880954,0.80224496374694754,0.4179209395471235,0.61236993028783848,-0.13217468692334866,0.20096734314716991,-0.82762958979565671,0.33477433810050972,0.018671017264866308,-0.12876752851273476,-0.31063690336601457,-0.79308613944519468,-0.34838146741696008,-0.56186545561888979,-0.79535195481849219,-0.20347414069462499,-0.58028573778920056,-0.2251358611751324,-0.32377395134048892,0.61708977336807713,0.84258538147976214,0.3044989588736664,0.022994171227114224
