-0.62797142998757138,0.044241207604277522,0.050970160605587012,0.81568044449666055,-0.64844614812995616,0.38966597258215097,-0.45460417343380777,-0.38358939508283019,-0.99790383444612241,-0.60711034092807692,-0.033926474277588659,-0.6213090554487013,-0.51048402082790689,-0.52397382121905456,-0.36387015813613921,0.42449006503713749,-0.13123902480972127,-0.32468306080249731,0.39108723659124611,-0.74322761776707891,-0.80036412720606309,-0.29673549635076424,-0.44944016178326085,0.24397091698529749,-0.9975516060457752,0.52549728513550731
-0.056358292750733563,-0.40260114649429024,-0.66551810653695886,0.56938867406390248,-0.47844279109063415,-0.059488042887007486,0.96213742432906679,0.31613902927730986,-0.06171895815337014,0.79766137184796992,-0.054542042387059286,0.63515478565991046,0.35830989562106774,0.23105589596896992,-0.49885318499464226,-0.77908526618640939,-0.63780825133943364,0.55433813210057448,0.05165920054140094,-0.2310309875352714,0.48608999351137894,0.27683155967135309,-0.67832324790977139,0.70823550583473738,0.69272592914112918,-0.84405989137618986
0.0037716875192363997,-0.23123497697947126,0.35383310480527452,0.063105581877813233,0.13656198976955269,0.64935158329740816,0.53831294547534347,0.47939005673726021,-0.68430435365109599,-0.74083777713298526,0.74460528627481981,0.31432633773897778,-0.25467758732391732,-0.59928338012304305,-0.68746121506531055,0.78653503083360388,-0.27626883497500421,0.066674813682560341,-0.55349526705638663,-0.52419699538726272,0.9773682998575195,-0.7032578888799812,0.39475471789493422,0.050817101091332528,0.67290546492729719,0.3348512205162637
-0.44690883883186805,0.23808493363639927,0.89120459564006449,-0.19976574205647513,0.69869062705634688,-0.37344884960295688,-0.47834357089143165,0.055825031967186689,0.16607248591719426,0.6055971620563172,0.11596242773830823,-0.1909827459263207,-0.40947021908972925,-0.053853994535434602,-0.51663307537480407,0.64279498957883985,0.25070343873230505,0.4478644924821451,-0.99144800575569358,-0.046619991190272936,0.53202221865426602,-0.81984757090859595,-0.72853520305634167,-0.61900234278172306,0.55994063798341531,-0.14313338488674221
