0.40525113313855998,0.044241207604277522,0.050970160605587012,0.81568044449666055,-0.64844614812995616,0.38966597258215097,0.27224662759171525,-0.88773355950765387,0.34114535934979751,-0.60711034092807692,-0.033926474277588659,-0.6213090554487013,0.33738380195527884,-0.88432870691251741,-0.36387015813613921,0.42449006503713749,-0.13123902480972127,0.54652515357558973,0.39108723659124611,0.11138371162348593,-0.80036412720606309,-0.29673549635076424,0.88528782330616451,0.24397091698529749,-0.9975516060457752,0.52549728513550731
0.07837598974214588,-0.82393118356816464,-0.66551810653695886,0.56938867406390248,0.46782886368751253,-0.059488042887007486,-0.22943183396018796,0.31613902927730986,-0.06171895815337014,0.29254269419387868,-0.054542042387059286,0.63515478565991046,0.15321345650989704,-0.31520745254965221,0.22891503468686314,-0.77908526618640939,0.29292408448764617,0.55433813210057448,0.05165920054140094,-0.2310309875352714,0.48608999351137894,0.27683155967135309,-0.67832324790977139,0.70823550583473738,0.69272592914112918,0.82887729953764322
0.0037716875192363997,-0.5203983479054799,-0.081155473733803607,-0.7132196535635813,-0.54849079340100304,0.13551901998302363,0.53831294547534347,0.47939005673726021,-0.68430435365109599,-0.74083777713298526,0.74460528627481981,0.31432633773897778,-0.47342499909025126,-0.59928338012304305,0.069954341217970839,0.78653503083360388,-0.27626883497500421,0.066674813682560341,-0.55349526705638663,-0.52419699538726272,-0.25205237157296323,-0.7032578888799812,0.39475471789493422,-0.97419557300294857,0.67290546492729719,-0.18184461799669571
-0.44690883883186805,0.23808493363639927,-0.45001108501229914,-0.19976574205647513,0.75308610402933351,-0.37344884960295688,-0.47834357089143165,-0.018328077246125396,0.16607248591719426,0.6055971620563172,0.11596242773830823,-0.1909827459263207,0.076065441853661264,0.13339674250496891,-0.53410806590308502,-0.075768916999192415,-0.68105976775512289,-0.75311833450885413,0.81975220028042028,-0.046619991190272936,0.85485994646019203,0.20055874085541348,-0.91178152146833513,0.88296536876602305,-0.64332070083601889,-0.14313338488674221
