0.40525113313855998,0.044241207604277522,0.050970160605587012,-0.14559850720767509,0.65006558842321804,0.38966597258215097,0.78844689849272931,-0.88773355950765387,-0.99790383444612241,-0.60711034092807692,0.02519329018155414,-0.6213090554487013,0.071752965098945021,-0.88432870691251741,-0.36387015813613921,0.42449006503713749,-0.13123902480972127,0.59188985212815592,-0.8236839156615412,0.48610423663742175,-0.80036412720606309,-0.60703313228379963,0.41174209481801682,-0.56143156727317867,-0.9975516060457752,-0.6539832954057081
0.66632831296781059,-0.82393118356816464,-0.66551810653695886,0.56938867406390248,-0.70468660851055254,-0.059488042887007486,-0.22943183396018796,0.72121423594799516,0.47463606793611857,0.30189990100088471,-0.054542042387059286,0.63515478565991046,0.35830989562106774,0.014734333518154452,-0.49885318499464226,-0.77908526618640939,-0.63780825133943364,0.55433813210057448,0.05165920054140094,-0.2310309875352714,0.48608999351137894,0.27683155967135309,-0.67832324790977139,0.70823550583473738,0.69272592914112918,0.82887729953764322
0.0037716875192363997,-0.23123497697947126,0.35383310480527452,-0.7132196535635813,0.13656198976955269,0.64935158329740816,0.53831294547534347,0.47939005673726021,-0.68430435365109599,0.65053971081404782,0.74460528627481981,-0.81397099370002834,-0.47342499909025126,-0.59928338012304305,0.069954341217970839,0.78653503083360388,-0.27626883497500421,-0.73848794395459394,-0.55349526705638663,-0.52419699538726272,0.9773682998575195,-0.7032578888799812,0.39475471789493422,-0.97419557300294857,0.67290546492729719,0.3348512205162637
0.81340747855082962,0.23808493363639927,0.89120459564006449,-0.19976574205647513,0.75308610402933351,-0.37344884960295688,-0.47834357089143165,-0.018328077246125396,0.16607248591719426,0.6055971620563172,0.11596242773830823,-0.1909827459263207,-0.40947021908972925,0.13339674250496891,-0.53410806590308502,0.64279498957883985,0.25070343873230505,-0.68816587264632001,-0.99144800575569358,-0.046619991190272936,0.69451645085923097,-0.81984757090859595,-0.91178152146833513,-0.47092998736355551,-0.64332070083601889,-0.14313338488674221
