0.40525113313855998,0.044241207604277522,0.050970160605587012,0.32040151267527461,-0.64844614812995616,0.38966597258215097,0.27224662759171525,-0.88773355950765387,-0.99790383444612241,0.87732850721517597,-0.033926474277588659,0.13403013894160121,-0.51048402082790689,-0.88432870691251741,-0.36387015813613921,0.42449006503713749,-0.13123902480972127,-0.32468306080249731,0.39108723659124611,-0.74322761776707891,-0.37429560046637955,-0.29673549635076424,-0.44944016178326085,0.24397091698529749,-0.10851881965404031,-0.33502406448781641
0.66632831296781059,-0.82393118356816464,-0.66551810653695886,0.89647732294802585,-0.47844279109063415,-0.53523637408451896,-0.22943183396018796,0.6877830938986873,-0.06171895815337014,-0.9468331644334238,-0.7372959933800689,0.23088321159335878,0.35830989562106774,-0.31520745254965221,-0.49885318499464226,-0.77908526618640939,-0.63780825133943364,0.55433813210057448,0.05165920054140094,-0.2310309875352714,0.20096562775430127,0.27683155967135309,-0.67832324790977139,0.70823550583473738,-0.41758150082275658,0.82887729953764322
0.0037716875192363997,-0.23123497697947126,0.35383310480527452,0.25562723455694081,0.62589281920844853,0.64935158329740816,0.53831294547534347,0.47939005673726021,0.3785755088739009,-0.74083777713298526,0.74460528627481981,0.31432633773897778,-0.78687753195618693,-0.59928338012304305,0.069954341217970839,0.78653503083360388,-0.27626883497500421,0.52442399008839069,-0.55349526705638663,0.14834459577578762,0.9773682998575195,-0.7032578888799812,0.39475471789493422,-0.97419557300294857,0.67290546492729719,0.3348512205162637
-0.44690883883186805,0.23808493363639927,0.89120459564006449,-0.19976574205647513,0.75308610402933351,-0.37344884960295688,-0.47834357089143165,-0.018328077246125396,0.16607248591719426,0.30484452664670503,0.11596242773830823,-0.1909827459263207,0.57050726660540629,0.13339674250496891,-0.53410806590308502,0.64279498957883985,0.25070343873230505,-0.75311833450885413,-0.99144800575569358,-0.046619991190272936,0.53202221865426602,-0.81984757090859595,-0.91178152146833513,0.88296536876602305,-0.64332070083601889,-0.14313338488674221
