0.40525113313855998,0.044241207604277522,0.34465738222541176,0.81568044449666055,-0.64844614812995616,0.38966597258215097,0.27224662759171525,-0.55861939807524763,-0.99790383444612241,-0.60711034092807692,-0.033926474277588659,-0.6213090554487013,-0.51048402082790689,-0.88432870691251741,-0.95486200189671244,0.42449006503713749,-0.13123902480972127,-0.038754860775447764,0.39108723659124611,0.35723291039951088,-0.80036412720606309,-0.29673549635076424,-0.3036729751533902,0.24397091698529749,-0.9975516060457752,0.52549728513550731
0.66632831296781059,-0.82393118356816464,-0.66551810653695886,0.56938867406390248,-0.47844279109063415,-0.059488042887007486,-0.22943183396018796,0.77693713313973678,-0.06171895815337014,0.30189990100088471,-0.054542042387059286,0.63515478565991046,0.35830989562106774,-0.31520745254965221,-0.49885318499464226,-0.77908526618640939,-0.63780825133943364,0.55433813210057448,0.05165920054140094,0.29687552846181298,0.48608999351137894,-0.77480346516964937,-0.67832324790977139,0.70823550583473738,0.26634695068207836,0.60851577943923352
0.0037716875192363997,0.77532409928298462,0.35383310480527452,-0.7132196535635813,-0.16734621627416058,0.64935158329740816,-0.71096468491747289,0.47939005673726021,-0.68430435365109599,0.11700106053752868,0.74460528627481981,0.0029150070348222812,-0.80574687433269676,-0.26438079491820066,0.069954341217970839,0.78653503083360388,-0.27626883497500421,-0.54476959600292618,-0.55349526705638663,-0.52419699538726272,0.9773682998575195,0.41336911660609821,-0.28008662718416044,-0.97419557300294857,0.67290546492729719,0.3348512205162637
-0.44690883883186805,-0.12171133387170885,-0.68403318473950048,-0.19976574205647513,-0.10781363061674565,-0.37344884960295688,-0.47834357089143165,-0.018328077246125396,0.16607248591719426,0.6055971620563172,0.11596242773830823,-0.1909827459263207,-0.40947021908972925,0.13339674250496891,-0.53410806590308502,0.64279498957883985,0.25070343873230505,-0.86141827030969709,-0.99144800575569358,0.44586770865393688,0.53202221865426602,-0.81984757090859595,0.54445810344853407,0.88296536876602305,-0.64332070083601889,-0.14313338488674221
