0.01554389142992374,0.044241207604277522,0.050970160605587012,0.74231130295654157,-0.64844614812995616,0.077459576483453141,0.27224662759171525,-0.88773355950765387,-0.99790383444612241,-0.60711034092807692,-0.033926474277588659,-0.6213090554487013,-0.51048402082790689,-0.88432870691251741,-0.43106423388052884,0.25379744630715928,-0.13123902480972127,-0.32468306080249731,0.39108723659124611,-0.14703087148394345,0.89348264075067108,-0.29673549635076424,-0.6005446752485315,-0.96702154343106739,-0.9975516060457752,0.5451451792804598
0.66632831296781059,-0.82393118356816464,-0.66551810653695886,0.087791193458043315,-0.84033018485807309,-0.094585374314882564,-0.85307718995685433,0.31613902927730986,-0.06171895815337014,0.30189990100088471,0.2548017897504542,0.63515478565991046,0.35830989562106774,-0.31520745254965221,-0.49885318499464226,0.18774147554668952,-0.63780825133943364,0.55433813210057448,0.66749737721609059,-0.67518558578509347,-0.49952592755123759,-0.38090316494772569,-0.67832324790977139,0.32062469887320244,0.69272592914112918,0.82887729953764322
0.0037716875192363997,-0.23123497697947126,0.32676854062261795,-0.7132196535635813,-0.42857663803095902,-0.54591614824246415,-0.13764422387762454,0.34877624743570679,-0.68430435365109599,-0.79956077479622167,0.74460528627481981,0.31432633773897778,-0.10997375310431479,-0.59928338012304305,0.52645997131460365,0.50379089820835166,-0.27626883497500421,0.74697651491136163,0.65336122491808157,-0.52419699538726272,-0.6314691991101804,0.86236558376561812,0.39475471789493422,-0.97419557300294857,0.67290546492729719,0.3348512205162637
-0.44690883883186805,0.23808493363639927,0.54906295549011741,-0.19976574205647513,0.75308610402933351,-0.081391223201990437,-0.47834357089143165,-0.018328077246125396,0.71572163199147165,-0.12808462499650419,0.87230702964487672,-0.1909827459263207,-0.40947021908972925,0.90216242914574174,-0.032144281387394891,0.64279498957883985,0.53095412589595337,0.1836681638773785,-0.61111656722183683,0.23208215822096867,0.53202221865426602,-0.81984757090859595,-0.91178152146833513,0.88296536876602305,0.12095000817924939,-0.63931582814199572
