0.01554389142992374,0.044241207604277522,0.050970160605587012,0.74231130295654157,0.013843825887303263,0.38966597258215097,0.27224662759171525,0.058753706864655753,-0.99790383444612241,-0.60711034092807692,-0.033926474277588659,-0.6213090554487013,-0.51048402082790689,-0.88432870691251741,-0.1268979180707559,0.28067237013795432,-0.17831354143459999,-0.32468306080249731,-0.13291682709269415,-0.14703087148394345,-0.80036412720606309,-0.29673549635076424,-0.6005446752485315,0.24397091698529749,-0.9975516060457752,0.5451451792804598
-0.421937606108159,-0.82393118356816464,-0.49742786601548494,0.087791193458043315,-0.47844279109063415,-0.059488042887007486,-0.85307718995685433,0.31613902927730986,-0.06171895815337014,0.30189990100088471,-0.054542042387059286,-0.20978179907084793,0.35830989562106774,0.22239904949450851,-0.49885318499464226,0.18774147554668952,0.27399329760955848,0.55433813210057448,0.05165920054140094,-0.67518558578509347,0.48608999351137894,-0.90911663596860914,-0.67832324790977139,0.80302522150766831,-0.91714557666437724,-0.50895069845675289
0.0037716875192363997,-0.18043642008655758,0.19496474666695573,-0.7132196535635813,0.13656198976955269,-0.54591614824246415,-0.62621459380270283,0.34877624743570679,-0.68430435365109599,-0.74083777713298526,0.74460528627481981,0.19392323514650567,-0.10997375310431479,-0.59928338012304305,0.52645997131460365,0.50379089820835166,-0.27626883497500421,0.74697651491136163,0.65336122491808157,-0.52419699538726272,-0.6314691991101804,-0.7032578888799812,0.39475471789493422,-0.97419557300294857,0.67290546492729719,0.3348512205162637
-0.44690883883186805,-0.14905319429207542,0.54906295549011741,-0.87873398511027556,0.098245049368523407,-0.99597852050872504,-0.47834357089143165,-0.018328077246125396,0.71572163199147165,-0.12808462499650419,0.87230702964487672,-0.1909827459263207,-0.40947021908972925,-0.34188575665587151,-0.53410806590308502,-0.0013550734807623588,0.71207630099515185,0.1836681638773785,0.33690406908154125,-0.46377175759509992,0.59372886706787575,-0.81984757090859595,-0.18289292362782894,0.88296536876602305,0.12417679121326586,-0.14313338488674221
