0.01554389142992374,0.044241207604277522,0.050970160605587012,-0.078573229048608528,-0.98722663559972434,0.38966597258215097,0.27224662759171525,-0.88773355950765387,-0.99790383444612241,-0.60711034092807692,-0.033926474277588659,0.53553338742412082,-0.51048402082790689,-0.88432870691251741,-0.36387015813613921,0.28067237013795432,0.62845847589416648,-0.31331485862252628,0.39108723659124611,-0.14703087148394345,0.35506613152732824,-0.29673549635076424,-0.6005446752485315,0.044172568009181568,0.802703587689098,0.5451451792804598
0.66632831296781059,-0.82393118356816464,-0.66551810653695886,0.087791193458043315,-0.47844279109063415,-0.059488042887007486,0.16516205234877557,-0.69880522585342808,-0.06171895815337014,0.30189990100088471,-0.054542042387059286,0.6051363339524396,0.35830989562106774,-0.31520745254965221,-0.44925621749543265,0.062311568294232789,0.45621463949105845,0.84493000252791206,0.05165920054140094,-0.67518558578509347,0.48608999351137894,-0.17293947238652563,-0.67832324790977139,0.80302522150766831,0.69272592914112918,0.82887729953764322
0.0037716875192363997,-0.27850927619757226,0.32676854062261795,-0.7132196535635813,0.13656198976955269,-0.54591614824246415,-0.62289393867375753,0.34877624743570679,-0.68430435365109599,-0.74083777713298526,0.74460528627481981,0.31432633773897778,-0.10997375310431479,-0.59928338012304305,0.40803759400991813,0.50379089820835166,-0.27626883497500421,0.74697651491136163,0.65336122491808157,-0.52419699538726272,-0.6314691991101804,-0.7032578888799812,0.43693362279814618,-0.97419557300294857,0.67290546492729719,0.3348512205162637
-0.44690883883186805,0.23808493363639927,0.54906295549011741,-0.19976574205647513,0.75308610402933351,-0.12447758618073634,-0.47834357089143165,-0.018328077246125396,-0.19993016400653452,-0.12808462499650419,0.87230702964487672,-0.1909827459263207,-0.40947021908972925,0.90216242914574174,-0.52947419356677994,0.83330672480648493,-0.32660117988899318,0.1836681638773785,-0.61111656722183683,-0.075495327203140006,0.53202221865426602,-0.81984757090859595,-0.91178152146833513,0.97584941311149476,-0.70194681666788217,-0.77338551705254877
