0.01554389142992374,0.044241207604277522,0.050970160605587012,0.74231130295654157,-0.60365261295062256,0.38966597258215097,0.13385754232250813,-0.88773355950765387,-0.99790383444612241,0.86859027327171501,-0.01144980801623996,0.39349443325592715,-0.51048402082790689,-0.88432870691251741,-0.36387015813613921,0.28067237013795432,-0.15193892966492561,0.36793171414991654,0.058384899329856799,-0.14703087148394345,-0.80036412720606309,-0.29673549635076424,-0.6005446752485315,0.24397091698529749,-0.9975516060457752,0.5451451792804598
0.66632831296781059,-0.80983477713338203,-0.66551810653695886,0.087791193458043315,-0.6683617484431581,-0.059488042887007486,-0.85307718995685433,0.31613902927730986,-0.06171895815337014,0.30189990100088471,-0.054542042387059286,-0.134351281121599,0.061366740327857938,0.89768582922503604,-0.88585365806171246,-0.42817476717856473,-0.63780825133943364,0.55433813210057448,0.05165920054140094,-0.67518558578509347,0.48608999351137894,0.27683155967135309,-0.67832324790977139,0.80302522150766831,0.81541490095972202,0.82887729953764322
0.0037716875192363997,-0.23123497697947126,0.32676854062261795,-0.92229889254476327,0.13656198976955269,-0.54591614824246415,-0.62621459380270283,0.34877624743570679,-0.68430435365109599,-0.45749420065292656,0.74460528627481981,0.31432633773897778,-0.10997375310431479,-0.59928338012304305,-0.87055071422964581,-0.20854310435843537,-0.27626883497500421,0.74697651491136163,0.65336122491808157,-0.52419699538726272,-0.35829788428451281,-0.7032578888799812,0.39475471789493422,-0.97419557300294857,0.67290546492729719,-0.15545388281922445
-0.44690883883186805,0.23808493363639927,0.54906295549011741,-0.19976574205647513,0.21446166054287774,0.51914775709536443,-0.012536761891783765,-0.018328077246125396,0.24646014628863866,-0.12808462499650419,0.87230702964487672,-0.1909827459263207,-0.40947021908972925,0.90216242914574174,-0.53410806590308502,-0.5437225239590231,-0.32660117988899318,0.1836681638773785,-0.61111656722183683,-0.046619991190272936,0.53202221865426602,-0.78112332083337943,-0.91178152146833513,0.041267598771005165,-0.64332070083601889,0.76031975989269318
