0.01554389142992374,0.68277134287556041,0.050970160605587012,0.74231130295654157,-0.64844614812995616,0.38966597258215097,0.27224662759171525,-0.88773355950765387,-0.99790383444612241,-0.60711034092807692,-0.033926474277588659,-0.6213090554487013,-0.51048402082790689,-0.88432870691251741,-0.36387015813613921,0.28067237013795432,-0.13123902480972127,-0.32468306080249731,0.39108723659124611,-0.65249929541980589,-0.59833836821425157,-0.29673549635076424,0.051123863355927224,0.24397091698529749,-0.9975516060457752,0.5451451792804598
0.66632831296781059,-0.82393118356816464,-0.66551810653695886,0.087791193458043315,-0.47844279109063415,-0.059488042887007486,-0.41205508172875427,0.31613902927730986,0.95792846375270835,-0.174656191449581,-0.054542042387059286,-0.38304409818169183,0.35830989562106774,-0.50420025185790229,-0.49885318499464226,0.18774147554668952,-0.63780825133943364,0.55433813210057448,0.05165920054140094,-0.98035658366960154,0.08478114910369805,0.27683155967135309,-0.26718496494790189,0.80302522150766831,0.69272592914112918,0.82887729953764322
0.0037716875192363997,-0.23123497697947126,0.32676854062261795,-0.7132196535635813,0.13656198976955269,-0.54591614824246415,-0.62621459380270283,-0.52504451508336092,-0.46332130325888166,-0.74083777713298526,0.48921697506942974,0.31432633773897778,-0.10997375310431479,-0.59928338012304305,0.41353931364430552,0.61219819307560153,-0.3233252213518949,0.74697651491136163,0.56569428141515621,-0.52419699538726272,-0.6314691991101804,-0.7032578888799812,0.41639409623569024,-0.97419557300294857,0.67290546492729719,-0.40951556530810551
-0.44690883883186805,0.23808493363639927,0.54906295549011741,-0.19976574205647513,0.75308610402933351,-0.12447758618073634,-0.47834357089143165,-0.018328077246125396,0.71572163199147165,-0.12808462499650419,0.87230702964487672,-0.1909827459263207,-0.89421174842485618,0.90216242914574174,-0.53410806590308502,-0.29081795460768345,-0.32660117988899318,0.7437139975722844,-0.5149152542218407,-0.046619991190272936,0.53202221865426602,-0.81984757090859595,-0.91178152146833513,0.88296536876602305,-0.64332070083601889,-0.14313338488674221
