0.21338357234581196,-0.36813355839814643,0.050970160605587012,-0.19537241643648273,-0.64844614812995616,0.71305218628587452,0.27224662759171525,-0.88773355950765387,-0.99790383444612241,0.99913698672934226,-0.50817646270525185,0.57930537035006746,-0.51048402082790689,-0.88432870691251741,-0.36387015813613921,0.28067237013795432,-0.13123902480972127,-0.32468306080249731,0.39108723659124611,-0.14703087148394345,-0.80036412720606309,-0.29673549635076424,-0.6005446752485315,-0.049362924943307407,-0.57571837654731284,0.5451451792804598
0.66632831296781059,-0.82393118356816464,-0.66551810653695886,0.087791193458043315,-0.47844279109063415,0.81395919221610202,-0.49000786700303856,0.31613902927730986,-0.22012443503815859,0.30189990100088471,0.12444729449723102,0.63515478565991046,0.35830989562106774,-0.31520745254965221,-0.050717395412897215,0.18774147554668952,0.79678267748691822,-0.51848653990646243,0.05165920054140094,0.47812613490669897,0.48608999351137894,0.27683155967135309,0.96531305237432408,0.80302522150766831,0.69272592914112918,0.82887729953764322
0.0037716875192363997,-0.23123497697947126,0.063979218997461951,0.40076208894139453,0.13656198976955269,-0.32899640570050992,-0.97649873302840029,0.34877624743570679,-0.68430435365109599,0.28541921892962985,0.74460528627481981,0.70771911416970457,-0.63040656439772502,-0.33734215002123458,0.52645997131460365,0.50379089820835166,0.81080512115213788,0.83617367193426007,0.65336122491808157,-0.52419699538726272,-0.6314691991101804,0.9432610273448474,0.44852422785341894,-0.15369934509224437,0.67290546492729719,0.3348512205162637
-0.44690883883186805,0.49441688899511638,-0.52686866972740343,0.87801019488515197,-0.305698256659936,-0.12447758618073634,-0.78232547308157208,0.68019568053574142,0.70532293592585948,0.51837545389466388,0.87230702964487672,-0.1909827459263207,-0.40947021908972925,-0.65741594147015947,0.93421122972825255,0.64279498957883985,-0.32660117988899318,-0.45627167486793674,0.1893562784704732,0.052230084225892481,-0.1330557968160615,0.85002349359425478,-0.91178152146833513,0.22129268091540633,-0.12017253664745331,0.54343279724393168
