0.21338357234581196,0.044241207604277522,0.050970160605587012,0.74231130295654157,-0.64844614812995616,0.38966597258215097,0.27224662759171525,-0.88773355950765387,0.92961858369889305,0.69920905267086786,-0.073861305654718157,0.57930537035006746,-0.51048402082790689,-0.88432870691251741,-0.36387015813613921,0.28067237013795432,-0.13123902480972127,-0.32468306080249731,0.39108723659124611,-0.51916102787815177,-0.80036412720606309,-0.29673549635076424,-0.6005446752485315,0.82349761086614448,-0.57571837654731284,-0.87540028655629532
0.66632831296781059,-0.82393118356816464,-0.45349189663754386,0.087791193458043315,-0.47844279109063415,-0.059488042887007486,-0.49000786700303856,0.31613902927730986,-0.039674262153326589,0.30189990100088471,0.12444729449723102,0.63515478565991046,0.35830989562106774,-0.31520745254965221,-0.44145963347433348,0.18774147554668952,-0.22098185213967003,0.55433813210057448,0.05165920054140094,-0.67518558578509347,0.48608999351137894,0.28849985359851971,0.96531305237432408,0.80302522150766831,0.69272592914112918,0.82887729953764322
-0.023280451084459086,-0.85180713010837383,0.32676854062261795,-0.7132196535635813,0.13656198976955269,-0.54591614824246415,-0.26584097015532659,0.34877624743570679,-0.68430435365109599,-0.51051511354362455,0.74460528627481981,0.70771911416970457,-0.63040656439772502,-0.59928338012304305,0.52645997131460365,-0.43173963922243619,-0.27626883497500421,0.8287964153005305,0.65336122491808157,-0.52419699538726272,-0.6314691991101804,-0.7032578888799812,0.39475471789493422,-0.68293489581081057,0.67290546492729719,0.3348512205162637
-0.44690883883186805,0.49441688899511638,-0.52686866972740343,-0.19976574205647513,-0.64087164310178024,0.41999683300906665,-0.47834357089143165,-0.018328077246125396,0.71572163199147165,-0.12808462499650419,0.87230702964487672,-0.1909827459263207,0.41349789041334883,0.90216242914574174,-0.53410806590308502,0.42803897489901366,-0.32660117988899318,-0.17160161868875479,0.1893562784704732,-0.046619991190272936,0.53202221865426602,-0.41555235287536929,-0.91178152146833513,-0.93204165560621011,-0.12017253664745331,-0.1475873179857754
