0.21338357234581196,0.044241207604277522,0.050970160605587012,0.74231130295654157,-0.64844614812995616,-0.38306288857708792,0.27224662759171525,-0.88773355950765387,-0.99790383444612241,0.99913698672934226,-0.50817646270525185,0.57930537035006746,0.46858853828672609,-0.64293572464530802,-0.36387015813613921,0.79997039567821493,-0.13123902480972127,-0.32468306080249731,0.39108723659124611,-0.14703087148394345,-0.80036412720606309,-0.38868359742221203,-0.6005446752485315,-0.049362924943307407,-0.57571837654731284,0.015118355884045975
0.66632831296781059,-0.82393118356816464,-0.66551810653695886,0.52893236195644255,-0.47844279109063415,0.77522978358249994,-0.49000786700303856,-0.45731705906945641,-0.06171895815337014,0.88107256436792092,0.12444729449723102,0.63515478565991046,0.35830989562106774,0.87843379484214945,-0.49885318499464226,0.12736824903960953,-0.63780825133943364,0.55433813210057448,0.05165920054140094,-0.67518558578509347,0.48608999351137894,0.27683155967135309,0.96531305237432408,-0.10246271212331526,0.045995053283320431,0.82887729953764322
0.0037716875192363997,-0.23123497697947126,-0.44554757561222913,-0.7132196535635813,0.13656198976955269,-0.54591614824246415,-0.62621459380270283,0.34877624743570679,-0.68430435365109599,-0.51051511354362455,0.74460528627481981,0.70771911416970457,-0.63040656439772502,-0.59928338012304305,0.48289326827547918,0.50379089820835166,-0.27626883497500421,0.30823907307377274,0.65336122491808157,0.21939215258168487,-0.6314691991101804,-0.18226973800533175,0.43051729642435532,-0.68293489581081057,0.67290546492729719,0.87764441304954888
-0.44690883883186805,0.49441688899511638,0.21504806144642852,0.84834223379754015,0.38574041284108773,0.82181898460769287,-0.47834357089143165,-0.018328077246125396,0.71572163199147165,-0.12808462499650419,0.87230702964487672,-0.1909827459263207,-0.40947021908972925,0.90216242914574174,-0.53410806590308502,0.64279498957883985,-0.32660117988899318,-0.45627167486793674,0.1893562784704732,0.66069908916727216,0.53202221865426602,0.85002349359425478,-0.067795683149880048,0.22129268091540633,0.13062045099446107,0.54343279724393168
