0.0016967673989136678,-0.56753743751970043,-0.98844593918691204,0.74231130295654157,-0.64844614812995616,0.38966597258215097,-0.084005383911759823,0.51814131293277432,-0.99790383444612241,-0.23452196335594411,-0.36626792565778055,0.57930537035006746,-0.51048402082790689,-0.88432870691251741,-0.27754623812639245,0.28067237013795432,-0.13123902480972127,-0.32468306080249731,0.39108723659124611,-0.14703087148394345,0.35883937341177674,-0.91029291924211808,-0.6005446752485315,0.12158846153268676,-0.57571837654731284,0.5382344314614298
-0.16781127163765319,-0.37444051210726292,0.21044604936712075,-0.0957443017973727,-0.65712830301128666,-0.059488042887007486,-0.49000786700303856,0.31613902927730986,0.67378811720461229,0.7124214780135496,-0.81922055920573467,0.63515478565991046,0.90435574659174867,-0.1130778670122512,-0.49885318499464226,0.18774147554668952,-0.63780825133943364,0.50024248638699276,0.66702464290704389,-0.67518558578509347,0.46598691772575496,0.27683155967135309,0.96531305237432408,0.80302522150766831,0.69272592914112918,0.82887729953764322
0.0037716875192363997,-0.23123497697947126,0.32676854062261795,-0.7132196535635813,0.13656198976955269,-0.54591614824246415,-0.28504969889953191,0.34877624743570679,0.45891935728265332,-0.51051511354362455,-0.59276775785237468,0.45978040331085368,-0.63040656439772502,-0.59928338012304305,0.52645997131460365,0.50379089820835166,-0.38824970728776553,0.30823907307377274,0.65336122491808157,-0.52419699538726272,0.11336613025193221,0.86772390833432334,0.39475471789493422,-0.68293489581081057,0.67290546492729719,0.3348512205162637
-0.44690883883186805,0.49441688899511638,-0.75259649283506791,0.59600170959679155,0.91783574225514486,0.21809216327833725,0.77940357578748265,0.75711603402109695,0.71572163199147165,-0.12808462499650419,0.87230702964487672,-0.1909827459263207,-0.40947021908972925,0.90216242914574174,-0.53410806590308502,0.64279498957883985,-0.32660117988899318,0.55494595134360436,0.1893562784704732,-0.046619991190272936,0.53202221865426602,-0.84653164926032165,-0.91178152146833513,0.69269333392530985,-0.12017253664745331,-0.5652754080334188
