0.0016967673989136678,-0.56753743751970043,0.050970160605587012,0.74231130295654157,-0.64844614812995616,0.38966597258215097,0.21944921588800992,0.51814131293277432,-0.99790383444612241,-0.23452196335594411,0.16664998777037066,0.57930537035006746,-0.51048402082790689,-0.88432870691251741,-0.27754623812639245,0.28067237013795432,-0.13123902480972127,-0.32468306080249731,0.39108723659124611,-0.14703087148394345,-0.80036412720606309,-0.48837602708967753,-0.6005446752485315,-0.049362924943307407,-0.57571837654731284,0.5451451792804598
0.69310300728642105,-0.37444051210726292,-0.66551810653695886,-0.056189654133582456,-0.65712830301128666,-0.059488042887007486,-0.89529889555930331,0.31613902927730986,-0.06171895815337014,0.30189990100088471,0.98225153950703503,0.63515478565991046,0.35830989562106774,-0.1130778670122512,-0.49885318499464226,0.18774147554668952,-0.63780825133943364,0.50024248638699276,-0.2181269139927513,0.43371207699701864,0.46598691772575496,0.27683155967135309,0.96531305237432408,0.80302522150766831,0.69272592914112918,0.82887729953764322
0.32305730709714431,-0.23123497697947126,0.32676854062261795,-0.7132196535635813,-0.20995170804021179,-0.54591614824246415,-0.28504969889953191,0.34877624743570679,-0.68430435365109599,-0.55618603475072548,-0.19129531863349625,0.70771911416970457,-0.63040656439772502,-0.59928338012304305,-0.22970286087888958,0.50379089820835166,-0.27626883497500421,0.30823907307377274,0.65336122491808157,-0.52419699538726272,-0.6314691991101804,-0.14689609775229684,0.39475471789493422,-0.68293489581081057,-0.7236085314077878,-0.77734793735403351
0.41731619834927525,-0.3623348778048936,-0.52686866972740343,0.59600170959679155,0.65953864917043759,-0.86130966013480603,-0.62888208989812266,0.75711603402109695,0.71572163199147165,-0.12808462499650419,-0.91043304176131268,0.80856283645117322,-0.40947021908972925,0.90216242914574174,-0.53410806590308502,0.64279498957883985,-0.32660117988899318,0.88059027514997545,0.1893562784704732,-0.046619991190272936,0.53202221865426602,0.85002349359425478,-0.91178152146833513,0.73010254163039789,-0.12017253664745331,-0.5652754080334188
