0.0016967673989136678,-0.56753743751970043,0.050970160605587012,0.27067708022417469,-0.64844614812995616,0.38966597258215097,0.27224662759171525,0.51814131293277432,0.61326759414920184,-0.23452196335594411,-0.91393583578078963,0.57930537035006746,0.27774445952140536,0.82016215526316638,-0.27754623812639245,0.28067237013795432,-0.45965896685450214,-0.87110943500371962,-0.098260634901069954,-0.14703087148394345,-0.80036412720606309,-0.29673549635076424,-0.6005446752485315,-0.049362924943307407,-0.57571837654731284,-0.72394755725359605
0.66632831296781059,0.65251016104805681,0.53493828401869425,-0.056189654133582456,-0.052258550038247087,-0.85711894109746756,-0.49000786700303856,-0.96969260776234711,-0.06171895815337014,0.73912794196678533,-0.3073050877672634,0.63515478565991046,0.35830989562106774,-0.1130778670122512,-0.49885318499464226,0.18774147554668952,0.39066530005581468,0.50024248638699276,0.49043156167393276,-0.67518558578509347,0.46598691772575496,0.27683155967135309,0.63003901169990284,-0.87974770184290629,0.69272592914112918,0.8710664183253769
0.0037716875192363997,-0.23123497697947126,0.91236030730254347,-0.34589142514628768,0.13656198976955269,-0.54591614824246415,-0.28504969889953191,-0.92111693527546668,0.5893666365232666,-0.51051511354362455,-0.19129531863349625,0.70771911416970457,0.49814654512312195,0.7468653288044369,-0.30213674699749826,0.50379089820835166,-0.27626883497500421,0.30823907307377274,0.080838210344486239,-0.52419699538726272,-0.6314691991101804,0.86772390833432334,-0.80005063191763304,-0.33282496801765027,0.67290546492729719,0.33618555589685828
-0.44690883883186805,0.71522978060048703,-0.32550459982408286,-0.11575081383616048,-0.41605328216179815,-0.26583525881005676,-0.62888208989812266,-0.93520147054389668,0.71572163199147165,-0.12808462499650419,0.98080441838394594,-0.5544701872519735,-0.40947021908972925,0.90216242914574174,-0.53410806590308502,0.64279498957883985,0.99891141172297804,-0.39338791968628217,-0.8982851040997768,-0.47585877067933602,-0.15526469427755552,0.37252713133713744,0.27447746099876125,0.96303615201546178,-0.12017253664745331,0.85180311689655785
