-0.86541153695073803,0.45964351022612759,0.77133275872909302,0.39694452754884546,-0.082463103556815076,-0.20534697242237687,-0.24226482947651573,0.35018811614380496,-0.40077248769404261,0.77068175458017585,-0.32463514764283397,-0.51647108430171151,-0.19129629164269013,0.97372792076726311,0.75062830789796653,-0.7744245321026817,0.57013740237284471,-0.99177106141463489,0.94398052163542601,0.85883848092106163,-0.91760814595413298,-0.95829851407014544,0.48445732765451055,-0.582176487752466,0.95329499779878879,0.92757331548243083
0.52380657964133803,-0.13183169494576208,-0.77464539148811418,0.57041104174903601,-0.11575123303802415,-0.053768046959157489,-0.31897386924806148,0.3652521230395438,0.23522451685991119,-0.24896913645505747,0.45536019246371229,-0.80521737030703555,0.64272033108683702,-0.53731061746009567,-0.88307956135266696,0.31852590352800303,-0.69718671591486681,0.30181886862770879,-0.23370546302831263,0.4892817039926689,-0.93596491978590057,-0.3450377295342959,-0.26319888207826159,0.90961159628326516,0.052935478202366992,0.12147236811035578
0.15097579166548281,-0.15656924071326572,-0.089236928003730842,-0.95951089349774232,-0.95329162623057351,0.10085997132799007,-0.85530312384757456,0.48230305943626273,-0.52453071510387694,-0.39861322769399021,-0.76880358716367936,0.15526656941215844,0.38833449713914892,0.83126705873392059,-0.94614172484327685,-0.36790289964749379,0.39105560313860233,0.96435807506900439,0.56991871952640194,0.72774125510436249,0.075512274721743156,0.33259464902771829,-0.82724807861487992,0.32131860469705975,0.63059667989214452,-0.70154013731245013
0.84329533363906894,0.0014933053122216933,0.054585425545560007,-0.81036555706692948,0.28840466667428699,0.65134448369195397,-0.065783481688450829,-0.65202532067736452,0.29558167211966979,0.98809557572690276,-0.53813004782461338,-0.87491873771326212,-0.71339834013597891,-0.52586956376207405,-0.25950328764416475,0.49372719244315144,0.58644067392487753,-0.97395941483213888,0.75334445057215738,0.88845094839533134,-0.27757161827441901,0.26011551825907064,0.14167976208385435,0.40296132408985241,-0.44112006850307117,0.58084949739386449
