0.0016967673989136678,-0.56753743751970043,0.050970160605587012,0.27067708022417469,-0.64844614812995616,0.38966597258215097,-0.29904250914436914,0.51814131293277432,-0.13291339923402945,-0.093524448163108787,0.062597532503168907,0.55994013408898757,-0.080195346001369794,0.83885674136683686,-0.27754623812639245,0.83897638247004958,-0.45965896685450214,-0.46747209102644161,-0.56021647594791424,-0.14703087148394345,-0.80036412720606309,-0.50561110679043808,-0.6005446752485315,-0.55641359329856921,0.92804057535461082,-0.72394755725359605
0.66632831296781059,0.65251016104805681,-0.66551810653695886,-0.056189654133582456,0.33149584327948411,0.47408600710751636,-0.49000786700303856,-0.024078317062584231,-0.06171895815337014,0.40137175220562615,0.093116076742089771,0.15761800279450755,0.35830989562106774,-0.1130778670122512,-0.65276431172794691,0.18774147554668952,-0.058701709834705129,0.50024248638699276,0.66702464290704389,-0.67518558578509347,0.46598691772575496,-0.82240455868221884,-0.42975696526413176,-0.75761175555455362,-0.81046829196218284,-0.26800117818842129
0.0037716875192363997,0.43697240243713154,0.91236030730254347,-0.34589142514628768,-0.61907051309224559,-0.20772777942148002,0.15111915139247389,-0.92111693527546668,-0.68430435365109599,-0.51051511354362455,-0.19129531863349625,0.70771911416970457,-0.63040656439772502,0.7468653288044369,0.53628227632525238,0.50379089820835166,-0.27626883497500421,0.30823907307377274,0.65336122491808157,-0.52419699538726272,-0.6314691991101804,0.88778241920677936,-0.41111279609470563,-0.68293489581081057,0.67290546492729719,-0.27221592713247333
-0.44690883883186805,0.98525600688588444,-0.32550459982408286,-0.62819472172774193,-0.52593955343618548,-0.86130966013480603,-0.62888208989812266,0.41552768000246831,-0.36136238189069658,-0.12808462499650419,0.081991399343910976,-0.66957030555008212,-0.75914190504093293,0.08261870145260608,-0.53410806590308502,0.64279498957883985,-0.91378626934183793,-0.39338791968628217,-0.22819258555771116,0.62534248237499801,0.53202221865426602,0.020742399335395456,0.22116067567744579,0.6931312716647593,0.092365185243996617,-0.40001558053470232
