-0.46884332086154612,-0.32754889029459688,0.050970160605587012,0.27067708022417469,0.39045627626170809,-0.47451418287180691,-0.29904250914436914,0.28698885437765642,-0.99790383444612241,0.069471110725781493,-0.54930932967201662,0.57930537035006746,-0.080195346001369794,-0.69965045837927464,-0.27754623812639245,0.28067237013795432,-0.45965896685450214,-0.46747209102644161,0.39108723659124611,-0.14703087148394345,0.016914519505370373,-0.29673549635076424,0.53798471506026413,-0.32920235740335402,0.76660112072201336,0.26108995046325245
0.58467782252760592,0.65251016104805681,-0.66551810653695886,-0.056189654133582456,0.0071322048977242591,0.40020534938343189,-0.49000786700303856,-0.024078317062584231,-0.60106209366416108,0.40137175220562615,0.19505882753958903,0.63515478565991046,-0.17543165264040339,-0.1130778670122512,-0.55715874982591096,-0.47528891719966215,-0.52100423145210528,0.50024248638699276,0.66702464290704389,-0.67518558578509347,0.46598691772575496,0.14569203468083947,-0.42975696526413176,-0.93401754462353104,-0.81046829196218284,-0.26800117818842129
0.0037716875192363997,-0.23123497697947126,0.60568925734515044,-0.34589142514628768,0.13656198976955269,-0.20772777942148002,-0.28504969889953191,-0.92111693527546668,-0.094406036765862567,0.46185586485942243,0.24768597808671511,0.70771911416970457,-0.63040656439772502,0.7468653288044369,-0.30213674699749826,0.50379089820835166,0.86667021329498062,0.61506820824602126,0.65336122491808157,-0.68860063167798335,-0.6314691991101804,0.016655589897023093,-0.072513014406015097,-0.68293489581081057,-0.99899054233489548,-0.27221592713247333
-0.44690883883186805,0.98525600688588444,-0.32550459982408286,-0.62598415083326819,-0.52593955343618548,0.21940863565595037,-0.73144265458374469,-0.056013657079392543,-0.56749570995323628,-0.12808462499650419,0.98080441838394594,-0.66957030555008212,-0.75914190504093293,0.08261870145260608,-0.66913494147476205,0.64279498957883985,-0.99933399444084681,0.70861854429259186,-0.55061810943992673,-0.98793066346821257,0.53202221865426602,0.6000236980431497,-0.65787970708809196,0.22824474815819773,-0.12017253664745331,-0.5652754080334188
