-0.5729498941483091,0.19729542843683867,0.48826794388204053,-0.72049130612280954,0.72617016869096318,0.86093082059896719,0.03848388245623191,0.63732331603179171,-0.43615802290907424,0.6319536296101449,-0.41285061320755512,-0.89730172267213293,0.089666944923840308,-0.51346455851445882,-0.89256462934927217,-0.40972583655155792,0.85745442136313765,0.93051784425096407,-0.13871342234222417,0.77452914079801283,-0.21416584205085809,0.64037448299050315,-0.94767884243974909,-0.16535327203242667,0.11212240613653113,0.012022345550170233
0.75308301879406869,-0.0009888004609202028,0.66981554107260588,-0.28305923724257998,-0.64022059080007732,-0.2246448548699318,0.10392429738771969,-0.22791683825624598,0.09895779403646654,0.27005542462599874,0.68017968807497309,0.69170187091891133,0.49684866238807701,0.46262371719174111,0.41536234958820994,-0.084296992527088443,-0.88260096319435588,0.48477348878597848,0.77283173467018385,-0.64225941327165637,0.35859355721389519,0.6870657112703713,-0.74492587842323132,-0.11286370071985141,0.36554036229305242,0.12274776393409415
0.6433911091933302,0.75285649510509312,0.97036954870505343,0.56424452516794354,0.12619617382373138,0.31436213381678502,-0.017711559226771589,-0.8823079426386462,-0.77260389803233287,0.19810605910462842,0.69505473020152952,-0.51078761772968551,-0.089947473134319056,0.91570159623089231,-0.92914778766622996,-0.31372108779568508,-0.86987129809869201,-0.434859312776672,-0.14610586969781481,0.085305615029526827,-0.36748569194518343,0.99128282322382111,0.69658650683280432,-0.79375753351119438,0.41406024783862283,-0.1100372102964402
-0.9915074320059496,-0.43763932262305971,0.52090282498831209,0.32126349501064011,0.72229495222126139,-0.19659164809702667,0.32867320805873756,-0.20135957782412439,-0.67216885224264389,0.58535518481293747,-0.37032781140042981,-0.85259869276321676,-0.039978079357918972,-0.5272251473678129,0.33899982683528895,0.12078127701410923,0.038643761657566778,0.84054485104424703,-0.93458866507277771,0.94270776406109102,-0.89714778157195063,-0.18976085611466464,-0.65025634690885625,-0.68035281152946836,-0.30240831597313456,0.95304210189313121
