-0.71739173343678608,0.75904871785865891,0.52259674904133102,-0.94498375176039184,-0.82488262857997419,-0.75761142338744669,0.99545494324927253,0.90182582944626177,-0.24231192051561368,-0.79885859495437561,0.23800930592651137,-0.63536728756207195,0.3917753113157747,0.75940599488975002,0.021573862791000709,-0.53287238562016737,0.82624902936824096,0.44676241884364853,0.33053098089000144,-0.012746606259504967,-0.44437173969996424,-0.30718417161744438,-0.037279568309524169,-0.6300358339077603,-0.50887373992841556,0.73317507537308924
-0.15702743201309532,-0.54710145794012988,-0.35585041065159606,-0.64113337024568784,0.47986599350833536,0.896086698833227,0.40128506927419449,-0.10318179918720682,-0.46632338252420458,0.4253579948473647,-0.52804167066347962,-0.037478256865074,-0.83957798258341088,0.68763552950586049,0.43728447205330023,0.9394454558600327,0.2957443294789428,-0.022849684181225793,0.55729771182455967,0.27223244559233883,0.60569156258076395,-0.18689265055922966,-0.26927380481777852,-0.9970017832203526,0.55727844129117998,0.023282419474244698
-0.091580189552148861,-0.65525251015142283,0.54076995066131017,0.831126900593953,-0.57350773832875435,0.26421971557144008,0.30922493701559861,0.7204277485860171,-0.58426935119428514,0.29153772734944283,0.94574443540196729,-0.4378909401161537,0.068959268937728302,-0.36149862160860646,0.25672605884854782,-0.36287109707871767,0.5418994992073205,-0.89935905419517015,0.63266674717860782,0.86402028722118152,0.12628671285674176,0.61760835748600518,-0.015650532228080438,-0.75246600266583186,-0.91323256994919122,-0.96708814861401637
-0.23251809460004802,0.53611904195391102,-0.59237809845566591,0.75616047917820395,0.99447383969587011,-0.85918695002134537,-0.34099189931772123,0.11836367967591754,-0.38845669037755126,0.66154015542775091,-0.82368689632969949,-0.96302761944113335,0.23505706792703118,-0.15259135500370569,0.70012112516049152,-0.75095308451895582,-0.96195894920112002,-0.60860581578027384,-0.94257969555103238,0.30421363124989198,0.97664537018937914,0.57708757964018775,-0.90856933766271641,-0.080110477705525263,0.93550124952395386,0.41448469300220347
