0.35614464120475509,0.60453041878089397,0.050970160605587012,-0.65956511703171139,-0.50956392766589609,-0.3559307458769152,-0.29904250914436914,0.71693171827331548,0.35224518359897505,0.14677886572355714,0.055344483420807222,0.57930537035006746,-0.080195346001369794,-0.28696054830098916,-0.27754623812639245,-0.51500949457209622,-0.69180177505928242,-0.46747209102644161,0.39108723659124611,-0.14703087148394345,-0.33988483414703641,-0.29673549635076424,0.60789001454040159,-0.049362924943307407,-0.57571837654731284,-0.39245305735951486
0.12721452771798036,0.35746781816024376,-0.66551810653695886,0.92944137008684291,0.33149584327948411,0.85601545133518697,-0.88625668812969649,0.90110026967242152,-0.2744305093123105,-0.31174985756055351,0.51382488637720347,0.63515478565991046,0.066481846277397727,0.732279196667734,-0.11588918424603878,-0.26867790609552378,0.65578948448042951,0.69958770575393214,0.2920732630095666,0.33889123303140201,-0.41752484438949811,0.14569203468083947,0.2095639765102153,-0.75761175555455362,-0.82935167428989454,-0.26800117818842129
0.0037716875192363997,-0.8469823312747724,0.60568925734515044,-0.74608468450520316,-0.64663729430292038,-0.20772777942148002,-0.28504969889953191,-0.22310574520661408,-0.68430435365109599,-0.51051511354362455,0.15112994453736794,0.70771911416970457,0.55984037972757794,0.11134611971200714,-0.30213674699749826,-0.24197665830205284,0.58508980444325176,0.30823907307377274,0.65336122491808157,-0.52419699538726272,0.16256721076510683,0.18424715663957469,0.79713357610370794,-0.7786503641473792,0.67290546492729719,0.92750741336890785
-0.44690883883186805,0.98525600688588444,-0.32550459982408286,-0.84466659860355131,-0.52593955343618548,-0.7665878381929947,-0.67250188246129539,0.012698738556999656,-0.56749570995323628,-0.97874088172105589,0.92448101376236469,-0.54088267291214942,-0.75914190504093293,0.08261870145260608,-0.66913494147476205,0.0041083874656413499,0.99413683345789194,-0.3691663079945704,-0.22819258555771116,-0.83730227125817125,0.53202221865426602,-0.39059932479513759,-0.82158500116804545,0.22824474815819773,-0.12017253664745331,0.33157613431376021
