-0.77107390708343826,0.52204889037726576,0.050970160605587012,0.63670671710544413,-0.64844614812995616,-0.47451418287180691,0.11537422519106455,-0.50483324882670577,0.35224518359897505,-0.67173755036860561,-0.84515754938239396,-0.39887329218281842,-0.080195346001369794,-0.69965045837927464,-0.27754623812639245,0.28067237013795432,-0.60757109899352901,-0.46747209102644161,-0.31304596046930433,-0.14703087148394345,-0.70605063208857888,-0.29673549635076424,0.60789001454040159,-0.049362924943307407,-0.57571837654731284,0.26108995046325245
0.12721452771798036,0.35746781816024376,-0.66551810653695886,0.38633224625944429,-0.70793947840007188,0.85601545133518697,-0.79937979486922872,0.90110026967242152,0.3107217861703091,0.38339091694929572,0.51382488637720347,0.63515478565991046,0.066481846277397727,0.56327481939204893,-0.65276431172794691,-0.41508657371765034,-0.51021598358272358,0.50024248638699276,-0.98167263677280148,-0.77777873120325669,0.46598691772575496,0.95993552671186122,-0.22872136589579428,-0.75761175555455362,-0.81046829196218284,-0.26800117818842129
0.0037716875192363997,0.53743751183533073,0.60568925734515044,-0.74608468450520316,0.2649750945496987,-0.31483162939084175,-0.28504969889953191,0.012333846192476461,-0.453416839560709,-0.51051511354362455,0.481986644464244,-0.44621832976107023,0.55984037972757794,0.7468653288044369,-0.30213674699749826,-0.24197665830205284,0.86667021329498062,0.64622293103606299,0.65336122491808157,-0.0024013935391271612,0.16256721076510683,0.94248974870192348,0.75760544361918924,-0.68293489581081057,0.67290546492729719,-0.27221592713247333
-0.862308478719223,0.98525600688588444,-0.32550459982408286,-0.32520039500815723,-0.52593955343618548,-0.80416050409693729,-0.67250188246129539,-0.85034298385112161,0.22934723901789345,-0.64940488868820867,0.92448101376236469,-0.66957030555008212,0.91621745331096593,0.13664321676439273,-0.93328524485247888,0.0041083874656413499,0.99891141172297804,0.53896591851828934,-0.22819258555771116,-0.25451111142432592,-0.75848288658490337,0.17409969371643497,-0.82158500116804545,0.22824474815819773,0.098331868932338917,-0.5652754080334188
