0.29144192738773,0.71781008551984526,0.89883397513053342,-0.49851544722319541,0.93506523016350163,0.68613858362710944,-0.85379066507076407,0.62551043702956233,0.2216235035085139,-0.93631902552697932,0.80953460564178892,0.19595779734470464,0.035334959422196999,0.36225654795055839,-0.30770958036018725,0.035206121363598575,-0.5178628454119103,0.6770280472536907,0.27005404962634616,0.38460063928558785,-0.31500950346294143,-0.63768692875108113,0.23836734385021097,-0.78283247650324261,-0.62448861918396958,-0.70127331563720263
-0.23824477979310332,0.42208145408637177,-0.48703620396969893,-0.76620947301190601,-0.014646525201664762,-0.15104075140871531,-0.24320260856828879,0.36864030509964718,-0.42273153432736632,-0.051080159211520204,-0.49884553904623563,-0.88137726411548867,-0.24862951479792983,-0.88363940877719727,-0.09988743812359191,0.5290937643127307,0.91416980951589366,-0.62229974642109531,0.7755417908570601,0.27564351023180311,0.53552248527871904,0.27683155967135309,-0.19533319666988236,0.76108988988895798,0.69272592914112918,-0.26310860775491385
-0.33206731945221235,-0.58713433917735869,-0.37612319616709455,-0.24252502444303703,-0.56614330663546353,-0.32153535041286618,0.28583477188436923,-0.7707810581846577,0.53773007195703904,0.15458715249745758,0.87151651884893511,-0.13860571592835402,-0.15026320997820819,0.072434395624113135,-0.16101802061522852,0.13991546358518292,-0.26809616586273055,-0.092176851369841106,-0.062845651901455302,0.59811437187279815,-0.1239294879970001,-0.6342694160575737,0.014833701490645002,0.8035880623725844,-0.10472044037140238,-0.085259728098558307
-0.028192819900133559,0.10258751197185934,0.60506407949789898,0.96486411615142131,-0.63941645046107443,-0.07459036708707556,0.5168439170661332,0.20142255680724497,-0.6935688394614814,-0.089664651045775035,0.41019946699328735,-0.47065827758536605,0.29839363913180805,-0.58860189768693427,-0.10269854467232342,0.14904925711531947,0.25070343873230505,0.62412734022408922,0.31837666179843249,0.16917786831664117,0.2942050193234742,-0.11647941563471331,-0.65464666008232908,-0.32788993475860884,-0.66540922283299064,-0.93797652606792559
