-0.77107390708343826,0.52204889037726576,-0.86919975016545115,0.83722158770500199,-0.64844614812995616,0.30213183987412062,0.012093605415673281,0.97499179037057981,-0.2708656379304728,0.069471110725781493,-0.84515754938239396,0.39838151913448483,-0.22976765034947477,-0.69965045837927464,-0.27754623812639245,0.28067237013795432,-0.60757109899352901,0.2872540151583387,-0.75004488790792934,0.61059678919872717,-0.12108698215886116,-0.29673549635076424,0.37795106909908438,-0.049362924943307407,-0.57571837654731284,0.26108995046325245
-0.66938650388558418,0.35746781816024376,-0.66551810653695886,-0.874536465982656,0.29165211241838507,0.85601545133518697,-0.79937979486922872,-0.38779892935174076,-0.053096304505894087,-0.054668561961779494,0.99734125554376551,0.49195380042450454,0.066481846277397727,0.30311072543681084,-0.0041748040998585978,-0.41508657371765034,-0.18073333787158519,0.6884906345991455,0.2920732630095666,-0.60924932752320382,-0.4248377034142059,-0.47529272651183763,-0.42975696526413176,-0.75761175555455362,0.72107582361610834,-0.26800117818842129
0.0037716875192363997,0.090671838707148122,0.60568925734515044,-0.74608468450520316,-0.26757203401634055,-0.4324212954892126,-0.28504969889953191,0.41647042528456257,-0.453416839560709,0.55370608152212752,0.36334954990446433,0.052462240247207692,0.55984037972757794,0.56189234806235344,-0.26259259373979105,-0.24197665830205284,0.86667021329498062,-0.86728681268256347,0.094900517641314686,0.99111432891362572,0.16256721076510683,-0.69106708453849031,0.75760544361918924,0.6035969409053088,-0.16195450296280112,-0.27221592713247333
-0.862308478719223,0.50036353694150248,0.64325493903287323,-0.32520039500815723,0.71053138600101096,-0.75046326561575216,0.67927052703665947,-0.99638907604512905,-0.9362526046489017,-0.64940488868820867,-0.084560782780644272,-0.66957030555008212,-0.80854445469693514,0.08261870145260608,0.51576897898784235,0.0041083874656413499,0.99891141172297804,0.2314731187199659,-0.40694589335941633,0.00032468918197281482,-0.75448178612284056,-0.63201357424141458,-0.82158500116804545,0.22824474815819773,-0.12017253664745331,0.5483514824391702
