-0.77107390708343826,-0.5435791489661983,-0.86919975016545115,-0.65956511703171139,-0.64844614812995616,-0.47451418287180691,0.012093605415673281,0.97499179037057981,0.35224518359897505,0.069471110725781493,-0.84515754938239396,-0.15938849410979716,-0.64238210356293535,-0.69965045837927464,-0.27754623812639245,0.28067237013795432,-0.60757109899352901,0.97306575671255602,-0.31304596046930433,0.61059678919872717,-0.12108698215886116,-0.29673549635076424,0.60789001454040159,-0.049362924943307407,-0.82863555430383351,0.26108995046325245
0.12721452771798036,0.35746781816024376,-0.66551810653695886,-0.77243967274056091,0.29165211241838507,0.85601545133518697,0.56490430068402775,-0.77617998848606229,-0.053096304505894087,-0.054668561961779494,0.99734125554376551,0.63515478565991046,0.47413829626281223,0.26801347187614755,0.16848535404044962,-0.41508657371765034,0.70930135183679033,0.6884906345991455,-0.67372661237942233,-0.77777873120325669,0.46598691772575496,-0.47529272651183763,0.72559962451449334,-0.75761175555455362,0.72107582361610834,-0.26800117818842129
0.0037716875192363997,0.6830506995606711,0.60568925734515044,-0.40100344179127201,-0.26757203401634055,-0.4324212954892126,-0.28504969889953191,-0.047216368829856803,-0.453416839560709,0.61537439891336509,-0.45893720622864609,0.052462240247207692,-0.72370638269145116,0.56189234806235344,-0.30213674699749826,-0.24197665830205284,0.86667021329498062,-0.86728681268256347,0.32716892580547707,0.99111432891362572,0.16256721076510683,-0.69106708453849031,0.75760544361918924,-0.86999363037388822,0.44542597023050456,0.88593918251971204
0.36535834246127519,0.98525600688588444,0.64325493903287323,-0.32520039500815723,0.71053138600101096,-0.75046326561575216,-0.92607785541076759,0.76707302373973718,0.22934723901789345,-0.64940488868820867,0.96140907625233551,-0.66957030555008212,0.59816496489838222,0.08261870145260608,-0.66913494147476205,0.0041083874656413499,0.99891141172297804,0.2314731187199659,0.03591521225028016,0.00032468918197281482,-0.012638069729997703,-0.63201357424141458,-0.82158500116804545,0.22824474815819773,-0.12017253664745331,0.090643875685510578
