-0.77107390708343826,0.52204889037726576,0.81775377818058792,-0.90810941847991344,0.92261404661758561,-0.058096167785981478,-0.25195408075113845,0.59935915353390334,0.35224518359897505,0.68399759862248,0.58632418610524772,0.39838151913448483,0.48561606166743365,-0.82093670473271763,-0.27754623812639245,0.28067237013795432,-0.60757109899352901,-0.3035658294335033,-0.81747572551044057,0.61059678919872717,-0.59016993010404128,-0.29673549635076424,0.60789001454040159,0.89326106435567354,-0.74949348137447447,-0.12519412508438643
0.12721452771798036,0.98043356342444499,-0.66551810653695886,-0.014820872743407598,0.29165211241838507,0.85601545133518697,-0.79937979486922872,-0.38779892935174076,-0.46414002485519656,0.92937309336229723,0.41849138820520193,0.63515478565991046,0.066481846277397727,0.25808165540408301,-0.98616969574598956,-0.41508657371765034,-0.24376998007973061,0.6884906345991455,0.2920732630095666,0.86156984169721551,0.3420146803279851,-0.47529272651183763,-0.42975696526413176,-0.75761175555455362,0.72107582361610834,-0.26800117818842129
0.0037716875192363997,0.10633372067918434,0.35606414125407193,-0.74608468450520316,-0.26757203401634055,-0.4324212954892126,0.2451087862292991,0.012333846192476461,-0.71846311354013936,0.55370608152212752,-0.45893720622864609,0.052462240247207692,0.55984037972757794,0.56189234806235344,0.21959324419166659,-0.24197665830205284,0.86667021329498062,0.14061319065652889,0.091709748706210625,0.74418955821038923,0.16256721076510683,0.87285987427147016,0.75760544361918924,0.24322534072862112,0.062368331685681788,0.022133391356067955
-0.80318343543534154,0.98525600688588444,0.9941296222267868,0.64228495296200849,-0.55623654029679059,0.54448271761481926,-0.96687799389147999,0.76707302373973718,0.57499382907350749,-0.64940488868820867,0.96140907625233551,-0.66957030555008212,0.95553730474987875,0.08261870145260608,0.74864041381948354,0.0041083874656413499,0.99891141172297804,0.74753114819519539,-0.40694589335941633,-0.6702320238869961,-0.75848288658490337,-0.63201357424141458,-0.34490723457256678,0.353653116670676,0.11159108569189913,0.090643875685510578
