-0.77107390708343826,0.52204889037726576,-0.67200188100612168,-0.65956511703171139,0.70394953284264727,-0.47451418287180691,-0.42877271339232803,0.97499179037057981,0.35224518359897505,0.069471110725781493,-0.84515754938239396,0.39838151913448483,-0.64238210356293535,-0.37412356690375526,-0.27754623812639245,-0.54418911890640209,-0.60757109899352901,0.44844469175803336,0.58463999907279196,0.61059678919872717,-0.12108698215886116,-0.29673549635076424,0.60789001454040159,-0.049362924943307407,-0.57571837654731284,0.26108995046325245
0.12721452771798036,0.35746781816024376,0.65740394465344631,-0.014820872743407598,0.012599751377914359,0.85601545133518697,-0.79937979486922872,-0.38779892935174076,-0.51969509998660701,-0.054668561961779494,0.99734125554376551,0.63515478565991046,0.066481846277397727,0.30311072543681084,-0.016925020167995797,0.70489589795439911,0.70930135183679033,-0.17016869969334025,0.2920732630095666,-0.051787392790866971,0.46598691772575496,-0.35907162766186129,0.66236886377155857,-0.75761175555455362,0.72107582361610834,-0.26800117818842129
0.0037716875192363997,0.80092264748390685,0.60568925734515044,-0.23275215881645517,-0.26757203401634055,-0.4324212954892126,-0.28504969889953191,0.012333846192476461,-0.453416839560709,0.55370608152212752,-0.45893720622864609,0.052462240247207692,0.55984037972757794,0.56189234806235344,-0.61955574637472144,-0.24197665830205284,0.86667021329498062,-0.86728681268256347,-0.12227044144949017,-0.79454585806658717,0.16256721076510683,-0.69106708453849031,0.75760544361918924,-0.051423660783742386,0.44542597023050456,-0.83300075474524427
-0.862308478719223,0.98525600688588444,-0.079383609159456636,0.34904928117194522,0.71053138600101096,0.47274524919637129,0.67927052703665947,0.76707302373973718,0.22934723901789345,-0.89972968494750316,0.96140907625233551,-0.66957030555008212,-0.75914190504093293,0.39183174320614933,-0.66913494147476205,-0.51018651749136001,-0.95810707515415627,0.2314731187199659,-0.40694589335941633,0.00032468918197281482,-0.75848288658490337,-0.63201357424141458,0.51771851438162675,0.0068613145645801676,-0.12017253664745331,0.090643875685510578
