-0.77107390708343826,0.52204889037726576,-0.86919975016545115,-0.90810941847991344,-0.64844614812995616,-0.47451418287180691,0.012093605415673281,0.97499179037057981,0.91900111571442777,0.68399759862248,-0.081759025903630933,0.39838151913448483,0.48561606166743365,-0.82093670473271763,-0.60879857954907601,0.28067237013795432,-0.60757109899352901,-0.3035658294335033,-0.26361613722893695,0.61059678919872717,0.9496763483808579,-0.30569536539880104,0.84120104542228913,0.85019497313598902,-0.74949348137447447,-0.17990363944038568
0.12721452771798036,0.35746781816024376,-0.97821148785220613,-0.014820872743407598,0.78867695222854839,-0.97183394530868839,-0.79937979486922872,0.17661746899370545,-0.46414002485519656,0.18133476968014905,0.55649764314217309,-0.38606475373964932,0.066481846277397727,0.31896157248539203,-0.0041748040998585978,-0.41508657371765034,-0.24376998007973061,0.6884906345991455,0.2920732630095666,0.86156984169721551,-0.2729083033425268,-0.47529272651183763,-0.42975696526413176,-0.75761175555455362,0.72107582361610834,-0.26800117818842129
0.0037716875192363997,0.10633372067918434,-0.69741200585345142,-0.023142631805116665,-0.43524018282500632,0.60766681603479622,-0.4322285386990774,0.012333846192476461,-0.71846311354013936,0.55370608152212752,-0.45893720622864609,0.39839210192526209,0.55984037972757794,0.56189234806235344,0.21959324419166659,-0.24197665830205284,-0.18597583439133869,-0.86728681268256347,0.091709748706210625,0.74418955821038923,0.16256721076510683,-0.69106708453849031,0.75760544361918924,0.39598485232366509,0.44542597023050456,-0.29404749914721995
-0.09677216705516245,0.98525600688588444,0.64325493903287323,-0.32520039500815723,-0.55623654029679059,-0.54294281258926591,-0.96687799389147999,0.76707302373973718,0.22934723901789345,-0.64940488868820867,-0.28373799531973476,-0.66957030555008212,-0.75914190504093293,0.08261870145260608,0.74864041381948354,0.0041083874656413499,0.99891141172297804,0.74753114819519539,-0.40694589335941633,-0.6702320238869961,-0.75848288658490337,0.52945544384955223,-0.34490723457256678,0.353653116670676,0.11159108569189913,0.090643875685510578
