-0.46407486070531956,0.71781008551984526,0.89883397513053342,-0.49851544722319541,0.93506523016350163,0.95385819000720695,-0.85379066507076407,0.98117998598589762,-0.42384470356226189,-0.14204677781696518,0.80953460564178892,0.19595779734470464,-0.038504895863174848,0.075144318757342399,-0.30770958036018725,-0.65999071398105014,-0.83718366334546479,0.5865556642212284,0.27005404962634616,0.38460063928558785,-0.31500950346294143,-0.63768692875108113,0.9350546315205075,-0.78283247650324261,-0.65553033678055384,-0.70127331563720263
-0.38792609802363787,0.42208145408637177,0.8887355770597305,-0.76620947301190601,0.98719599053630214,-0.75877445751813855,0.73116542293896392,0.58514506309498104,-0.42273153432736632,-0.051080159211520204,-0.40491107941234405,-0.88137726411548867,-0.67827468777575461,-0.88363940877719727,-0.09988743812359191,-0.64582826014313954,0.91416980951589366,0.070195092227817835,-0.83421595466336784,-0.43076833462072717,0.53552248527871904,0.27683155967135309,-0.19533319666988236,0.76108988988895798,0.69272592914112918,0.80702501916142122
-0.33206731945221235,-0.58713433917735869,-0.38472377582979189,-0.24252502444303703,-0.56614330663546353,-0.32153535041286618,0.28583477188436923,-0.7707810581846577,0.91893467481487301,0.15458715249745758,0.87151651884893511,-0.13860571592835402,0.70074465853712264,0.81777461457355227,-0.16101802061522852,-0.45429196019636264,-0.26809616586273055,-0.092176851369841106,-0.062845651901455302,0.59811437187279815,0.58378280488595058,-0.60397395003659859,0.92499701556740677,0.8035880623725844,-0.10472044037140238,-0.085259728098558307
-0.31289197595324225,0.50028693739546481,0.60506407949789898,0.52617617119790761,0.57436174838468457,-0.07459036708707556,0.5168439170661332,0.20142255680724497,-0.6935688394614814,-0.089664651045775035,0.76187672110426674,-0.47065827758536605,0.064509931607088733,-0.58860189768693427,-0.10269854467232342,0.19852064428022009,0.25070343873230505,0.62412734022408922,-0.001103002252119456,0.16917786831664117,0.2942050193234742,-0.42098912922119225,-0.65464666008232908,0.20256197984488811,0.63367775146578964,-0.93797652606792559
