0.68911637408393234,-0.12918413501048143,-0.86919975016545115,0.15840754375846333,-0.64844614812995616,0.96612567960888907,0.012093605415673281,0.97499179037057981,0.35224518359897505,0.68399759862248,-0.84515754938239396,0.39838151913448483,0.48561606166743365,-0.82093670473271763,-0.27754623812639245,0.28067237013795432,-0.60757109899352901,0.47106688337918756,-0.81747572551044057,0.61059678919872717,0.9496763483808579,-0.29673549635076424,0.60789001454040159,-0.049362924943307407,0.52215184701363948,-0.14663504242118908
0.12721452771798036,0.35746781816024376,-0.66551810653695886,-0.014820872743407598,0.29165211241838507,0.85601545133518697,-0.79937979486922872,0.22045390970135981,-0.46414002485519656,0.73723659690454402,0.99734125554376551,0.63515478565991046,0.42791656730888694,0.25808165540408301,0.38896434410441927,-0.11189137786044734,-0.24376998007973061,0.6884906345991455,-0.7206989416846219,0.67207589718528915,0.54007839411583269,-0.47529272651183763,-0.42975696526413176,-0.75761175555455362,0.72107582361610834,-0.26800117818842129
0.39473547315869428,0.10633372067918434,-0.69741200585345142,0.72906816154763177,-0.43156287230107182,-0.4324212954892126,-0.049607095957098446,0.012333846192476461,-0.71846311354013936,0.55370608152212752,-0.45893720622864609,-0.70585150066919522,0.55984037972757794,0.5399332889312316,0.21959324419166659,-0.24197665830205284,0.86667021329498062,0.12626982698544031,0.091709748706210625,0.74418955821038923,-0.82932035441796681,-0.69106708453849031,0.93551987092101596,0.88544976996813096,0.44542597023050456,-0.29404749914721995
-0.80318343543534154,0.51591051657150788,0.64325493903287323,-0.32520039500815723,-0.55623654029679059,0.54448271761481926,0.80082940244003975,0.43557070192506697,0.22934723901789345,0.70945634546575587,0.96140907625233551,-0.66957030555008212,-0.12323942179483027,0.08261870145260608,0.74864041381948354,0.0041083874656413499,0.56675603868071711,0.92674459787002128,0.35181655279305546,-0.2897664242870952,-0.66164916339275415,-0.63201357424141458,-0.34490723457256678,0.49705317273659966,0.11159108569189913,0.93046079344478372
