-0.78533105809901804,-0.79871900071957858,-0.73989180897264406,-0.36263906167640991,0.69099502046381356,0.95165703281276626,-0.15232093954386139,0.43240385226182099,-0.16680604604381943,-0.54363695831274095,-0.70974354946087659,-0.64011171740566608,-0.93432682872197681,-0.036785030972700028,0.61738922960648712,0.71960817544830191,-0.086658629507393448,-0.65516671420521444,-0.45350840876828458,-0.80307598027501959,-0.34023121162684578,-0.86746606372206547,-0.61725337630492372,0.027344102071334975,-0.70293757618997632,-0.93061584989769508
-0.62191173922913423,-0.69270352693056791,0.71530061241111653,-0.270707559692837,-0.71861391021373877,0.86174981053021193,0.25586058201541872,0.33535049116624505,-0.6024759619761586,0.37224205798471366,0.34990392902755252,0.76104532173250794,-0.88409374552802933,0.6286222435262383,0.93087865616507082,0.56773367838966671,-0.34325914876811026,-0.80702594476212486,-0.20967080806119243,0.30612644384277643,0.34342377703476235,0.31820219570969477,0.06140303677891823,-0.76948962190567594,0.12860659295911647,0.88089226886473337
0.56806200265424489,-0.25432811486138007,-0.028914290970618373,-0.71320467278480137,-0.66312184742307156,0.20191344917477094,-0.38982795854245156,-0.71901325547587303,-0.28906464265333454,-0.16699570376940542,0.8569107878104727,0.77512746299232749,0.084273747933853116,0.84673781089567601,-0.15927558910968176,0.22116914847135805,-0.54078263993526665,0.2283209835839366,0.33241214216670656,0.04572281518605914,0.71672850617943329,0.22646088246820839,-0.049484649425837857,-0.95987564261309477,0.72106248576423893,0.11091993299532543
0.13011328779344922,0.32548011196145432,0.45916574309257507,0.7932088743415342,0.65892086625302815,-0.47541225329286441,0.31644086133517124,0.36081298705569331,-0.8572855545193685,0.52307694013743444,-0.53419297786812625,-0.42779216466815173,0.77000171832226494,0.97486263328720413,0.62182609838584968,0.18564798264311921,-0.76130654816519505,-0.099336199432151995,-0.92613352410841943,0.51123085780281463,-0.50786529518891332,-0.65804584003760014,-0.69186048866781014,0.00503963187688794,0.29152436545456606,0.28799162252085408
