-0.77107390708343826,0.52204889037726576,-0.86919975016545115,0.15840754375846333,-0.64844614812995616,0.96612567960888907,0.012093605415673281,-0.053977779373784562,0.35224518359897505,0.68399759862248,0.11363632415632519,0.39838151913448483,0.48561606166743365,-0.82093670473271763,-0.62441580188669943,0.28067237013795432,-0.53230390427067587,-0.3035658294335033,-0.81747572551044057,0.61059678919872717,0.9496763483808579,-0.29673549635076424,0.60789001454040159,-0.11815448318035204,0.52215184701363948,0.92633271638742554
0.12721452771798036,0.35746781816024376,-0.68464247962991687,-0.014820872743407598,0.29165211241838507,0.85601545133518697,0.46211239229495771,0.22045390970135981,-0.46414002485519656,0.73723659690454402,0.99734125554376551,0.63515478565991046,0.36830131784275655,0.25808165540408301,-0.0041748040998585978,-0.11189137786044734,-0.24376998007973061,0.32413664343508519,0.84924846791298902,0.37102946895709343,-0.7315995010992058,-0.47529272651183763,-0.42975696526413176,-0.75761175555455362,0.72107582361610834,-0.26800117818842129
0.39473547315869428,0.10633372067918434,-0.69741200585345142,-0.74608468450520316,-0.71869685600436273,-0.4324212954892126,0.16774447969837869,-0.56210170783569713,-0.20016733683585053,0.55370608152212752,-0.45893720622864609,0.052462240247207692,-0.7203249388916273,0.90168691755137598,-0.87080509615369239,-0.24197665830205284,0.58861709267664164,0.12626982698544031,0.18693785262138363,0.73422312302495807,0.077701660385400828,-0.69106708453849031,0.93551987092101596,-0.14018525253280179,0.44542597023050456,-0.91951555328647339
-0.80318343543534154,0.51591051657150788,0.64325493903287323,-0.32520039500815723,0.46822902247352838,0.54448271761481926,-0.96687799389147999,0.43557070192506697,-0.76650494504889166,-0.83858786780890804,0.65990345775554715,-0.66957030555008212,0.55206119516876528,0.08261870145260608,-0.87638897390282455,0.0041083874656413499,0.56675603868071711,-0.59682526552970128,0.35181655279305546,-0.93424640689319838,-0.75848288658490337,0.17168578629976716,-0.34490723457256678,0.353653116670676,0.11159108569189913,0.090643875685510578
