0.019177131398685265,-0.087029945972882938,0.39752284844132024,0.5306782216741317,0.32442186823962427,0.68613858362710944,-0.85379066507076407,-0.69618145331260584,0.2216235035085139,-0.69509330637608469,0.80953460564178892,0.19595779734470464,0.035334959422196999,0.36225654795055839,-0.30770958036018725,-0.35909951344715241,-0.5178628454119103,0.11709580908361805,0.93847583703783122,0.025247778907766083,-0.4359906638120683,-0.63768692875108113,0.23836734385021097,0.060770829322642106,-0.34153908344749695,-0.21252437092694132
-0.23824477979310332,0.29241113542708885,-0.39984305271079723,-0.76620947301190601,0.90043071917180173,0.71832225377101855,0.94298467153549081,0.74162914141069614,-0.42273153432736632,-0.051080159211520204,-0.40491107941234405,-0.88137726411548867,-0.24862951479792983,0.79609518337679908,-0.55629433873476031,0.29622376152605456,0.94592432133755677,-0.62229974642109531,0.066380478206310212,0.27564351023180311,0.099473690740250476,0.27683155967135309,0.32012500293744162,0.76108988988895798,0.69272592914112918,0.80702501916142122
-0.65246009609443911,-0.58713433917735869,0.65856538374539375,-0.11086511901111562,-0.56614330663546353,-0.32153535041286618,0.28583477188436923,-0.7707810581846577,0.96404226076342625,-0.27165938150226232,-0.2471264720253632,0.25140042451651246,-0.56987795104125971,-0.90674883418066554,-0.16101802061522852,0.13991546358518292,-0.11727527425010087,-0.092176851369841106,-0.015313103990033827,-0.088022163316706648,-0.1239294879970001,-0.6342694160575737,0.014833701490645002,0.43102088477513623,-0.10472044037140238,-0.20888205911559488
-0.31289197595324225,0.73495176844989363,0.21701354098305359,0.52617617119790761,-0.37762963371029623,-0.07459036708707556,0.90243884225134141,0.20142255680724497,0.95978738677695463,-0.38565094676886802,0.76187672110426674,0.49332342011529295,0.5558698674241509,-0.53394609341937449,0.97727660840047159,0.14904925711531947,0.25070343873230505,0.62412734022408922,-0.001103002252119456,0.50987554269650159,-0.0088466840429251015,-0.027291471256590594,0.43013658100646368,-0.61251238018683174,0.71898525760480991,-0.0053341208601904722
