0.29144192738773,-0.087029945972882938,-0.4517601021632196,0.48046957591886574,0.32442186823962427,0.68613858362710944,-0.59603102927437468,0.40840766323751643,0.2216235035085139,-0.69509330637608469,0.80953460564178892,-0.81362300803914467,0.035334959422196999,0.36225654795055839,0.025533157839552123,0.37764548990408509,-0.5178628454119103,0.5865556642212284,0.26171042886585405,0.025247778907766083,-0.31500950346294143,-0.63768692875108113,0.26735812380578228,-0.11468474377767035,-0.34153908344749695,0.52549728513550731
-0.23824477979310332,0.29241113542708885,-0.92511916659043392,-0.76620947301190601,0.42544759523337183,-0.91968140635267748,0.94298467153549081,-0.49016712685429931,-0.50088938994557308,-0.051080159211520204,0.05729550729990418,-0.75690525536054909,-0.24862951479792983,-0.46965122725439445,-0.49885318499464226,0.1206094594893834,0.33911354966348362,-0.62229974642109531,-0.18334307837057207,0.42578517990896558,0.53552248527871904,0.53380914380549482,-0.11854061976326524,0.65431322784168078,0.68187219719722214,0.80702501916142122
-0.032571290713625745,-0.86273608767328058,-0.38472377582979189,-0.74474626820762979,-0.56614330663546353,-0.32153535041286618,0.28583477188436923,-0.69195193067057592,-0.070917248718608938,0.70862778541612581,-0.2471264720253632,-0.60198677749926066,-0.56987795104125971,-0.90674883418066554,-0.16101802061522852,0.56104926634244023,0.3719525122913796,-0.092176851369841106,0.94579152297887492,-0.0086236769505350086,-0.97192323659512536,-0.222285545823665,0.014833701490645002,0.43102088477513623,0.3962584526847337,0.18502198925536484
-0.31289197595324225,0.79189588105684772,-0.69208433342021869,0.52617617119790761,-0.85215392796744638,-0.07459036708707556,0.90243884225134141,-0.018328077246125396,-0.24403850284307183,-0.089664651045775035,0.51217107949582852,-0.47065827758536605,-0.66282205438852371,-0.53394609341937449,0.52962826676101415,-0.36644119422690746,-0.049801740111286019,0.96159530500287271,-0.001103002252119456,0.50987554269650159,0.2942050193234742,0.79881475730404805,-0.19770458786174405,-0.1903172280778338,-0.66540922283299064,0.095919729019426914
