0.29144192738773,-0.087029945972882938,0.39752284844132024,0.48046957591886574,0.32442186823962427,0.68613858362710944,-0.59603102927437468,-0.69618145331260584,0.2216235035085139,-0.69509330637608469,-0.86424194756263684,0.19595779734470464,0.035334959422196999,0.36225654795055839,0.13170628730761003,0.37764548990408509,-0.75201989418971382,0.5865556642212284,0.93847583703783122,-0.24237963489668068,-0.31500950346294143,-0.58546346583605469,0.23836734385021097,-0.11468474377767035,-0.34153908344749695,0.42523989720291833
0.11806252874962198,0.33226594676332777,0.38952025277533742,-0.76620947301190601,-0.10377517458970598,-0.91968140635267748,0.94298467153549081,-0.49016712685429931,0.95854564081167704,-0.051080159211520204,0.62839462031669968,-0.88137726411548867,-0.24862951479792983,-0.96737924438239187,-0.49885318499464226,0.1206094594893834,-0.71650353132425604,-0.31355797712702027,-0.18334307837057207,-0.15143199056382906,0.53552248527871904,0.27683155967135309,-0.11854061976326524,-0.16518327013707457,0.69272592914112918,0.80702501916142122
-0.032571290713625745,-0.58713433917735869,-0.38472377582979189,0.054996478881858879,-0.56614330663546353,-0.32153535041286618,0.29429711273850589,-0.7707810581846577,0.96404226076342625,0.70862778541612581,-0.80696595296443485,0.32819528632788342,-0.72133313855190906,-0.90674883418066554,-0.16101802061522852,-0.53178456963950049,-0.26809616586273055,-0.97937027839526225,0.72372412204874914,-0.088022163316706648,-0.1239294879970001,-0.222285545823665,0.014833701490645002,0.43102088477513623,-0.10472044037140238,-0.085259728098558307
-0.31289197595324225,0.4520045052136934,0.7726755160406007,0.84904845078410873,0.82883650656118379,-0.07459036708707556,0.90243884225134141,-0.51720252196851213,-0.24403850284307183,0.81278002816693173,0.51217107949582852,-0.47065827758536605,-0.66282205438852371,-0.53394609341937449,-0.070819166711496573,-0.36644119422690746,0.25070343873230505,0.96159530500287271,-0.001103002252119456,0.50987554269650159,-0.96349427200578308,-0.58636802478099836,0.54612454504932728,0.71355285878983565,-0.66540922283299064,0.095919729019426914
