0.24943388461706784,-0.087029945972882938,0.39752284844132024,0.48046957591886574,0.32442186823962427,-0.10827124253392206,-0.59603102927437468,-0.69618145331260584,0.2216235035085139,-0.69509330637608469,0.80953460564178892,0.39906539266669494,0.035334959422196999,0.36225654795055839,-0.87301255296941793,0.37764548990408509,-0.5178628454119103,0.41006686653349256,0.23444712205475549,0.025247778907766083,-0.31500950346294143,0.91505424653720691,0.50341581323553464,-0.11468474377767035,-0.34153908344749695,0.52549728513550731
-0.15860747510958495,-0.94525201936225334,0.38952025277533742,-0.76620947301190601,-0.10377517458970598,-0.91968140635267748,0.94298467153549081,0.31992307556042143,-0.42273153432736632,-0.051080159211520204,0.05729550729990418,-0.88137726411548867,-0.24862951479792983,-0.46965122725439445,-0.49885318499464226,0.1206094594893834,0.33911354966348362,-0.62229974642109531,-0.18334307837057207,0.56222182614155081,-0.94866924596896562,0.27683155967135309,-0.11854061976326524,-0.530273011486049,0.13799043056152938,0.80702501916142122
-0.032571290713625745,-0.58713433917735869,-0.38472377582979189,0.43910619681775476,-0.56614330663546353,-0.32153535041286618,0.28583477188436923,-0.7707810581846577,-0.76041100810787055,0.70862778541612581,-0.17984183968739198,0.32819528632788342,-0.56987795104125971,-0.90674883418066554,-0.9990240407681199,0.56104926634244023,-0.26809616586273055,-0.092176851369841106,0.94579152297887492,-0.088022163316706648,-0.1239294879970001,-0.222285545823665,0.014833701490645002,0.43102088477513623,0.16944065040149825,-0.085259728098558307
-0.31289197595324225,0.99880831320724073,-0.69208433342021869,0.52617617119790761,-0.37762963371029623,-0.07459036708707556,0.90243884225134141,-0.018328077246125396,-0.24403850284307183,-0.089664651045775035,0.51217107949582852,-0.47065827758536605,-0.66282205438852371,-0.53394609341937449,0.52962826676101415,-0.36644119422690746,-0.93020213074023372,0.96159530500287271,-0.001103002252119456,0.50987554269650159,0.2942050193234742,-0.027291471256590594,-0.19770458786174405,-0.61251238018683174,-0.66540922283299064,0.18967874435583054
