0.29144192738773,-0.41801423432104667,0.39752284844132024,0.75906821452254358,0.32442186823962427,0.68613858362710944,-0.59603102927437468,-0.69618145331260584,0.2216235035085139,-0.69509330637608469,0.80953460564178892,0.19595779734470464,0.035334959422196999,0.36225654795055839,-0.4498287062716968,0.093585333742356447,-0.99050563099743449,0.5865556642212284,0.93847583703783122,0.025247778907766083,0.56375811081748695,0.20695956344390476,0.23836734385021097,-0.67096426200313841,-0.34153908344749695,0.52549728513550731
-0.23824477979310332,0.29241113542708885,0.28696082756889663,-0.041536941939748218,0.77559521091440042,-0.91968140635267748,0.94298467153549081,0.77506802328634072,-0.42273153432736632,-0.99386971216814568,0.05729550729990418,-0.88137726411548867,-0.24862951479792983,0.42562310291609817,-0.49885318499464226,0.1206094594893834,-0.33251510829837416,0.58215119603637411,-0.18334307837057207,-0.15143199056382906,0.74382506585826746,-0.90922686606744252,-0.019855128963452984,-0.69132210271527916,0.69272592914112918,0.44405487631662766
-0.82888547666081513,-0.3419313559853272,-0.38472377582979189,0.79505222730175573,-0.56614330663546353,-0.70890603216576142,0.93740619475440434,-0.7707810581846577,0.50819591830855315,-0.38353783910892059,-0.2471264720253632,-0.52904645929776373,-0.56987795104125971,-0.90674883418066554,-0.16101802061522852,0.56104926634244023,-0.27626883497500421,-0.34673665701148448,-0.73271416559409541,-0.24088435742012759,0.57183968579538003,-0.222285545823665,0.014833701490645002,0.053495895568975271,-0.10472044037140238,0.087623652078801628
0.38597202804079056,-0.17714651575558271,-0.69208433342021869,-0.4896530604215541,0.30869737231100669,-0.07459036708707556,0.90243884225134141,0.88660221484655777,-0.85992351226359465,0.34574093142409512,0.51217107949582852,0.50953123285449053,-0.66282205438852371,0.15859362070517791,0.52962826676101415,-0.36644119422690746,0.25070343873230505,0.96159530500287271,-0.99144800575569358,0.50987554269650159,0.2942050193234742,-0.027291471256590594,0.37356896300651243,-0.71701119347333941,0.1553403678136358,0.095919729019426914
