0.29144192738773,-0.087029945972882938,-0.20940896046747159,-0.83072333704091461,0.32442186823962427,0.68613858362710944,-0.59603102927437468,-0.69618145331260584,-0.95671082637530303,-0.69509330637608469,0.80953460564178892,0.19595779734470464,0.035334959422196999,0.36225654795055839,0.81486781206440262,0.093585333742356447,-0.99050563099743449,0.5865556642212284,0.93847583703783122,-0.32544982184820959,0.56375811081748695,-0.63768692875108113,0.54170212055253053,-0.74632768240981173,-0.34153908344749695,0.52549728513550731
-0.23824477979310332,0.29241113542708885,0.32193500067013003,0.46683838126273969,0.77559521091440042,-0.91968140635267748,0.94298467153549081,-0.49016712685429931,-0.42273153432736632,-0.99386971216814568,0.05729550729990418,-0.88137726411548867,-0.24862951479792983,-0.46965122725439445,-0.49885318499464226,0.1206094594893834,-0.82924900688231418,0.58215119603637411,-0.18334307837057207,-0.15143199056382906,0.9462944911073321,0.27683155967135309,-0.019855128963452984,-0.69132210271527916,-0.38369821907861845,0.80702501916142122
-0.032571290713625745,-0.3419313559853272,-0.38472377582979189,0.79505222730175573,-0.56614330663546353,-0.32153535041286618,0.28583477188436923,0.26174405616852026,0.15722456235094473,-0.38353783910892059,-0.2471264720253632,-0.52904645929776373,-0.56987795104125971,0.63070697356920546,-0.74466214325611468,0.56104926634244023,-0.068547524283659955,-0.34673665701148448,0.94579152297887492,-0.088022163316706648,-0.92399660020484942,-0.222285545823665,-0.46090949502673273,0.33079497824953297,-0.10472044037140238,-0.085259728098558307
0.38597202804079056,0.99880831320724073,-0.69208433342021869,-0.57377511067517206,-0.37762963371029623,-0.07459036708707556,0.90243884225134141,-0.018328077246125396,-0.24403850284307183,-0.17514859318018727,0.51217107949582852,-0.47065827758536605,-0.66282205438852371,-0.53394609341937449,0.52962826676101415,-0.69280894901364798,-0.021742121831338279,0.96159530500287271,-0.99144800575569358,-0.23476132907533831,0.16756692272303519,-0.027291471256590594,-0.19770458786174405,0.32589113921868584,-0.7440054535791103,0.095919729019426914
