0.29144192738773,-0.87658733376153353,0.050970160605587012,-0.6203930717212478,0.32442186823962427,0.68613858362710944,-0.59603102927437468,0.81783606671195774,0.2216235035085139,-0.69509330637608469,-0.085442164820930255,0.19595779734470464,0.035334959422196999,0.36225654795055839,-0.72201378190848731,-0.16245349883068649,-0.99050563099743449,0.5865556642212284,0.93847583703783122,0.025247778907766083,0.56375811081748695,-0.29673549635076424,0.23836734385021097,-0.74632768240981173,-0.34153908344749695,0.89461233251461358
-0.23824477979310332,0.29241113542708885,0.38952025277533742,-0.76620947301190601,-0.64614481410382085,-0.18309627606349621,0.46548809695003346,0.49083619268554668,-0.42273153432736632,-0.99386971216814568,0.05729550729990418,-0.88137726411548867,-0.46976472452733264,-0.46965122725439445,-0.49885318499464226,0.1206094594893834,0.38494122322617286,0.58215119603637411,-0.18334307837057207,0.55256218885764352,0.74382506585826746,0.27683155967135309,-0.019855128963452984,0.70823550583473738,0.69272592914112918,-0.31376465853485458
-0.032571290713625745,-0.3419313559853272,-0.58931137297295488,-0.7132196535635813,-0.56614330663546353,-0.32153535041286618,0.60063567316542299,0.48020094866270568,0.15722456235094473,-0.38353783910892059,-0.00045908210246348169,-0.52904645929776373,0.71368517583691071,0.68664752909949645,-0.16101802061522852,0.13568397926376452,-0.27626883497500421,-0.34673665701148448,0.94579152297887492,-0.088022163316706648,0.57183968579538003,0.10000978332980748,0.58156585066613098,0.3987170228186816,-0.10472044037140238,-0.085259728098558307
0.66204032515194045,0.99880831320724073,0.48270938847682365,-0.4896530604215541,-0.37762963371029623,0.284784874768093,0.90243884225134141,-0.018328077246125396,-0.24403850284307183,-0.089664651045775035,0.11847164108115615,0.87546846565035086,-0.66282205438852371,-0.53394609341937449,0.079834506238824599,-0.36644119422690746,0.25070343873230505,0.52046954314360994,-0.99144800575569358,-0.72733874695303125,0.2942050193234742,0.51663212494068889,-0.19770458786174405,0.32589113921868584,0.52548769265539508,0.095919729019426914
