0.29144192738773,-0.87658733376153353,0.050970160605587012,-0.6203930717212478,0.32442186823962427,0.68613858362710944,-0.59603102927437468,-0.69618145331260584,0.92567887599003251,-0.92702834080670771,0.3726996372364042,0.93260867908452694,0.035334959422196999,0.36225654795055839,0.81486781206440262,0.093585333742356447,-0.99050563099743449,-0.74529353061987869,0.93847583703783122,0.025247778907766083,-0.09364246564737666,0.035501205422554527,0.23836734385021097,-0.21096376123552907,-0.34153908344749695,0.52549728513550731
-0.23824477979310332,0.29241113542708885,-0.72536543430668488,0.24704852999807536,0.77559521091440042,0.81894564027554329,0.62907809794404801,0.49083619268554668,-0.42273153432736632,-0.99386971216814568,0.05729550729990418,-0.1184054798130576,-0.34426158311614397,-0.24713278287616758,-0.49885318499464226,0.1206094594893834,0.38494122322617286,0.58215119603637411,-0.18334307837057207,-0.82789255649955673,0.74382506585826746,0.27683155967135309,-0.019855128963452984,0.70823550583473738,0.69272592914112918,-0.31376465853485458
-0.032571290713625745,-0.3419313559853272,0.18482081023749974,-0.7132196535635813,0.55751762076714839,-0.48600061413575668,0.28583477188436923,-0.7707810581846577,0.15722456235094473,-0.38353783910892059,-0.2471264720253632,-0.52904645929776373,-0.56987795104125971,0.30369070284470312,-0.16101802061522852,-0.22901675406234556,-0.27626883497500421,-0.34673665701148448,0.94579152297887492,-0.77015844230499342,0.57183968579538003,-0.222285545823665,-0.62114040085137412,0.3987170228186816,0.9444683008050796,-0.085259728098558307
0.38597202804079056,0.99880831320724073,0.48270938847682365,0.78478977393433569,-0.37762963371029623,0.284784874768093,0.90243884225134141,-0.018328077246125396,-0.24403850284307183,-0.089664651045775035,-0.28719041521201705,-0.47065827758536605,-0.66282205438852371,-0.53394609341937449,0.079834506238824599,-0.36644119422690746,0.25070343873230505,-0.60162395152590786,-0.99144800575569358,-0.94653898766546196,0.2942050193234742,0.51663212494068889,-0.068866942711719448,0.32589113921868584,0.85253052468005386,0.095919729019426914
