0.29144192738773,-0.87658733376153353,0.050970160605587012,0.96610366943017767,0.32442186823962427,0.066429446159729455,-0.59603102927437468,-0.69618145331260584,-0.35999208417970241,-0.69509330637608469,-0.085442164820930255,0.19595779734470464,0.035334959422196999,0.36225654795055839,0.81486781206440262,0.093585333742356447,-0.99050563099743449,-0.85870487779138172,-0.047530323263194063,0.025247778907766083,0.45805165245638224,-0.29673549635076424,0.23836734385021097,-0.74632768240981173,-0.34153908344749695,0.52549728513550731
-0.23824477979310332,0.29241113542708885,-0.019703075106776158,-0.76620947301190601,0.77559521091440042,-0.91968140635267748,0.46548809695003346,0.49083619268554668,-0.42273153432736632,-0.35650940712832546,0.05729550729990418,-0.88137726411548867,-0.24862951479792983,-0.46965122725439445,0.71872721235583037,0.1206094594893834,0.38494122322617286,0.40424766482853558,-0.18334307837057207,-0.15143199056382906,0.74382506585826746,0.27683155967135309,-0.27840809668265853,0.70823550583473738,0.69272592914112918,-0.31376465853485458
-0.032571290713625745,-0.3419313559853272,0.61313077004393612,-0.7132196535635813,-0.56614330663546353,-0.32153535041286618,0.28583477188436923,-0.7707810581846577,0.15722456235094473,-0.38353783910892059,-0.2471264720253632,-0.52904645929776373,-0.56987795104125971,0.68664752909949645,-0.68170833857689339,-0.22901675406234556,0.62787625697844751,-0.34673665701148448,0.94579152297887492,-0.088022163316706648,0.57183968579538003,-0.2258363773431431,-0.75300490629110861,-0.59679301789911765,-0.10472044037140238,0.59947394784261898
0.38597202804079056,0.61166102038240244,0.48270938847682365,-0.4896530604215541,-0.37762963371029623,0.284784874768093,0.90243884225134141,-0.70506791235247235,0.20419039980335074,-0.089664651045775035,0.79611569582160602,-0.47065827758536605,-0.66282205438852371,-0.53394609341937449,0.079834506238824599,-0.36644119422690746,0.25070343873230505,0.32172922852526709,-0.99144800575569358,-0.94653898766546196,0.2942050193234742,0.17027241749662614,-0.47729781793463522,0.32589113921868584,0.85253052468005386,0.095919729019426914
