-0.25058068628700814,0.34985144269815005,-0.23736747918870593,-0.26399995121132225,0.71808318351491796,0.50537943073276548,0.85673438016507841,-0.98845180495364815,0.52441519060588204,0.42297725730049018,-0.79546156133026735,0.025660163308024453,-0.48312129580599827,0.85582532613364748,0.54035192016295697,-0.91726552902747338,-0.68518811856428452,-0.055772785515030954,-0.13886398172827241,0.36257697285559498,-0.081386111296148922,0.39120381620975109,-0.43624376384885344,-0.2159556950706174,0.80059144577268326,0.34111240383776376
-0.70246048564539443,0.23100547180003805,-0.090077864794567919,0.66466308582168176,-0.36571719627681087,0.24500397425195519,0.34859601486385827,-0.68699270846310401,-0.8341034467374433,0.77166191718443566,-0.0010269840232621785,0.97167519946868897,0.23083156716960285,-0.25233972610722732,0.65143967362903776,0.98755144281551988,0.87332616121504292,-0.45836696745532191,0.65396908943776144,-0.26001123950616112,0.02907478619961279,-0.37301308633358232,0.51776522234799227,-0.11272131003551422,-0.69734058688651301,-0.55349797546385049
-0.53085702460346651,0.82093861755487363,0.75605952162010159,0.31216774200284747,-0.69075232093913463,0.66569377813431485,-0.48158017715660462,0.98815785931884403,-0.37500051982354199,-0.042535692562218674,-0.59571777514152457,-0.13329092979600876,-0.3082858363649279,-0.63089990717656685,0.056958091505773911,-0.5256148584777014,0.89511520116181686,-0.67559340356159736,-0.99778234848472991,-0.31764182933784646,0.99697364867535332,0.71542214792983283,-0.31520156801964871,0.14640499550427988,-0.57007184236352493,-0.8601675511335285
0.74616043150884948,-0.90940468404320263,-0.55433749621078388,0.076028080278233157,-0.14552744894375014,0.37309833376132495,-0.82613203082326758,0.57617462683563203,0.75276449375250643,-0.011972957623135771,-0.22996670756448045,-0.13644992743564588,-0.7922232862890366,-0.15988514225659389,-0.88073761942975137,-0.47106124068611499,0.59106534399776289,0.067037895029647299,0.50605677861923359,0.63482146366092507,0.12152147303045702,0.12626229730597371,0.07799132592419955,0.098940503269208113,-0.93322043230420504,0.12034295339824652
