0.29144192738773,-0.87658733376153353,0.050970160605587012,-0.6203930717212478,0.32442186823962427,0.68613858362710944,-0.59603102927437468,-0.69618145331260584,0.2216235035085139,-0.69509330637608469,0.38228214405138528,0.19595779734470464,0.035334959422196999,0.36225654795055839,0.81486781206440262,0.093585333742356447,0.030353146579252144,0.5865556642212284,0.93847583703783122,0.025247778907766083,-0.99584693831282145,-0.29673549635076424,0.23836734385021097,-0.54862400320782112,-0.34467552739603025,0.52549728513550731
-0.23824477979310332,0.29241113542708885,0.38952025277533742,-0.76620947301190601,0.33375871868700457,-0.91968140635267748,0.48237802440649502,0.49083619268554668,-0.42273153432736632,-0.99386971216814568,0.05729550729990418,-0.88137726411548867,-0.24862951479792983,-0.46965122725439445,-0.49885318499464226,0.1206094594893834,0.38494122322617286,-0.58731629711175315,-0.18334307837057207,0.76767328117009881,0.74382506585826746,0.27683155967135309,-0.019855128963452984,0.70823550583473738,0.69272592914112918,-0.31376465853485458
-0.032571290713625745,0.27578999754707079,0.54122757812479549,-0.7132196535635813,-0.56614330663546353,0.66610466880821773,-0.79854402977312788,-0.7707810581846577,0.15722456235094473,-0.53116361512835231,0.99953066860060868,-0.52904645929776373,-0.56987795104125971,0.68664752909949645,-0.16101802061522852,-0.22901675406234556,-0.27626883497500421,-0.34673665701148448,0.78647726094310433,-0.088022163316706648,-0.50142357833690032,-0.222285545823665,-0.62114040085137412,0.3987170228186816,-0.10472044037140238,-0.085259728098558307
0.38597202804079056,0.99880831320724073,0.48270938847682365,-0.086959126703168854,-0.37762963371029623,0.284784874768093,0.90243884225134141,-0.018328077246125396,-0.24403850284307183,-0.089664651045775035,0.79611569582160602,0.54283062519961045,-0.66282205438852371,-0.53394609341937449,0.079834506238824599,-0.36644119422690746,0.14618358188030789,-0.12967906435631282,-0.73161995069975694,-0.94653898766546196,0.2942050193234742,-0.94878255119028077,-0.19770458786174405,0.32589113921868584,0.65619059963580217,-0.58813216823929304
