0.29144192738773,-0.49516149214769811,0.050970160605587012,-0.15967960291364869,0.50895252952115055,0.38966597258215097,-0.56692344070904155,-0.69618145331260584,-0.41691311440880585,0.74091418593012826,-0.085442164820930255,-0.85611996238197907,0.035334959422196999,0.36225654795055839,-0.10273518855935038,0.093585333742356447,-0.99050563099743449,-0.16940260119651507,0.93847583703783122,0.9686843354587189,0.56375811081748695,-0.29673549635076424,0.23836734385021097,-0.74632768240981173,-0.34153908344749695,0.52549728513550731
-0.23824477979310332,-0.82393118356816464,0.38952025277533742,0.56938867406390248,0.31577630464803175,-0.059488042887007486,0.46548809695003346,-0.11616131937013474,0.58908101270829527,-0.99386971216814568,-0.26110228332907903,-0.88137726411548867,-0.48405109670886892,-0.46965122725439445,-0.49885318499464226,0.47941005160680117,0.28160588568076372,0.58215119603637411,-0.28360043760245146,0.37360218538234702,0.74382506585826746,0.27683155967135309,-0.019855128963452984,0.70823550583473738,0.69272592914112918,-0.31376465853485458
0.52759419993309109,0.18808431501015588,-0.58931137297295488,-0.7132196535635813,-0.56614330663546353,-0.32153535041286618,0.28583477188436923,-0.7707810581846577,0.15722456235094473,-0.96374364955810354,-0.2471264720253632,0.48752275214708951,-0.56987795104125971,0.68664752909949645,-0.16101802061522852,-0.22901675406234556,0.71377516371482086,-0.14624187203602967,0.94579152297887492,-0.088022163316706648,0.57183968579538003,0.87669034736658724,0.79877325629223472,0.3987170228186816,-0.10472044037140238,-0.085259728098558307
0.38597202804079056,0.99880831320724073,0.48270938847682365,-0.4896530604215541,-0.37762963371029623,0.284784874768093,0.90243884225134141,-0.018328077246125396,0.85348066334609718,-0.24521055730595465,0.11596242773830823,-0.47065827758536605,0.55585707036986176,0.11555219203582512,0.079834506238824599,0.72993129226759534,0.25070343873230505,-0.12967906435631282,-0.99144800575569358,-0.94653898766546196,0.2942050193234742,0.51632534575432554,-0.96702472119209748,0.50807901811573752,0.85253052468005386,0.095919729019426914
