0.29144192738773,0.58828678142485624,0.050970160605587012,0.53281076029085339,0.32442186823962427,0.38966597258215097,-0.58373501485359469,-0.69618145331260584,-0.65893928292686565,-0.69509330637608469,0.53954900162962049,-0.58464981812620964,0.035334959422196999,0.36225654795055839,-0.9610541017106744,0.093585333742356447,0.66752457199955195,-0.044967401005154617,0.39108723659124611,0.82052188798606407,0.45058207773102121,-0.29673549635076424,-0.76856069836506502,0.36389537115505277,-0.34153908344749695,0.66552988083941633
-0.23824477979310332,-0.40807293306994419,0.38952025277533742,0.56938867406390248,0.77559521091440042,-0.50459760681195331,0.84825287403464467,0.49083619268554668,-0.36172320243949896,0.0058103476948161425,-0.26110228332907903,-0.60203406057933528,0.92996205959220002,-0.46965122725439445,-0.49885318499464226,0.10190840386829403,0.38494122322617286,0.58215119603637411,-0.18334307837057207,0.37360218538234702,0.48608999351137894,0.27683155967135309,-0.019855128963452984,0.70823550583473738,0.69272592914112918,-0.31376465853485458
0.95640192232649612,0.18808431501015588,-0.58931137297295488,-0.7132196535635813,0.46525685478197043,-0.32153535041286618,0.53831294547534347,-0.7707810581846577,-0.68430435365109599,0.090639528611520692,-0.2471264720253632,-0.1164948459929056,0.068750708256164472,0.68664752909949645,-0.16101802061522852,0.84684340234559485,-0.27626883497500421,0.39676770801886518,0.94579152297887492,-0.52419699538726272,0.57183968579538003,0.21177640790533681,0.79877325629223472,0.25921517883002299,0.34696667332705222,-0.085259728098558307
-0.57270902847526139,0.22974529317177494,0.48270938847682365,-0.4896530604215541,-0.53609664925308254,-0.12126491604671963,0.24274774372974783,-0.018328077246125396,0.85348066334609718,0.42004002543467833,-0.90852331524763086,-0.47065827758536605,0.55585707036986176,-0.4875359571254827,-0.3958111789524994,0.27127115461672835,0.25070343873230505,-0.12967906435631282,-0.99144800575569358,-0.59345075915347012,0.3101974328843371,-0.81984757090859595,-0.96702472119209748,0.84448287747715622,0.67554996620432961,0.095919729019426914
