0.29144192738773,0.93553228394251531,-0.20992313718901623,0.2230941834280824,0.32442186823962427,0.38966597258215097,-0.58373501485359469,-0.69618145331260584,-0.41691311440880585,-0.69509330637608469,-0.085442164820930255,-0.85611996238197907,0.96985036848414752,0.36225654795055839,-0.9610541017106744,0.52129027735490263,-0.16161685168753981,-0.16940260119651507,0.93847583703783122,0.9686843354587189,0.56375811081748695,-0.29673549635076424,0.23836734385021097,-0.053763193255889519,-0.34153908344749695,0.52549728513550731
-0.23824477979310332,-0.82393118356816464,0.38952025277533742,0.56938867406390248,-0.77394135891602933,-0.76730133516097676,0.46548809695003346,0.49083619268554668,-0.42273153432736632,0.92488002347090759,-0.33632636787589676,0.69180782339183122,-0.24862951479792983,-0.46965122725439445,-0.49885318499464226,0.39676430522328032,0.38494122322617286,0.58215119603637411,-0.18334307837057207,0.37360218538234702,0.74382506585826746,0.27683155967135309,-0.019855128963452984,0.70823550583473738,-0.948715487536403,-0.31376465853485458
-0.74290992292607139,0.72950904276403072,-0.58931137297295488,-0.7132196535635813,-0.56614330663546353,-0.32153535041286618,0.28583477188436923,-0.7707810581846577,0.15722456235094473,-0.72539646741116615,-0.2471264720253632,0.48752275214708951,-0.56987795104125971,0.68664752909949645,-0.16101802061522852,-0.22901675406234556,-0.27626883497500421,-0.013462097429102204,0.94579152297887492,-0.088022163316706648,0.57183968579538003,0.87669034736658724,-0.41947541025262836,0.12329634504175635,-0.0020333501146578836,-0.085259728098558307
0.38597202804079056,0.8119170402257414,0.48270938847682365,-0.4896530604215541,-0.95418244273504182,0.284784874768093,0.23642085146734804,-0.018328077246125396,0.85348066334609718,-0.089664651045775035,-0.45928332452164078,-0.47065827758536605,-0.70244346040142758,-0.16664869721565778,0.079834506238824599,0.27127115461672835,0.25070343873230505,-0.12967906435631282,-0.99144800575569358,-0.94653898766546196,0.2942050193234742,0.51663212494068889,-0.96702472119209748,0.84448287747715622,0.85253052468005386,0.095919729019426914
