-0.83420718473123223,0.15014965050260631,0.212280793734555,-0.067243759984967788,-0.15692277885795813,-0.76065780940991878,-0.36674936378921696,-0.42422211496213125,-0.11783440448503746,0.81609052024925988,0.45058479517234873,-0.19489580189791078,-0.83721584305802987,0.74896450464478526,-0.94159199786899062,-0.60639800970105973,-0.53414599802825524,0.88223747933927177,-0.16033145736491683,0.39370631730091121,-0.78388578726522828,0.19837793594291142,0.74818075656240146,0.43390173963185763,-0.82693595531792452,0.40323049074733475
-0.75863921039820914,-0.97220396050477209,-0.33049141084636191,0.52414347908879466,-0.55429646054150838,-0.58656969361576161,0.45467322775987729,0.83698674275188267,0.59921067425322283,-0.6337472635170609,-0.92628934066109681,0.44514255759650623,0.22847154863142216,0.62488598344851898,0.65332121734615112,-0.61433107485440397,-0.52138678873993372,0.69875781385168878,-0.60101358524267323,-0.29726716466065972,-0.31394221452235294,-0.43492010100123624,0.69680517793263119,0.49794021268705868,-0.58228773695874247,0.52794440552473554
0.13655058499536255,0.72063202967473394,-0.29627117779413625,-0.20223409003437109,-0.29493645332696206,-0.094612354804948229,-0.65384911170104432,-0.085101190112070624,0.687757703720002,0.28613987457098178,-0.81588540773143281,-0.71844051656450092,-0.37389674458382749,0.38126890337013131,0.88247400345847238,-0.71020739759641138,-0.049409599399975468,0.34996878545289656,-0.99929416283002914,0.12942337026788553,0.95235705813646021,0.80365521550943053,0.41805736189288512,-0.91093644789706651,-0.82976507454760462,0.34005877151355768
0.83445840929641979,0.6533367148705771,0.23499328722513857,0.43988239449696476,0.92241508973644493,-0.90316778011887999,0.98326816441033427,-0.54414380507064197,-0.27199855556856112,0.76648365924140571,-0.43142073210078946,-0.95183769364957049,-0.42284348272959216,0.4264126460367641,-0.88075320543697244,0.3981141747657424,-0.49436237365516833,0.5843180417631153,-0.26197491399606232,-0.90369688083648425,-0.25968474829280375,0.2937814184502503,-0.85443903824039191,-0.86367195942270159,0.23909535184867781,0.5828463032673914
