-0.51487747762333469,-0.49516149214769811,0.050970160605587012,-0.15967960291364869,0.32442186823962427,0.21454492240637113,-0.58373501485359469,-0.69618145331260584,-0.41691311440880585,-0.69509330637608469,-0.085442164820930255,-0.85611996238197907,-0.68573300543031568,0.36225654795055839,-0.9610541017106744,0.093585333742356447,-0.56641195693886592,-0.16940260119651507,0.93847583703783122,0.9686843354587189,-0.043626344570667719,-0.29673549635076424,0.23836734385021097,-0.74632768240981173,0.64474684947612171,0.077425688690170524
-0.23824477979310332,-0.82393118356816464,0.38952025277533742,0.89786907596731025,0.77559521091440042,-0.059488042887007486,0.72794709820293702,0.49083619268554668,-0.42273153432736632,-0.99386971216814568,-0.26110228332907903,-0.88137726411548867,-0.24862951479792983,-0.46965122725439445,-0.49885318499464226,0.1206094594893834,0.38494122322617286,0.58215119603637411,-0.18334307837057207,0.37360218538234702,0.74382506585826746,0.27683155967135309,-0.019855128963452984,0.70823550583473738,0.69272592914112918,-0.31376465853485458
-0.032571290713625745,0.18808431501015588,-0.58931137297295488,-0.7132196535635813,-0.56614330663546353,-0.32153535041286618,0.28583477188436923,-0.85670251737166048,0.15722456235094473,-0.96374364955810354,-0.2471264720253632,-0.34542980100755427,-0.56987795104125971,0.68664752909949645,-0.16101802061522852,-0.072351738412657296,-0.27626883497500421,-0.67375756036261492,0.94579152297887492,-0.088022163316706648,0.1783553808684426,0.87669034736658724,0.79877325629223472,0.3987170228186816,-0.10472044037140238,-0.085259728098558307
-0.1718644068354378,0.95197007690841473,-0.84332804951143703,-0.4896530604215541,-0.70445692506300017,0.47159780937576889,0.90243884225134141,0.27458619749366475,0.85348066334609718,-0.089664651045775035,0.11596242773830823,0.0094402875225911842,0.55585707036986176,-0.16664869721565778,0.079834506238824599,0.27127115461672835,0.25070343873230505,-0.42855101244733995,-0.99144800575569358,0.40307137134542148,-0.86443513678650619,-0.77284218139778416,-0.96702472119209748,0.84448287747715622,0.85253052468005386,0.095919729019426914
