0.29144192738773,-0.49516149214769811,0.050970160605587012,-0.29206285338411697,0.32442186823962427,0.38966597258215097,-0.58373501485359469,0.73620703322348358,-0.65893928292686565,-0.69509330637608469,0.53954900162962049,-0.58464981812620964,-0.83840899379418943,0.36225654795055839,0.43520569540170873,0.093585333742356447,0.66752457199955195,-0.82574532079346952,0.39108723659124611,-0.1476040473318585,0.45058207773102121,-0.29673549635076424,0.23836734385021097,0.24397091698529749,-0.67941116390364864,0.47571849467791716
-0.23824477979310332,-0.82393118356816464,0.38952025277533742,0.56938867406390248,0.77559521091440042,-0.059488042887007486,0.84825287403464467,0.69235864566592675,-0.36172320243949896,-0.87713696963901566,-0.26110228332907903,0.77497175843905808,-0.29473595922823681,-0.46965122725439445,-0.49885318499464226,0.10190840386829403,0.38494122322617286,0.58215119603637411,-0.18334307837057207,0.37360218538234702,0.48608999351137894,0.27683155967135309,-0.019855128963452984,0.70823550583473738,0.61233801227751017,0.20655676537600876
-0.2167146939468485,-0.52127938762102377,-0.58931137297295488,-0.7132196535635813,-0.56614330663546353,-0.32153535041286618,0.53831294547534347,-0.7707810581846577,-0.68430435365109599,0.090639528611520692,-0.2471264720253632,-0.16561273651391106,0.16203886158977698,0.21821209873124836,-0.16101802061522852,0.84684340234559485,0.93978556113572442,0.39676770801886518,0.94579152297887492,-0.52419699538726272,0.57183968579538003,0.87669034736658724,0.40208321084262244,-0.97419557300294857,-0.10472044037140238,-0.085259728098558307
-0.57270902847526139,0.99880831320724073,0.48270938847682365,-0.4896530604215541,-0.47414886957974578,-0.12126491604671963,0.32953429482315322,-0.018328077246125396,0.94348826051164458,0.53779966592380135,0.11596242773830823,-0.46917290175571136,0.55585707036986176,-0.4875359571254827,0.079834506238824599,0.27127115461672835,0.25070343873230505,-0.12967906435631282,-0.99144800575569358,-0.59345075915347012,0.2942050193234742,-0.81984757090859595,-0.96702472119209748,0.84448287747715622,-0.64332070083601889,0.79207854632576069
