0.11310839951564589,0.044241207604277522,0.050970160605587012,-0.29206285338411697,-0.64844614812995616,0.38966597258215097,0.27224662759171525,-0.69618145331260584,-0.99790383444612241,0.2897318242708824,-0.033926474277588659,0.29297378325090939,-0.84568962796262515,-0.88432870691251741,-0.9610541017106744,-0.17358835611306311,-0.45474500866397038,0.67466001942656351,0.39108723659124611,-0.8431241581717821,0.45058207773102121,0.94860787326646201,0.87894022283565199,0.24397091698529749,-0.34153908344749695,0.52549728513550731
0.91124516918938991,-0.82393118356816464,0.42901667552409228,-0.76643701772300465,-0.62226925969393188,-0.6324074712171539,0.37355052622627216,0.29368189788171506,-0.36172320243949896,-0.99386971216814568,0.3758268060489931,-0.81354773570544303,-0.24862951479792983,-0.31520745254965221,-0.49885318499464226,-0.61315061053564124,0.38494122322617286,0.55433813210057448,0.05165920054140094,0.66935823423425211,0.63719463662714215,0.27683155967135309,-0.019855128963452984,0.70823550583473738,0.69272592914112918,-0.26468353958753399
0.0037716875192363997,-0.23123497697947126,-0.11157621694554121,-0.33930641108209736,0.13656198976955269,0.82589972627322994,0.095934465342206954,0.47939005673726021,-0.68430435365109599,0.090639528611520692,-0.59257633772621254,-0.50616728079751594,-0.1002186643776366,0.68664752909949645,0.069954341217970839,-0.0051324082258663584,-0.27626883497500421,0.39676770801886518,-0.49570439061574167,-0.64847729031285817,0.9773682998575195,0.46384573858962885,0.39475471789493422,-0.97419557300294857,0.67290546492729719,-0.085259728098558307
-0.90423992402202868,-0.46027835432187536,-0.44546491330624871,0.87216150212416754,-0.33012243671451458,-0.12126491604671963,-0.47834357089143165,-0.018328077246125396,0.85348066334609718,0.53779966592380135,0.11596242773830823,0.60442925682567172,0.55585707036986176,-0.013256063427224296,-0.53410806590308502,0.16724498300514479,0.25070343873230505,-0.12967906435631282,-0.99144800575569358,-0.046619991190272936,-0.53689047101736009,-0.81984757090859595,-0.91178152146833513,0.71204062674995794,-0.64332070083601889,-0.70958566160044767
