-0.76974706854491348,0.044241207604277522,-0.79412193177396806,-0.29206285338411697,-0.64844614812995616,-0.91599073234792949,0.27224662759171525,-0.69618145331260584,-0.99790383444612241,-0.60711034092807692,-0.033926474277588659,-0.58464981812620964,-0.1433812669730905,-0.88432870691251741,-0.773556814680191,-0.17358835611306311,-0.13123902480972127,-0.32468306080249731,0.39108723659124611,0.19732673626513719,-0.80036412720606309,-0.29673549635076424,-0.44944016178326085,0.24397091698529749,-0.34153908344749695,0.65621680828207429
-0.86629255699574292,-0.82393118356816464,0.38952025277533742,0.56938867406390248,0.9018381924896588,-0.22205482190396708,-0.86727237576172644,0.31613902927730986,0.14419136898926466,-0.99386971216814568,0.3758268060489931,-0.81354773570544303,0.35830989562106774,-0.31520745254965221,-0.49885318499464226,0.044029641101245298,0.71459475021812713,0.55433813210057448,0.05165920054140094,-0.50424935207166599,0.53141765858544243,0.27683155967135309,-0.1174284713282483,0.70823550583473738,0.69272592914112918,0.46067319302796528
-0.21708719423624823,0.33163449189700023,-0.65108333708230348,-0.7132196535635813,0.13656198976955269,0.64935158329740816,0.53831294547534347,0.47939005673726021,-0.40537507579750987,0.090639528611520692,0.07146440350581984,0.48752275214708951,-0.47342499909025126,0.26988900109169411,0.069954341217970839,0.90391964373572331,0.97090009228840612,0.066674813682560341,-0.49570439061574167,-0.45284660591261683,-0.77074735435096664,-0.7032578888799812,0.39475471789493422,-0.85116383473200807,0.67290546492729719,-0.085259728098558307
-0.94232577571936216,0.23808493363639927,0.89120459564006449,0.87216150212416754,-0.33012243671451458,-0.46441829433848847,-0.47834357089143165,-0.018328077246125396,0.16607248591719426,0.6055971620563172,0.11596242773830823,-0.060936831494955879,-0.40947021908972925,0.13339674250496891,-0.53410806590308502,0.27127115461672835,0.25070343873230505,-0.53592233965290959,-0.99144800575569358,-0.046619991190272936,0.36533691706484661,-0.81984757090859595,-0.91178152146833513,0.88296536876602305,-0.64332070083601889,-0.14313338488674221
