-0.76974706854491348,0.044241207604277522,0.050970160605587012,-0.29206285338411697,-0.64844614812995616,0.38966597258215097,0.27224662759171525,-0.69618145331260584,-0.99790383444612241,-0.60711034092807692,-0.033926474277588659,-0.58464981812620964,0.34505636073600221,0.85059313106096601,-0.96870770160420649,-0.8961885448795357,-0.65551402094555522,-0.32468306080249731,0.39108723659124611,0.19732673626513719,-0.80036412720606309,-0.29673549635076424,-0.44944016178326085,0.24397091698529749,-0.34153908344749695,0.52549728513550731
0.66632831296781059,-0.82393118356816464,0.38952025277533742,0.56938867406390248,0.9018381924896588,-0.059488042887007486,0.64233227901425671,0.31613902927730986,-0.06171895815337014,-0.99386971216814568,0.3758268060489931,-0.81354773570544303,0.35830989562106774,-0.31520745254965221,-0.49885318499464226,0.10190840386829403,0.42680645520083571,0.82921492128421281,0.05165920054140094,-0.2310309875352714,0.48608999351137894,0.089815182457568365,-0.67832324790977139,0.70823550583473738,0.69272592914112918,-0.4769694429553486
0.0037716875192363997,-0.41913376304086469,-0.56137707098457157,-0.7132196535635813,0.13656198976955269,0.64935158329740816,0.53831294547534347,0.47939005673726021,-0.68430435365109599,0.090639528611520692,0.61759784929706729,-0.15776956118242058,-0.47342499909025126,-0.42744469446700273,0.069954341217970839,0.32540098743279566,0.70781667101374923,0.066674813682560341,-0.49570439061574167,-0.52419699538726272,0.9773682998575195,-0.7032578888799812,0.39475471789493422,-0.97419557300294857,0.67290546492729719,-0.085259728098558307
-0.90423992402202868,0.11955725761514602,0.89120459564006449,0.18944342865015606,-0.33012243671451458,0.17350025900309296,-0.47834357089143165,-0.8938521375141657,0.16607248591719426,0.6055971620563172,0.11596242773830823,-0.80698628345359169,-0.40947021908972925,0.18207540355093177,-0.53410806590308502,0.44945580198675139,0.25070343873230505,0.8976323044382486,-0.99144800575569358,-0.046619991190272936,0.53202221865426602,0.74041394874548083,0.98969242625056331,0.88296536876602305,-0.64332070083601889,-0.14313338488674221
