0.22543816752423584,0.044241207604277522,0.050970160605587012,-0.29206285338411697,-0.64844614812995616,0.58871421923691059,0.27224662759171525,0.7065257666800957,-0.98651043632002877,-0.60711034092807692,-0.033926474277588659,-0.58464981812620964,-0.4441490292940371,-0.88432870691251741,-0.9610541017106744,-0.17358835611306311,-0.45474500866397038,0.67466001942656351,0.39108723659124611,-0.8431241581717821,0.23382118106456273,-0.29673549635076424,0.87894022283565199,0.96912869266753221,-0.34153908344749695,0.52549728513550731
0.91124516918938991,-0.70950109129899963,0.99029326715737676,0.23372199325892473,0.9018381924896588,0.17804768791302039,-0.86727237576172644,0.29368189788171506,-0.36172320243949896,-0.23108035632468837,0.3758268060489931,-0.81354773570544303,-0.24862951479792983,-0.31520745254965221,0.77474673633007796,0.10190840386829403,0.38494122322617286,0.55433813210057448,0.05165920054140094,0.37360218538234702,0.48608999351137894,0.27683155967135309,0.05731346747039967,0.70823550583473738,0.69272592914112918,0.7955006869279122
0.93320183361331188,-0.23123497697947126,-0.58931137297295488,0.17967406988439127,0.13656198976955269,-0.21637898181542869,0.53831294547534347,0.47939005673726021,-0.68430435365109599,0.34335878208936044,-0.2471264720253632,0.48752275214708951,0.4910342016926339,0.68664752909949645,0.069954341217970839,-0.0051324082258663584,-0.27626883497500421,0.39676770801886518,-0.49570439061574167,-0.52419699538726272,-0.65472704589473607,0.46384573858962885,0.39475471789493422,-0.97419557300294857,0.67290546492729719,-0.085259728098558307
0.28472843276392612,-0.46027835432187536,-0.012691326929348712,0.87216150212416754,-0.33012243671451458,-0.36438961020653116,-0.47834357089143165,-0.018328077246125396,0.85348066334609718,0.53779966592380135,0.11596242773830823,0.23921917823567207,0.55585707036986176,-0.4875359571254827,-0.53410806590308502,0.54154620893954308,0.25070343873230505,-0.12967906435631282,0.15169750210589328,-0.99334903408765429,0.53202221865426602,-0.81984757090859595,-0.91178152146833513,-0.090507696700945051,-0.64332070083601889,-0.14313338488674221
