-0.76974706854491348,0.044241207604277522,0.050970160605587012,-0.18507131520339404,-0.0054769687646332166,0.45571735566402172,0.4671551133514964,0.75655277410161692,-0.99790383444612241,-0.90725569974449338,-0.033926474277588659,-0.58464981812620964,0.48963281975261874,-0.88432870691251741,-0.36387015813613921,-0.17358835611306311,-0.13123902480972127,-0.32468306080249731,0.39108723659124611,0.19732673626513719,-0.80036412720606309,0.062189612074707634,-0.44944016178326085,0.24397091698529749,-0.34153908344749695,0.52549728513550731
0.66632831296781059,0.77982209268719949,0.38952025277533742,0.56938867406390248,0.9018381924896588,-0.059488042887007486,0.60671869608522688,0.31613902927730986,0.69892373328541058,-0.99386971216814568,0.3758268060489931,-0.81354773570544303,-0.7327015312541878,-0.31520745254965221,-0.49885318499464226,0.10190840386829403,0.38494122322617286,0.55433813210057448,0.05165920054140094,-0.2310309875352714,-0.29213301144298742,0.27683155967135309,-0.67832324790977139,0.70823550583473738,0.69272592914112918,0.82887729953764322
0.0037716875192363997,-0.098223294223098057,0.31872790522903394,-0.7132196535635813,0.13656198976955269,0.64935158329740816,0.53831294547534347,0.47939005673726021,-0.70364949953624945,0.090639528611520692,0.61759784929706729,0.48752275214708951,0.50874415620443436,0.26988900109169411,0.069954341217970839,0.90391964373572331,-0.27626883497500421,0.066674813682560341,-0.49570439061574167,-0.52419699538726272,0.9773682998575195,-0.7032578888799812,0.39475471789493422,0.024624653659624407,0.67290546492729719,0.71394465544570207
-0.90423992402202868,0.23808493363639927,0.89120459564006449,0.87216150212416754,-0.33012243671451458,0.17350025900309296,-0.47834357089143165,-0.018328077246125396,0.16607248591719426,0.6055971620563172,0.11596242773830823,0.63165673967837277,-0.40947021908972925,0.13339674250496891,-0.53410806590308502,0.27127115461672835,0.25070343873230505,-0.75311833450885413,-0.99144800575569358,-0.046619991190272936,0.53202221865426602,-0.81984757090859595,-0.91178152146833513,0.88296536876602305,0.82716192897463703,-0.14313338488674221
