0.40525113313855998,0.044241207604277522,0.050970160605587012,0.64021674647132154,-0.64844614812995616,0.95059921851712392,0.27224662759171525,0.93050089738904274,-0.99790383444612241,-0.60711034092807692,-0.67063635972563684,-0.6213090554487013,-0.14603927085274737,0.97256341016745251,-0.36387015813613921,0.42449006503713749,-0.13123902480972127,-0.32468306080249731,0.39108723659124611,-0.74322761776707891,0.8292248852648838,-0.29673549635076424,-0.44944016178326085,0.24397091698529749,-0.9975516060457752,0.52549728513550731
0.66632831296781059,-0.82393118356816464,-0.66551810653695886,-0.10111292481744827,-0.47844279109063415,-0.059488042887007486,-0.57346244040116212,0.72999090988969217,-0.06171895815337014,-0.62989392341556361,-0.054542042387059286,0.63515478565991046,0.35830989562106774,-0.31520745254965221,-0.49885318499464226,-0.77908526618640939,-0.63780825133943364,0.55433813210057448,0.05165920054140094,-0.43728158644105686,0.48608999351137894,0.27683155967135309,-0.70581357518238108,0.70823550583473738,0.69272592914112918,0.82887729953764322
0.0037716875192363997,0.966496470651661,0.35383310480527452,-0.7132196535635813,0.13656198976955269,0.64935158329740816,0.53831294547534347,0.47939005673726021,-0.68430435365109599,-0.1458241878455413,-0.82356089984453473,-0.46821518462329159,-0.47342499909025126,-0.59928338012304305,-0.64705078894358992,0.78653503083360388,-0.27626883497500421,0.066674813682560341,-0.73834495605097361,0.35092829331003594,0.9773682998575195,-0.7032578888799812,0.87762049384923602,-0.97419557300294857,0.67290546492729719,0.3348512205162637
-0.12843886244998637,0.23808493363639927,0.50166630864997752,-0.60961263988384373,0.75308610402933351,-0.37344884960295688,-0.47834357089143165,-0.018328077246125396,0.16607248591719426,0.62434514100523186,0.11596242773830823,-0.1909827459263207,-0.95166980118284128,0.13339674250496891,-0.53410806590308502,0.64279498957883985,0.25070343873230505,-0.75311833450885413,-0.99144800575569358,-0.046619991190272936,-0.5794373769192056,-0.81984757090859595,-0.91178152146833513,0.88296536876602305,-0.64332070083601889,-0.14313338488674221
