0.40525113313855998,-0.39231667666740333,0.050970160605587012,0.81568044449666055,-0.64844614812995616,0.38966597258215097,0.27224662759171525,-0.88773355950765387,-0.99790383444612241,-0.60711034092807692,-0.033926474277588659,-0.6213090554487013,-0.65407023684259968,-0.88432870691251741,-0.36387015813613921,0.42449006503713749,-0.13123902480972127,-0.32468306080249731,0.39108723659124611,-0.74322761776707891,-0.38361908095142194,-0.56363079636715652,-0.44944016178326085,0.24397091698529749,-0.87456716620253627,0.24867405106244345
0.66632831296781059,-0.82393118356816464,-0.66551810653695886,0.56938867406390248,-0.47844279109063415,-0.059488042887007486,0.075218585198980614,0.31613902927730986,-0.06171895815337014,0.13567530650963899,-0.054542042387059286,0.63515478565991046,0.35830989562106774,0.1505324262138299,-0.49885318499464226,-0.77908526618640939,-0.63780825133943364,0.55433813210057448,-0.48088340435698318,-0.2310309875352714,-0.022338591037528888,0.79230756431204297,-0.67832324790977139,0.70823550583473738,0.69272592914112918,0.82887729953764322
0.0037716875192363997,-0.23123497697947126,0.35383310480527452,-0.7132196535635813,0.25554321024617921,0.64935158329740816,0.67443277953165981,0.47939005673726021,-0.68430435365109599,-0.74083777713298526,0.74460528627481981,0.31432633773897778,0.79059657569055375,-0.59928338012304305,0.069954341217970839,0.78653503083360388,-0.49425866768086846,0.066674813682560341,0.88352157345968574,-0.52419699538726272,0.9773682998575195,-0.7032578888799812,-0.67599277642865396,-0.97419557300294857,0.67290546492729719,0.65600935265932447
-0.87444325956057423,0.23808493363639927,0.51254140981752916,-0.19976574205647513,-0.0382061602359971,-0.37344884960295688,-0.47834357089143165,-0.018328077246125396,0.70428743877314148,0.6055971620563172,0.11596242773830823,-0.1909827459263207,-0.40947021908972925,0.56139943222776179,0.39142259564456561,0.64279498957883985,0.25070343873230505,-0.75311833450885413,-0.99144800575569358,-0.87448445818385667,0.53202221865426602,-0.74912364815884325,0.10762877260357095,-0.77095021921387663,0.036470373059124039,-0.14313338488674221
