-0.75146384944419853,0.044241207604277522,0.050970160605587012,0.74231130295654157,0.4559503686967441,0.38966597258215097,0.27224662759171525,-0.88773355950765387,-0.99790383444612241,0.99913698672934226,-0.50817646270525185,0.57930537035006746,-0.51048402082790689,-0.88432870691251741,-0.36387015813613921,0.28067237013795432,-0.13123902480972127,0.70488808266385949,0.39108723659124611,0.17523268172657591,0.42371135201627497,-0.29673549635076424,-0.6005446752485315,-0.049362924943307407,0.47901090951451275,0.5451451792804598
0.66632831296781059,-0.82393118356816464,-0.66551810653695886,0.59575377374774474,-0.47844279109063415,-0.059488042887007486,-0.49000786700303856,-0.16049647535372813,-0.06171895815337014,0.67521180449022511,-0.42214876990681627,0.63515478565991046,0.35830989562106774,-0.31520745254965221,-0.49885318499464226,0.18774147554668952,-0.10844155664689903,0.55433813210057448,0.05165920054140094,0.54696526585113148,0.49607820113993428,0.27683155967135309,0.96531305237432408,0.80302522150766831,0.69272592914112918,0.82887729953764322
0.0037716875192363997,-0.23123497697947126,0.32676854062261795,-0.7132196535635813,0.13656198976955269,-0.54591614824246415,-0.62621459380270283,0.34877624743570679,-0.68430435365109599,-0.51051511354362455,0.74460528627481981,0.70771911416970457,-0.63040656439772502,0.8547399516941887,0.52645997131460365,0.50379089820835166,-0.27626883497500421,0.30823907307377274,0.65336122491808157,-0.52419699538726272,-0.6314691991101804,-0.7032578888799812,0.39475471789493422,-0.87310992211815353,0.81397770934747449,0.3348512205162637
-0.44690883883186805,0.49441688899511638,-0.52686866972740343,-0.51005654027140657,0.65953864917043759,-0.12447758618073634,-0.47834357089143165,-0.018328077246125396,-0.71899151693299301,0.9208698432961635,0.87230702964487672,-0.1909827459263207,-0.40947021908972925,0.90216242914574174,-0.53410806590308502,0.64279498957883985,-0.32660117988899318,-0.45627167486793674,0.1893562784704732,-0.046619991190272936,0.53202221865426602,0.85002349359425478,0.62545997667627873,0.22129268091540633,-0.12017253664745331,0.54343279724393168
