0.21338357234581196,0.044241207604277522,0.96042042861471599,0.74231130295654157,-0.64844614812995616,0.38966597258215097,0.27224662759171525,-0.88773355950765387,-0.99790383444612241,0.99913698672934226,-0.50817646270525185,0.57930537035006746,0.63545554811248817,-0.88432870691251741,-0.36387015813613921,0.28067237013795432,-0.13123902480972127,-0.32468306080249731,0.39108723659124611,-0.14703087148394345,-0.80036412720606309,-0.29673549635076424,-0.32935235500650406,-0.049362924943307407,-0.57571837654731284,0.5451451792804598
0.66632831296781059,-0.82393118356816464,-0.66551810653695886,0.087791193458043315,-0.47844279109063415,-0.059488042887007486,0.41555108071582825,0.31613902927730986,-0.06171895815337014,0.30189990100088471,0.12444729449723102,-0.54445983799228337,0.35830989562106774,-0.31520745254965221,-0.49885318499464226,0.18774147554668952,-0.036323869080909787,0.55433813210057448,0.05165920054140094,-0.67518558578509347,0.2173379897849268,0.27683155967135309,0.96531305237432408,0.80302522150766831,0.69272592914112918,0.82887729953764322
0.0037716875192363997,-0.23123497697947126,0.32676854062261795,0.70099468005443644,0.13656198976955269,-0.78485364646033284,-0.62621459380270283,0.34877624743570679,-0.68430435365109599,0.40765646989604165,0.74460528627481981,0.70771911416970457,0.10390226035103134,-0.59928338012304305,0.52645997131460365,0.50379089820835166,-0.27626883497500421,0.30823907307377274,0.65336122491808157,-0.52419699538726272,0.65983343239790804,-0.54465141072545142,0.39475471789493422,0.71787373730860082,0.67290546492729719,0.3348512205162637
-0.44690883883186805,0.49441688899511638,-0.52686866972740343,-0.19976574205647513,0.65953864917043759,-0.087209930057708718,-0.47834357089143165,0.40402274121498261,0.71572163199147165,-0.79853169401394153,-0.66765087142027446,0.87966700321137181,-0.40947021908972925,0.90216242914574174,-0.53410806590308502,0.64279498957883985,-0.31527144968132959,-0.45627167486793674,0.3553148673495421,0.54236917377758842,0.53202221865426602,0.85002349359425478,0.86644243536209697,0.22129268091540633,-0.12017253664745331,0.54343279724393168
