0.21338357234581196,-0.10477935016058648,0.050970160605587012,-0.023833532305564287,-0.64844614812995616,0.38966597258215097,0.27224662759171525,-0.88773355950765387,0.90269830173448851,0.55814001237052957,-0.50817646270525185,0.57930537035006746,-0.51048402082790689,-0.88432870691251741,0.42847747673069447,0.28067237013795432,-0.13123902480972127,-0.32468306080249731,0.39108723659124611,-0.14703087148394345,-0.62407526272379421,-0.29673549635076424,-0.6005446752485315,-0.049362924943307407,-0.57571837654731284,0.5451451792804598
-0.56228968795493994,0.85801318118642289,-0.66551810653695886,0.087791193458043315,-0.47844279109063415,-0.059488042887007486,-0.66716304604268606,0.31613902927730986,-0.06171895815337014,0.30189990100088471,0.12444729449723102,0.63515478565991046,0.35830989562106774,0.55438142997918938,-0.2816114799157805,0.18774147554668952,-0.63780825133943364,0.55433813210057448,0.05165920054140094,-0.67518558578509347,0.48608999351137894,0.27683155967135309,0.96531305237432408,0.80302522150766831,-0.53105947840236545,0.82887729953764322
-0.30439269076256981,-0.23123497697947126,0.42728411809054889,-0.7132196535635813,0.13656198976955269,-0.54591614824246415,-0.62621459380270283,0.34877624743570679,-0.68430435365109599,-0.51051511354362455,0.74460528627481981,0.70771911416970457,-0.28436202985862713,-0.59928338012304305,0.52645997131460365,-0.61336168584716488,-0.27626883497500421,-0.82318667069320139,0.65336122491808157,0.12334771677172673,-0.6314691991101804,-0.3930545282997211,0.39475471789493422,-0.68293489581081057,0.67290546492729719,0.3348512205162637
-0.44690883883186805,0.49441688899511638,-0.52686866972740343,-0.19976574205647513,0.65953864917043759,-0.94095825555784818,-0.47834357089143165,-0.018328077246125396,0.069605403587993164,-0.12808462499650419,0.87230702964487672,-0.1909827459263207,-0.40947021908972925,0.90216242914574174,-0.53410806590308502,0.64279498957883985,0.0020595792959468007,-0.45627167486793674,0.1893562784704732,-0.046619991190272936,0.53202221865426602,0.85002349359425478,0.76747911399785562,0.22129268091540633,-0.12017253664745331,0.54343279724393168
