0.0016967673989136678,-0.42296052218001989,0.050970160605587012,0.74231130295654157,-0.64844614812995616,-0.58322109610003436,0.27224662759171525,0.51814131293277432,-0.99790383444612241,-0.23452196335594411,-0.91393583578078963,0.57930537035006746,-0.51048402082790689,-0.88432870691251741,-0.50224556113919494,0.28067237013795432,0.2932766731012495,-0.32468306080249731,-0.26753709311342044,0.22242871896582939,-0.80036412720606309,-0.29673549635076424,-0.6005446752485315,-0.72187587783840623,-0.57571837654731284,0.5451451792804598
0.93848983049115176,-0.37444051210726292,0.36525760685951236,0.60532911388817268,-0.65712830301128666,-0.059488042887007486,-0.49000786700303856,-0.81100409137738505,-0.21285121363620862,0.30189990100088471,0.98225153950703503,-0.95753033575010083,0.35830989562106774,-0.94339751363868207,-0.49885318499464226,0.18774147554668952,-0.14480409761338064,0.50024248638699276,0.26034145545238885,-0.67518558578509347,0.85321427849761311,0.27683155967135309,0.96531305237432408,0.80302522150766831,0.69272592914112918,0.82887729953764322
0.0037716875192363997,-0.23123497697947126,0.32676854062261795,-0.7132196535635813,-0.93518876258657668,-0.54591614824246415,-0.28504969889953191,0.34877624743570679,-0.68430435365109599,0.8739783064973119,-0.19129531863349625,-0.84831674893305498,-0.63040656439772502,-0.59928338012304305,0.52645997131460365,0.50379089820835166,-0.27626883497500421,0.55208787935792492,0.65336122491808157,-0.52419699538726272,-0.6314691991101804,0.49553553442625042,0.39475471789493422,-0.68293489581081057,0.67290546492729719,0.32186959290839745
-0.44690883883186805,0.1432173321778889,-0.52686866972740343,0.59600170959679155,0.65953864917043759,-0.86130966013480603,-0.62888208989812266,0.75711603402109695,0.71572163199147165,-0.12808462499650419,0.87230702964487672,-0.1909827459263207,-0.40947021908972925,0.90216242914574174,-0.093605309567019068,0.64279498957883985,-0.32660117988899318,-0.95262322678430222,0.1893562784704732,0.87990551287981544,0.53202221865426602,0.85002349359425478,-0.91178152146833513,0.73010254163039789,-0.12017253664745331,-0.5652754080334188
