0.0016967673989136678,-0.56753743751970043,0.050970160605587012,-0.83691578477750928,-0.64844614812995616,-0.40360802834483156,0.27224662759171525,-0.77422726917462525,-0.99790383444612241,0.63244571342234268,-0.91393583578078963,0.083692798578620442,-0.51048402082790689,-0.88432870691251741,-0.27754623812639245,-0.97457960875683858,-0.13123902480972127,-0.32468306080249731,0.39108723659124611,-0.14703087148394345,-0.80036412720606309,-0.29673549635076424,-0.6005446752485315,-0.049362924943307407,-0.57571837654731284,0.5451451792804598
0.18610177426824914,-0.37444051210726292,-0.66551810653695886,-0.056189654133582456,-0.65712830301128666,-0.059488042887007486,-0.49000786700303856,0.31613902927730986,-0.06171895815337014,0.30189990100088471,0.98225153950703503,0.63515478565991046,0.18734844704067988,-0.1130778670122512,-0.49885318499464226,0.18774147554668952,-0.63780825133943364,0.50024248638699276,0.66702464290704389,-0.67518558578509347,0.46598691772575496,0.27683155967135309,0.96531305237432408,-0.22388799497037737,0.69272592914112918,0.82887729953764322
0.0037716875192363997,0.93656775475287324,0.32676854062261795,-0.64114524112082738,0.13656198976955269,-0.54591614824246415,-0.28504969889953191,0.34877624743570679,-0.68430435365109599,-0.51051511354362455,-0.19129531863349625,0.70771911416970457,-0.63040656439772502,-0.59928338012304305,0.52645997131460365,0.74069929497133002,-0.27626883497500421,0.9746593353848223,-0.17340145856481382,-0.83803473509920989,-0.6314691991101804,0.86772390833432334,-0.56728357939445107,-0.68293489581081057,0.67290546492729719,0.3348512205162637
-0.44690883883186805,0.49441688899511638,-0.52686866972740343,0.65030558219213175,0.65953864917043759,-0.86130966013480603,-0.38735461127146098,0.75711603402109695,0.40668496654670894,-0.12808462499650419,0.29701725016334501,-0.1909827459263207,-0.3856745614661008,-0.8323990223339921,-0.53410806590308502,0.049313110496056689,0.74774408827051886,-0.39338791968628217,0.1893562784704732,-0.046619991190272936,0.53202221865426602,0.85002349359425478,-0.91178152146833513,0.057968381165425242,-0.12017253664745331,-0.67383163355302655
