0.0016967673989136678,-0.56753743751970043,0.050970160605587012,0.74231130295654157,-0.64844614812995616,-0.09681356872957303,0.27224662759171525,0.51814131293277432,-0.99790383444612241,-0.99882180242544272,-0.91393583578078963,0.57930537035006746,-0.51048402082790689,-0.88432870691251741,-0.27754623812639245,0.28067237013795432,-0.13123902480972127,0.8320072060341317,0.39108723659124611,-0.14703087148394345,-0.80036412720606309,-0.29673549635076424,-0.6005446752485315,-0.049362924943307407,-0.57571837654731284,0.5451451792804598
-0.29834671165299054,-0.37444051210726292,-0.69006768988725642,-0.056189654133582456,-0.65712830301128666,-0.059488042887007486,-0.49000786700303856,0.31613902927730986,-0.06171895815337014,0.30189990100088471,0.98225153950703503,0.63515478565991046,0.35830989562106774,-0.1130778670122512,-0.49885318499464226,0.4734000061797401,-0.63780825133943364,0.50024248638699276,0.66702464290704389,-0.67518558578509347,0.46598691772575496,0.76386503044778875,-0.33674341175247524,-0.52299652680787267,0.69272592914112918,-0.56041600478185072
0.93874922527190496,-0.23123497697947126,0.32676854062261795,0.46924918675502081,-0.65082256368218383,-0.54591614824246415,-0.28504969889953191,0.34877624743570679,-0.68430435365109599,-0.51051511354362455,-0.19129531863349625,0.70771911416970457,0.66304650850641589,-0.26156355303887446,0.52645997131460365,0.50379089820835166,-0.27626883497500421,-0.95430686315329538,0.65336122491808157,-0.76429658127633004,-0.48298764958672802,0.86772390833432334,-0.85703257680723799,-0.68293489581081057,0.10821149675761821,0.3348512205162637
-0.44690883883186805,-0.67172505422058104,-0.52686866972740343,-0.74849476420947836,0.65953864917043759,-0.86130966013480603,-0.62888208989812266,0.75711603402109695,0.71572163199147165,-0.20201356138387938,0.71822177635331075,0.70190708904908594,-0.40947021908972925,0.82709449379224953,-0.53410806590308502,0.040983118299700694,-0.32660117988899318,-0.39338791968628217,-0.074125391602868129,-0.046619991190272936,0.035734943697699251,0.85002349359425478,-0.91178152146833513,0.73010254163039789,-0.57862731026639058,-0.5652754080334188
