0.0016967673989136678,-0.56753743751970043,0.050970160605587012,0.27067708022417469,-0.64844614812995616,0.14023631324999952,0.087689356657576267,0.013993136052311339,-0.99790383444612241,-0.80338332921496969,-0.91393583578078963,0.57930537035006746,-0.51048402082790689,-0.88432870691251741,-0.27754623812639245,-0.71875630455406792,-0.45965896685450214,-0.87110943500371962,-0.81724840137371557,-0.14703087148394345,-0.80036412720606309,-0.29673549635076424,-0.6005446752485315,-0.049362924943307407,-0.57571837654731284,-0.72394755725359605
-0.80952914065220161,0.65251016104805681,-0.66551810653695886,0.24988291602558754,-0.4657943593104843,0.47408600710751636,-0.49000786700303856,-0.024078317062584231,-0.06171895815337014,0.73912794196678533,-0.3073050877672634,-0.73532207605121647,0.35830989562106774,-0.1130778670122512,-0.49885318499464226,0.18774147554668952,0.72107388162426522,-0.8873750879664648,0.66702464290704389,-0.67518558578509347,0.46598691772575496,0.27683155967135309,-0.4163426644249606,0.12051196429633304,0.69272592914112918,0.8710664183253769
0.0037716875192363997,-0.23123497697947126,0.91236030730254347,-0.34589142514628768,0.13656198976955269,-0.54591614824246415,-0.28504969889953191,-0.92111693527546668,-0.39728713219112177,-0.51051511354362455,-0.19129531863349625,0.70771911416970457,-0.63040656439772502,0.7468653288044369,-0.30213674699749826,0.50379089820835166,-0.27626883497500421,0.30823907307377274,0.62883522885593623,-0.52419699538726272,-0.6314691991101804,0.86772390833432334,-0.41111279609470563,-0.68293489581081057,0.67290546492729719,-0.95845284137324338
-0.44690883883186805,0.50388190169613845,-0.32550459982408286,-0.11575081383616048,-0.41605328216179815,-0.86130966013480603,-0.62888208989812266,-0.93520147054389668,0.71572163199147165,0.88205672772070853,0.98080441838394594,-0.66957030555008212,-0.40947021908972925,0.90216242914574174,-0.53410806590308502,0.64279498957883985,0.99891141172297804,-0.39338791968628217,-0.22819258555771116,-0.36395147249886106,0.53202221865426602,0.44946960339374731,0.27447746099876125,0.62989495025146613,-0.12017253664745331,0.65641012618065475
