-0.57141213415779579,-0.40854073137251823,-0.15254514295998067,-0.67156222195529769,0.31935961662643164,0.80477574415402886,-0.86323329311583819,-0.33440568064084886,0.51991625859903068,-0.43043437835212361,0.016269233640210157,0.51452199484736338,-0.28744782189904527,-0.10543181041367888,0.44447992289172911,0.62665874403065924,0.51412206022964946,-0.062262467509136998,0.54617667070929254,-0.042234686483210604,-0.94793059838537141,0.89099549587013316,0.26393387935974544,-0.58689676870953567,0.69357063905168603,0.38059736330313676
-0.86422085442745455,-0.33289294948722592,0.66549902349149326,0.67187907463525898,-0.56044999173263044,-0.0033761432723888873,0.62415548863868731,0.38992796732585511,0.45368644155165061,-0.69392647345290892,-0.039689547545992854,0.047567351472318498,0.80598791360860877,-0.78778863102587238,0.25522619039512096,-0.79777473508370944,0.22422220250991276,-0.18573098865604054,0.60997578272199426,0.58145276172714744,-0.98765735567122848,0.239145949510567,-0.75364189462956443,0.72254027338898386,0.045903995991531943,-0.037432470411318697
0.54927569381683528,0.85067058073444102,0.54552207963230126,0.05357534154021204,0.02885292436330622,-0.19871198069810503,0.5579429526363946,-0.3011031981404324,-0.24542899637148596,-0.062364559899530381,0.0038069969198060161,0.35630048483813437,-0.65212845099661809,-0.81396744616744132,-0.89936941843146001,-0.52369066821804622,0.27321153949354748,-0.38473335895940042,-0.96819797700116661,0.99712899100360031,-0.97350742565387538,-0.35884780199501787,-0.69469967038906422,0.20194226219895017,0.35101738390414838,0.72221180987728384
-0.69712561916715354,-0.014594631211917619,0.027600868829998015,-0.4303319323275705,0.90332918914782789,0.29251157930992511,-0.64548074263085886,-0.34930445431056056,-0.40471609524411933,-0.21362499912510291,-0.88908790903243062,-0.91928264272140736,-0.62429169882203328,-0.39705263683372993,-0.21578085467952435,0.49163208397678115,0.44786229558446689,-0.61260048429197056,0.58599528303471016,0.7111397724262678,-0.51807975891120672,-0.63975160052814894,-0.78503155076221565,-0.67122999517246695,0.77345640391410386,-0.33098145299404003
