0.0016967673989136678,-0.56753743751970043,0.050970160605587012,0.27067708022417469,0.12049198356427704,-0.41148104008364794,-0.74180704983937784,-0.93057889318193143,0.31670540570119199,0.28655435861801548,-0.91393583578078963,0.99251681723167184,-0.30615457560119985,-0.88432870691251741,-0.27754623812639245,0.28067237013795432,0.22586404526947779,0.73475391821687941,0.39108723659124611,-0.14703087148394345,-0.80036412720606309,-0.29673549635076424,-0.6005446752485315,-0.61227036259473877,-0.57571837654731284,-0.72394755725359605
0.66632831296781059,0.65251016104805681,0.95145123178581037,-0.056189654133582456,0.27339689778376375,0.47408600710751636,-0.49000786700303856,-0.024078317062584231,-0.06171895815337014,0.19076722265252055,-0.3073050877672634,0.63515478565991046,0.35830989562106774,-0.1130778670122512,-0.49885318499464226,0.18774147554668952,0.72107388162426522,0.50024248638699276,-0.089468225268063417,-0.67518558578509347,0.46598691772575496,0.27683155967135309,0.63003901169990284,0.46617643880971182,0.074656191167218555,0.8710664183253769
0.0037716875192363997,-0.23123497697947126,0.91236030730254347,-0.34589142514628768,0.13656198976955269,-0.54591614824246415,0.77645303767572371,-0.92111693527546668,-0.68430435365109599,-0.51051511354362455,-0.88179475071430846,0.70771911416970457,-0.25363524577407692,0.7468653288044369,-0.30213674699749826,0.50379089820835166,-0.27626883497500421,0.30823907307377274,0.65336122491808157,-0.7021450274557961,-0.6314691991101804,0.86772390833432334,-0.57139476354428842,-0.68293489581081057,0.67290546492729719,-0.3409905336069663
-0.44690883883186805,0.71522978060048703,0.17351222548240353,-0.11575081383616048,-0.41605328216179815,0.10786158033180038,-0.62888208989812266,0.70322794717817039,0.71572163199147165,-0.12808462499650419,0.11624558515203476,-0.66957030555008212,-0.40947021908972925,0.90216242914574174,-0.094493842833359931,0.64279498957883985,0.99891141172297804,-0.39338791968628217,-0.22819258555771116,-0.47585877067933602,-0.73067721245977446,0.85002349359425478,0.27447746099876125,0.62989495025146613,-0.12017253664745331,-0.5652754080334188
