0.9270619928927788,-0.56753743751970043,-0.68827394589169288,-0.89660557065808044,-0.94837747257764304,-0.66299369045909762,-0.29904250914436914,0.47269476354936435,-0.99790383444612241,-0.75840864996510726,-0.91393583578078963,0.57930537035006746,-0.080195346001369794,-0.56937217482154256,0.41171266045661103,0.83323176500258755,-0.45965896685450214,-0.46747209102644161,0.39108723659124611,-0.14703087148394345,-0.80036412720606309,0.72706628762404302,-0.6005446752485315,-0.24140614218332446,-0.57571837654731284,-0.72394755725359605
0.66632831296781059,0.65251016104805681,-0.55665755098943448,-0.056189654133582456,-0.94836726132388272,0.47408600710751636,-0.49000786700303856,-0.024078317062584231,-0.06171895815337014,0.40137175220562615,-0.3073050877672634,0.63515478565991046,0.35830989562106774,0.80338896096449375,-0.65276431172794691,0.18774147554668952,0.36609154016879497,0.50024248638699276,0.66702464290704389,-0.67518558578509347,0.46598691772575496,-0.52472994566959308,-0.42975696526413176,-0.75761175555455362,-0.81046829196218284,-0.26800117818842129
0.0037716875192363997,-0.23123497697947126,0.91236030730254347,-0.34589142514628768,0.13656198976955269,-0.20772777942148002,-0.28504969889953191,-0.92111693527546668,-0.68430435365109599,-0.51051511354362455,-0.19129531863349625,0.70771911416970457,-0.63040656439772502,0.7468653288044369,-0.30213674699749826,0.50379089820835166,-0.27626883497500421,0.30823907307377274,0.65336122491808157,-0.52419699538726272,-0.6314691991101804,0.38571751599312054,-0.41111279609470563,-0.68293489581081057,0.67290546492729719,0.33588183384844927
-0.44690883883186805,0.98525600688588444,-0.32550459982408286,0.36053440672840686,-0.52593955343618548,-0.86130966013480603,-0.62888208989812266,-0.19704130987084967,-0.56749570995323628,-0.12808462499650419,0.98080441838394594,-0.69399998490862491,-0.75914190504093293,0.08261870145260608,-0.43603355750791306,0.64279498957883985,0.99891141172297804,-0.39338791968628217,-0.22819258555771116,-0.22112154867638822,-0.58585257777344935,0.16992184877102146,0.22116067567744579,-0.77123878592640627,-0.12017253664745331,-0.5652754080334188
