0.18135904249980284,-0.65597890015805316,0.91779561960596423,0.18237525009866684,-0.30638980716398589,0.94406859506978469,0.27677846415794427,0.78265579388135387,0.43472388551671082,0.67358906966889021,0.52259532350725357,0.67164356534661751,0.34759889358503004,0.59373257799345835,0.39064275629863476,0.90330386995620682,0.81964858036845878,0.069520309271682512,-0.2491839812287322,0.52765096226401709,-0.049305829536188783,0.71216083681478604,0.025989584935934396,-0.58880539917093522,0.34200461297703222,-0.65431579681112551
-0.53161398137334626,0.69464388177920955,0.076827799434601607,-0.42303004214916018,0.31581166057705956,-0.9580455614664396,-0.33799274244539834,0.48877545301561098,0.16231337961432102,-0.43977169833123941,0.32266258536908787,-0.8344131461123272,0.29768291358513932,0.99063005859956199,0.79883765231971804,-0.31297748360564981,0.2776939057606036,-0.4935732159840589,0.34352268263265406,0.088536254193627428,-0.20994856417544638,-0.83923815687920889,-0.25516615748777149,-0.74650077544373095,-0.55601051705661475,0.34103553293868605
0.82380291763105773,0.85864778003491837,-0.91028157052053804,-0.014663017429090264,-0.23034570171816737,0.23647158654473022,0.0071673708181554385,-0.48437002674147767,0.19782234777893803,0.60494388230520824,0.93538167614758438,0.071559992278476203,0.27498133424711613,-0.4600465080074998,0.50032587975730958,0.75217778621575504,0.54624828424245164,-0.14814569239044229,0.24511451365834103,0.98232577072364702,-0.43236577828334433,-0.94888584631404171,0.80405514272821454,0.032997141721746948,-0.053518655108715008,-0.79657837905987194
0.81483823043812076,0.60601805574894252,-0.51091015317803179,-0.53782109073863826,0.7237358762922419,0.81646862113599061,-0.76043361378915075,0.28118770523750491,0.57654879128729175,-0.38634508348053753,0.91456001190041625,0.22776389631230742,-0.43206448894440852,0.445314112266471,-0.087791124101046725,-0.11149761988062656,0.15329693055727467,0.35372925328061156,-0.19689872277478604,-0.28205984252348371,-0.42057070018777343,-0.94871717254089538,-0.9598431558202325,-0.89253112630634579,-0.88810637840865403,0.61336809460617125
