0.18199871248283461,-0.56753743751970043,0.19833174031150547,0.27067708022417469,-0.64844614812995616,0.38966597258215097,-0.29904250914436914,0.51814131293277432,-0.99790383444612241,0.1696691550281515,-0.91393583578078963,0.57930537035006746,-0.98567222835972457,-0.56937217482154256,-0.90238722093634172,0.28067237013795432,-0.45965896685450214,-0.46747209102644161,0.39108723659124611,-0.14703087148394345,-0.80036412720606309,-0.29673549635076424,-0.6005446752485315,-0.049362924943307407,-0.57571837654731284,-0.72394755725359605
0.66632831296781059,0.65251016104805681,-0.72999940067275282,-0.68494743713721551,0.33149584327948411,0.47408600710751636,-0.72077774984372378,-0.83640378910702462,-0.06171895815337014,0.40137175220562615,-0.88390828828887047,0.09851530945329201,0.35830989562106774,-0.1130778670122512,0.42896885445678534,0.18774147554668952,-0.55637083104065521,0.50024248638699276,0.66702464290704389,-0.67518558578509347,0.46598691772575496,0.14569203468083947,0.67279978365812187,-0.75761175555455362,-0.81046829196218284,-0.26800117818842129
0.0037716875192363997,0.20917355773973556,0.91236030730254347,-0.34589142514628768,0.58893550782895865,-0.20772777942148002,-0.28504969889953191,-0.92111693527546668,-0.68430435365109599,-0.51051511354362455,-0.81797163997265643,0.70771911416970457,-0.63040656439772502,0.7468653288044369,0.90403695098472392,0.50379089820835166,-0.20058067266582702,0.30823907307377274,0.14618616413817542,-0.52419699538726272,-0.6314691991101804,0.88778241920677936,0.16764089802341231,-0.68293489581081057,0.67290546492729719,-0.27221592713247333
-0.44690883883186805,0.98525600688588444,-0.32550459982408286,-0.94233223535167721,0.55087040160595202,0.46733171409196106,-0.62888208989812266,0.41552768000246831,-0.56749570995323628,-0.12808462499650419,0.98080441838394594,-0.58440437590575955,-0.75914190504093293,0.08261870145260608,-0.53410806590308502,0.64279498957883985,0.99891141172297804,-0.36995511230551958,-0.22819258555771116,-0.22112154867638822,0.53202221865426602,0.39542433760012319,0.42636202891187147,-0.77123878592640627,-0.12017253664745331,-0.5652754080334188
