0.0016967673989136678,-0.56753743751970043,0.12202959682731596,0.27067708022417469,-0.64844614812995616,0.38966597258215097,-0.29904250914436914,0.51814131293277432,-0.99790383444612241,0.18810056533389519,-0.91393583578078963,0.57930537035006746,-0.080195346001369794,-0.56937217482154256,-0.27754623812639245,0.28067237013795432,-0.45965896685450214,-0.46747209102644161,0.39108723659124611,-0.14703087148394345,-0.80036412720606309,-0.29673549635076424,-0.13161458817472393,-0.68438776473243079,-0.24520785004209733,-0.72394755725359605
0.66632831296781059,0.65251016104805681,-0.66551810653695886,0.1220541290437831,0.33149584327948411,0.47408600710751636,-0.49000786700303856,-0.024078317062584231,-0.06171895815337014,0.40137175220562615,-0.29625437105189789,0.63515478565991046,0.35830989562106774,-0.1130778670122512,0.56256442672305962,-0.2400356474929628,-0.29831355505656743,0.50024248638699276,0.66702464290704389,-0.67518558578509347,0.46598691772575496,-0.63117355867320568,-0.35626345304964602,-0.75761175555455362,-0.81046829196218284,-0.26800117818842129
-0.14598999028139703,-0.23123497697947126,0.91236030730254347,-0.34589142514628768,0.13656198976955269,-0.20772777942148002,-0.28504969889953191,-0.94480329661033635,-0.68430435365109599,-0.51051511354362455,-0.19129531863349625,-0.93216837763227467,-0.54192636614307799,0.7468653288044369,-0.30213674699749826,0.50379089820835166,-0.27626883497500421,0.30823907307377274,-0.45484219182873775,-0.52419699538726272,-0.6314691991101804,0.63298235907422473,-0.41111279609470563,-0.68293489581081057,0.67290546492729719,-0.27221592713247333
-0.44690883883186805,0.98525600688588444,-0.32550459982408286,-0.62598415083326819,-0.72385240500136439,-0.19324881260007221,-0.053001568478721062,0.41552768000246831,-0.56749570995323628,-0.12808462499650419,0.98080441838394594,-0.70263967569731256,-0.75914190504093293,0.3491990290115774,-0.53410806590308502,0.64279498957883985,0.99891141172297804,-0.39338791968628217,0.026915501535314412,-0.69591273273356724,0.53202221865426602,-0.15876487156804453,0.22116067567744579,-0.043346092284253235,-0.52870124182569089,-0.5652754080334188
