0.35614464120475509,-0.6744176107134574,0.050970160605587012,-0.65956511703171139,-0.64844614812995616,-0.47451418287180691,0.65649131569514929,0.51814131293277432,0.35224518359897505,0.069471110725781493,-0.84515754938239396,-0.56987408938830275,-0.080195346001369794,-0.69965045837927464,-0.10335472918567712,0.28067237013795432,0.068077631863527888,-0.46747209102644161,-0.019050927917942717,-0.14703087148394345,-0.33988483414703641,-0.29673549635076424,0.60789001454040159,-0.049362924943307407,-0.57571837654731284,0.26108995046325245
0.12721452771798036,0.35746781816024376,-0.66551810653695886,-0.056189654133582456,0.33149584327948411,0.85601545133518697,-0.92775648341100081,0.90110026967242152,-0.37720772610354758,-0.91246515879971257,0.51382488637720347,0.63515478565991046,0.066481846277397727,-0.1130778670122512,-0.65276431172794691,-0.41508657371765034,-0.51021598358272358,0.50024248638699276,0.2920732630095666,-0.77777873120325669,0.46598691772575496,0.14569203468083947,-0.42975696526413176,-0.50759738998605863,-0.81046829196218284,-0.26800117818842129
0.0037716875192363997,-0.23123497697947126,0.60568925734515044,-0.74608468450520316,0.2649750945496987,-0.20772777942148002,-0.28504969889953191,0.012333846192476461,-0.68430435365109599,-0.51051511354362455,0.15112994453736794,0.70771911416970457,0.55984037972757794,-0.017947269296254342,-0.30213674699749826,-0.6638834495356325,0.86667021329498062,-0.68194354186361039,-0.28971303864596898,-0.52419699538726272,0.41771689951950131,0.18424715663957469,0.79713357610370794,0.13754594389305619,0.67290546492729719,-0.27221592713247333
0.054042843190392986,0.98525600688588444,-0.40665148849196253,-0.51485439840605252,-0.52593955343618548,-0.7665878381929947,-0.67250188246129539,0.012698738556999656,-0.56749570995323628,-0.85920835978085841,0.92448101376236469,-0.66957030555008212,-0.75914190504093293,-0.76490027660160242,-0.66913494147476205,0.0041083874656413499,0.99891141172297804,-0.3691663079945704,-0.22819258555771116,-0.25451111142432592,0.53202221865426602,-0.39059932479513759,-0.82158500116804545,0.22824474815819773,-0.12017253664745331,-0.5652754080334188
