-0.77107390708343826,-0.010875848643710828,0.050970160605587012,-0.65956511703171139,0.49674883131122383,-0.47451418287180691,0.11537422519106455,-0.50483324882670577,0.35224518359897505,0.069471110725781493,-0.84515754938239396,0.7427716872675183,-0.080195346001369794,-0.077278772227497239,-0.27754623812639245,0.70502645261189323,-0.60757109899352901,-0.46747209102644161,-0.31304596046930433,-0.46064942939039422,-0.33988483414703641,-0.29673549635076424,0.60789001454040159,0.59523261167993091,-0.57571837654731284,0.26108995046325245
0.12721452771798036,0.35746781816024376,-0.66551810653695886,-0.056189654133582456,0.29165211241838507,0.85601545133518697,-0.79937979486922872,0.90110026967242152,-0.16250108340438008,-0.91246515879971257,0.51382488637720347,-0.046318627294700487,0.066481846277397727,0.56327481939204893,0.57600085571333159,-0.41508657371765034,-0.51021598358272358,0.50024248638699276,0.2920732630095666,-0.77777873120325669,0.46598691772575496,0.77014492891191577,-0.42975696526413176,-0.75761175555455362,-0.81046829196218284,-0.26800117818842129
0.0037716875192363997,0.10633372067918434,0.60568925734515044,-0.83612740802335628,0.2649750945496987,-0.31483162939084175,-0.12845791737809797,0.012333846192476461,-0.453416839560709,-0.51051511354362455,0.481986644464244,0.50588876620534617,0.17714609587658048,0.7468653288044369,-0.30213674699749826,-0.24197665830205284,0.3306866501599901,0.64622293103606299,0.39990901639055965,-0.0024013935391271612,0.16256721076510683,-0.69106708453849031,0.75760544361918924,-0.68293489581081057,0.67290546492729719,-0.27221592713247333
-0.862308478719223,0.98525600688588444,-0.32550459982408286,0.61184847825782485,0.13010110834647293,-0.80416050409693729,-0.67250188246129539,-0.3639907575598309,0.22934723901789345,-0.64940488868820867,0.92448101376236469,-0.66957030555008212,-0.75914190504093293,0.08261870145260608,-0.66913494147476205,-0.67299880486038233,0.99891141172297804,0.013354202094625567,-0.22819258555771116,-0.25451111142432592,-0.75848288658490337,0.17409969371643497,-0.13834991421449949,0.22824474815819773,-0.090845458181253447,-0.5652754080334188
