0.35614464120475509,-0.32754889029459688,0.050970160605587012,-0.65956511703171139,-0.64844614812995616,-0.47451418287180691,-0.29904250914436914,0.51814131293277432,0.35224518359897505,0.069471110725781493,-0.84515754938239396,0.57930537035006746,-0.080195346001369794,0.35801608447749356,-0.27754623812639245,0.91678971966543576,-0.60757109899352901,-0.46747209102644161,0.39108723659124611,0.89195929051836198,-0.33988483414703641,-0.29673549635076424,0.60789001454040159,-0.049362924943307407,0.50684200309282135,0.1474062545161714
0.12721452771798036,0.35746781816024376,-0.5605932678301937,-0.056189654133582456,0.33149584327948411,0.85601545133518697,-0.49000786700303856,0.90110026967242152,0.40362163041873189,-0.91246515879971257,0.51382488637720347,0.63515478565991046,0.066481846277397727,-0.1130778670122512,-0.65276431172794691,0.6519179700743658,-0.51021598358272358,0.50024248638699276,0.2920732630095666,-0.77777873120325669,-0.25664980024160311,0.14569203468083947,0.052068154195874294,-0.75761175555455362,-0.279688492955662,-0.26800117818842129
0.0037716875192363997,-0.23123497697947126,0.60568925734515044,-0.74608468450520316,0.2649750945496987,-0.20772777942148002,-0.28504969889953191,0.012333846192476461,-0.75848019488408447,0.213211839742947,-0.12531661970190755,0.70771911416970457,0.55984037972757794,0.7468653288044369,-0.30213674699749826,-0.24197665830205284,0.86667021329498062,-0.014979827618033958,0.65336122491808157,-0.52419699538726272,0.16256721076510683,0.18424715663957469,-0.75778877476858053,-0.68293489581081057,0.67290546492729719,-0.27221592713247333
-0.091405317035510913,0.98525600688588444,-0.32550459982408286,-0.32520039500815723,0.07455344363728833,-0.41764608305805417,-0.67250188246129539,0.012698738556999656,-0.56749570995323628,-0.2775343426720227,0.92448101376236469,0.12430125417303461,-0.75914190504093293,-0.53422244254612483,-0.66913494147476205,0.0041083874656413499,0.054827850752061202,0.41489711614728852,-0.22819258555771116,-0.25451111142432592,0.96523920868772817,-0.39059932479513759,-0.82158500116804545,0.22824474815819773,-0.12017253664745331,-0.5652754080334188
