-0.77107390708343826,0.52204889037726576,0.050970160605587012,-0.65956511703171139,-0.64844614812995616,-0.85889524402362794,0.11537422519106455,-0.50483324882670577,0.35224518359897505,-0.27072444311539789,-0.84515754938239396,0.57930537035006746,-0.69942367114783099,-0.69965045837927464,-0.27754623812639245,0.28067237013795432,-0.60757109899352901,-0.46747209102644161,-0.64063179291182926,-0.14703087148394345,-0.33988483414703641,-0.29673549635076424,0.60789001454040159,-0.049362924943307407,-0.57571837654731284,0.2810557478229605
0.12721452771798036,-0.47282158192647761,-0.66551810653695886,0.072472740018240778,0.5767285582314885,0.85601545133518697,0.11209594026706116,0.90110026967242152,0.49599402162542772,-0.91246515879971257,0.51382488637720347,0.63515478565991046,-0.23254800688359079,0.56327481939204893,-0.65276431172794691,-0.41508657371765034,-0.51021598358272358,0.99652718075977709,0.2920732630095666,-0.57790383788697341,0.46598691772575496,0.95993552671186122,-0.3533902935479436,-0.75761175555455362,-0.81046829196218284,-0.26800117818842129
-0.35562460993975908,0.10633372067918434,0.60568925734515044,-0.74608468450520316,0.2649750945496987,0.30698499677462965,-0.28504969889953191,0.012333846192476461,-0.453416839560709,0.35763263708069948,0.15082267425207796,-0.44621832976107023,0.55984037972757794,0.7468653288044369,0.94533897580297643,-0.24197665830205284,0.86667021329498062,0.64622293103606299,0.65336122491808157,-0.0024013935391271612,0.16256721076510683,-0.41699420831064327,0.75760544361918924,-0.68293489581081057,0.67290546492729719,0.289661755846778
-0.84779628094608994,0.98525600688588444,-0.86238308900990113,0.90641175724845957,-0.87070978106727615,-0.21663301163736559,0.32471765426938015,0.012698738556999656,0.22934723901789345,-0.64940488868820867,-0.90471229286707477,-0.74825752610653118,-0.75914190504093293,0.08261870145260608,-0.66913494147476205,-0.88103885362819812,-0.47422923957258933,0.53896591851828934,-0.22819258555771116,-0.25451111142432592,-0.75848288658490337,0.17409969371643497,-0.82158500116804545,0.22824474815819773,-0.12017253664745331,-0.5652754080334188
