-0.77107390708343826,0.52204889037726576,0.050970160605587012,-0.65956511703171139,-0.64844614812995616,-0.62226208476643707,0.11537422519106455,-0.50483324882670577,0.35224518359897505,0.069471110725781493,-0.45869273271718147,0.57930537035006746,0.50645643375123517,-0.69965045837927464,0.21099960499093173,0.28067237013795432,-0.60757109899352901,-0.46747209102644161,-0.31304596046930433,-0.14703087148394345,-0.33988483414703641,-0.29673549635076424,0.60789001454040159,0.34182488219963436,-0.57571837654731284,0.40241701293807286
0.12721452771798036,0.96118691100559217,-0.97986892863294428,-0.056189654133582456,0.29165211241838507,0.85601545133518697,-0.79937979486922872,0.90110026967242152,-0.053096304505894087,-0.91246515879971257,0.51382488637720347,0.63515478565991046,-0.69233047731507891,-0.66140565984347766,0.13301002906159431,0.85834070018334896,-0.9831116137445528,0.50024248638699276,0.4630341953842747,-0.77777873120325669,0.93335676404566614,0.95993552671186122,-0.42975696526413176,-0.75761175555455362,-0.81046829196218284,-0.26800117818842129
0.0037716875192363997,0.10633372067918434,0.60568925734515044,-0.63359575262337131,0.2649750945496987,-0.31483162939084175,-0.28504969889953191,0.012333846192476461,-0.453416839560709,-0.51051511354362455,0.26060442276783302,-0.57078430167286043,0.55984037972757794,0.7468653288044369,-0.30213674699749826,-0.24197665830205284,0.86667021329498062,0.64622293103606299,0.65336122491808157,-0.0024013935391271612,0.16256721076510683,-0.69106708453849031,0.75760544361918924,-0.68293489581081057,0.67290546492729719,-0.27221592713247333
-0.96809292692047832,0.98525600688588444,-0.32550459982408286,-0.32520039500815723,0.074969793419835673,-0.80416050409693729,-0.67250188246129539,0.012698738556999656,0.22934723901789345,-0.2336616857698488,0.92448101376236469,-0.66957030555008212,-0.75914190504093293,0.08261870145260608,-0.66913494147476205,0.0041083874656413499,0.99891141172297804,-0.4156553393890372,-0.22819258555771116,-0.74984767579042089,-0.75848288658490337,0.17409969371643497,-0.82158500116804545,0.36394440535167982,-0.12017253664745331,-0.5652754080334188
