-0.77107390708343826,-0.84338431054868424,0.050970160605587012,-0.65956511703171139,0.43000202188612957,-0.47451418287180691,-0.085342571896801722,0.56311417880265702,0.35224518359897505,-0.36640366969204607,-0.84515754938239396,-0.22759406023487694,-0.080195346001369794,0.92115531306775744,-0.27754623812639245,0.28067237013795432,-0.60757109899352901,0.22458830402023966,-0.31304596046930433,-0.14703087148394345,-0.33988483414703641,-0.29673549635076424,-0.60272553635998016,-0.049362924943307407,0.31750819636312078,0.26108995046325245
0.12721452771798036,0.73362395027625293,-0.66551810653695886,-0.056189654133582456,0.29165211241838507,0.85601545133518697,-0.79937979486922872,0.32790680563466768,-0.053096304505894087,-0.91246515879971257,0.51382488637720347,0.70431165226002879,0.066481846277397727,0.024828625118726855,-0.65276431172794691,-0.41508657371765034,-0.51021598358272358,0.50024248638699276,0.14013548061079506,-0.77777873120325669,0.29779546234417675,0.95993552671186122,-0.42975696526413176,-0.28577638282082107,-0.81046829196218284,-0.26800117818842129
0.0037716875192363997,0.10633372067918434,0.60568925734515044,-0.74608468450520316,0.86387020769785194,-0.31483162939084175,-0.28504969889953191,0.012333846192476461,-0.2590633105967326,0.58968044726150803,0.481986644464244,-0.72048551334061983,-0.37508423963079962,0.7468653288044369,-0.30213674699749826,-0.51408797479519852,0.86667021329498062,0.64622293103606299,0.61091777331011032,-0.0024013935391271612,0.39884267056462308,-0.69106708453849031,-0.10835542177315061,-0.68293489581081057,0.67290546492729719,-0.27221592713247333
-0.862308478719223,0.98525600688588444,-0.32550459982408286,-0.32520039500815723,-0.52593955343618548,-0.80416050409693729,-0.67250188246129539,0.012698738556999656,-0.94454104803911632,-0.64940488868820867,-0.11897432684167741,-0.66957030555008212,-0.75914190504093293,0.08261870145260608,-0.66913494147476205,0.0041083874656413499,0.99891141172297804,0.55010648131348261,-0.22819258555771116,0.91192518149990032,-0.75848288658490337,0.65369191524221959,-0.82158500116804545,0.22824474815819773,-0.12017253664745331,-0.5652754080334188
