0.21508425469962389,-0.38830675324972508,0.050970160605587012,-0.65956511703171139,-0.64844614812995616,-0.47451418287180691,-0.26476361554041983,-0.13409239323966404,0.35224518359897505,0.70790780908126405,-0.84515754938239396,0.57930537035006746,-0.080195346001369794,-0.69965045837927464,-0.27754623812639245,0.33139459810947947,-0.60757109899352901,-0.46747209102644161,-0.31304596046930433,0.63602518761423821,-0.33988483414703641,-0.29673549635076424,-0.10749623532749464,-0.049362924943307407,-0.57571837654731284,0.26108995046325245
0.12721452771798036,0.30933055993837577,-0.66551810653695886,-0.056189654133582456,0.63329922977139885,0.85601545133518697,-0.79937979486922872,-0.19461289757208888,-0.053096304505894087,-0.9825904263318237,0.51919552776605893,0.63515478565991046,0.066481846277397727,0.56327481939204893,0.86637261028620305,-0.41508657371765034,-0.90871269500143304,-0.36383070340009627,0.6631928139268588,-0.77777873120325669,0.46598691772575496,0.95993552671186122,-0.42975696526413176,-0.75761175555455362,-0.81046829196218284,-0.26800117818842129
0.0037716875192363997,-0.10992654218635667,0.60568925734515044,-0.74608468450520316,0.2649750945496987,-0.31483162939084175,-0.21360591437073251,0.012333846192476461,-0.453416839560709,-0.51051511354362455,0.481986644464244,0.2897206229225513,0.55984037972757794,0.089650283824858512,-0.28212788022729396,-0.24197665830205284,0.86667021329498062,0.64622293103606299,0.65336122491808157,-0.9455892123303713,-0.70928242251578832,-0.69106708453849031,0.75760544361918924,-0.68293489581081057,0.49908778934805764,-0.27221592713247333
-0.862308478719223,-0.10575360726075678,-0.32550459982408286,-0.32520039500815723,-0.52593955343618548,0.69797437169440424,-0.67250188246129539,0.012698738556999656,0.22934723901789345,-0.64940488868820867,0.92448101376236469,-0.66957030555008212,-0.75914190504093293,0.08261870145260608,-0.66913494147476205,0.0041083874656413499,-0.38525246718460227,0.53896591851828934,0.096402463197210908,-0.08954819602963382,-0.75848288658490337,-0.8201436666939268,-0.82158500116804545,-0.61023657727701952,-0.12017253664745331,-0.5652754080334188
