-0.77107390708343826,0.52204889037726576,-0.86919975016545115,0.67083952987961726,-0.64844614812995616,-0.47451418287180691,0.012093605415673281,0.97499179037057981,0.030265864656785046,0.069471110725781493,0.64054228276496739,0.39838151913448483,-0.64238210356293535,-0.69965045837927464,-0.27754623812639245,0.28067237013795432,-0.14513271462771793,0.2872540151583387,-0.67788794892516147,0.61059678919872717,-0.12108698215886116,0.62493331198227242,0.60789001454040159,-0.049362924943307407,-0.13891206597584804,0.26108995046325245
0.12721452771798036,0.35746781816024376,-0.66551810653695886,-0.014820872743407598,0.29165211241838507,0.85601545133518697,-0.79937979486922872,-0.38779892935174076,-0.053096304505894087,-0.054668561961779494,-0.57192052583359754,0.63515478565991046,0.066481846277397727,0.30311072543681084,-0.0041748040998585978,-0.051662724563750206,0.70930135183679033,0.47368230397419309,0.2920732630095666,-0.25809913284257213,0.46598691772575496,-0.47529272651183763,-0.42975696526413176,-0.75761175555455362,0.72107582361610834,-0.26800117818842129
0.0037716875192363997,0.10633372067918434,0.60568925734515044,0.79266016439476483,-0.26757203401634055,-0.4324212954892126,-0.28504969889953191,0.012333846192476461,0.44714009396148846,0.55370608152212752,-0.50172828457351937,-0.60891035693661744,0.55984037972757794,0.56189234806235344,0.047266262623453015,-0.24197665830205284,0.86667021329498062,-0.86728681268256347,0.80170921304887033,0.99111432891362572,0.54545138770065549,-0.69106708453849031,0.75760544361918924,-0.68293489581081057,0.44542597023050456,-0.27221592713247333
-0.862308478719223,0.98525600688588444,0.64325493903287323,-0.53309759661505329,0.22684696626534495,-0.75046326561575216,0.67927052703665947,0.76707302373973718,-0.4517681871716015,-0.64940488868820867,0.96140907625233551,-0.66957030555008212,-0.75914190504093293,0.08261870145260608,-0.66913494147476205,0.0041083874656413499,-0.352544878175443,-0.72788263842337009,-0.40694589335941633,0.00032468918197281482,0.63388572895680872,-0.63201357424141458,0.39218365592185145,0.22824474815819773,-0.12017253664745331,0.090643875685510578
