-0.77107390708343826,-0.074480098817514273,-0.77447541840185918,-0.65956511703171139,-0.64844614812995616,-0.47451418287180691,0.11537422519106455,0.014581869138042824,0.35224518359897505,0.73890559702672709,-0.32369829324182464,0.91198338353357755,-0.64238210356293535,-0.69965045837927464,-0.41696591306325392,0.28067237013795432,-0.60757109899352901,-0.46747209102644161,-0.72974768133406709,0.25125264995002894,-0.12108698215886116,-0.29673549635076424,0.60789001454040159,-0.42937104396885539,-0.57571837654731284,0.26108995046325245
0.12721452771798036,-0.70514290673485824,-0.66551810653695886,-0.014820872743407598,0.29165211241838507,0.85601545133518697,-0.79937979486922872,-0.38779892935174076,0.4489835101782591,-0.054668561961779494,0.51382488637720347,0.63515478565991046,0.066481846277397727,0.79545193098556588,-0.0041748040998585978,-0.33407708653611778,-0.88978867722120092,0.6884906345991455,-0.6170497503887038,-0.77777873120325669,-0.42237508454125283,-0.47529272651183763,-0.42975696526413176,-0.75761175555455362,-0.81046829196218284,-0.26800117818842129
0.0037716875192363997,0.10633372067918434,0.5781676792424002,-0.74608468450520316,-0.26757203401634055,-0.24449161413071119,-0.28504969889953191,-0.55285642600621743,0.019900059051099817,0.55370608152212752,-0.45893720622864609,0.052462240247207692,0.55984037972757794,0.56189234806235344,-0.30213674699749826,-0.24197665830205284,0.86667021329498062,-0.86728681268256347,0.32716892580547707,-0.0024013935391271612,0.16256721076510683,-0.69106708453849031,0.75760544361918924,-0.68293489581081057,0.44542597023050456,-0.27221592713247333
-0.862308478719223,0.98525600688588444,0.64325493903287323,-0.59070280075380888,0.063373979255776813,-0.69826027606441232,0.67927052703665947,0.76707302373973718,0.22934723901789345,-0.64940488868820867,-0.01141041969839196,0.36074554127234504,-0.75914190504093293,0.08261870145260608,-0.37058287017402303,0.0041083874656413499,0.99891141172297804,0.73552388661475976,-0.22819258555771116,0.00032468918197281482,-0.75848288658490337,0.17409969371643497,-0.82158500116804545,0.22824474815819773,-0.12017253664745331,-0.35220780134292573
