-0.77107390708343826,-0.8002041808509408,0.050970160605587012,-0.65956511703171139,-0.69612665911302196,-0.47451418287180691,0.5692693366687398,-0.10678467322711649,0.35224518359897505,0.70272744954922861,-0.84515754938239396,0.91198338353357755,-0.64238210356293535,0.18217106953511397,-0.27754623812639245,0.28067237013795432,-0.60757109899352901,-0.46747209102644161,-0.31304596046930433,-0.44760286627881385,-0.12108698215886116,-0.29673549635076424,0.28471146850502449,-0.049362924943307407,-0.57571837654731284,0.51443286026148272
0.12721452771798036,0.35746781816024376,-0.66551810653695886,-0.71039855041555122,0.29165211241838507,0.85601545133518697,-0.79937979486922872,-0.38779892935174076,-0.053096304505894087,-0.054668561961779494,0.51382488637720347,0.63515478565991046,0.066481846277397727,0.30311072543681084,-0.0041748040998585978,-0.41508657371765034,-0.51021598358272358,0.6884906345991455,0.2920732630095666,-0.77777873120325669,0.54080286951313572,-0.47529272651183763,-0.34559007310319934,-0.75761175555455362,0.25129446453270154,-0.21814417436574196
0.0037716875192363997,0.10633372067918434,0.60568925734515044,-0.74608468450520316,-0.26757203401634055,0.14567339851603167,-0.28504969889953191,0.012333846192476461,-0.453416839560709,0.55370608152212752,-0.45893720622864609,0.052462240247207692,0.55984037972757794,0.56189234806235344,-0.30213674699749826,-0.24197665830205284,0.86667021329498062,-0.86728681268256347,-0.40802455880828759,-0.0024013935391271612,0.61732346531483295,-0.99921305685954187,0.75760544361918924,-0.076189970803080653,0.61064363887818129,0.23461533763548603
0.58870820620812236,0.98525600688588444,0.64325493903287323,-0.32520039500815723,0.71053138600101096,-0.72709352293234231,0.67927052703665947,-0.5837735350208626,-0.79179076749079158,-0.64940488868820867,0.92448101376236469,-0.66957030555008212,-0.72205128432708121,0.08261870145260608,-0.66913494147476205,0.0041083874656413499,0.99891141172297804,-0.9763169067590014,-0.22819258555771116,0.00032468918197281482,-0.75848288658490337,-0.83305525735035868,-0.88478653168470278,0.22824474815819773,-0.12017253664745331,0.44784475144498215
