-0.77107390708343826,0.52204889037726576,0.050970160605587012,-0.65956511703171139,-0.64844614812995616,-0.47451418287180691,0.11537422519106455,0.28540613138383053,0.68758121141480721,0.069471110725781493,-0.84515754938239396,0.91198338353357755,-0.71848634993453819,-0.69965045837927464,-0.27754623812639245,0.28067237013795432,-0.60757109899352901,0.92848366925872572,-0.31304596046930433,-0.44760286627881385,-0.12108698215886116,-0.29673549635076424,0.6387524474555808,-0.049362924943307407,-0.57571837654731284,0.26108995046325245
0.12721452771798036,-0.62110243878713267,-0.70952749868690912,-0.014820872743407598,0.29165211241838507,0.85601545133518697,-0.79937979486922872,-0.38779892935174076,-0.053096304505894087,-0.054668561961779494,0.51382488637720347,0.91441242867869277,0.066481846277397727,0.30311072543681084,-0.0041748040998585978,-0.41508657371765034,-0.92438282864576937,0.6884906345991455,0.068261401617800255,0.47450731826086257,0.46598691772575496,-0.47529272651183763,-0.42975696526413176,-0.53370819584749385,-0.81046829196218284,0.92076754459418653
0.97823644808594223,0.10633372067918434,0.60568925734515044,-0.74608468450520316,-0.26757203401634055,-0.4324212954892126,-0.28504969889953191,0.012333846192476461,-0.54594028081701773,0.55370608152212752,-0.45893720622864609,-0.71199887563164976,-0.6196046003817175,-0.9757922267349084,-0.30213674699749826,-0.37133235937388642,0.86667021329498062,-0.86728681268256347,0.32716892580547707,-0.0024013935391271612,-0.80811609331090306,-0.69106708453849031,0.75760544361918924,-0.68293489581081057,-0.79758673615791764,-0.73143703357643264
-0.862308478719223,-0.33431027521546453,0.3070093238220768,0.31338346685668705,0.71053138600101096,-0.75046326561575216,0.67927052703665947,0.76707302373973718,0.22934723901789345,-0.64940488868820867,0.28852488186317293,0.95326338776355901,-0.75914190504093293,0.08261870145260608,-0.66913494147476205,0.0041083874656413499,0.99891141172297804,0.22366616983709431,-0.22819258555771116,0.00032468918197281482,-0.75848288658490337,0.17409969371643497,-0.90349053296520787,0.22824474815819773,-0.12017253664745331,0.44784475144498215
