0.85930012758018548,-0.52552590005112543,0.99005641250143395,0.76597699211537695,0.61883598380572002,-0.55836277883170249,-0.6355528583855703,0.99817995555984074,0.13549607673070563,-0.20713081467263228,0.32716561843534242,0.9446216287029916,-0.73604411917437607,-0.179878810983785,0.60765052706903844,0.096023967700544999,-0.05276205899581865,-0.44135295385715412,0.96591192897380873,-0.70724066561591004,0.52316810477411169,-0.86576770824353999,-0.98639468087062254,0.72739250841951009,-0.45825917352075973,0.61980799575720735
-0.48449599243471275,0.24654394758020914,-0.60108164937779418,0.73729861559355037,0.58395751565489906,-0.49158492929067843,0.67326903855658649,0.1226594312658833,-0.90350904359752149,-0.89638114495245347,0.10773743343141229,0.77988594818065726,-0.24600759768006331,-0.96957655663701825,0.59152536465293037,0.33584050470041071,-0.84092885401990358,-0.62614418457944176,-0.80000777459917849,0.98430283655769668,-0.21736660179783751,-0.89408531844567918,-0.54796974229848594,-0.92810649847091975,-0.45442882760263603,-0.17464712281260186
-0.23246848664576802,0.18546244710923854,-0.47063326627274016,0.56003379112762075,0.083901676294607652,-0.68325950559071114,0.44682249347972358,-0.096427460031317969,0.91004871924604935,0.20894434122212768,0.93901188179753792,0.41215625929077349,0.63683223674403,-0.79488912610109641,-0.98242950094070203,0.10980173738982568,0.17697301579052982,0.88822802121779265,-0.59987002003857781,0.89369220526021453,0.061992348562312616,-0.25994823349392204,-0.95697510126386942,0.21270229066244939,-0.11056229038146514,-0.36296884963372422
-0.059680196971790833,0.44429488295469577,-0.77551767431779095,0.93203606230285119,-0.96490621664488541,-0.24760632056463594,-0.57011847868001775,0.48620089832281232,-0.59341876948826178,-0.4319496224688435,-0.53169213639631918,0.88810731389958097,-0.11834638900603611,0.04317017606688589,-0.74909464177599916,-0.78283043853967604,0.91214992534334782,-0.89762854621572918,-0.67008105409421792,0.55828544105132272,-0.72288057994726307,0.58080121859140754,0.49992876192362901,-0.65291031549508993,0.38218845569217286,-0.29547202700902964
