0.29144192738773,0.71781008551984526,0.89883397513053342,-0.49851544722319541,0.10810317081853071,0.97931910847162018,-0.85379066507076407,0.98117998598589762,0.2216235035085139,-0.14204677781696518,0.80953460564178892,0.19595779734470464,-0.83341627157073228,0.36225654795055839,0.34464464186981503,0.035206121363598575,-0.5178628454119103,0.5865556642212284,-0.27721868314506959,0.38460063928558785,-0.31500950346294143,-0.63768692875108113,0.23836734385021097,-0.78283247650324261,-0.54315450160210688,-0.70127331563720263
-0.23824477979310332,0.26235137285664822,-0.48703620396969893,-0.76620947301190601,0.98719599053630214,-0.75877445751813855,0.73116542293896392,0.74162914141069614,-0.42273153432736632,-0.46907792823559369,-0.99591537888674853,-0.88137726411548867,-0.24862951479792983,-0.88363940877719727,0.39284960291525062,0.5290937643127307,0.91416980951589366,-0.62229974642109531,-0.83421595466336784,0.27564351023180311,0.53552248527871904,0.27683155967135309,-0.19533319666988236,0.76108988988895798,0.62091924915148722,0.80702501916142122
-0.33206731945221235,-0.58713433917735869,-0.38472377582979189,0.38350044009587636,-0.56614330663546353,-0.32153535041286618,0.28583477188436923,-0.7707810581846577,0.53773007195703904,0.15458715249745758,0.87151651884893511,-0.13860571592835402,-0.053067582756842535,-0.90674883418066554,-0.16101802061522852,-0.55422391774793955,-0.26809616586273055,-0.092176851369841106,-0.062845651901455302,0.59811437187279815,-0.1239294879970001,-0.6342694160575737,-0.3600532629837061,0.8035880623725844,0.25236206732188116,-0.085259728098558307
0.42603701966023122,0.50028693739546481,0.65393530786377019,0.52617617119790761,-0.37762963371029623,-0.31778503176390904,0.5168439170661332,0.20142255680724497,-0.6935688394614814,-0.089664651045775035,0.76187672110426674,-0.47065827758536605,0.29839363913180805,-0.58860189768693427,-0.10269854467232342,-0.54991393971402647,0.8357438453953987,-0.69001667094152297,-0.001103002252119456,0.16917786831664117,0.2942050193234742,-0.027291471256590594,-0.44672922226541334,0.72759297384612753,-0.66540922283299064,-0.93797652606792559
