-0.77107390708343826,0.52204889037726576,-0.86919975016545115,-0.62632926813689305,-0.64844614812995616,-0.47451418287180691,-0.19941536297796647,-0.089790764810113499,0.35224518359897505,0.68399759862248,-0.84515754938239396,0.39838151913448483,0.070303949655350362,-0.82093670473271763,-0.27754623812639245,-0.63693333987574685,-0.60757109899352901,-0.89917295988802715,-0.81747572551044057,0.61059678919872717,0.9496763483808579,0.72817807298712012,0.60789001454040159,-0.4448332489731226,-0.74949348137447447,-0.63811778691686993
0.12721452771798036,0.35746781816024376,-0.66551810653695886,-0.014820872743407598,-0.53787099686514117,0.85601545133518697,-0.79937979486922872,-0.38779892935174076,-0.89174509726116225,-0.90965969379715417,0.99734125554376551,0.63515478565991046,0.066481846277397727,0.25808165540408301,-0.0041748040998585978,-0.41508657371765034,-0.24376998007973061,0.6884906345991455,0.2920732630095666,0.62264904413650668,-0.2729083033425268,-0.47529272651183763,-0.42975696526413176,-0.75761175555455362,0.72107582361610834,-0.26800117818842129
0.0037716875192363997,0.10633372067918434,-0.69741200585345142,0.47344836642621457,-0.26757203401634055,-0.4324212954892126,-0.53088181855499816,0.43772024881019389,-0.71846311354013936,0.88521606480275605,-0.45893720622864609,0.052462240247207692,0.46626837215982886,0.56189234806235344,0.64583267529316601,0.2556947781837331,0.86667021329498062,-0.52896478126308688,0.091709748706210625,0.74418955821038923,0.16256721076510683,-0.69106708453849031,0.75760544361918924,-0.14018525253280179,0.44542597023050456,-0.29404749914721995
-0.20864677868823089,0.98525600688588444,0.64325493903287323,-0.29807290967861921,-0.55623654029679059,0.54448271761481926,-0.96687799389147999,0.76707302373973718,0.22934723901789345,-0.64940488868820867,0.96140907625233551,-0.7332320994962751,-0.75914190504093293,0.08261870145260608,-0.23628186429502129,0.89760944847522994,0.99891141172297804,0.74753114819519539,0.67780756024630673,-0.6702320238869961,-0.75848288658490337,-0.63201357424141458,0.21356191433341576,0.353653116670676,0.60697915948760017,0.14980090378440192
