-0.49907802977994731,-0.89459740163580403,-0.48972780427009122,-0.52380825602633796,0.71565059935888264,-0.33750817398841892,0.61994599686720586,0.47141781245956782,0.36700501028290189,-0.38669218656864479,-0.21219154864164502,0.63665221900037161,0.76599389505336934,0.17149854037161694,-0.41859168754475995,-0.33060436904404722,-0.78771468504338893,0.10690158378040437,-0.40800386629267593,0.42855551704530392,0.063108644954660953,-0.82374530599190376,-0.23980975719855824,0.77314584821334198,0.93878169055384064,0.59895570210447491
0.76242031194107152,-0.76744387640094858,-0.60730506190771782,-0.2142048550213389,-0.58369642987390802,0.78070216082503707,-0.55715841963151247,0.5628261155684342,-0.90687273806470858,0.059596899348364873,0.94890451618752847,0.1778864591537912,0.13842531769701649,-0.3339463777747318,-0.95154630181364186,-0.63762511498927288,-0.37088877997181191,-0.13380270395268967,0.10190673369950431,-0.23474227627639732,0.17130961533954592,-0.7063354936880113,0.43452788263594733,0.63247151888339803,0.3450115490548169,-0.8402226469063232
0.11347577142263798,0.4791295129816755,0.50076632878332172,-0.48201468985447149,0.47674592489353884,0.52383645167939474,0.70246588097191442,-0.83673551438207383,0.79368623695170548,-0.66999284996519592,-0.90450002852715405,-0.794839063415127,0.35613959759718328,-0.5738162072381352,-0.23983429662915023,0.8657881905596847,-0.74432860559448066,-0.33195346660301639,-0.70043048364354599,-0.57394008492333759,-0.39477750088033337,-0.019200119467955634,-0.1332949207736942,0.13399934849900874,0.071472974224495278,-0.92753273812172354
-0.28769294790562161,0.79660922045296245,-0.32145510301450853,0.82799233450147924,-0.8491622397738734,0.11012334181815331,-0.024939922217864119,0.23990004350879524,0.74834026543539856,0.34040131146245778,0.49880261458857489,-0.45907535260381072,0.14067335724338914,-0.29311135054691961,-0.98855232855018293,-0.40009134883080177,-0.46971516921548417,-0.82583033425879293,-0.69111286423453056,-0.15223671903131275,0.33612728369757217,-0.074097835963972347,-0.90137769655602251,0.49145383469794668,0.80983454318440651,-0.36493220635712875
