-0.093251353435196416,0.52204889037726576,-0.86919975016545115,0.95809036303952611,-0.64844614812995616,-0.47451418287180691,0.012093605415673281,0.97499179037057981,0.35224518359897505,-0.52740662990966736,-0.28447213572196861,0.39838151913448483,-0.059958878899533774,-0.82093670473271763,-0.035044748913567236,0.28067237013795432,-0.60757109899352901,-0.3035658294335033,-0.81747572551044057,0.61059678919872717,0.9496763483808579,-0.29673549635076424,0.60789001454040159,-0.049362924943307407,-0.74949348137447447,0.88784027192536974
0.12721452771798036,0.35746781816024376,0.20739951251260025,-0.014820872743407598,0.29165211241838507,0.85601545133518697,-0.79937979486922872,-0.38779892935174076,-0.46414002485519656,0.22523869651743156,0.99734125554376551,0.97779370823492617,0.066481846277397727,-0.40061881291397139,-0.0041748040998585978,-0.41508657371765034,-0.24376998007973061,0.6884906345991455,0.2920732630095666,-0.88222183614814331,-0.2729083033425268,-0.47529272651183763,-0.42975696526413176,-0.75761175555455362,-0.5423748993083326,-0.26800117818842129
0.0037716875192363997,0.10633372067918434,-0.69741200585345142,-0.74608468450520316,-0.26757203401634055,-0.4324212954892126,-0.60410333983222775,0.012333846192476461,-0.71846311354013936,0.55370608152212752,-0.45893720622864609,0.052462240247207692,0.55984037972757794,0.56189234806235344,0.21959324419166659,-0.24197665830205284,0.86667021329498062,-0.86728681268256347,0.091709748706210625,0.74418955821038923,-0.7097995009315563,-0.77490607017297686,-0.28367294592898773,-0.14018525253280179,0.44542597023050456,-0.29404749914721995
-0.80318343543534154,0.98525600688588444,0.64325493903287323,-0.32520039500815723,0.56571463799507771,0.43850198303991239,-0.96687799389147999,0.76707302373973718,0.22934723901789345,-0.64940488868820867,-0.063196561951473385,0.5333196189980971,-0.75914190504093293,0.08261870145260608,-0.25987737257263022,0.075934686016044139,0.99891141172297804,-0.93410335064285555,-0.40694589335941633,-0.6702320238869961,-0.75848288658490337,-0.63201357424141458,-0.34490723457256678,0.353653116670676,0.11159108569189913,0.090643875685510578
