-0.77107390708343826,0.52204889037726576,0.59722873878781702,0.15840754375846333,-0.64844614812995616,0.96612567960888907,0.012093605415673281,0.34890413732952985,0.35224518359897505,0.68399759862248,0.34321164857154374,0.39838151913448483,0.48561606166743365,-0.82093670473271763,-0.09118753734435292,0.28067237013795432,-0.79428795092986837,-0.3035658294335033,-0.90395924591564381,0.61059678919872717,0.9496763483808579,-0.29673549635076424,-0.048702821204155367,-0.049362924943307407,0.52215184701363948,0.92633271638742554
-0.07675283417125156,0.35746781816024376,-0.66551810653695886,-0.014820872743407598,0.29165211241838507,-0.50235615053248628,-0.79937979486922872,0.83376131774097439,-0.46414002485519656,0.42680257084095174,0.99734125554376551,0.63515478565991046,0.36830131784275655,0.25808165540408301,-0.0041748040998585978,-0.11189137786044734,0.34328181721014439,0.6884906345991455,0.56301174692688338,0.37102946895709343,-0.2729083033425268,0.2864610569612176,-0.42975696526413176,-0.75761175555455362,0.72107582361610834,-0.26800117818842129
0.39473547315869428,0.030305688881444359,-0.69741200585345142,-0.74608468450520316,-0.43156287230107182,-0.4324212954892126,-0.049607095957098446,0.012333846192476461,-0.71846311354013936,0.55370608152212752,-0.45893720622864609,0.052462240247207692,0.55984037972757794,0.56189234806235344,0.21959324419166659,-0.24197665830205284,-0.39281443457180742,0.12626982698544031,0.091709748706210625,0.74418955821038923,0.077701660385400828,-0.69106708453849031,-0.2400088204652846,-0.050393736498527186,0.44542597023050456,-0.29404749914721995
-0.80318343543534154,0.65362252799896248,0.038541179400499059,-0.37592784926848255,-0.55623654029679059,-0.86934753007410448,-0.73719214712671,0.43557070192506697,0.22934723901789345,0.70945634546575587,0.88254018628499709,-0.66957030555008212,0.55206119516876528,0.08261870145260608,0.74864041381948354,0.0041083874656413499,0.56675603868071711,0.74753114819519539,-0.17932695358210249,0.54417564933867513,-0.75848288658490337,-0.63201357424141458,-0.34490723457256678,0.353653116670676,-0.53675790815289282,0.090643875685510578
