0.29144192738773,-0.087029945972882938,0.39752284844132024,0.4553843727732656,0.32442186823962427,0.68613858362710944,0.41113578873658119,-0.69618145331260584,0.2216235035085139,-0.69509330637608469,0.80953460564178892,0.19595779734470464,0.035334959422196999,0.36225654795055839,-0.30770958036018725,-0.7918395782936436,-0.81675600190302977,0.5865556642212284,0.93847583703783122,0.45968029323465975,-0.31500950346294143,-0.58846685709193869,-0.048059401243942368,0.060770829322642106,-0.34153908344749695,0.52549728513550731
-0.23824477979310332,0.29241113542708885,-0.82653363499273835,-0.76620947301190601,0.43138558241684177,-0.91968140635267748,0.94298467153549081,0.74162914141069614,-0.42273153432736632,0.7829628957190482,-0.40491107941234405,-0.88137726411548867,-0.24862951479792983,-0.46965122725439445,-0.09988743812359191,0.5290937643127307,0.94592432133755677,-0.62229974642109531,-0.070132927068803363,0.71677928784824774,0.11485847759824308,-0.44817659354270778,-0.11854061976326524,0.76108988988895798,0.053022340825189973,0.80702501916142122
-0.59567775359045005,-0.62514243985385476,-0.38472377582979189,-0.11086511901111562,0.77261025414225237,-0.32153535041286618,-0.89006685274879294,0.55426161280659381,0.96404226076342625,0.70862778541612581,-0.2471264720253632,-0.13860571592835402,-0.69659816989554368,-0.90674883418066554,0.4792733732277572,0.13991546358518292,-0.26809616586273055,-0.092176851369841106,0.94579152297887492,-0.088022163316706648,-0.88934528163116533,-0.6342694160575737,0.014833701490645002,0.43102088477513623,-0.10472044037140238,0.71312405767933496
0.1332204767021099,0.73495176844989363,-0.69208433342021869,0.52617617119790761,-0.37762963371029623,-0.07459036708707556,0.90243884225134141,0.20142255680724497,0.61759495643599127,-0.089664651045775035,-0.89950373830969643,-0.47065827758536605,-0.66282205438852371,-0.53394609341937449,0.66205705170902296,0.14904925711531947,0.25070343873230505,0.62412734022408922,-0.001103002252119456,0.50987554269650159,0.2942050193234742,-0.027291471256590594,-0.65464666008232908,-0.61251238018683174,-0.66540922283299064,-0.43330173771980629
