0.29144192738773,-0.087029945972882938,-0.69944111366718476,0.48046957591886574,0.32442186823962427,0.68613858362710944,0.27972827306571402,-0.69618145331260584,-0.3088733554483758,-0.69509330637608469,0.80953460564178892,-0.20136172682820108,0.035334959422196999,0.36225654795055839,0.11355047139416441,0.22530584037702228,-0.10948006049783521,0.5865556642212284,0.93847583703783122,0.025247778907766083,-0.31500950346294143,-0.63768692875108113,0.23836734385021097,-0.11468474377767035,0.5731644289539044,0.77036973876346826
0.3942968425906086,0.29241113542708885,0.38952025277533742,-0.76620947301190601,-0.10377517458970598,-0.91968140635267748,0.94298467153549081,-0.36965774221472891,-0.42273153432736632,-0.051080159211520204,-0.26628009662578389,-0.88137726411548867,-0.24862951479792983,-0.46965122725439445,0.82472015844248059,0.1206094594893834,0.23501613269231347,-0.62229974642109531,-0.18334307837057207,-0.15143199056382906,0.53552248527871904,0.51193848759595406,-0.11854061976326524,-0.69132210271527916,-0.87115635509743994,-0.88350553096909024
-0.032571290713625745,-0.58713433917735869,-0.38472377582979189,0.79505222730175573,-0.56614330663546353,-0.11228123690438907,0.28583477188436923,-0.7707810581846577,0.34729377851237198,0.70862778541612581,-0.2471264720253632,-0.83505203628433455,-0.56987795104125971,-0.90674883418066554,-0.16101802061522852,-0.087689558246905275,-0.26809616586273055,-0.092176851369841106,0.94579152297887492,-0.088022163316706648,-0.1239294879970001,-0.222285545823665,0.014833701490645002,0.43102088477513623,-0.10472044037140238,-0.085259728098558307
-0.31289197595324225,0.99880831320724073,-0.69208433342021869,-0.5061769888629204,-0.37762963371029623,-0.07459036708707556,-0.32622434717304638,-0.018328077246125396,-0.24403850284307183,0.020084583189277527,0.51217107949582852,-0.47065827758536605,-0.66282205438852371,-0.53394609341937449,0.52962826676101415,-0.36644119422690746,0.94015770867211534,0.96159530500287271,0.48999641295751917,0.72467032817249311,0.2942050193234742,-0.027291471256590594,-0.19770458786174405,-0.61251238018683174,-0.66540922283299064,0.095919729019426914
