0.29144192738773,-0.087029945972882938,0.39752284844132024,0.48046957591886574,0.32442186823962427,0.68613858362710944,-0.59603102927437468,-0.36925835241965554,-0.011018780381394588,-0.69509330637608469,0.80953460564178892,0.19595779734470464,0.84538370127138962,0.36225654795055839,0.92010645300698402,0.37764548990408509,-0.21551882307864401,0.5865556642212284,0.34686233316078963,-0.72999514321547054,0.77191425321194007,-0.15946188044975762,0.23836734385021097,-0.87088736240401787,-0.34153908344749695,-0.68057681241742585
-0.23824477979310332,0.29241113542708885,0.38952025277533742,-0.76620947301190601,-0.10377517458970598,-0.81313622409490627,-0.14172249357629951,-0.49016712685429931,-0.42273153432736632,-0.051080159211520204,0.05729550729990418,-0.88137726411548867,-0.24862951479792983,-0.45537014041433421,-0.63184760967442832,0.1206094594893834,0.33911354966348362,-0.62229974642109531,-0.18334307837057207,-0.15143199056382906,0.53552248527871904,0.27683155967135309,-0.11854061976326524,-0.69132210271527916,0.90328497899479587,0.80702501916142122
-0.032571290713625745,-0.58713433917735869,-0.11007379526166883,-0.95316451306035654,-0.56614330663546353,-0.32153535041286618,0.28583477188436923,-0.7707810581846577,0.96404226076342625,0.70862778541612581,-0.2471264720253632,-0.58244657766949537,-0.56987795104125971,-0.90674883418066554,-0.16101802061522852,0.56104926634244023,-0.26809616586273055,0.75414814311755785,0.639213792616798,-0.088022163316706648,-0.1239294879970001,-0.222285545823665,0.014833701490645002,0.43102088477513623,-0.10472044037140238,0.56660573039663586
-0.31289197595324225,0.99880831320724073,-0.69208433342021869,0.52617617119790761,-0.37762963371029623,-0.07459036708707556,-0.016576175040975638,-0.018328077246125396,-0.24403850284307183,-0.28759023914637094,0.51217107949582852,-0.47065827758536605,0.96773602767458078,-0.13793461183449707,0.83215245036262764,-0.36644119422690746,0.17676323998276011,0.96159530500287271,-0.001103002252119456,0.50987554269650159,0.2942050193234742,-0.027291471256590594,-0.19770458786174405,-0.61251238018683174,0.44296469357815793,-0.88635053215131654
