0.29144192738773,-0.38359705471956551,0.050970160605587012,-0.6203930717212478,0.32442186823962427,0.68613858362710944,0.30314441394204716,-0.69618145331260584,0.2216235035085139,-0.92631989212394061,-0.085442164820930255,0.19595779734470464,0.035334959422196999,0.32446266952961311,0.81486781206440262,0.093585333742356447,-0.99050563099743449,0.5865556642212284,0.93847583703783122,0.025247778907766083,0.56375811081748695,-0.29673549635076424,-0.36497331094391638,-0.74632768240981173,-0.34153908344749695,0.52549728513550731
-0.23824477979310332,0.29241113542708885,0.38952025277533742,-0.76620947301190601,0.77559521091440042,0.34783433052395107,0.46548809695003346,0.49083619268554668,-0.42273153432736632,-0.99386971216814568,0.063097024491248321,-0.88137726411548867,-0.22412549622188904,-0.46965122725439445,-0.49885318499464226,0.1206094594893834,0.38494122322617286,0.58215119603637411,-0.18334307837057207,-0.15143199056382906,0.74382506585826746,0.72937725519668528,-0.019855128963452984,0.70823550583473738,0.69272592914112918,0.52506226564040448
-0.032571290713625745,-0.3419313559853272,-0.58931137297295488,0.028330399011215368,-0.56614330663546353,-0.32153535041286618,0.28583477188436923,-0.7707810581846577,0.15722456235094473,-0.38353783910892059,-0.2471264720253632,0.75755542456414138,0.74099929575960544,0.68664752909949645,-0.16101802061522852,-0.22901675406234556,-0.27626883497500421,0.84915067859590265,0.94579152297887492,-0.088022163316706648,0.57183968579538003,-0.222285545823665,-0.62114040085137412,-0.7264961060619739,0.74620203631604465,0.092185492812497882
0.38597202804079056,0.99880831320724073,0.48270938847682365,-0.31744547144944391,-0.37762963371029623,0.284784874768093,-0.97648498711409526,-0.018328077246125396,-0.24403850284307183,-0.089664651045775035,-0.078073311151764635,-0.47065827758536605,-0.66282205438852371,-0.53394609341937449,0.079834506238824599,-0.36644119422690746,0.25070343873230505,-0.12967906435631282,-0.99144800575569358,-0.94653898766546196,0.2942050193234742,0.51663212494068889,-0.97311761560259868,0.32589113921868584,0.85253052468005386,0.095919729019426914
