0.29144192738773,-0.49516149214769811,0.050970160605587012,-0.85031437493640594,0.32442186823962427,0.45975842504425524,-0.58373501485359469,-0.69618145331260584,-0.41691311440880585,-0.19046144160921519,-0.085442164820930255,-0.81580968849689417,0.035334959422196999,0.36225654795055839,-0.9610541017106744,0.093585333742356447,-0.99050563099743449,-0.16940260119651507,-0.7956330096004236,0.9686843354587189,0.56375811081748695,-0.29673549635076424,-0.84134268460962458,-0.74632768240981173,-0.34153908344749695,0.52549728513550731
-0.23824477979310332,-0.82393118356816464,0.38952025277533742,-0.88013043591999418,0.77559521091440042,-0.059488042887007486,0.46548809695003346,0.49083619268554668,-0.16635290069020092,-0.84714469752503763,-0.26110228332907903,-0.88137726411548867,-0.24862951479792983,0.48300107782496071,-0.49885318499464226,0.1206094594893834,0.38494122322617286,0.58215119603637411,-0.18334307837057207,0.37360218538234702,0.74382506585826746,0.27683155967135309,0.067519005368763096,0.12329372349551249,0.69272592914112918,-0.31376465853485458
-0.032571290713625745,0.18808431501015588,-0.58931137297295488,-0.7132196535635813,-0.56614330663546353,-0.32153535041286618,0.28583477188436923,-0.58600811609665482,0.15722456235094473,-0.96374364955810354,0.24634431208111351,-0.10756014205376974,-0.56987795104125971,-0.38579624809009605,-0.16101802061522852,-0.22901675406234556,0.27658685327587174,-0.34673665701148448,0.94579152297887492,-0.66043528244879979,0.57183968579538003,0.87669034736658724,0.79877325629223472,0.3987170228186816,-0.10472044037140238,-0.085259728098558307
0.38597202804079056,0.084926338080997477,0.48270938847682365,-0.4896530604215541,-0.37762963371029623,0.284784874768093,0.90243884225134141,-0.018328077246125396,0.85348066334609718,0.096354405506251295,0.11596242773830823,-0.47065827758536605,0.55585707036986176,-0.96593047431467949,0.079834506238824599,0.27127115461672835,0.25070343873230505,-0.12967906435631282,-0.85872584224028348,-0.94653898766546196,0.2942050193234742,-0.34714557443533112,-0.96702472119209748,0.84448287747715622,0.85253052468005386,0.095919729019426914
