0.29144192738773,-0.49516149214769811,0.050970160605587012,-0.15967960291364869,0.32442186823962427,0.38966597258215097,-0.58373501485359469,0.28556248612655843,-0.41691311440880585,0.7803442994432479,0.30437933655639582,-0.85611996238197907,0.035334959422196999,0.36225654795055839,0.82916507261286698,0.093585333742356447,-0.99050563099743449,-0.16940260119651507,0.93847583703783122,0.72388819733841592,0.56375811081748695,0.72725804644156322,-0.27729390989735969,0.22857288722844782,-0.34153908344749695,0.52549728513550731
-0.1201132583273854,-0.82393118356816464,0.38952025277533742,0.56938867406390248,0.77559521091440042,-0.059488042887007486,0.46548809695003346,0.49083619268554668,-0.42273153432736632,-0.99386971216814568,0.30823619139314662,-0.64040620927473757,-0.24862951479792983,-0.46965122725439445,0.51610636471152849,-0.45934699029338355,0.38494122322617286,0.58215119603637411,-0.65025773723589153,0.37360218538234702,0.74382506585826746,0.27683155967135309,-0.037149702960222797,0.70823550583473738,0.69272592914112918,0.81023158671976203
-0.032571290713625745,0.18808431501015588,-0.58931137297295488,0.055044673542960831,-0.56614330663546353,-0.32153535041286618,0.28583477188436923,-0.87588795671836062,0.036882210373719193,-0.96374364955810354,-0.2471264720253632,0.48752275214708951,0.78532309263081368,0.68664752909949645,-0.16101802061522852,-0.22901675406234556,0.46824765632270027,-0.34673665701148448,0.94579152297887492,-0.088022163316706648,0.57183968579538003,-0.036388221917836638,0.79877325629223472,0.3987170228186816,-0.10472044037140238,-0.085259728098558307
0.38597202804079056,0.31339814594406468,0.66098600253680995,-0.4896530604215541,-0.83168789249682828,-0.11008056096969021,0.90243884225134141,-0.018328077246125396,0.85348066334609718,-0.23290409540740575,0.55889993912816638,-0.47065827758536605,0.55585707036986176,0.70923992112110246,0.49705901131953834,0.27127115461672835,0.41566090860020033,-0.12967906435631282,-0.99144800575569358,-0.94653898766546196,0.2942050193234742,0.51663212494068889,-0.96702472119209748,0.84448287747715622,0.85253052468005386,0.52719783760072025
