0.29144192738773,0.22845378948310735,0.050970160605587012,-0.29206285338411697,0.32442186823962427,0.2589936339207044,-0.58373501485359469,0.88042006117275995,-0.65893928292686565,-0.69509330637608469,-0.31491162303951636,-0.58464981812620964,0.087267991081281027,0.36225654795055839,-0.9610541017106744,0.95702145969275643,0.66752457199955195,-0.82574532079346952,0.39108723659124611,-0.18401668701378537,0.45058207773102121,-0.29673549635076424,0.23836734385021097,0.24397091698529749,0.42931120488622065,0.52549728513550731
-0.47325342821173089,-0.82393118356816464,0.38952025277533742,-0.12004197665078964,0.77559521091440042,-0.059488042887007486,0.84825287403464467,0.49083619268554668,-0.36172320243949896,-0.99386971216814568,-0.26110228332907903,-0.88137726411548867,-0.24862951479792983,-0.46965122725439445,-0.49885318499464226,0.82201941671097933,0.38494122322617286,0.58215119603637411,-0.18334307837057207,0.59831802106705423,0.48608999351137894,0.27683155967135309,-0.019855128963452984,0.70823550583473738,0.69272592914112918,-0.31376465853485458
-0.032571290713625745,0.18808431501015588,-0.7907669434710336,0.64706740567300813,-0.56614330663546353,-0.32153535041286618,0.71222653840742667,-0.7707810581846577,-0.68430435365109599,0.090639528611520692,-0.85710897073321868,0.48752275214708951,0.4910342016926339,0.68664752909949645,-0.16101802061522852,0.84684340234559485,-0.27626883497500421,0.39676770801886518,-0.099025430566820338,-0.52419699538726272,-0.21279964588646183,-0.080075030217408028,0.79877325629223472,-0.97419557300294857,-0.35915504911991114,-0.085259728098558307
0.79409715994992291,0.5643159630164265,0.48270938847682365,-0.4896530604215541,-0.47414886957974578,-0.12126491604671963,0.90243884225134141,-0.018328077246125396,0.85348066334609718,0.53779966592380135,0.11596242773830823,-0.47065827758536605,0.55585707036986176,-0.59676853883055747,0.079834506238824599,0.94327076631756523,0.82376534277068258,0.19873407660125619,-0.99144800575569358,-0.59345075915347012,0.2942050193234742,-0.81984757090859595,-0.96702472119209748,0.84448287747715622,-0.64332070083601889,0.095919729019426914
