0.29144192738773,-0.49516149214769811,-0.6149561908258101,-0.29206285338411697,0.32442186823962427,0.38966597258215097,-0.58373501485359469,-0.69618145331260584,-0.65893928292686565,-0.69509330637608469,-0.84406215448843991,-0.58464981812620964,0.035334959422196999,0.64337481752131231,-0.9610541017106744,0.093585333742356447,0.66752457199955195,-0.82574532079346952,-0.93502622652218315,0.9686843354587189,0.45058207773102121,0.51247457635189186,0.23836734385021097,0.24397091698529749,-0.34153908344749695,0.52549728513550731
-0.23824477979310332,0.24385413007676915,0.38952025277533742,0.56938867406390248,0.77559521091440042,-0.059488042887007486,0.84825287403464467,0.49083619268554668,-0.36172320243949896,-0.99386971216814568,0.65617346686823796,0.13322102416907078,-0.24862951479792983,-0.46965122725439445,-0.49885318499464226,0.10190840386829403,0.38494122322617286,0.58215119603637411,-0.18334307837057207,0.35585193045449559,0.0017418375689883803,0.27683155967135309,-0.019855128963452984,0.70823550583473738,0.41757900938814996,-0.97794985638591148
-0.032571290713625745,0.18808431501015588,-0.58931137297295488,-0.7132196535635813,0.29116532194505429,-0.32153535041286618,0.53831294547534347,-0.7707810581846577,-0.68430435365109599,-0.85979194802669112,-0.2471264720253632,-0.55190702530480373,0.4910342016926339,0.68664752909949645,0.92107279887690652,0.21017911357776087,-0.27626883497500421,0.39676770801886518,0.94579152297887492,-0.52419699538726272,0.57183968579538003,0.87669034736658724,0.79877325629223472,-0.97419557300294857,-0.13052456126950851,0.26653142649404393
-0.57270902847526139,0.99880831320724073,0.48270938847682365,0.024699536209075834,-0.47414886957974578,-0.12126491604671963,0.90243884225134141,-0.26172884896031579,0.85348066334609718,0.53779966592380135,0.365455839447834,-0.47065827758536605,0.55585707036986176,0.70447329714094553,-0.10294323439203423,0.27127115461672835,0.25070343873230505,-0.12967906435631282,0.044273269655838998,-0.59345075915347012,-0.40258654964808449,-0.81984757090859595,-0.96702472119209748,-0.28745983216688797,-0.64332070083601889,0.095919729019426914
