-0.76974706854491348,-0.49516149214769811,0.050970160605587012,0.12608363942418399,0.32442186823962427,0.7514312803767087,-0.58373501485359469,-0.74153021369118033,0.5357294572552187,-0.69509330637608469,0.98290768271414564,-0.58464981812620964,0.58285066829321197,-0.88432870691251741,-0.9610541017106744,-0.17358835611306311,0.66752457199955195,0.28183092906430685,0.39108723659124611,-0.8431241581717821,0.44244591904179176,-0.49522697043959329,-0.82491161118101686,0.24397091698529749,-0.34153908344749695,-0.82282705514919474
0.91124516918938991,-0.62502212518567424,0.38952025277533742,0.56938867406390248,0.31282180705252993,-0.059488042887007486,0.088574881226380686,0.49083619268554668,-0.33397143953050312,-0.99386971216814568,-0.13436816840095211,-0.64034462752234833,-0.24862951479792983,-0.25236917878602561,-0.49885318499464226,0.10190840386829403,0.38494122322617286,0.58215119603637411,0.32525954422304704,0.49138726276372346,-0.17127930971499739,0.27683155967135309,-0.019855128963452984,0.70823550583473738,0.69272592914112918,-0.26468353958753399
-0.032571290713625745,-0.23123497697947126,-0.58931137297295488,-0.61134990583296767,0.13656198976955269,0.82589972627322994,0.53831294547534347,-0.23864052797807211,-0.68430435365109599,0.090639528611520692,-0.2471264720253632,0.48752275214708951,0.4910342016926339,0.68664752909949645,0.055093919925001122,0.40281762382106256,-0.27626883497500421,0.39676770801886518,0.33422600285040871,-0.52419699538726272,0.57183968579538003,0.46384573858962885,0.39475471789493422,-0.97419557300294857,0.67290546492729719,-0.085259728098558307
-0.15886221764788111,0.99880831320724073,0.48270938847682365,-0.4896530604215541,-0.33012243671451458,-0.12126491604671963,-0.40561516713413615,-0.018328077246125396,0.85348066334609718,0.5238355000917716,0.059767560704625522,-0.4754229634064322,0.55585707036986176,0.15363625168593753,0.079834506238824599,0.27127115461672835,0.25070343873230505,-0.12967906435631282,0.97474221037178155,0.97764971868541983,-0.25448730060689351,-0.76800933001660798,-0.79408810743286429,0.84448287747715622,-0.64332070083601889,0.23484659724961676
