-0.76974706854491348,0.044241207604277522,-0.25231870745645968,-0.0054730529472912792,-0.64844614812995616,0.38966597258215097,0.27224662759171525,-0.20152990671205107,-0.99790383444612241,-0.60711034092807692,0.13582802726896892,-0.58464981812620964,-0.84568962796262515,-0.88432870691251741,-0.060096562902527184,-0.17358835611306311,0.84124085343317367,0.67466001942656351,0.53642106677691426,-0.8431241581717821,-0.41095230001566563,-0.29673549635076424,0.87894022283565199,0.24397091698529749,-0.34153908344749695,0.49776218488409762
0.91124516918938991,0.39018834244041312,0.38952025277533742,-0.638298356693352,0.9018381924896588,-0.059488042887007486,-0.86727237576172644,0.29368189788171506,-0.36172320243949896,0.29835542462409248,0.3758268060489931,0.69248215482252062,-0.24862951479792983,-0.31520745254965221,-0.49885318499464226,0.73933887655959563,0.51353442203486321,0.55433813210057448,0.05165920054140094,0.1434547806127795,0.48608999351137894,-0.46241109073534714,-0.019855128963452984,0.70823550583473738,0.69272592914112918,-0.26468353958753399
0.0037716875192363997,-0.23123497697947126,-0.58931137297295488,-0.7132196535635813,0.13656198976955269,0.82589972627322994,0.53831294547534347,0.048979677428042656,-0.68430435365109599,0.64941911714971878,-0.2471264720253632,0.48752275214708951,0.4910342016926339,0.68664752909949645,-0.08706832273327314,-0.0051324082258663584,-0.27626883497500421,0.39676770801886518,-0.082901666789560569,-0.52419699538726272,0.9773682998575195,0.46384573858962885,0.39475471789493422,0.083791972299416706,0.67290546492729719,0.23868255473499689
-0.90423992402202868,-0.46027835432187536,-0.012691326929348712,0.5745534670480259,-0.5316548283138034,-0.43627874243419207,-0.47834357089143165,-0.018328077246125396,-0.0077162028473944932,0.53779966592380135,0.11596242773830823,0.23921917823567207,0.55585707036986176,-0.4875359571254827,-0.35996295546481782,0.27127115461672835,0.25070343873230505,-0.12967906435631282,-0.99144800575569358,-0.046619991190272936,0.53202221865426602,-0.81984757090859595,-0.91178152146833513,-0.090507696700945051,0.50957713229504176,-0.14313338488674221
