-0.76974706854491348,0.044241207604277522,0.85078030606528476,0.4272997329673438,-0.64844614812995616,0.38966597258215097,-0.34886132162088024,0.68090738161740672,-0.99790383444612241,-0.60711034092807692,-0.033926474277588659,-0.58464981812620964,-0.84568962796262515,0.92648219502022955,-0.56596252272068326,-0.17358835611306311,0.68235818774606316,0.67466001942656351,-0.059059643232268755,-0.8431241581717821,0.42001599805196577,-0.29673549635076424,0.87894022283565199,0.24397091698529749,-0.34153908344749695,0.52549728513550731
0.91124516918938991,-0.82393118356816464,-0.83316950171457527,0.56938867406390248,0.9018381924896588,-0.059488042887007486,-0.68123442423777525,-0.77039323198483123,-0.36172320243949896,-0.96642303403202612,-0.0076775232549657346,-0.81354773570544303,-0.24862951479792983,0.48883525345202217,-0.49885318499464226,0.10190840386829403,0.38494122322617286,-0.88391021317956375,0.05165920054140094,-0.18477886939351196,-0.095945042142050907,0.27683155967135309,-0.41787089173427705,0.12141410348247228,0.28813930393349807,-0.26468353958753399
-0.84726848244919784,-0.23123497697947126,-0.58931137297295488,-0.7132196535635813,0.13656198976955269,0.82589972627322994,0.53831294547534347,0.47939005673726021,0.46634063779451562,0.47710569638933098,-0.2471264720253632,0.48752275214708951,0.4910342016926339,0.68664752909949645,0.069954341217970839,-0.0051324082258663584,-0.27626883497500421,0.39676770801886518,-0.49570439061574167,-0.98897150961003755,-0.62307673966655663,0.46384573858962885,0.39475471789493422,0.24747160462360007,0.67290546492729719,-0.085259728098558307
-0.90423992402202868,-0.46027835432187536,0.81165951002169145,0.87216150212416754,-0.33012243671451458,-0.20095154130887738,-0.47834357089143165,-0.018328077246125396,0.25572796395225583,-0.43845370943378614,0.11596242773830823,0.23921917823567207,-0.52921435162909436,-0.4875359571254827,-0.52281388625790792,0.27127115461672835,0.25070343873230505,-0.12967906435631282,0.77555096498906462,-0.046619991190272936,0.53202221865426602,0.37497226620596358,-0.91178152146833513,-0.090507696700945051,-0.64332070083601889,-0.14313338488674221
