-0.76974706854491348,0.044241207604277522,0.050970160605587012,-0.29206285338411697,0.75816117275274308,0.38966597258215097,0.27224662759171525,-0.69618145331260584,-0.99790383444612241,0.46764572007912553,-0.033926474277588659,-0.58464981812620964,0.54558472608286501,-0.88432870691251741,-0.36387015813613921,-0.17358835611306311,-0.13123902480972127,-0.32468306080249731,-0.23498041175877771,0.19732673626513719,-0.80036412720606309,-0.29673549635076424,-0.57974281123864357,0.24397091698529749,-0.34153908344749695,0.52549728513550731
0.66632831296781059,-0.82393118356816464,0.38952025277533742,0.56938867406390248,0.9018381924896588,-0.059488042887007486,-0.86727237576172644,0.31613902927730986,-0.06171895815337014,-0.99386971216814568,0.3758268060489931,-0.81354773570544303,-0.38233478016789868,-0.31520745254965221,-0.41466247389004551,0.10190840386829403,0.38494122322617286,0.55433813210057448,0.05165920054140094,-0.2310309875352714,0.081814903921804794,0.90393274024758474,-0.67832324790977139,0.70823550583473738,0.69272592914112918,-0.43011440911210008
0.0037716875192363997,-0.23123497697947126,0.31872790522903394,-0.7132196535635813,0.17042736423045213,0.64935158329740816,0.22844821572854657,0.47939005673726021,-0.68430435365109599,0.090639528611520692,-0.28965090955890771,0.48752275214708951,-0.47342499909025126,0.26988900109169411,-0.062755227536183789,0.90391964373572331,0.6677351514747365,0.066674813682560341,-0.49570439061574167,-0.52419699538726272,0.9773682998575195,0.5872062234156239,0.39475471789493422,-0.97419557300294857,0.67290546492729719,0.086788495160837087
-0.90423992402202868,0.21801236285736936,0.89120459564006449,0.87216150212416754,0.43725249178633518,0.17350025900309296,-0.47834357089143165,-0.70531942262712688,0.16607248591719426,0.31649469273578656,-0.32261376184692492,0.012254222709014995,-0.40947021908972925,0.13339674250496891,-0.53410806590308502,0.27127115461672835,0.25070343873230505,-0.75311833450885413,-0.99144800575569358,-0.046619991190272936,0.53202221865426602,-0.81984757090859595,-0.0050322023497246793,0.9467098123636728,0.0191501309507629,-0.14313338488674221
