0.58922652484097893,-0.094843649556247467,0.0070912253606920661,-0.27969491273286895,-0.52968711381809896,0.42894505227855984,-0.62459613026454019,0.3035953689202735,-0.95952007427701025,0.61107535493239706,-0.71513645837902473,0.56249623844432151,-0.56763631864434827,-0.12382578196888239,-0.35671128008398245,0.58107462190991988,-0.36944964908626621,0.35509879749089546,0.24810665492432538,0.7276251485856966,0.64695243044840689,-0.29864390245499739,-0.8221809557851647,0.057238478946511684,-0.65414825037896929,-0.39697777724643002
-0.062837704791941285,0.17705575693154985,0.85735533654836638,-0.84279974795497359,-0.5644928011136856,-0.85276070292749728,0.30885379267666524,0.61609809034842433,-0.067535780516759569,-0.35826368002723563,0.87899090911863342,-0.49775990042459073,0.86108821803491664,-0.87207149832233033,-0.35170654038354798,-0.050227051099329678,0.80338168076672067,0.95307022235080741,-0.43680521934965677,0.13424159838573124,-0.13573272768441247,0.61652656774036974,0.35300747002546884,-0.72464820886909109,0.057915870978924477,0.13985198943615584
-0.6268181508962658,-0.68869268870198308,-0.069145802473881135,0.95686765783597805,-0.78597804855296505,-0.38272004041141305,-0.2047147623580432,0.20815554182194318,0.05791158726774337,0.064372402089936998,-0.29374528222229279,0.79874149356166013,0.75876543491736936,0.25764275810025628,-0.97910504067178072,-0.58266160693494906,-0.66970115578431111,-0.99838048556197245,-0.66737196447209013,-0.31648145172944298,0.42332266920206996,0.063206337518144418,0.72363890831705269,0.13367956031910411,0.1177631460049291,0.61885086977652959
-0.68937480807093587,0.23987266057753209,-0.12021043295236389,0.68640412594692379,0.056781218880216366,0.5628213014354182,-0.58073912658742755,-0.51777381891139695,0.95747514228365538,-0.99075525212471027,-0.23472761875398263,-0.46545499375382349,0.087632131880232222,-0.95971712410361243,-0.75866548626924168,0.32523265370529786,0.40558188225231651,0.85366545247017633,0.60674603833901242,-0.70972607764625684,0.38863444372100497,0.83864138427125079,-0.0055758828251919468,-0.026923000966178723,-0.33713664277671485,-0.68002670643693985
