-0.17107370041534864,0.044241207604277522,0.050970160605587012,0.74231130295654157,0.66380561544647421,0.14694581967252085,0.30836931892412878,-0.6204653649478491,0.60383838480388685,-0.60711034092807692,-0.038771563142260046,-0.6213090554487013,-0.77308961979927071,-0.88432870691251741,-0.36387015813613921,0.28067237013795432,-0.13123902480972127,-0.32468306080249731,0.39108723659124611,0.82514577713517734,-0.80036412720606309,-0.29673549635076424,-0.46652505826597035,-0.77600840205661825,-0.9975516060457752,0.5451451792804598
0.66632831296781059,-0.82393118356816464,-0.66551810653695886,0.087791193458043315,-0.47844279109063415,-0.059488042887007486,-0.85307718995685433,0.31613902927730986,0.57372027299864303,0.30189990100088471,-0.054542042387059286,0.63515478565991046,0.35830989562106774,-0.79563235144755096,0.22100713010226891,0.18774147554668952,-0.63780825133943364,-0.21150297720333922,0.05165920054140094,-0.67518558578509347,0.48608999351137894,0.16992313798972569,-0.67832324790977139,0.80302522150766831,0.69272592914112918,0.40216044924373406
0.0037716875192363997,-0.23123497697947126,0.32676854062261795,-0.7132196535635813,0.13656198976955269,-0.54591614824246415,-0.62621459380270283,0.34877624743570679,-0.68430435365109599,0.67846390453400951,0.74460528627481981,0.31432633773897778,-0.10997375310431479,-0.59928338012304305,0.21582260873843739,0.50379089820835166,-0.27626883497500421,0.40965216091122159,0.65336122491808157,0.5041467921257321,-0.54413592462388438,-0.7032578888799812,0.39475471789493422,-0.97419557300294857,0.63903042136982413,-0.011563435998024563
0.93459243142621728,0.23808493363639927,0.54906295549011741,-0.43717621798551143,0.008545165680037714,-0.12447758618073634,-0.47834357089143165,0.13379776869891136,0.71572163199147165,-0.12808462499650419,0.29124380775631264,-0.1909827459263207,-0.40947021908972925,0.464356101430351,0.22746961589251402,0.64279498957883985,-0.32660117988899318,0.1836681638773785,-0.61111656722183683,-0.12602469557169327,0.83695450414230188,-0.81984757090859595,-0.91178152146833513,0.88296536876602305,-0.64332070083601889,-0.14313338488674221
