0.21338357234581196,0.044241207604277522,0.050970160605587012,0.74231130295654157,-0.64844614812995616,0.38966597258215097,0.27224662759171525,-0.88773355950765387,0.76815958620628533,0.99913698672934226,-0.50817646270525185,0.57930537035006746,-0.51048402082790689,0.10241826121118258,-0.84607235715001528,0.28067237013795432,-0.13123902480972127,0.24070217900783297,0.39108723659124611,-0.14703087148394345,-0.2865439913127068,-0.55767922110294554,-0.70214551943192349,-0.049362924943307407,-0.57571837654731284,-0.85867800038281472
0.66632831296781059,-0.82393118356816464,-0.66551810653695886,0.087791193458043315,-0.47844279109063415,-0.059488042887007486,0.80468624355881424,0.52538565233052226,-0.06171895815337014,0.88408909788395151,0.12444729449723102,0.63515478565991046,0.35830989562106774,-0.14136876799441245,-0.21128323615059075,0.18774147554668952,-0.63780825133943364,0.55433813210057448,0.55055117970308864,0.098823823674577982,-0.093218607902300077,0.46931278620721217,0.96531305237432408,0.80302522150766831,0.69272592914112918,0.82887729953764322
0.0037716875192363997,-0.23123497697947126,0.32676854062261795,0.52169653049609832,0.13656198976955269,-0.54591614824246415,-0.62621459380270283,0.34877624743570679,-0.68430435365109599,-0.51051511354362455,0.74460528627481981,0.37245830546578329,-0.63040656439772502,-0.59928338012304305,0.52645997131460365,0.50379089820835166,-0.27626883497500421,0.30823907307377274,0.65336122491808157,-0.52419699538726272,-0.6314691991101804,-0.7032578888799812,0.39475471789493422,-0.68293489581081057,0.67290546492729719,-0.88986490561199805
-0.44690883883186805,0.12813487760421527,-0.52686866972740343,-0.29288607064954597,0.65953864917043759,-0.12447758618073634,-0.47834357089143165,-0.018328077246125396,0.71572163199147165,-0.12808462499650419,0.87230702964487672,-0.1909827459263207,-0.40947021908972925,0.90216242914574174,-0.53410806590308502,0.64279498957883985,-0.32660117988899318,-0.45627167486793674,0.1893562784704732,-0.046619991190272936,-0.39082269376962619,0.85002349359425478,-0.91178152146833513,0.22129268091540633,-0.12017253664745331,0.54343279724393168
