0.66454464724370355,-0.59824309791695196,0.57933478886960699,-0.70477392256382054,0.17977186302535753,-0.92456210581974485,0.3849787767817423,0.11985781695821007,0.077100210805486569,0.63201770964889126,-0.60732445676733615,-0.052071113688231474,-0.5441112293164454,-0.21660747797497559,-0.3749631179254056,0.41812676844692565,-0.24429479845728608,-0.38717360700834003,0.90661982519115902,0.15030562408498294,0.50978336742525743,0.37834360616757756,-0.87086846221581782,0.49634752850464126,0.56155412418138906,-0.97200675277306137
-0.69264768632398055,0.85068840922532063,0.66945817642638628,0.37756090221955851,-0.88277749157104668,-0.56760649330467361,-0.66641020482918378,0.67725420832651317,0.056065624473906173,-0.44997002765077587,0.13026458335528401,-0.84451266000596603,0.075011262068438445,0.67159067135373718,0.79026127150196857,0.014427198591423496,0.9018927588504444,0.43719980319413865,0.26577665556683838,0.36644295387589376,0.086518572085616086,-0.00046548862832951343,0.58473711559223362,0.38887606792922291,-0.89408860137103496,-0.39088871236847966
-0.93921937530720934,0.26987723097914884,0.20436466708186196,0.66282281129593135,0.44450036258163483,-0.49138557638105929,0.82377854611725576,-0.53020428811781328,0.14902117871698839,0.56143375955949648,0.73368229851221978,-0.74251107873159916,0.11194076923361362,0.60521943234213982,0.16274572796682762,0.48782298337215946,-0.51901207447586017,0.028992640997301811,-0.99075019806960474,0.079694906131693388,0.49088000967290046,-0.57336849820711699,-0.8371188052151588,-0.84602932429635791,-0.52659355645711758,0.66010562680609808
-0.7793110769069751,0.81182765636762944,0.81952081489840944,0.72616358962165672,-0.44595203727651866,-0.46355468980837666,0.93299821570942409,0.2052105614167723,0.52644547973171663,0.22302654565535907,-0.67445338981775271,0.73684498478409544,-0.52044413091252961,-0.28241664449470094,-0.37507773088246266,0.17399132388184335,-0.12392938736183745,0.67470171293461356,-0.35928688298230527,-0.61638249006655554,0.97029491063176243,0.47777052866821301,0.84069220412449464,-0.83125264079398642,-0.78011633681998638,-0.34390777750405377
