0.0016967673989136678,-0.56753743751970043,0.050970160605587012,0.27067708022417469,-0.64844614812995616,0.38966597258215097,-0.56977576835979038,0.51814131293277432,-0.99790383444612241,-0.23452196335594411,-0.91393583578078963,0.57930537035006746,-0.15231643069709055,-0.88432870691251741,-0.27754623812639245,0.28067237013795432,-0.45965896685450214,-0.87110943500371962,0.39108723659124611,-0.14703087148394345,-0.80036412720606309,-0.29673549635076424,0.19340048230411022,-0.049362924943307407,-0.57571837654731284,-0.72394755725359605
-0.023472821798341315,0.65251016104805681,-0.66551810653695886,0.84623564323410716,0.33149584327948411,0.47408600710751636,-0.49000786700303856,-0.024078317062584231,-0.49513172730721733,-0.72561949646345902,-0.3073050877672634,0.63515478565991046,0.35830989562106774,-0.1130778670122512,-0.49885318499464226,-0.58043940201262956,0.72107388162426522,0.50024248638699276,0.66702464290704389,-0.67518558578509347,0.40684670578965343,0.27683155967135309,0.23548691994931481,0.12051196429633304,0.69272592914112918,-0.36548147395103059
0.22045317350006788,-0.23123497697947126,0.91236030730254347,-0.34589142514628768,0.13656198976955269,-0.54591614824246415,-0.28504969889953191,-0.92111693527546668,-0.68430435365109599,-0.51051511354362455,-0.99472653670773981,0.17368322739111286,-0.86299111748325097,0.7468653288044369,-0.30213674699749826,0.50379089820835166,0.84479497196731024,-0.65810773689435864,0.65336122491808157,-0.52419699538726272,-0.6314691991101804,0.80543083562616569,0.23866602744352838,-0.68293489581081057,0.67290546492729719,-0.31145443513738424
-0.44690883883186805,0.71522978060048703,-0.9934845643535879,-0.11575081383616048,-0.41605328216179815,-0.86130966013480603,0.89253405775734862,-0.055490427295999734,0.71572163199147165,-0.12808462499650419,0.98080441838394594,-0.66957030555008212,-0.40947021908972925,0.90216242914574174,-0.53410806590308502,0.47700620293430518,0.99891141172297804,0.39361101272643606,-0.22819258555771116,0.56705963943513482,0.53202221865426602,0.85002349359425478,0.27447746099876125,0.62989495025146613,-0.12017253664745331,-0.5652754080334188
