-0.46884332086154612,-0.32754889029459688,0.050970160605587012,-0.75888094011646823,-0.64844614812995616,-0.47451418287180691,-0.29904250914436914,-0.69070480095450848,-0.99790383444612241,0.069471110725781493,-0.84515754938239396,0.91559667330606587,-0.080195346001369794,-0.69965045837927464,0.69920976005978797,0.28067237013795432,-0.45965896685450214,-0.46747209102644161,0.39108723659124611,0.22305516220230626,-0.76147783506276112,-0.29673549635076424,0.53798471506026413,0.27479849225891195,-0.57571837654731284,0.26108995046325245
0.58570473865079586,0.65251016104805681,-0.29531465661764256,-0.056189654133582456,-0.73862015786911805,0.47408600710751636,0.31372810772487947,-0.95256261219596761,0.21031837842177237,0.40137175220562615,-0.3073050877672634,0.63515478565991046,-0.63725963934218677,-0.1130778670122512,-0.65276431172794691,0.45080355365185887,0.59869177216527181,0.50024248638699276,0.66702464290704389,-0.21248082421991499,0.46598691772575496,0.14569203468083947,-0.42975696526413176,-0.75761175555455362,-0.81046829196218284,-0.26800117818842129
-0.013156178259061679,-0.23123497697947126,0.60568925734515044,-0.34589142514628768,0.13656198976955269,-0.20772777942148002,-0.3108646349883506,-0.92111693527546668,-0.79511442819844325,-0.51051511354362455,0.79444725831687069,0.70771911416970457,-0.63040656439772502,0.7468653288044369,-0.62905513188561146,0.50379089820835166,0.12094720127335901,0.30823907307377274,-0.95725781392319731,-0.52419699538726272,-0.6314691991101804,-0.21117610818356081,-0.41111279609470563,-0.056576574681867386,0.67290546492729719,0.71987004204444038
-0.44690883883186805,0.98525600688588444,-0.7023510384334295,0.67039366075722384,-0.52593955343618548,-0.86130966013480603,-0.62888208989812266,0.012698738556999656,-0.26365582953419708,-0.12808462499650419,0.98080441838394594,-0.66957030555008212,-0.75914190504093293,0.08261870145260608,0.27522346333806191,0.64279498957883985,0.99891141172297804,-0.3691663079945704,-0.22819258555771116,0.97384729397166625,0.53202221865426602,0.39542433760012319,-0.90902573212591742,-0.15894675914800982,-0.12017253664745331,-0.5652754080334188
