-0.020522442737507252,-0.32754889029459688,-0.77862322927437599,-0.23902008590927037,0.75361133474861108,0.34610148388256068,-0.29904250914436914,0.33279029692765949,-0.99790383444612241,0.069471110725781493,-0.84515754938239396,0.57930537035006746,-0.080195346001369794,-0.73458535099328648,-0.27754623812639245,0.28067237013795432,-0.45965896685450214,-0.46747209102644161,0.9535187435367285,0.58606462269787385,-0.76147783506276112,0.016357024814923404,0.53798471506026413,-0.049362924943307407,-0.16230411596429839,0.26108995046325245
0.58467782252760592,0.65251016104805681,-0.66551810653695886,-0.056189654133582456,0.33149584327948411,0.47408600710751636,-0.49000786700303856,0.033479922322600997,-0.06171895815337014,-0.836614896763338,-0.3073050877672634,0.51667907019011206,-0.63725963934218677,-0.1130778670122512,-0.65276431172794691,0.18774147554668952,-0.52100423145210528,0.50024248638699276,-0.84615606863272719,-0.67518558578509347,-0.38154317832325924,0.14569203468083947,0.79814800669942065,-0.75761175555455362,-0.81046829196218284,-0.26800117818842129
0.0037716875192363997,-0.23123497697947126,0.60568925734515044,-0.14774229468026467,0.13656198976955269,0.34078128643772598,-0.28504969889953191,-0.92111693527546668,-0.68430435365109599,-0.51051511354362455,0.24768597808671511,-0.58399248416564253,-0.63040656439772502,0.67278120545005637,-0.30213674699749826,0.50379089820835166,0.86667021329498062,0.92409323034596014,0.65336122491808157,0.062090749782904853,-0.6314691991101804,0.18424715663957469,-0.51737092461715162,-0.68293489581081057,0.66541562922343234,-0.74617404546524457
-0.44690883883186805,0.98525600688588444,-0.32550459982408286,-0.62598415083326819,-0.52593955343618548,-0.86130966013480603,-0.62888208989812266,0.012698738556999656,-0.56749570995323628,-0.12808462499650419,-0.0028385578647192045,-0.66957030555008212,-0.75914190504093293,-0.81121829730103356,-0.66913494147476205,0.64279498957883985,0.99891141172297804,-0.3691663079945704,-0.22819258555771116,0.97384729397166625,0.53202221865426602,0.39542433760012319,0.70066817780540624,0.17120004312762416,-0.34188209244492684,-0.5652754080334188
