0.387510574178064,0.48389209972593838,-0.592611324072152,-0.27789354814800182,0.98576811709098888,0.82190381436764826,0.29349677386839068,0.77216158633286547,-0.066264617286536875,-0.64158007880415813,-0.61445631567736325,0.66517364147285796,-0.5056619429198066,-0.84026930030767688,-0.24142606339024364,-0.0043430825018382357,-0.44650445742105305,0.076342742905087801,0.19851673257027191,-0.31142162869955148,0.56611239967486671,0.79786904649968893,-0.90661676612971509,0.1253205068901031,0.60464374715125313,-0.48591654964051179
-0.82883267011250972,0.44002364437911679,0.81125556449264824,-0.64808664666668192,-0.72560036576082898,-0.9884189767357916,0.77156833068576391,0.56677594877887461,-0.49897499050109495,-0.46057083623813821,0.20233398354063126,-0.61906300497913525,0.70289611873409208,-0.40453244963552537,0.61887031290509009,-0.24844966055708717,-0.30366491507593407,0.96828357632911088,-0.30945584709702056,0.12281775138038431,0.20511418670258097,0.89631186058419687,-0.38278206031149686,0.3561857101720991,0.99359462278624733,-0.013865262744484186
0.54225124337487229,-0.41676093154976268,-0.034734588632400198,-0.10468918356082835,-0.28614591634053421,0.64511887071713181,-0.67343188370500551,0.5642732994335149,-0.14221228077070669,0.50525556475592337,-0.49916568538735295,0.033018022429789351,-0.66970319047426274,-0.16926994980906573,0.8378163914606267,0.28389505500964507,-0.70501775884372275,-0.12431620404375265,-0.48002166697248994,0.069314643169378742,-0.97749140903966336,-0.033268169995306796,0.81352626735673228,-0.50269861532084259,-0.96339032424423565,0.58537604466322768
0.6607882535132501,0.63464585865772127,0.95887394741665388,-0.2787529635610646,-0.61359193852604688,-0.53611428177955012,-0.1270063729224391,-0.50614274137163151,0.72745370038956647,0.18347164026496698,0.84180845526355408,0.89316453394177531,-0.25225400238091655,-0.83247069500916204,0.82197969002733728,0.0083594630916208335,-0.055671855284060712,-0.5347998988704119,0.68225595883758117,-0.11825303109947205,-0.80835859460081982,-0.61144679464504126,0.53372451332562965,0.69357990016646442,0.083733984090820002,0.72757044500950241
