0.35614464120475509,-0.32754889029459688,0.92711333679696994,-0.53900113106689229,0.61014077729016858,-0.47451418287180691,-0.29904250914436914,0.51814131293277432,0.35224518359897505,0.069471110725781493,-0.84515754938239396,0.57930537035006746,-0.080195346001369794,-0.68565183007625308,-0.87407801903989024,0.93063922656348907,0.23436573404408101,-0.46747209102644161,0.39108723659124611,-0.14703087148394345,-0.33988483414703641,-0.29673549635076424,0.60789001454040159,-0.049362924943307407,-0.57571837654731284,0.26108995046325245
-0.96431218830269838,0.35746781816024376,-0.41586524306860806,-0.056189654133582456,0.33149584327948411,0.85601545133518697,-0.49000786700303856,0.90110026967242152,-0.2744305093123105,-0.91246515879971257,0.51382488637720347,0.44510942945908005,-0.81454195794893747,-0.1130778670122512,-0.65276431172794691,-0.41508657371765034,-0.51021598358272358,-0.87934960222561975,0.079396683183652783,-0.34308048065963148,0.46598691772575496,-0.60084279554307218,-0.81646184656827225,-0.75761175555455362,-0.81046829196218284,-0.26800117818842129
0.0037716875192363997,-0.23123497697947126,0.60568925734515044,0.23934892308815026,0.2649750945496987,-0.20772777942148002,-0.28504969889953191,0.012333846192476461,-0.68430435365109599,0.70007076823470715,0.15112994453736794,0.70771911416970457,0.55984037972757794,0.7468653288044369,-0.13665155159309017,-0.24197665830205284,0.86667021329498062,-0.68060827059247497,0.65336122491808157,-0.52419699538726272,0.16256721076510683,0.18424715663957469,0.79713357610370794,-0.68293489581081057,0.67290546492729719,-0.27221592713247333
0.75840177624258764,0.98525600688588444,-0.32550459982408286,0.79659253559890919,-0.52593955343618548,0.49210999585914195,-0.67250188246129539,0.012698738556999656,-0.56749570995323628,0.58691321852148692,0.82338942666057879,-0.66957030555008212,-0.75914190504093293,0.08261870145260608,-0.66913494147476205,0.0041083874656413499,0.40457668824453874,-0.31909344661863193,-0.22819258555771116,-0.25451111142432592,0.53202221865426602,-0.39059932479513759,-0.82158500116804545,0.17263647066848997,0.55806444677229194,-0.5652754080334188
