0.35614464120475509,-0.32754889029459688,0.050970160605587012,-0.65956511703171139,-0.64844614812995616,-0.043203980264995279,-0.29904250914436914,0.51814131293277432,0.35224518359897505,-0.94850491293375128,0.90079042470953641,0.57930537035006746,-0.080195346001369794,-0.69965045837927464,-0.27754623812639245,0.28067237013795432,-0.60757109899352901,-0.31576153033916676,-0.58092733525762319,-0.14703087148394345,0.45882712698848382,-0.29673549635076424,0.60789001454040159,-0.049362924943307407,-0.57571837654731284,0.9196001705342105
0.90588215204308109,0.077698441830854614,-0.16665769541439701,0.69279872379802487,0.33149584327948411,0.85601545133518697,0.30569139330354833,0.90110026967242152,-0.2744305093123105,-0.91246515879971257,-0.14784360823782228,0.80916743941392655,0.066481846277397727,0.4871484576082179,-0.65276431172794691,-0.41508657371765034,-0.51021598358272358,-0.21023546445137398,0.2920732630095666,-0.77777873120325669,0.92987657756042519,0.14569203468083947,-0.49802285927303602,-0.75761175555455362,-0.81046829196218284,0.1578187409323093
0.0037716875192363997,-0.23123497697947126,0.58796400396617865,-0.74608468450520316,0.2649750945496987,-0.20772777942148002,-0.28504969889953191,0.012333846192476461,-0.68430435365109599,-0.771505503837425,0.15112994453736794,0.70771911416970457,0.55984037972757794,0.7468653288044369,-0.30213674699749826,-0.24197665830205284,0.86667021329498062,0.84008583041911744,0.65336122491808157,-0.52419699538726272,0.93243858978958349,-0.59567592815865034,0.79713357610370794,-0.68293489581081057,0.67290546492729719,-0.27221592713247333
-0.44690883883186805,0.98525600688588444,-0.32550459982408286,-0.32520039500815723,-0.52593955343618548,-0.7665878381929947,-0.67250188246129539,0.012698738556999656,-0.56749570995323628,-0.53392522934088049,-0.075859577651455679,-0.66957030555008212,-0.75914190504093293,0.50382924347120461,-0.66913494147476205,-0.70814699681296633,0.99891141172297804,-0.3691663079945704,-0.22819258555771116,-0.25451111142432592,-0.93523189820220942,0.74042111762792806,-0.82158500116804545,0.98996240997145102,-0.12017253664745331,-0.5652754080334188
