0.23687036973686593,0.59751995185221829,0.78264650796635471,0.50020193379179712,-0.65933475466360458,0.48142860663076648,-0.43837145926705512,0.56903776958218999,0.16482754778931774,-0.72223583493908738,0.65293208047311402,-0.49285656166147263,-0.62059490218122804,-0.023128456901638561,0.42400203051807628,0.95660463047143507,-0.25659910615790782,-0.49929167785028139,-0.62576356545445799,-0.47100256188103251,-0.072953895591046702,-0.38503298988277934,-0.088705412069151057,-0.9987897541017372,0.28950580396787706,0.63165624933602316
-0.90553921595584841,-0.030474727299324655,-0.047127693505980117,0.28379687814121657,-0.21636541719876279,-0.53252495701465863,-0.046866913227200158,-0.4264110409787143,-0.6134468628642713,-0.1919518983763151,0.588919463918951,0.78236604344919369,0.1632566727035647,0.27871733836114343,0.44298602269891418,0.45283320451740483,-0.065593089527601567,0.98130252265659523,0.9602942573037716,0.14002356044221242,-0.34945190624503475,0.32954267812578486,0.16063479628121602,-0.25188705132997158,-0.089601077731143342,0.51225282879560652
-0.77255560219311459,0.15389960103123146,0.46750253641608874,0.62577851955938324,-0.48549519644544636,0.11390716599849426,0.18644324239328869,0.79653364226405765,-0.75208777508567248,-0.33260274929567246,0.61553978354318817,-0.59225422832473362,0.5400544036492394,-0.64180288841907318,0.21507177149397516,-0.05893158020385636,-0.50583135215790342,0.027714245319413244,0.30371615158754617,-0.17699703138343992,-0.88859675901125579,-0.924710760385415,0.976965394199798,-0.68568188761558702,-0.028468774977425504,-0.63237126447023639
-0.083189842710652107,0.97527539907004712,0.36138989498355323,0.46773110138703378,0.88707051388932512,-0.50795313488355287,-0.9865450139628551,-0.15441212757104794,0.22731492041566925,0.86242060398374676,-0.9335652420710614,-0.79056631629062513,-0.78588971095812687,0.87001164230679073,0.35935000011617979,0.094374384215409446,0.87619732179153464,0.6775529570425376,-0.5398560154686276,0.17106316163146618,-0.74219760543574131,0.24393234837809286,0.6625267800733905,0.32342061731327387,-0.7664757140569467,-0.72105014373089626
