0.35614464120475509,-0.64331159311810548,0.71917237966862424,-0.65956511703171139,-0.64844614812995616,-0.47451418287180691,-0.29904250914436914,0.51814131293277432,0.35224518359897505,-0.62636158511866036,-0.84515754938239396,0.9843124288970535,0.97945025073753378,-0.69965045837927464,-0.27754623812639245,0.28067237013795432,-0.60757109899352901,-0.46747209102644161,0.39108723659124611,-0.14703087148394345,-0.33988483414703641,-0.29673549635076424,0.1627521497759572,-0.89665807479062587,-0.57571837654731284,0.26108995046325245
0.12721452771798036,-0.86099124150558248,0.70103817171066773,-0.056189654133582456,0.33149584327948411,0.85601545133518697,-0.49000786700303856,0.90110026967242152,0.06675997887692886,-0.058727228580794932,0.51382488637720347,-0.94026433525166753,0.066481846277397727,-0.1130778670122512,-0.65276431172794691,-0.68020840255758386,-0.51021598358272358,0.50024248638699276,0.2920732630095666,-0.16500804382553858,-0.90747254698483615,0.14569203468083947,-0.42975696526413176,-0.75761175555455362,-0.81046829196218284,-0.42787335241863511
0.0037716875192363997,0.17455013125455099,0.60568925734515044,-0.74608468450520316,0.2649750945496987,-0.007684792745164204,-0.26761988821698068,0.012333846192476461,-0.20056546803080977,0.86305908767683337,-0.69261793678511085,0.70771911416970457,0.55984037972757794,0.7468653288044369,-0.55134623870966126,-0.24197665830205284,0.86667021329498062,0.30823907307377274,0.65336122491808157,-0.52419699538726272,0.23365500082777424,0.12101959955088692,0.81519129006717006,-0.68293489581081057,0.67290546492729719,-0.27221592713247333
-0.15009557636423021,0.98525600688588444,0.33844853001139241,-0.32520039500815723,-0.52593955343618548,-0.7665878381929947,0.04291466838216329,0.012698738556999656,-0.78621707960621134,-0.85920835978085841,0.15961699839265653,-0.66957030555008212,-0.75914190504093293,0.08261870145260608,0.17212986684139531,0.0041083874656413499,-0.04806956290677955,-0.3691663079945704,0.27875477379124813,-0.25451111142432592,0.53202221865426602,-0.39059932479513759,-0.82158500116804545,-0.7215834559157881,-0.12017253664745331,-0.5652754080334188
