-0.77107390708343826,0.52204889037726576,0.050970160605587012,-0.65956511703171139,-0.64844614812995616,-0.47451418287180691,0.11537422519106455,-0.10678467322711649,0.35224518359897505,0.069471110725781493,-0.84515754938239396,-0.45146548859318436,-0.64238210356293535,-0.69965045837927464,-0.27754623812639245,0.025444259594729735,-0.60757109899352901,-0.46747209102644161,-0.31304596046930433,-0.86736019467650038,-0.8469334494597669,0.65305851561821737,0.60789001454040159,0.49575372010213181,-0.57571837654731284,0.26108995046325245
0.66207063115272669,0.35746781816024376,-0.66551810653695886,-0.014820872743407598,0.29165211241838507,0.85601545133518697,-0.79937979486922872,-0.38779892935174076,0.31610221435357144,-0.054668561961779494,0.51382488637720347,0.63515478565991046,0.066481846277397727,0.30311072543681084,-0.0041748040998585978,-0.41508657371765034,-0.51021598358272358,0.6884906345991455,0.27299648106245789,-0.77777873120325669,0.46598691772575496,-0.47529272651183763,-0.42975696526413176,-0.75761175555455362,-0.81046829196218284,-0.26800117818842129
0.0037716875192363997,0.10633372067918434,0.68768647430178764,-0.74608468450520316,-0.26757203401634055,-0.4324212954892126,-0.28504969889953191,0.012333846192476461,-0.453416839560709,0.55370608152212752,-0.45893720622864609,0.052462240247207692,0.55984037972757794,0.56189234806235344,-0.30213674699749826,-0.24197665830205284,0.86667021329498062,-0.16553636040671704,0.32716892580547707,-0.0024013935391271612,0.16256721076510683,0.15881390482870072,0.75760544361918924,-0.68293489581081057,0.041368423544242861,-0.27221592713247333
-0.862308478719223,0.98525600688588444,0.64325493903287323,-0.52745593343324848,-0.0053051277855953316,-0.75046326561575216,0.67927052703665947,0.76707302373973718,0.22934723901789345,-0.64940488868820867,-0.076655381111259135,-0.66957030555008212,-0.75914190504093293,-0.54029617738899538,-0.66913494147476205,0.0041083874656413499,-0.93756324324248275,0.73552388661475976,-0.22819258555771116,0.00032468918197281482,-0.75848288658490337,0.17409969371643497,-0.82158500116804545,0.22824474815819773,0.76612523125217247,0.44784475144498215
