-0.77107390708343826,0.52204889037726576,-0.86919975016545115,-0.65956511703171139,0.41141289291965411,0.6268857364928595,0.012093605415673281,-0.62707765293803241,0.35224518359897505,0.069471110725781493,-0.84515754938239396,0.39838151913448483,-0.64238210356293535,-0.69965045837927464,0.68607547381513445,0.28067237013795432,-0.60148598465398173,0.41544202464710778,0.68663612670178131,0.61059678919872717,-0.12108698215886116,-0.29673549635076424,0.60789001454040159,-0.920112885716452,-0.74226950033943395,0.26108995046325245
0.12721452771798036,0.35746781816024376,-0.66551810653695886,-0.014820872743407598,0.29165211241838507,0.85601545133518697,-0.79937979486922872,-0.38779892935174076,-0.053096304505894087,-0.6067449659766575,-0.88724899656158107,0.63515478565991046,0.066481846277397727,0.36418306376409482,0.58514634743027183,-0.41508657371765034,0.70930135183679033,0.6884906345991455,0.2920732630095666,-0.80005211559765255,0.46598691772575496,-0.47529272651183763,-0.42975696526413176,-0.75761175555455362,-0.1778991484543917,-0.26800117818842129
0.05862346833051979,0.10633372067918434,0.60568925734515044,-0.74608468450520316,-0.18135372945350126,-0.4324212954892126,-0.28504969889953191,0.012333846192476461,-0.453416839560709,0.55370608152212752,-0.82556221054573542,0.052462240247207692,0.55984037972757794,0.56189234806235344,-0.30213674699749826,-0.24197665830205284,0.86667021329498062,-0.86728681268256347,0.32716892580547707,0.99111432891362572,0.16256721076510683,-0.69106708453849031,0.29882803662506796,-0.83839296304983058,0.44542597023050456,-0.27221592713247333
-0.3498753470165652,0.98525600688588444,0.64325493903287323,-0.32520039500815723,0.71053138600101096,-0.75046326561575216,-0.7052205912869367,0.76707302373973718,-0.92754862449753928,0.8138337049933968,0.14927999844002238,-0.66957030555008212,-0.75914190504093293,0.08261870145260608,-0.61735485943768098,0.0041083874656413499,0.99891141172297804,0.2314731187199659,-0.40694589335941633,0.59178574034407339,-0.75848288658490337,-0.63201357424141458,-0.82158500116804545,0.22824474815819773,-0.12017253664745331,0.090643875685510578
