-0.77107390708343826,0.52204889037726576,-0.86919975016545115,-0.65956511703171139,-0.64844614812995616,0.45004541900032535,0.012093605415673281,-0.68172724605310253,0.35224518359897505,0.4331190557251976,-0.84515754938239396,0.39838151913448483,-0.64238210356293535,0.19127849176014133,-0.27754623812639245,0.28067237013795432,-0.60757109899352901,0.2872540151583387,0.50495203634458297,0.61059678919872717,-0.12108698215886116,-0.29673549635076424,0.60789001454040159,0.44723000027516346,-0.13753091717856991,0.26108995046325245
-0.79952389515717459,0.35746781816024376,-0.66551810653695886,-0.014820872743407598,0.29165211241838507,0.98920784764397074,0.24744457871673009,-0.38779892935174076,-0.053096304505894087,-0.054668561961779494,-0.21426172059891258,0.63515478565991046,0.066481846277397727,0.30311072543681084,-0.0041748040998585978,-0.88682562736644144,0.70930135183679033,0.6884906345991455,0.2920732630095666,-0.77777873120325669,0.46598691772575496,-0.02177298332383848,-0.42975696526413176,0.1248785231940519,0.56136551304418503,-0.26800117818842129
-0.95769090652357036,0.10633372067918434,0.60568925734515044,-0.74608468450520316,-0.035142486547606211,-0.4324212954892126,0.96257919202517161,0.012333846192476461,-0.40769871251101009,0.72859639538574661,-0.45893720622864609,0.052462240247207692,0.55984037972757794,0.56189234806235344,-0.30213674699749826,-0.24197665830205284,0.86667021329498062,-0.86728681268256347,0.32716892580547707,0.99111432891362572,0.16256721076510683,-0.69106708453849031,0.75760544361918924,-0.68293489581081057,0.69684168789477474,-0.27221592713247333
-0.58980396731878248,0.98525600688588444,0.87591245272513407,-0.32520039500815723,-0.076074098291103009,-0.79432482895246737,0.67927052703665947,0.97819788932240148,0.22934723901789345,-0.64940488868820867,0.96140907625233551,-0.66957030555008212,-0.75914190504093293,0.08261870145260608,-0.66913494147476205,0.0041083874656413499,0.99891141172297804,0.2314731187199659,-0.40694589335941633,0.00032468918197281482,-0.75848288658490337,-0.17400012172824475,-0.82158500116804545,-0.021518644873401716,-0.12017253664745331,0.090643875685510578
