0.3498500090118617,0.52204889037726576,-0.41678641053044929,-0.65956511703171139,-0.64844614812995616,-0.47451418287180691,0.033601551636744498,0.97499179037057981,0.35224518359897505,0.069471110725781493,-0.54490992481167266,0.39838151913448483,-0.64238210356293535,-0.69965045837927464,-0.27754623812639245,0.13682118617984473,-0.60757109899352901,0.2872540151583387,-0.31304596046930433,0.61059678919872717,0.088264608896487795,-0.29673549635076424,-0.37008453089612514,-0.049362924943307407,-0.81585615914440712,0.26108995046325245
0.12721452771798036,0.35746781816024376,-0.66551810653695886,-0.014820872743407598,0.29165211241838507,0.85601545133518697,0.3315960018447468,0.95085949573952311,0.0071968215656927903,-0.054668561961779494,-0.73663897208638884,-0.25338314661142514,0.066481846277397727,0.30311072543681084,-0.0041748040998585978,-0.7967814371505908,-0.65578653973053314,-0.39225243354386463,0.2920732630095666,-0.77777873120325669,0.46598691772575496,-0.47529272651183763,-0.42975696526413176,-0.75761175555455362,-0.67189523614801616,-0.26800117818842129
0.0037716875192363997,0.10633372067918434,0.60568925734515044,0.75450831308107036,-0.26757203401634055,-0.56775650069132033,-0.28504969889953191,0.012333846192476461,-0.10015677152264035,0.55370608152212752,-0.45893720622864609,0.052462240247207692,0.91837192697725012,-0.065265000727245726,-0.30213674699749826,-0.24197665830205284,0.86667021329498062,-0.86728681268256347,0.12221375662479184,0.99111432891362572,0.16256721076510683,-0.69106708453849031,0.75760544361918924,-0.68293489581081057,0.32383585445486829,-0.27221592713247333
-0.862308478719223,0.98525600688588444,0.64325493903287323,0.25773253600837598,0.71053138600101096,-0.13403086411554699,0.67927052703665947,0.76707302373973718,0.22934723901789345,-0.64940488868820867,0.96140907625233551,-0.66957030555008212,-0.75914190504093293,0.08261870145260608,-0.66913494147476205,0.0041083874656413499,0.99891141172297804,0.2314731187199659,-0.40694589335941633,0.00032468918197281482,-0.75848288658490337,-0.63201357424141458,-0.82158500116804545,-0.10634642828529328,-0.12017253664745331,0.090643875685510578
