0.82850948729117468,-0.54038667347461056,0.89883397513053342,-0.49851544722319541,0.93506523016350163,0.092024664281222801,-0.85379066507076407,0.98117998598589762,0.00089653919561882844,-0.14204677781696518,0.80953460564178892,0.40853332425642219,0.035334959422196999,0.36225654795055839,-0.73520378883704995,0.035206121363598575,-0.5178628454119103,0.5865556642212284,0.27005404962634616,0.38460063928558785,-0.39166485006109064,-0.63768692875108113,0.23836734385021097,-0.78283247650324261,-0.0722138312603815,-0.70127331563720263
-0.69945548089746712,0.42208145408637177,-0.48703620396969893,-0.76620947301190601,0.98719599053630214,-0.75877445751813855,0.73116542293896392,0.74162914141069614,-0.42273153432736632,-0.051080159211520204,-0.40491107941234405,-0.88137726411548867,-0.5048491787379592,-0.21844642560319993,-0.22647224989818215,0.5290937643127307,0.91416980951589366,0.88950918346500263,-0.83421595466336784,0.27564351023180311,0.53552248527871904,-0.94373317110708754,-0.19533319666988236,0.76108988988895798,0.69272592914112918,0.80702501916142122
-0.33206731945221235,-0.58713433917735869,-0.38472377582979189,-0.71306392811171682,-0.56614330663546353,-0.32153535041286618,0.28583477188436923,-0.7707810581846577,0.96667784096899134,0.15458715249745758,0.87151651884893511,-0.5956758491908869,-0.97563118781535541,-0.17386232201406826,-0.16101802061522852,0.13991546358518292,0.98791784893573231,0.02245431321292557,-0.062845651901455302,0.59811437187279815,-0.1239294879970001,-0.6342694160575737,0.014833701490645002,0.8035880623725844,-0.26307718538171709,0.44999313668955088
-0.31289197595324225,-0.1781162550454245,0.60506407949789898,0.52617617119790761,-0.37762963371029623,-0.07459036708707556,0.5168439170661332,0.20142255680724497,-0.6935688394614814,-0.089664651045775035,0.69877796585455054,0.47778452298466911,0.079130151887314426,0.42941071104855677,-0.10269854467232342,0.14904925711531947,-0.90581035709535151,0.62412734022408922,0.9123102405104988,0.16917786831664117,0.2942050193234742,-0.027291471256590594,-0.54676074139042274,0.20256197984488811,-0.66540922283299064,-0.93797652606792559
