-0.77107390708343826,0.52204889037726576,-0.95075073568536173,0.15840754375846333,-0.64844614812995616,0.96612567960888907,0.012093605415673281,0.97499179037057981,0.35224518359897505,0.68399759862248,-0.84515754938239396,-0.76497236840089666,0.48561606166743365,0.042458590261640117,0.062845728277013402,0.28067237013795432,-0.60757109899352901,-0.3035658294335033,-0.81747572551044057,0.61059678919872717,0.9496763483808579,-0.13517274639114141,0.60789001454040159,-0.049362924943307407,0.52215184701363948,0.92633271638742554
0.12721452771798036,0.35746781816024376,-0.66551810653695886,-0.014820872743407598,0.88335680229799962,0.08852843660388432,-0.79937979486922872,0.22045390970135981,-0.85242715054374329,0.73723659690454402,0.43661387328975376,-0.94230311563548819,0.36830131784275655,0.25808165540408301,0.61913927584089867,-0.11189137786044734,-0.58372285710370853,0.6884906345991455,0.84924846791298902,0.37102946895709343,-0.2729083033425268,-0.47529272651183763,-0.42975696526413176,-0.7975990528458976,0.72107582361610834,-0.26800117818842129
0.39473547315869428,0.10633372067918434,-0.69741200585345142,-0.84668857826073651,-0.43156287230107182,-0.4324212954892126,-0.049607095957098446,0.012333846192476461,-0.71846311354013936,0.55370608152212752,-0.45893720622864609,0.052462240247207692,0.55984037972757794,-0.3491996939494828,0.21959324419166659,-0.24197665830205284,0.86667021329498062,0.12626982698544031,0.091709748706210625,0.74418955821038923,0.31297297792332346,-0.69106708453849031,0.93551987092101596,-0.14018525253280179,-0.21805424055037426,-0.29404749914721995
-0.80318343543534154,0.51591051657150788,0.64325493903287323,-0.32520039500815723,-0.5234732896229588,0.6093449068937562,-0.96687799389147999,-0.39352501582522215,0.22934723901789345,-0.036604080845741738,0.96140907625233551,-0.66957030555008212,0.55206119516876528,0.08261870145260608,0.74864041381948354,0.0041083874656413499,0.56675603868071711,0.74753114819519539,-0.50590469750181133,0.0059623252205751598,-0.75848288658490337,-0.63201357424141458,-0.33683248624767614,-0.26061739811204387,0.11159108569189913,0.090643875685510578
