-0.77107390708343826,0.52204889037726576,-0.86919975016545115,0.15840754375846333,-0.64844614812995616,0.96612567960888907,0.012093605415673281,0.97499179037057981,0.35224518359897505,-0.28596029064810713,-0.84515754938239396,-0.45270139460177927,0.79549948388259439,-0.82093670473271763,0.027054906316936966,0.28067237013795432,-0.60757109899352901,-0.3035658294335033,-0.81747572551044057,0.46597397567658216,0.9496763483808579,0.71175249074783187,-0.19200584973800683,0.41598703385770897,0.52215184701363948,0.92633271638742554
0.12721452771798036,0.35746781816024376,-0.66551810653695886,-0.014820872743407598,0.29165211241838507,0.85601545133518697,-0.79937979486922872,0.22045390970135981,-0.4686640587048001,0.73739060771654907,0.99734125554376551,-0.31453777034518859,0.36830131784275655,0.25808165540408301,-0.0041748040998585978,-0.11189137786044734,-0.24376998007973061,0.6884906345991455,0.84924846791298902,0.37102946895709343,-0.2729083033425268,-0.47529272651183763,-0.42975696526413176,-0.75761175555455362,0.72107582361610834,-0.26800117818842129
0.39473547315869428,0.10633372067918434,-0.69741200585345142,-0.86286354944482024,-0.43156287230107182,-0.4324212954892126,-0.049607095957098446,0.012333846192476461,-0.71846311354013936,0.55370608152212752,-0.45893720622864609,0.052462240247207692,-0.35125787382933904,0.96855970373848899,0.21959324419166659,-0.29209492618866073,0.86667021329498062,0.12626982698544031,0.091709748706210625,0.74418955821038923,0.077701660385400828,-0.69106708453849031,0.93551987092101596,-0.14018525253280179,0.44542597023050456,-0.29404749914721995
0.85542197591321911,0.16651604918786611,0.64325493903287323,-0.24306372732626613,-0.55623654029679059,0.54448271761481926,-0.96687799389147999,0.43557070192506697,-0.97239423882287679,0.7468317979512642,0.77098111233275946,-0.66957030555008212,0.55206119516876528,0.08261870145260608,0.74864041381948354,0.0041083874656413499,0.32290254818567443,0.74753114819519539,0.35181655279305546,0.0059623252205751598,-0.75848288658490337,-0.63201357424141458,-0.34490723457256678,0.353653116670676,0.55874889678647777,-0.40146058029486076
