-0.77107390708343826,0.2699337697937032,-0.86919975016545115,0.15840754375846333,-0.64844614812995616,0.96612567960888907,0.012093605415673281,0.97499179037057981,0.35224518359897505,0.68399759862248,-0.84515754938239396,0.39838151913448483,0.48561606166743365,-0.82093670473271763,-0.27754623812639245,0.28067237013795432,-0.072384066038203354,-0.3035658294335033,-0.39820675423294727,0.61059678919872717,-0.16179734381342215,-0.26860235343467886,0.60789001454040159,-0.049362924943307407,0.52215184701363948,0.92633271638742554
0.12721452771798036,0.35746781816024376,-0.66551810653695886,-0.014820872743407598,-0.90235422828795642,0.85601545133518697,-0.79937979486922872,0.22045390970135981,-0.46414002485519656,0.73723659690454402,0.99734125554376551,0.63515478565991046,0.36830131784275655,0.25808165540408301,-0.0041748040998585978,-0.11189137786044734,0.52613124721894855,0.6884906345991455,0.84924846791298902,0.21424479713166678,-0.2729083033425268,-0.47529272651183763,-0.42975696526413176,-0.75761175555455362,0.63898306161799989,-0.26800117818842129
0.39473547315869428,0.10633372067918434,-0.69741200585345142,-0.74608468450520316,-0.43156287230107182,-0.4324212954892126,0.9038885533260852,0.012333846192476461,-0.71846311354013936,0.55370608152212752,-0.45893720622864609,0.052462240247207692,0.55984037972757794,0.56189234806235344,0.21959324419166659,-0.24197665830205284,0.86667021329498062,-0.3471609813623342,0.091709748706210625,0.74418955821038923,0.077701660385400828,0.04152666623422463,0.93551987092101596,0.25889238079489063,-0.82282576906793081,-0.29404749914721995
-0.80318343543534154,0.51591051657150788,0.64325493903287323,0.4812520079926339,-0.55623654029679059,0.54448271761481926,-0.96687799389147999,0.43557070192506697,0.092793103655710807,-0.96429001526158586,0.57084239624790811,-0.66957030555008212,0.55206119516876528,0.08261870145260608,0.74864041381948354,0.0041083874656413499,0.56675603868071711,0.74753114819519539,-0.47085180129992477,0.0059623252205751598,-0.82846556765018686,-0.63201357424141458,-0.34490723457256678,0.353653116670676,0.11159108569189913,-0.14703124100781095
