0.29144192738773,0.71781008551984526,0.89883397513053342,-0.49851544722319541,0.93506523016350163,0.68613858362710944,-0.85379066507076407,0.98117998598589762,-0.18515394217445369,-0.14204677781696518,-0.72436733681758381,0.19595779734470464,0.035334959422196999,0.36225654795055839,-0.30770958036018725,0.035206121363598575,-0.5178628454119103,0.5865556642212284,0.27005404962634616,0.38460063928558785,-0.31500950346294143,0.30853562487872588,0.23836734385021097,0.25168337700055732,-0.0722138312603815,-0.70127331563720263
-0.23824477979310332,-0.46953181556563006,-0.48703620396969893,-0.76620947301190601,0.98719599053630214,-0.75877445751813855,0.73116542293896392,0.74162914141069614,-0.42273153432736632,-0.051080159211520204,-0.067640917207247186,-0.88137726411548867,-0.24862951479792983,-0.88363940877719727,0.94328882894396826,0.5290937643127307,0.91416980951589366,-0.62229974642109531,-0.83421595466336784,0.27564351023180311,0.53552248527871904,0.27683155967135309,-0.19533319666988236,0.76108988988895798,0.42876360189205354,0.29649607458879945
-0.33206731945221235,-0.58713433917735869,-0.38472377582979189,-0.24252502444303703,-0.56614330663546353,-0.32153535041286618,0.28583477188436923,0.067327731115871092,0.53773007195703904,0.15458715249745758,0.87151651884893511,-0.13860571592835402,-0.053067582756842535,-0.90674883418066554,-0.16101802061522852,0.80247115972489103,-0.26809616586273055,-0.092176851369841106,-0.062845651901455302,0.59811437187279815,-0.1239294879970001,-0.6342694160575737,0.014833701490645002,0.8035880623725844,-0.10472044037140238,-0.085259728098558307
-0.31289197595324225,0.50028693739546481,0.60506407949789898,0.52617617119790761,0.18759136502365581,-0.07459036708707556,0.93113980268969065,0.20142255680724497,-0.6935688394614814,-0.089664651045775035,0.76187672110426674,-0.47065827758536605,0.29839363913180805,-0.58860189768693427,-0.10269854467232342,0.14904925711531947,0.25070343873230505,0.62412734022408922,-0.001103002252119456,0.98525936496491195,0.38080248737280575,-0.027291471256590594,-0.65464666008232908,0.20256197984488811,-0.66540922283299064,-0.93797652606792559
