0.29144192738773,0.71781008551984526,0.89883397513053342,-0.49851544722319541,0.93506523016350163,0.68613858362710944,-0.85379066507076407,0.50125059074765943,0.2216235035085139,-0.14204677781696518,0.80953460564178892,-0.21799562444833609,0.035334959422196999,-0.81463510018119822,-0.30770958036018725,-0.96387724604046854,0.97179023777447826,0.5865556642212284,-0.41292088440963903,0.38460063928558785,-0.59028324524416309,-0.56471073892958623,0.23836734385021097,-0.78283247650324261,-0.0722138312603815,-0.70127331563720263
-0.23824477979310332,0.42208145408637177,-0.48703620396969893,-0.76620947301190601,0.98719599053630214,-0.75877445751813855,0.73116542293896392,0.74162914141069614,-0.20907576079716184,-0.051080159211520204,-0.40491107941234405,-0.85186894105426991,-0.59665413809687062,-0.88363940877719727,-0.09988743812359191,0.5290937643127307,0.91416980951589366,-0.62229974642109531,-0.66386251321798961,0.27564351023180311,0.53552248527871904,0.27683155967135309,-0.27852630157532965,0.76108988988895798,-0.93207816241870112,0.80702501916142122
-0.33206731945221235,-0.58713433917735869,-0.38472377582979189,-0.24252502444303703,0.70911599435161721,-0.32153535041286618,0.28583477188436923,-0.7707810581846577,0.53773007195703904,0.15458715249745758,-0.44286952948982639,-0.13860571592835402,-0.053067582756842535,0.0063592515132058214,-0.74489294026287989,0.13991546358518292,-0.12591644401419444,0.33416793388178334,-0.062845651901455302,0.59811437187279815,-0.1239294879970001,-0.13806643557293929,0.014833701490645002,0.8035880623725844,-0.10472044037140238,-0.085259728098558307
-0.31289197595324225,0.50028693739546481,0.60506407949789898,0.52617617119790761,0.32703555937159745,-0.07459036708707556,0.5168439170661332,0.20142255680724497,-0.47971731209008062,-0.089664651045775035,0.76187672110426674,-0.47065827758536605,0.29839363913180805,-0.58860189768693427,-0.10269854467232342,0.14904925711531947,0.25070343873230505,0.62412734022408922,-0.001103002252119456,0.16917786831664117,0.2942050193234742,-0.027291471256590594,-0.65464666008232908,0.20256197984488811,-0.66540922283299064,-0.93797652606792559
