0.29144192738773,0.27034322100238284,-0.057169960131519426,0.48046957591886574,0.93506523016350163,0.68613858362710944,-0.85379066507076407,0.98117998598589762,0.2216235035085139,-0.81091657574601239,0.80953460564178892,0.19595779734470464,-0.85019244834779961,0.36225654795055839,-0.30770958036018725,0.035206121363598575,-0.78385164555764919,0.5865556642212284,-0.75833820235295435,0.025247778907766083,-0.31500950346294143,-0.63768692875108113,0.23836734385021097,-0.78283247650324261,-0.096809679573618412,0.52549728513550731
-0.23824477979310332,0.42208145408637177,-0.48703620396969893,-0.76620947301190601,0.98719599053630214,-0.75877445751813855,-0.42685023989656101,0.74162914141069614,-0.42273153432736632,-0.051080159211520204,-0.40491107941234405,-0.88137726411548867,-0.24862951479792983,-0.46965122725439445,-0.09988743812359191,0.5290937643127307,0.91416980951589366,-0.62229974642109531,-0.83421595466336784,0.27564351023180311,0.53552248527871904,0.27683155967135309,-0.19533319666988236,0.18231556682748029,0.69272592914112918,-0.84791201758969392
0.41440387057865369,-0.58713433917735869,-0.38472377582979189,-0.11086511901111562,-0.56614330663546353,-0.25945291105927315,0.28583477188436923,-0.82522935351893834,0.34030352295071808,0.70862778541612581,-0.80124072732060925,-0.13860571592835402,-0.48654731810752727,-0.90674883418066554,-0.16101802061522852,0.13991546358518292,-0.26809616586273055,-0.092176851369841106,0.94579152297887492,0.96355235193187805,-0.1239294879970001,-0.6342694160575737,0.014833701490645002,-0.62271094338684807,-0.10472044037140238,-0.085259728098558307
0.90207502490756952,0.39569764022064491,0.012775431815121863,-0.91522818173138343,-0.37762963371029623,-0.07459036708707556,-0.040945945283318963,0.20142255680724497,0.36809173265922301,0.66888751442266448,0.74684724838609595,-0.89849931259771032,-0.66282205438852371,-0.53394609341937449,0.97727660840047159,0.14904925711531947,0.25070343873230505,0.62412734022408922,-0.001103002252119456,0.16917786831664117,0.64081715808106754,-0.027291471256590594,-0.65464666008232908,0.20256197984488811,-0.51224621254866687,0.80220242724274105
