0.29144192738773,-0.5979619154636433,0.39752284844132024,0.69240070937111486,0.93506523016350163,0.68613858362710944,-0.85379066507076407,0.98117998598589762,-0.0061042480201183302,-0.81091657574601239,0.80953460564178892,0.19595779734470464,0.035334959422196999,-0.96247368369116781,-0.30770958036018725,0.035206121363598575,-0.5178628454119103,0.5865556642212284,0.68429977542256193,0.025247778907766083,-0.31500950346294143,-0.63768692875108113,0.72369641390495154,-0.99735463992014584,0.96761581141532593,0.121121260826629
-0.23824477979310332,0.42208145408637177,-0.48703620396969893,-0.76620947301190601,0.090067022908303818,-0.75877445751813855,0.94298467153549081,0.74162914141069614,0.50997333065314088,-0.90007643421689476,-0.40491107941234405,-0.88137726411548867,-0.24862951479792983,-0.8152296517503943,-0.09988743812359191,0.5290937643127307,-0.86826561924129941,-0.62229974642109531,-0.83421595466336784,0.88915640402407892,0.53552248527871904,0.20169597285374441,-0.19533319666988236,0.76108988988895798,0.69272592914112918,-0.81976229507798815
-0.032571290713625745,-0.38219857355439912,-0.38472377582979189,0.67902545657808022,-0.091139621311495,-0.51009483924347032,0.28583477188436923,-0.7707810581846577,0.34030352295071808,0.50589133454962276,-0.80124072732060925,-0.13860571592835402,-0.48654731810752727,-0.90674883418066554,-0.16101802061522852,0.13991546358518292,-0.26809616586273055,-0.092176851369841106,0.94579152297887492,-0.94012002831079866,-0.1239294879970001,-0.6342694160575737,-0.59576078409517863,-0.62271094338684807,-0.10472044037140238,-0.085259728098558307
-0.31289197595324225,0.50028693739546481,0.012775431815121863,0.52617617119790761,0.87582328796556386,-0.07459036708707556,0.90243884225134141,0.20142255680724497,-0.6935688394614814,-0.089664651045775035,0.76187672110426674,-0.47065827758536605,-0.66282205438852371,-0.53394609341937449,0.97727660840047159,0.14904925711531947,0.25070343873230505,-0.31474576492952333,0.27566520132690431,0.45475966815251412,0.2942050193234742,-0.027291471256590594,-0.65464666008232908,0.20256197984488811,0.26934640588054015,-0.93797652606792559
