0.29144192738773,-0.5979619154636433,0.39752284844132024,-0.64724755639328135,0.93506523016350163,0.99115477510137029,-0.85379066507076407,0.98117998598589762,0.2216235035085139,-0.81091657574601239,0.80953460564178892,0.19595779734470464,0.035334959422196999,0.36225654795055839,-0.30770958036018725,0.17546709629161783,-0.5178628454119103,0.5865556642212284,0.68429977542256193,0.025247778907766083,-0.31500950346294143,-0.63768692875108113,0.23836734385021097,0.30230752541639871,-0.68976450337737694,0.52549728513550731
-0.23824477979310332,0.42208145408637177,-0.84069516477891493,-0.76620947301190601,0.98719599053630214,-0.19519660899855307,0.94298467153549081,0.74162914141069614,-0.42273153432736632,0.85180892806566533,-0.40491107941234405,-0.88137726411548867,-0.24862951479792983,-0.46965122725439445,-0.09988743812359191,0.5290937643127307,0.91416980951589366,-0.62229974642109531,-0.83421595466336784,0.27564351023180311,0.53552248527871904,0.27683155967135309,-0.93843258429226917,0.76108988988895798,0.69272592914112918,0.80702501916142122
0.29097014207266669,-0.58713433917735869,-0.38472377582979189,-0.11086511901111562,-0.56614330663546353,-0.32153535041286618,0.28583477188436923,-0.7707810581846577,0.34030352295071808,0.70862778541612581,-0.80124072732060925,-0.13860571592835402,-0.48654731810752727,-0.90674883418066554,-0.16101802061522852,0.13991546358518292,-0.26809616586273055,-0.092176851369841106,0.94579152297887492,-0.088022163316706648,-0.1239294879970001,-0.6342694160575737,0.014833701490645002,-0.62271094338684807,-0.54169096299899033,0.7408853189616369
-0.31289197595324225,0.92352771299103886,-0.33723355616707207,0.52617617119790761,-0.37762963371029623,-0.07459036708707556,0.90243884225134141,0.20142255680724497,-0.6935688394614814,-0.089664651045775035,0.76187672110426674,-0.51612809808453552,-0.42979447771472712,-0.58483591201375162,-0.13972770073861418,0.14904925711531947,0.25070343873230505,0.62412734022408922,-0.026093021352824541,0.16917786831664117,0.2942050193234742,-0.027291471256590594,-0.65464666008232908,0.20256197984488811,-0.66540922283299064,-0.65978630767897695
