0.29144192738773,-0.087029945972882938,0.39752284844132024,0.48046957591886574,0.32442186823962427,0.84242268971006951,-0.85379066507076407,-0.69618145331260584,-0.28366415470892248,0.34402078773829259,0.80953460564178892,0.19595779734470464,0.74467105347710194,0.36225654795055839,-0.30770958036018725,0.37764548990408509,-0.5178628454119103,0.5865556642212284,0.93847583703783122,0.29795759011866685,-0.31500950346294143,0.20051798228009199,0.4306245819150285,0.060770829322642106,-0.34153908344749695,0.52549728513550731
-0.23824477979310332,0.29241113542708885,0.38952025277533742,-0.76620947301190601,-0.10377517458970598,0.64921204724157211,-0.80500772538365806,0.94002509148775548,-0.42273153432736632,-0.31131184142339663,-0.40491107941234405,-0.88137726411548867,-0.24862951479792983,-0.63310704367026971,0.17412422993974852,0.33499182587323184,-0.048278817534771701,-0.62229974642109531,-0.83421595466336784,0.27564351023180311,0.53552248527871904,0.85080776670151304,-0.11854061976326524,0.76108988988895798,0.8684478048121933,0.80702501916142122
0.4189645410085403,-0.58713433917735869,-0.38472377582979189,-0.11086511901111562,-0.56614330663546353,-0.32153535041286618,0.28583477188436923,-0.31570476823898375,0.96404226076342625,0.70862778541612581,0.90129566830997265,-0.13860571592835402,-0.56987795104125971,0.64147386821163033,-0.16101802061522852,0.13991546358518292,-0.26809616586273055,-0.092176851369841106,0.94579152297887492,-0.088022163316706648,-0.05730444900946563,-0.6342694160575737,0.014833701490645002,0.43102088477513623,-0.10472044037140238,-0.085259728098558307
-0.31289197595324225,0.73495176844989363,-0.69208433342021869,0.52617617119790761,-0.37762963371029623,-0.07459036708707556,0.72081820873203695,0.076704106034978237,0.61759495643599127,-0.089664651045775035,0.39297584427738208,-0.47065827758536605,-0.66282205438852371,-0.53394609341937449,-0.92080142382669172,0.82646815919489991,0.20965296050189175,-0.71038761451082499,-0.001103002252119456,0.50987554269650159,0.2942050193234742,-0.027291471256590594,0.73292117615711705,-0.61251238018683174,-0.66540922283299064,0.28203376044424711
