0.29144192738773,-0.087029945972882938,0.39752284844132024,0.48046957591886574,0.32442186823962427,0.68613858362710944,-0.85379066507076407,-0.69618145331260584,0.57202389803686815,-0.69509330637608469,0.14127365363284028,0.19595779734470464,0.035334959422196999,0.36225654795055839,-0.30770958036018725,0.37764548990408509,-0.5178628454119103,0.5865556642212284,0.93847583703783122,0.025247778907766083,-0.31500950346294143,0.67459096466178425,0.23836734385021097,0.060770829322642106,-0.34153908344749695,0.52549728513550731
-0.23824477979310332,0.29241113542708885,-0.6987696068575715,-0.76620947301190601,-0.10377517458970598,-0.91968140635267748,0.94298467153549081,0.74162914141069614,-0.29071995241395032,-0.051080159211520204,-0.40491107941234405,-0.88137726411548867,-0.24862951479792983,-0.46965122725439445,-0.45171980734264228,0.5290937643127307,0.71279745717603671,0.57160118785822767,-0.83421595466336784,0.27564351023180311,0.53552248527871904,0.27683155967135309,-0.11854061976326524,0.76108988988895798,0.69272592914112918,0.80702501916142122
-0.032571290713625745,-0.58713433917735869,-0.38472377582979189,-0.11086511901111562,-0.56614330663546353,-0.32153535041286618,0.28583477188436923,-0.7707810581846577,0.96404226076342625,0.70862778541612581,-0.2471264720253632,-0.5372056420411262,-0.56987795104125971,-0.90674883418066554,-0.16101802061522852,0.13991546358518292,-0.26809616586273055,-0.092176851369841106,0.94579152297887492,-0.088022163316706648,-0.1239294879970001,-0.6342694160575737,0.014833701490645002,0.43102088477513623,-0.24665055969012539,-0.085259728098558307
-0.31289197595324225,0.73495176844989363,-0.69208433342021869,0.52617617119790761,-0.37762963371029623,-0.6014381551547392,-0.56989632950149871,0.20142255680724497,0.61759495643599127,-0.089664651045775035,-0.70347572079754639,-0.47065827758536605,0.9499458650058632,-0.53394609341937449,0.97727660840047159,0.14904925711531947,0.61992250384772096,0.62412734022408922,-0.001103002252119456,0.89883775454878734,0.75848997852805078,-0.027291471256590594,-0.65464666008232908,-0.61251238018683174,-0.66540922283299064,-0.43330173771980629
