0.29144192738773,0.69220149500777106,0.39752284844132024,0.48046957591886574,0.32442186823962427,0.68613858362710944,0.87926406012021707,-0.69618145331260584,-0.18251578879690622,-0.19684045132823513,0.80953460564178892,0.19595779734470464,0.035334959422196999,0.36225654795055839,-0.30770958036018725,0.37764548990408509,-0.5178628454119103,0.5865556642212284,0.6633869641259833,0.025247778907766083,-0.54747886598983464,-0.63768692875108113,0.23836734385021097,0.060770829322642106,-0.34153908344749695,0.52549728513550731
-0.23824477979310332,0.29241113542708885,0.38952025277533742,-0.76620947301190601,-0.56419024035248544,-0.91968140635267748,0.94298467153549081,-0.091426131581727077,-0.42273153432736632,0.35871397237120628,0.89365831547122476,-0.88137726411548867,-0.24862951479792983,-0.46965122725439445,-0.76553724053440653,0.5290937643127307,-0.1866540474420475,-0.62229974642109531,-0.83421595466336784,0.27564351023180311,0.38384452647750456,0.27683155967135309,-0.11854061976326524,0.42264468782725984,0.69272592914112918,0.80702501916142122
-0.032571290713625745,-0.58713433917735869,0.1933372514041114,-0.11086511901111562,0.48478507191743914,0.25208199783062724,0.28583477188436923,-0.7707810581846577,0.96404226076342625,0.70862778541612581,-0.2471264720253632,-0.13860571592835402,-0.56987795104125971,0.83743005109187196,0.62018329374093639,0.13991546358518292,-0.26809616586273055,-0.092176851369841106,0.94579152297887492,-0.088022163316706648,-0.1239294879970001,-0.6342694160575737,-0.43002053254097294,0.43102088477513623,-0.74127859870193569,-0.085259728098558307
-0.31289197595324225,0.73495176844989363,-0.69208433342021869,0.52617617119790761,-0.041107134990474359,-0.07459036708707556,0.90243884225134141,0.20142255680724497,0.82084702700273748,-0.089664651045775035,0.76187672110426674,-0.47065827758536605,-0.66282205438852371,-0.53394609341937449,-0.65135370477906562,-0.91739981806347526,0.49282945133766187,0.62412734022408922,-0.001103002252119456,0.50987554269650159,0.76112216732241333,-0.027291471256590594,-0.65464666008232908,-0.61251238018683174,-0.36886294920524554,-0.43330173771980629
