-0.11337857661975126,-0.087029945972882938,0.39752284844132024,0.48046957591886574,0.32442186823962427,0.68613858362710944,-0.85379066507076407,-0.69618145331260584,0.32029506234982419,-0.69509330637608469,0.50308600754688859,0.19595779734470464,0.035334959422196999,0.084351115735814775,-0.30770958036018725,0.37764548990408509,-0.5178628454119103,-0.50277790707551007,0.93847583703783122,0.025247778907766083,-0.31500950346294143,-0.63768692875108113,0.23836734385021097,0.060770829322642106,-0.34153908344749695,0.52549728513550731
-0.23824477979310332,0.29241113542708885,0.60755442808767612,-0.76620947301190601,-0.10377517458970598,-0.91968140635267748,-0.5433774232298858,0.74162914141069614,-0.42273153432736632,-0.051080159211520204,-0.40491107941234405,-0.88137726411548867,0.93670298178733824,-0.30987870252431682,-0.09988743812359191,0.5290937643127307,0.94592432133755677,-0.67457355573447919,0.82763556002496164,0.27564351023180311,0.53552248527871904,0.27683155967135309,-0.39805084090409659,0.76108988988895798,0.69272592914112918,0.80702501916142122
-0.032571290713625745,-0.58713433917735869,-0.38472377582979189,-0.51210047871972608,-0.56614330663546353,0.64387189659988375,0.28583477188436923,-0.7707810581846577,0.71391277661659558,0.70862778541612581,-0.2471264720253632,-0.13860571592835402,-0.56987795104125971,-0.90674883418066554,-0.16101802061522852,0.16802489243128815,-0.26809616586273055,-0.092176851369841106,0.58293114114995492,0.71217345755266237,-0.1239294879970001,-0.6342694160575737,0.014833701490645002,0.43102088477513623,-0.10472044037140238,-0.085259728098558307
-0.31289197595324225,0.73495176844989363,-0.69208433342021869,-0.14207030250450381,-0.37762963371029623,-0.07459036708707556,0.30371002383233159,0.20142255680724497,0.61759495643599127,-0.089664651045775035,0.76187672110426674,-0.47065827758536605,-0.66282205438852371,-0.53394609341937449,0.93150518026274032,0.14904925711531947,0.25070343873230505,0.62412734022408922,-0.001103002252119456,0.50987554269650159,-0.12845245684856721,-0.027291471256590594,-0.86526729085557719,-0.61251238018683174,-0.66540922283299064,-0.43330173771980629
