-0.49747087468379658,-0.35113498768426177,-0.42424007040871392,-0.014179726920065194,-0.12067780909687031,-0.1563573288714859,0.37206005373441231,0.054304418579994129,0.35931992776665655,0.68567554194453262,-0.092819309225013136,-0.15223529402318303,-0.027617659661661076,-0.047031558057940126,0.53537651125500352,-0.8518006334757644,-0.82563940250884338,0.039298293084882419,0.60579374569774824,0.33393437605824916,-0.24922450665099749,0.58097114068250888,0.002684086816894915,0.55803547643215357,-0.91761846307000439,0.15481708921976134
0.28131709801190574,0.82181047027687359,0.64300921833470381,-0.80184939613025685,-0.60124318544103095,-0.8694398498249416,-0.67586635267751394,0.65893923405365018,-0.10053415242465191,-0.67994023213831434,-0.26847847450477569,0.11543235824659193,0.39508338222222528,0.31066129139414578,0.66045970988514657,-0.33227228680347487,0.083623553590547406,-0.77281170926437293,0.9405799153716945,-0.16784246157329252,0.39133978764219446,-0.96492031084493957,0.46071930839132702,-0.9656466360307836,-0.98320352781862996,0.73017717637385005
0.44503219599898047,0.85939159036113755,-0.46785663471687067,-0.41033041906731582,0.7061184232198654,0.59623911015055531,0.63744138967392305,0.051765392145652678,0.30963478966687186,0.78855391140061215,0.57209106926015485,-0.89514043960053935,0.061712870856508451,-0.12338400460660903,-0.78617628527958816,0.47769305161540476,0.59339365524058341,0.57232851957307962,0.4544061652152398,-0.58031942992696495,0.28428365466211725,0.51615732080883436,-0.66374324676418461,0.56320358025516515,-0.61269622676132474,0.67873310874209247
-0.02980209195779504,0.23656662232969161,0.49680556527856323,0.60779165868361384,0.98634652576989712,-0.51359768508121362,0.018094237207946007,-0.5927690924192035,-0.030191131903621882,-0.59192353083624938,-0.45391241600420806,0.91836726322743667,0.46783255967957449,-0.69837820909548509,0.32262571310250943,0.7197098266377091,-0.95533393034267289,0.9426588328356369,0.44556436401360044,-0.84316673159504441,-0.5916776354484663,0.55509071947268951,0.038083861722051582,-0.49427396225224318,-0.5264307290731709,0.4744275922122787
