0.29144192738773,-0.087029945972882938,-0.60930486580769871,-0.64448266322893533,0.32442186823962427,0.68613858362710944,-0.59603102927437468,-0.69618145331260584,0.041310529813755714,-0.69509330637608469,0.80953460564178892,0.19595779734470464,0.035334959422196999,0.36225654795055839,0.81486781206440262,-0.28102698722474706,0.65431406159158123,0.5865556642212284,0.93847583703783122,0.025247778907766083,-0.31500950346294143,0.44144464132286543,0.23836734385021097,0.91314469942133814,-0.34153908344749695,-0.64365942430009615
-0.23824477979310332,0.29241113542708885,0.38952025277533742,-0.76620947301190601,-0.10377517458970598,-0.91968140635267748,-0.95120322163771998,0.19533660568646316,-0.42273153432736632,-0.88528292248722207,-0.62186249050860187,-0.58632183892655765,-0.29377908788820184,-0.46965122725439445,0.041980715068312469,0.1206094594893834,0.33911354966348362,-0.62229974642109531,-0.18334307837057207,-0.15143199056382906,0.41378474147541899,0.27683155967135309,-0.11854061976326524,0.28973531680981868,0.69272592914112918,0.80702501916142122
-0.032571290713625745,-0.58713433917735869,-0.38472377582979189,-0.61371670802206024,-0.56614330663546353,-0.32153535041286618,-0.51308344662778893,-0.7707810581846577,0.96404226076342625,0.230729570263559,-0.36660736017005857,-0.76589556238752676,-0.56987795104125971,-0.90674883418066554,-0.16101802061522852,0.56104926634244023,-0.26809616586273055,-0.092176851369841106,0.94579152297887492,-0.088022163316706648,-0.1239294879970001,-0.222285545823665,0.014833701490645002,0.43102088477513623,0.36232387978706959,-0.085259728098558307
0.16961449734674305,0.090080856898201445,-0.69208433342021869,0.52617617119790761,-0.37762963371029623,-0.24134981315349324,0.084825526363156989,0.061411465720005554,0.42857184131772619,-0.29411995113060718,0.51217107949582852,0.7157293356875789,0.36696846970303088,-0.024815303856697835,0.52962826676101415,-0.36644119422690746,0.25070343873230505,0.96159530500287271,-0.001103002252119456,0.50987554269650159,0.2942050193234742,-0.027291471256590594,-0.19770458786174405,-0.61251238018683174,0.084964633668637601,-0.16013532454746149
