0.29144192738773,0.15514833409632911,-0.71072164619054656,0.48046957591886574,0.32442186823962427,0.68613858362710944,-0.59603102927437468,-0.69618145331260584,0.2216235035085139,0.97719294234889165,-0.89184739382855471,0.19595779734470464,0.21761684380912172,-0.93483568221359081,-0.34850782914481315,0.093585333742356447,-0.99050563099743449,0.5865556642212284,0.93847583703783122,0.025247778907766083,-0.74444069548035841,0.17301747373821486,0.23836734385021097,-0.74632768240981173,-0.34153908344749695,0.070448765695626303
-0.23824477979310332,0.29241113542708885,0.38952025277533742,-0.76620947301190601,0.77559521091440042,-0.63802047794597838,0.94298467153549081,-0.49016712685429931,-0.42273153432736632,-0.99386971216814568,0.05729550729990418,-0.88137726411548867,-0.24862951479792983,0.13661801581469568,-0.49885318499464226,0.1206094594893834,-0.33251510829837416,0.6256468395053667,-0.18334307837057207,-0.15143199056382906,0.38817587305756729,-0.33063100221972563,-0.019855128963452984,-0.64335280616006862,0.69272592914112918,-0.064412872858572667
-0.032571290713625745,0.19027732223920113,-0.38472377582979189,0.79505222730175573,-0.56614330663546353,0.45273161910475168,-0.84665081284660526,-0.7707810581846577,0.15722456235094473,-0.38353783910892059,-0.77646522894642289,-0.52904645929776373,-0.56987795104125971,-0.90674883418066554,-0.16101802061522852,0.56104926634244023,-0.27626883497500421,-0.34673665701148448,0.94579152297887492,-0.80692496446401973,0.57183968579538003,0.9274903431734578,0.014833701490645002,0.053495895568975271,-0.10472044037140238,-0.085259728098558307
0.38597202804079056,-0.78962578690516017,-0.69208433342021869,-0.4896530604215541,-0.37762963371029623,-0.07459036708707556,0.90243884225134141,-0.018328077246125396,-0.24403850284307183,-0.089664651045775035,0.51217107949582852,-0.47065827758536605,-0.66282205438852371,-0.53394609341937449,0.96786364851211726,-0.36644119422690746,0.25070343873230505,0.96159530500287271,0.92483063110644803,0.50987554269650159,-0.98755396485649327,0.71567525238370466,-0.19770458786174405,0.32589113921868584,-0.83709221439963999,0.73866774287894188
