0.29144192738773,0.56509086000668263,0.050970160605587012,0.12337512613457635,0.32442186823962427,0.75045534387177049,-0.59603102927437468,-0.69618145331260584,-0.80150087792263913,-0.69509330637608469,-0.085442164820930255,0.19595779734470464,0.035334959422196999,0.36225654795055839,0.81486781206440262,0.093585333742356447,-0.99050563099743449,-0.59318292762369196,0.93847583703783122,0.025247778907766083,0.86431006160779833,-0.29673549635076424,0.23836734385021097,-0.74632768240981173,-0.34153908344749695,0.52549728513550731
-0.23824477979310332,0.29241113542708885,0.38952025277533742,-0.76620947301190601,0.77559521091440042,-0.91968140635267748,0.46548809695003346,0.49083619268554668,-0.42273153432736632,-0.99386971216814568,0.05729550729990418,0.62316821208619544,0.62424752242813764,-0.46965122725439445,-0.49885318499464226,0.1206094594893834,0.38494122322617286,0.58215119603637411,-0.18334307837057207,-0.15143199056382906,-0.22298129214392093,0.27683155967135309,0.86708468662984051,0.70823550583473738,0.69272592914112918,-0.31376465853485458
-0.032571290713625745,-0.3419313559853272,-0.58931137297295488,-0.7132196535635813,-0.56614330663546353,0.62150947406452128,0.72736483382220829,-0.57700603286615837,0.15722456235094473,-0.38353783910892059,0.29726013161257159,-0.52904645929776373,-0.56987795104125971,-0.39646268119497741,-0.16101802061522852,-0.8362500029173392,0.24933870404441816,-0.34673665701148448,0.26425364098178039,-0.056998863312713643,0.57183968579538003,-0.222285545823665,-0.62114040085137412,-0.34066088214236823,-0.070318794204545787,-0.085259728098558307
0.38597202804079056,-0.77845848298033515,0.48270938847682365,-0.4896530604215541,-0.37762963371029623,0.284784874768093,-0.32737718341277922,-0.82914927708426722,-0.24403850284307183,-0.089664651045775035,0.79611569582160602,-0.47065827758536605,-0.42834360384782788,-0.8550413030818047,0.079834506238824599,-0.36644119422690746,-0.12640164100208406,-0.12967906435631282,0.6185468716002549,-0.94653898766546196,0.2942050193234742,0.51663212494068889,-0.60787324649053498,0.32589113921868584,0.85253052468005386,0.095919729019426914
