0.29144192738773,-0.087029945972882938,0.39752284844132024,0.10838234623245357,0.32442186823962427,0.68613858362710944,0.25045591584331106,-0.53773162032359179,0.2216235035085139,-0.55729013603354138,-0.99802810109379614,0.19595779734470464,0.035334959422196999,-0.75378661159506377,0.81486781206440262,0.093585333742356447,-0.99050563099743449,0.5865556642212284,0.93847583703783122,0.025247778907766083,0.56375811081748695,-0.63768692875108113,0.23836734385021097,0.52713808450316946,-0.34153908344749695,0.52549728513550731
-0.23824477979310332,0.29241113542708885,0.38952025277533742,-0.76620947301190601,0.77559521091440042,-0.91968140635267748,0.94298467153549081,0.30293743303732823,0.15406541417306152,-0.99386971216814568,0.83170939664783461,-0.61352235036609204,-0.24862951479792983,-0.46965122725439445,-0.49885318499464226,0.1206094594893834,-0.33251510829837416,0.58215119603637411,-0.18334307837057207,-0.15143199056382906,0.84246750747833876,0.27683155967135309,-0.019855128963452984,-0.69132210271527916,0.69272592914112918,0.80702501916142122
-0.032571290713625745,-0.63282756973974696,-0.38472377582979189,0.79505222730175573,-0.56614330663546353,-0.32153535041286618,0.28583477188436923,-0.7707810581846577,0.15722456235094473,-0.38353783910892059,-0.2471264720253632,0.47655052785624208,0.06250743589909713,-0.90674883418066554,-0.16101802061522852,0.56104926634244023,-0.27626883497500421,-0.34673665701148448,0.13133672716637768,-0.088022163316706648,0.57183968579538003,-0.222285545823665,0.014833701490645002,0.053495895568975271,-0.10472044037140238,-0.085259728098558307
0.38597202804079056,0.99880831320724073,-0.11779620821895365,-0.4896530604215541,-0.37762963371029623,-0.07459036708707556,-0.28398026157988099,-0.69809264278464034,-0.24403850284307183,0.4787653003616883,0.51217107949582852,-0.47065827758536605,-0.75234391225360664,-0.085771136746229049,0.52962826676101415,-0.36644119422690746,-0.12700595321936392,0.96159530500287271,0.57482194481807625,-0.95814203895017291,0.2942050193234742,-0.027291471256590594,-0.19770458786174405,0.48223667402119608,0.1553403678136358,0.095919729019426914
