0.29144192738773,-0.087029945972882938,0.39752284844132024,-0.79730113040131267,0.82033675227182634,0.68613858362710944,-0.59603102927437468,-0.69618145331260584,-0.8979472241674944,-0.69509330637608469,0.80953460564178892,0.19595779734470464,0.035334959422196999,0.36225654795055839,0.81486781206440262,0.093585333742356447,-0.99050563099743449,0.096252315223604334,0.93847583703783122,0.025247778907766083,0.56375811081748695,-0.63768692875108113,0.67398023575028754,-0.74632768240981173,-0.34153908344749695,0.13008954481576862
-0.23824477979310332,0.29241113542708885,0.38952025277533742,-0.76620947301190601,0.77559521091440042,-0.91968140635267748,0.94298467153549081,-0.49016712685429931,0.3053273260215934,0.88021430504680986,0.05729550729990418,-0.88137726411548867,-0.24862951479792983,-0.64939009362760447,-0.49885318499464226,0.1206094594893834,-0.25079512187077579,0.58215119603637411,-0.18334307837057207,-0.15143199056382906,-0.69720458101178528,0.27683155967135309,-0.84329736824392465,-0.58411747289075255,0.69272592914112918,0.80702501916142122
-0.92238156195449261,-0.3419313559853272,0.34410042186187262,-0.88815555218145614,-0.56614330663546353,-0.32153535041286618,0.28583477188436923,-0.7707810581846577,0.15722456235094473,-0.38353783910892059,-0.94247764899082553,-0.52904645929776373,-0.56987795104125971,-0.90674883418066554,-0.16101802061522852,-0.18066685259254656,-0.27626883497500421,-0.34673665701148448,-0.3650956690747611,-0.61197915050099128,0.57183968579538003,-0.222285545823665,0.014833701490645002,0.053495895568975271,0.47917744242302596,-0.085259728098558307
0.38597202804079056,-0.72807794361133138,-0.69208433342021869,-0.23988028890500424,-0.37762963371029623,-0.07459036708707556,0.90243884225134141,-0.018328077246125396,0.78094375091493706,-0.46562628044250132,-0.63618867348826535,-0.47065827758536605,0.11431099143686341,-0.53394609341937449,0.52962826676101415,0.80341691541706095,0.094495963604422029,-0.81213552351927065,-0.99144800575569358,0.50987554269650159,0.2942050193234742,-0.027291471256590594,-0.19770458786174405,0.32589113921868584,-0.27600426578346404,0.095919729019426914
