0.29144192738773,-0.49516149214769811,-0.50236644844803036,-0.15967960291364869,0.32442186823962427,0.38966597258215097,-0.50959675833443141,0.18058541271422035,-0.41691311440880585,-0.25001681335271564,0.43752870238622488,-0.85611996238197907,-0.85544517452456614,0.36225654795055839,0.45390680594855159,0.093585333742356447,-0.99050563099743449,-0.16940260119651507,0.93847583703783122,0.9686843354587189,0.56375811081748695,-0.29673549635076424,0.23836734385021097,0.36160332588477906,-0.34153908344749695,-0.27852156112593884
-0.23824477979310332,-0.82393118356816464,0.38952025277533742,0.98781282242147794,0.77559521091440042,-0.059488042887007486,0.46548809695003346,0.49083619268554668,-0.42273153432736632,-0.99386971216814568,-0.26110228332907903,-0.88137726411548867,-0.24862951479792983,-0.46965122725439445,-0.49885318499464226,0.1206094594893834,0.38494122322617286,0.58215119603637411,-0.18334307837057207,0.37360218538234702,0.74382506585826746,0.27683155967135309,-0.56969634504165301,0.70823550583473738,0.69272592914112918,-0.31376465853485458
-0.032571290713625745,-0.57664457919248258,-0.58931137297295488,-0.7132196535635813,-0.56614330663546353,-0.32153535041286618,0.89007524810686633,0.75678325396647028,0.15722456235094473,-0.96374364955810354,-0.2471264720253632,0.48752275214708951,-0.56987795104125971,0.68664752909949645,-0.16101802061522852,-0.22901675406234556,-0.27626883497500421,-0.34673665701148448,0.94579152297887492,-0.088022163316706648,0.57183968579538003,-0.85090829538988166,0.79877325629223472,0.79687678289289665,-0.41731975604206073,-0.085259728098558307
0.38597202804079056,0.99880831320724073,0.48270938847682365,0.16304528976534782,-0.37762963371029623,0.284784874768093,0.47239362763349391,-0.018328077246125396,-0.37371467823284954,-0.089664651045775035,-0.047300703212783457,-0.47065827758536605,0.55585707036986176,-0.16664869721565778,0.079834506238824599,0.27127115461672835,0.25070343873230505,-0.12967906435631282,-0.99144800575569358,-0.94653898766546196,0.2942050193234742,-0.94384262548185327,0.85256337951204775,0.069949943727432906,0.85253052468005386,0.095919729019426914
