0.29144192738773,-0.49516149214769811,0.050970160605587012,0.26948096994011328,0.32442186823962427,-0.64214604939972064,-0.58373501485359469,0.34750486344694265,-0.65893928292686565,-0.69509330637608469,-0.9299919681862967,0.45119881928420491,0.035334959422196999,0.36225654795055839,-0.9610541017106744,0.093585333742356447,0.66752457199955195,-0.82574532079346952,0.39108723659124611,0.9686843354587189,0.45058207773102121,-0.29673549635076424,0.23836734385021097,0.24397091698529749,-0.34153908344749695,0.52549728513550731
0.92517928726263499,0.85847325769119909,0.38952025277533742,-0.19554348827061729,0.77559521091440042,-0.059488042887007486,0.84825287403464467,-0.1507041709642194,-0.10668100125099378,-0.99386971216814568,-0.26110228332907903,-0.88137726411548867,-0.24862951479792983,-0.46965122725439445,-0.49885318499464226,0.10190840386829403,0.38494122322617286,0.58215119603637411,-0.18334307837057207,0.37360218538234702,0.48608999351137894,0.27683155967135309,-0.019855128963452984,0.70823550583473738,0.69272592914112918,-0.443173348665725
-0.032571290713625745,0.18808431501015588,-0.58931137297295488,-0.7132196535635813,-0.56614330663546353,0.092277446484511971,0.53831294547534347,-0.7707810581846577,-0.68430435365109599,0.24798980442086593,-0.2471264720253632,0.48752275214708951,0.4910342016926339,0.68664752909949645,0.85896301438806688,0.84684340234559485,-0.27626883497500421,0.39676770801886518,0.94579152297887492,-0.3777127210097202,0.57183968579538003,-0.75478512730717684,0.79877325629223472,-0.97419557300294857,-0.10472044037140238,-0.085259728098558307
-0.57270902847526139,0.99880831320724073,0.48270938847682365,-0.4896530604215541,-0.47414886957974578,-0.24838817627816101,0.90243884225134141,-0.018328077246125396,-0.55005644735374393,0.53779966592380135,0.70632978713910921,-0.47065827758536605,-0.24747056504769405,-0.4875359571254827,0.079834506238824599,0.27127115461672835,0.25070343873230505,-0.12967906435631282,0.070688538313903981,-0.59345075915347012,-0.95839600541438741,-0.81984757090859595,-0.38770053961843831,-0.37209348685500165,-0.64332070083601889,0.095919729019426914
