0.055113816532182058,-0.74383694348817242,-0.096624008651306825,0.65218393471941516,0.32442186823962427,0.38966597258215097,-0.58373501485359469,-0.69618145331260584,-0.57838644570022546,-0.69509330637608469,0.83795867922444556,-0.58464981812620964,0.58285066829321197,0.029855251568873697,0.55804479626096004,-0.74111113165240594,0.66752457199955195,0.28183092906430685,-0.29936846150190277,-0.8431241581717821,0.45058207773102121,0.03845473516844411,0.80160956968737729,0.24397091698529749,-0.88948191048662983,0.52549728513550731
0.91124516918938991,-0.83361308933844747,-0.55463411389622941,0.56938867406390248,0.9018381924896588,-0.96388091862163527,-0.86727237576172644,0.49083619268554668,-0.36172320243949896,-0.99386971216814568,0.87177121345142417,-0.81354773570544303,-0.24862951479792983,-0.35316737863065772,-0.49885318499464226,0.34825951042051906,0.38494122322617286,0.58215119603637411,0.32525954422304704,-0.83780304098825598,0.48608999351137894,0.27683155967135309,-0.019855128963452984,0.13816479951092564,0.69272592914112918,-0.26468353958753399
-0.032571290713625745,-0.23123497697947126,-0.58931137297295488,-0.7132196535635813,0.13656198976955269,0.72767089919434147,0.53831294547534347,0.47939005673726021,-0.68430435365109599,-0.4649317779678861,-0.2471264720253632,0.48752275214708951,0.4910342016926339,0.68664752909949645,0.069954341217970839,0.84684340234559485,-0.27626883497500421,-0.16863189863035255,0.37399943385436862,-0.52419699538726272,0.57183968579538003,0.46384573858962885,0.39475471789493422,-0.97419557300294857,0.67290546492729719,0.72381020607798807
-0.15886221764788111,0.45976369468320089,0.59925243481803392,-0.4896530604215541,-0.33012243671451458,-0.12126491604671963,0.90243884225134141,-0.018328077246125396,0.85348066334609718,0.17721696955986466,0.11596242773830823,-0.47065827758536605,0.55585707036986176,-0.4125245179274617,0.079834506238824599,0.27127115461672835,0.25070343873230505,-0.12967906435631282,-0.99144800575569358,-0.26080041870551152,-0.7088300534009826,-0.81984757090859595,0.5584251448034494,-0.95527604129409305,0.95401134417185296,0.095919729019426914
