-0.76974706854491348,-0.49516149214769811,0.050970160605587012,-0.29206285338411697,0.32442186823962427,-0.58385798873257055,-0.58373501485359469,0.32749817582720597,0.5357294572552187,-0.69509330637608469,-0.033926474277588659,-0.58464981812620964,0.024083996252861395,0.97767164795967521,-0.9610541017106744,-0.051843317547054735,0.66752457199955195,0.28183092906430685,0.39108723659124611,0.63368584288564689,-0.056860614760496642,-0.29673549635076424,-0.3624185828430222,0.24397091698529749,-0.57324059346200351,0.52549728513550731
-0.45794812874994673,0.15277756075725946,0.38952025277533742,0.56938867406390248,0.9018381924896588,-0.059488042887007486,-0.86727237576172644,-0.98902549702224274,0.50371024914925466,-0.99386971216814568,-0.13436816840095211,-0.81354773570544303,-0.73277282525188392,-0.46965122725439445,-0.49885318499464226,0.10190840386829403,0.38494122322617286,0.58215119603637411,-0.80375208922410968,0.37360218538234702,0.98330715030549909,0.27683155967135309,0.6529816727856097,0.70823550583473738,-0.54287400332959068,-0.26468353958753399
-0.66173213575706846,-0.23123497697947126,-0.58931137297295488,-0.046159606837399947,-0.27114471360497538,-0.97104730225075775,0.53831294547534347,0.47656956262026151,-0.68430435365109599,-0.14925760348358996,-0.2471264720253632,0.48752275214708951,0.4910342016926339,0.68664752909949645,0.069954341217970839,-0.46803428705573968,-0.27626883497500421,0.39676770801886518,0.31664689608094698,-0.52419699538726272,0.31916168231600661,0.46384573858962885,0.083759578803723311,-0.97419557300294857,0.67290546492729719,0.088600622320070599
-0.15886221764788111,0.33825529343391403,0.48270938847682365,-0.4896530604215541,-0.33012243671451458,-0.12126491604671963,0.90243884225134141,-0.018328077246125396,0.85348066334609718,0.53779966592380135,0.11596242773830823,-0.47065827758536605,-0.34274671313465466,-0.4875359571254827,0.079834506238824599,0.27127115461672835,0.71811672089182355,-0.12967906435631282,-0.63094907856711546,-0.27741283607735023,0.013316799332026674,-0.81984757090859595,-0.79408810743286429,0.84448287747715622,-0.64332070083601889,0.095919729019426914
