-0.53041133453505629,0.6218615973793109,-0.88191403747321018,-0.86605249525889882,-0.32775542111327693,-0.047941214227312345,-0.80323074170330555,-0.72360627821820867,0.11919311647714137,0.54837182970239162,-0.6764548579057208,0.28504078897930096,-0.91728551124254731,0.80900679037812506,-0.62667313557455007,-0.24571329020915678,-0.29214947383464795,-0.42591437343685312,0.0030070280509357783,0.25340448160678775,0.16637125496851657,0.71254880275825716,-0.10657216219722976,-0.57062013012336177,0.60575463905430627,-0.46966115348750304
-0.57172681242803969,0.13954156783251537,-0.63532017696880616,-0.51541661012261364,-0.79011417504832182,-0.9530798851199962,0.74141164110834268,-0.42711269379863737,0.22661341805500546,-0.56483010733925076,-0.034562216705152027,0.15835862565256575,0.22077329332768469,-0.98563768031414156,-0.50462067184847581,-0.64898150733864712,-0.087277597739559232,0.61409082706193585,-0.95348879372798767,0.37708188492319406,-0.05698144267461891,-0.27282104537808882,-0.80238872746054524,0.43653635826801396,0.34964623891846092,0.32077571399404081
0.28834957786783799,-0.20509807764529286,-0.91663979881932978,-0.69304295442681596,0.57181814642895801,0.379202627589448,-0.58835468132973179,0.3632013757488235,-0.73518854477649453,-0.73703056000529998,-0.87515456530707048,0.68427993627499895,0.98444896963214035,0.59852131947013354,0.65127603650531007,0.99584343408415577,-0.9735689708853299,-0.70238498120645243,-0.82591883681059164,0.40832536493858695,0.069430831431741113,0.5160241352082775,-0.052753050814526636,-0.33257309391766587,-0.73474344415083315,0.33818027152974417
-0.089842939752929452,-0.4980817180315118,-0.69958434563892502,-0.46988320068106049,-0.80574146891302756,-0.0013745317880875518,0.40902726373464238,-0.86102566834333194,0.48756422970093438,0.94173184517329211,0.86546593013257067,0.37627054113002512,-0.7822662619837677,0.99848039223513307,0.83225348167454083,0.53675546061456569,-0.25001774822383505,-0.86751364579280144,0.67567529925185421,-0.10806276800906311,0.66625535067274599,-0.96006362791784361,-0.70983978577618245,-0.48482840902872382,0.15471934050007174,0.76703287838720002
