-0.76974706854491348,0.080958243944148522,0.050970160605587012,-0.29206285338411697,-0.64844614812995616,0.38966597258215097,0.27224662759171525,-0.69618145331260584,-0.99790383444612241,-0.70193272888593516,-0.033926474277588659,-0.58464981812620964,-0.84568962796262515,-0.5887811704140351,-0.9610541017106744,0.19825986277917118,0.31021481178477095,0.67466001942656351,0.39108723659124611,-0.8431241581717821,0.45058207773102121,-0.29673549635076424,0.87894022283565199,0.24397091698529749,-0.34153908344749695,0.52549728513550731
-0.84838026208971584,0.040776094499662685,-0.034849520419244495,0.56938867406390248,0.9018381924896588,0.55598805575022969,-0.37397330575781407,0.29368189788171506,-0.36172320243949896,-0.99386971216814568,0.3758268060489931,-0.81354773570544303,-0.24862951479792983,-0.31520745254965221,0.046227334153419397,0.10190840386829403,-0.010885602816153916,0.55433813210057448,0.05165920054140094,0.37360218538234702,0.48608999351137894,0.27683155967135309,-0.019855128963452984,0.70823550583473738,0.69272592914112918,-0.26468353958753399
0.0037716875192363997,0.75487242173709435,-0.58931137297295488,-0.7132196535635813,0.56328461252184936,0.82589972627322994,0.53831294547534347,0.47939005673726021,-0.68430435365109599,0.090639528611520692,-0.2471264720253632,0.48752275214708951,0.4910342016926339,0.68664752909949645,0.7912800841819605,0.015209865612442419,-0.27626883497500421,0.95237948465698197,-0.49570439061574167,-0.084038737060937008,0.9773682998575195,0.46384573858962885,0.39475471789493422,-0.97419557300294857,0.67290546492729719,-0.085259728098558307
-0.90423992402202868,-0.46027835432187536,0.72273025295940996,0.87216150212416754,-0.33012243671451458,-0.12126491604671963,-0.47834357089143165,-0.018328077246125396,0.85348066334609718,0.53779966592380135,0.11596242773830823,0.23921917823567207,0.55585707036986176,-0.4875359571254827,-0.53410806590308502,0.27127115461672835,0.25070343873230505,-0.12967906435631282,-0.99144800575569358,-0.046619991190272936,-0.41119534315818806,-0.81984757090859595,-0.91178152146833513,-0.090507696700945051,-0.64332070083601889,-0.14313338488674221
