0.66026348231791543,0.46470108989836789,-0.31453411076586257,-0.441785053835275,-0.66344628405792627,0.13595510536238109,-0.71769660240805466,0.12972674349412716,0.24967415825012584,0.31922943571846241,-0.082399918554177276,-0.50878333150774968,-0.99096597145341092,-0.38035505488121513,0.38098520998806551,0.23374249299041394,0.18419264904657462,-0.58169247476489661,-0.18054758729018539,-0.39193772658954495,-0.13189436386629483,0.14650110286051832,-0.18507862328551061,0.84327048745820687,-0.56820925068269346,0.59986701991332825
0.89614135203571377,0.046339396534439636,0.61496140974887092,0.66401757382037907,-0.15470547175279803,0.91388717868540281,0.90183583882998408,-0.78832536155225963,0.62625791565377598,0.58135442641612345,0.69545981251727484,0.84302578152351337,0.93044783645446216,0.4244813116312256,-0.50496401583029438,-0.29411715280850959,-0.70909892901730398,0.54706376763966014,-0.55298733781905685,0.90728762839904942,0.36648881433075897,0.2225874880113452,-0.055959892720563342,-0.50667131468557058,-0.57048010286135953,0.5617686569265754
0.21651639640841469,-0.09317084025548672,0.15795737687845524,-0.49644871238937727,0.51821748277883861,-0.332310271545182,0.20126009937255529,-0.87648431960605921,0.48838514643417152,0.4915523716394492,0.39332193712222252,-0.35847908015654317,0.46438009624986742,-0.68363622154228931,-0.59018884465759336,-0.62861858411809779,-0.61143681085324264,-0.53614783242802866,-0.4099250737631448,-0.46181477145423733,0.3477234225077166,-0.97007926015579238,-0.55106958078970369,0.26124311888849983,0.99246684635076798,-0.80544046722705409
0.81060751652533081,-0.71351198442443797,-0.3598231167301249,0.67055315814534677,0.0067398819150901179,0.15219410577606385,-0.14273363706981157,-0.92535277322775822,0.35215412854844552,0.76649531336145893,0.1517551384575897,-0.25037386750662982,-0.036922921249051166,0.34370155490169685,0.42825279703519392,0.24584742115491576,-0.92064676723277161,-0.36119738064179718,-0.57239006727702502,0.49995804524910814,0.12276126573229229,-0.96708864600009803,-0.33628915243483504,-0.020131987566698539,-0.5842898711843012,-0.17233017222007474
