-0.32841862812603728,0.044241207604277522,0.050970160605587012,-0.29206285338411697,0.62970732377505212,0.38966597258215097,0.27224662759171525,-0.69618145331260584,-0.99790383444612241,-0.60711034092807692,0.21452294751032297,-0.58464981812620964,-0.19496677077166402,-0.88432870691251741,-0.36387015813613921,-0.17358835611306311,-0.13123902480972127,-0.32468306080249731,0.064704776062130431,0.19732673626513719,-0.80036412720606309,-0.29673549635076424,-0.75541540395268303,0.24397091698529749,-0.74139466857469083,0.52549728513550731
0.66632831296781059,-0.82393118356816464,0.38952025277533742,0.56938867406390248,0.059490662241888481,-0.059488042887007486,-0.86727237576172644,0.31613902927730986,0.6157128110752299,-0.99386971216814568,0.3758268060489931,-0.81354773570544303,0.35830989562106774,-0.31520745254965221,-0.49885318499464226,0.48175108463548644,0.6704907602986645,0.55433813210057448,0.05165920054140094,-0.2310309875352714,-0.74847858108579901,0.27683155967135309,-0.67832324790977139,0.70823550583473738,0.69272592914112918,0.82887729953764322
0.09826438161457296,-0.23123497697947126,0.39982072168775162,-0.7132196535635813,-0.55257851912987266,0.64935158329740816,0.53831294547534347,0.47939005673726021,-0.68430435365109599,0.090639528611520692,-0.51477711857412234,0.48752275214708951,-0.47342499909025126,0.26988900109169411,0.069954341217970839,0.90391964373572331,-0.6557279068206483,0.066674813682560341,-0.49570439061574167,-0.38638840129853058,0.9773682998575195,-0.7032578888799812,0.0022735451374700233,-0.33493293441940919,0.67290546492729719,-0.085259728098558307
0.61238932287230696,0.23808493363639927,-0.15298101624378901,0.87216150212416754,-0.33012243671451458,0.17350025900309296,-0.47834357089143165,-0.018328077246125396,0.16607248591719426,0.6055971620563172,0.4610495609770302,0.072882712640764735,-0.40947021908972925,0.13339674250496891,-0.53410806590308502,0.39941715068073291,-0.36812409293275405,-0.75311833450885413,-0.99144800575569358,-0.046619991190272936,0.53202221865426602,-0.81984757090859595,-0.91178152146833513,0.06910136991937188,-0.64332070083601889,-0.14313338488674221
