0.61931976929134436,-0.52402089935105733,0.050970160605587012,-0.29206285338411697,-0.32052222179359857,0.3142780664789171,-0.73410138148662707,-0.69618145331260584,-0.99790383444612241,-0.60711034092807692,-0.033926474277588659,-0.58464981812620964,0.54558472608286501,-0.88432870691251741,-0.36387015813613921,-0.17358835611306311,0.16197725417936581,-0.32468306080249731,0.39108723659124611,0.19732673626513719,-0.80036412720606309,-0.29673549635076424,-0.44944016178326085,0.24397091698529749,-0.34153908344749695,0.65024055181917184
0.66632831296781059,-0.82393118356816464,0.38952025277533742,0.56938867406390248,0.9018381924896588,-0.059488042887007486,-0.86727237576172644,0.31613902927730986,-0.06171895815337014,-0.99386971216814568,-0.17695147540845135,-0.81354773570544303,-0.9186340437601852,-0.31520745254965221,-0.49885318499464226,0.10190840386829403,0.38494122322617286,-0.78130444107076613,0.019424933439062375,-0.2310309875352714,0.3440217773222658,0.27683155967135309,-0.37961474841306719,0.71492788136270313,0.69272592914112918,0.82887729953764322
0.0037716875192363997,-0.23123497697947126,0.31872790522903394,-0.45826670879469988,0.13656198976955269,0.64935158329740816,0.53831294547534347,0.47939005673726021,-0.68430435365109599,0.090639528611520692,0.61759784929706729,0.48752275214708951,-0.47342499909025126,0.26988900109169411,-0.36733615117493312,0.90391964373572331,-0.27626883497500421,0.066674813682560341,-0.49570439061574167,-0.52419699538726272,0.9773682998575195,-0.7032578888799812,0.39475471789493422,0.96060524928563784,0.67290546492729719,-0.085259728098558307
0.86506070690642289,0.23808493363639927,0.89120459564006449,-0.45163782730713109,0.89347083158908203,-0.80924808888573807,-0.95188608664531493,-0.018328077246125396,0.16607248591719426,0.6055971620563172,0.11596242773830823,0.23921917823567207,-0.40947021908972925,0.58231549648219216,-0.53410806590308502,-0.95926144013647874,0.25070343873230505,-0.75311833450885413,-0.99144800575569358,-0.046619991190272936,0.53202221865426602,-0.81984757090859595,-0.66451964450241352,0.88296536876602305,-0.64332070083601889,-0.14313338488674221
