0.40525113313855998,-0.037147422089578885,0.050970160605587012,0.81568044449666055,-0.64844614812995616,0.38966597258215097,0.27224662759171525,-0.88773355950765387,-0.68017603746406086,-0.60711034092807692,-0.033926474277588659,-0.6213090554487013,-0.51048402082790689,-0.88432870691251741,-0.36387015813613921,0.42449006503713749,-0.13123902480972127,-0.32468306080249731,0.75851771547688007,-0.90118864482003258,-0.80036412720606309,-0.29673549635076424,-0.44944016178326085,0.61877355522825983,-0.9975516060457752,0.52549728513550731
0.66632831296781059,-0.020962447048356925,0.57369219072139055,0.56938867406390248,-0.47844279109063415,-0.63859659978255379,-0.22943183396018796,0.31613902927730986,-0.06171895815337014,0.30189990100088471,-0.055146498444003988,0.63515478565991046,0.35830989562106774,-0.31520745254965221,-0.98877134627317087,-0.53003465448551812,-0.35325648258516007,0.55433813210057448,0.05165920054140094,-0.2310309875352714,-0.8878567099413226,0.27683155967135309,-0.67832324790977139,0.70823550583473738,0.69272592914112918,0.19788714065873547
0.0037716875192363997,-0.23123497697947126,0.2219918041296749,-0.7132196535635813,0.68720552494868814,0.64935158329740816,0.47357245849817198,0.47939005673726021,0.88771531521851355,-0.74083777713298526,0.6052388664038737,0.31432633773897778,-0.47342499909025126,-0.59928338012304305,0.069954341217970839,0.78653503083360388,-0.27626883497500421,0.066674813682560341,-0.55349526705638663,-0.52419699538726272,0.9773682998575195,-0.7032578888799812,-0.76402276823464566,-0.63452321672934997,0.67290546492729719,0.3348512205162637
-0.44690883883186805,0.23808493363639927,0.89120459564006449,0.73632243666617536,-0.52858109817892052,-0.78122529636802196,-0.47834357089143165,-0.018328077246125396,0.16607248591719426,0.6055971620563172,0.11596242773830823,-0.049677403191427549,-0.40947021908972925,0.13339674250496891,-0.53410806590308502,0.64279498957883985,0.25070343873230505,-0.26312195444574926,-0.99144800575569358,-0.34808854059271299,0.53202221865426602,-0.81984757090859595,-0.91178152146833513,0.88296536876602305,-0.96851540337332165,0.83988714032161571
