0.40525113313855998,0.044241207604277522,-0.19520681351728242,0.81568044449666055,-0.64844614812995616,0.38966597258215097,0.27224662759171525,-0.88773355950765387,-0.99790383444612241,-0.60711034092807692,-0.033926474277588659,-0.13543015849665463,-0.2440649984432941,-0.88432870691251741,-0.36387015813613921,-0.97271630767810646,-0.8675536869781777,-0.32468306080249731,0.39108723659124611,-0.74322761776707891,-0.80036412720606309,-0.54084896619358602,-0.44944016178326085,0.24397091698529749,-0.9975516060457752,0.52549728513550731
0.66632831296781059,-0.82393118356816464,-0.66551810653695886,0.56938867406390248,-0.17792931937466538,0.60310973363361242,-0.22943183396018796,0.64243443229106068,-0.80364048621182471,0.30189990100088471,-0.54539960881809324,0.63515478565991046,0.35830989562106774,-0.31520745254965221,-0.49885318499464226,-0.270875010873741,-0.63780825133943364,0.55433813210057448,0.05165920054140094,-0.2310309875352714,0.48608999351137894,0.27683155967135309,-0.67832324790977139,0.70823550583473738,-0.80137257433187914,-0.25845212968583775
0.0037716875192363997,-0.45714555271303636,0.35383310480527452,-0.7132196535635813,0.13656198976955269,0.11977252344574252,0.53831294547534347,0.47939005673726021,-0.68430435365109599,-0.74083777713298526,0.74460528627481981,0.31432633773897778,-0.47342499909025126,-0.59928338012304305,0.069954341217970839,0.78653503083360388,-0.27626883497500421,0.066674813682560341,-0.086949251199947897,-0.52419699538726272,0.9773682998575195,-0.7032578888799812,0.91994830524928606,-0.97419557300294857,0.67290546492729719,0.3348512205162637
-0.44690883883186805,0.23808493363639927,-0.94602223263590246,-0.83599329698523328,0.75308610402933351,-0.37344884960295688,0.062165439036134362,-0.018328077246125396,0.16607248591719426,0.6055971620563172,0.11596242773830823,-0.1909827459263207,-0.7750474879862348,-0.29822514619032714,-0.53410806590308502,0.64279498957883985,0.25070343873230505,-0.75311833450885413,-0.99144800575569358,-0.046619991190272936,0.53202221865426602,-0.81984757090859595,-0.91178152146833513,0.88296536876602305,-0.64332070083601889,-0.14313338488674221
