0.01554389142992374,0.044241207604277522,0.050970160605587012,0.74231130295654157,-0.64844614812995616,0.38966597258215097,0.27224662759171525,0.3585442709815152,0.045605659703510826,-0.60711034092807692,-0.033926474277588659,-0.6213090554487013,-0.51048402082790689,-0.090025471218719177,-0.36387015813613921,0.28067237013795432,-0.13123902480972127,-0.32468306080249731,0.84411989064692028,-0.14703087148394345,-0.80036412720606309,-0.29673549635076424,-0.6005446752485315,0.39563750451434632,-0.20410493723910639,0.5451451792804598
0.7532976204802615,-0.72691900212476468,-0.66551810653695886,0.087791193458043315,-0.47844279109063415,-0.059488042887007486,-0.85307718995685433,0.31613902927730986,-0.06171895815337014,0.30189990100088471,0.67566763953497233,-0.12758958863425796,0.35830989562106774,-0.31520745254965221,-0.49885318499464226,0.18774147554668952,-0.63780825133943364,0.590000202603298,0.2152817473454971,-0.67518558578509347,0.59739634324133606,0.27683155967135309,0.37683892050994738,0.80302522150766831,0.69272592914112918,0.82887729953764322
-0.3161739577116105,-0.86173405180193541,0.32676854062261795,-0.7132196535635813,0.13656198976955269,-0.54591614824246415,-0.62621459380270283,0.34877624743570679,-0.68430435365109599,-0.74083777713298526,-0.64543504147401576,0.65556771755733512,0.42255195041051352,-0.59928338012304305,0.52645997131460365,-0.2458325569520643,-0.27626883497500421,0.74697651491136163,0.65336122491808157,-0.52419699538726272,-0.6314691991101804,-0.7032578888799812,0.39475471789493422,-0.97419557300294857,0.67290546492729719,0.84287599928914592
-0.44690883883186805,0.26457361319377348,0.54906295549011741,-0.19976574205647513,0.75308610402933351,-0.12447758618073634,-0.47834357089143165,-0.96750630135912741,0.71572163199147165,-0.12808462499650419,0.87230702964487672,0.568848929036333,-0.40947021908972925,0.90216242914574174,-0.53410806590308502,0.64279498957883985,-0.32660117988899318,0.1836681638773785,-0.61111656722183683,-0.046619991190272936,0.53202221865426602,0.41447166897346843,-0.91178152146833513,0.88296536876602305,-0.64332070083601889,-0.14313338488674221
