-0.78916932638896675,0.044241207604277522,0.050970160605587012,0.74231130295654157,-0.37951394126335747,0.38966597258215097,0.27224662759171525,-0.88773355950765387,-0.73350462128165494,0.43663141000003347,-0.033926474277588659,-0.6213090554487013,0.15470747645777072,-0.88432870691251741,0.5108306898915409,0.28067237013795432,-0.13123902480972127,-0.32468306080249731,0.39108723659124611,-0.14703087148394345,-0.80036412720606309,-0.7723247525580097,-0.6005446752485315,-0.85901900430695011,-0.9975516060457752,-0.35356477837216893
0.91067820044123304,-0.82393118356816464,-0.66551810653695886,0.087791193458043315,-0.47844279109063415,0.5767201476431183,-0.85307718995685433,0.31613902927730986,-0.06171895815337014,0.30189990100088471,-0.054542042387059286,0.63515478565991046,0.54925328156215003,-0.49936171261491547,0.46306574278571966,-0.32236652215602146,-0.63780825133943364,0.55433813210057448,0.05165920054140094,-0.67518558578509347,-0.53592406944106941,0.27683155967135309,0.81073275779636411,0.80302522150766831,0.14405298682369527,0.82887729953764322
0.0037716875192363997,0.71982736516033663,0.32676854062261795,-0.7356944329274322,0.13656198976955269,-0.54591614824246415,-0.62621459380270283,0.34877624743570679,-0.68430435365109599,-0.65199519464758748,0.74460528627481981,0.036426537577501028,-0.10997375310431479,-0.59928338012304305,0.52645997131460365,0.50379089820835166,-0.27626883497500421,-0.11629154912915252,0.65336122491808157,-0.52419699538726272,-0.6314691991101804,-0.7032578888799812,0.39475471789493422,-0.97419557300294857,0.67290546492729719,-0.0044208470059896587
-0.44690883883186805,0.23808493363639927,0.54906295549011741,-0.19976574205647513,0.75308610402933351,-0.19724198018377748,-0.47834357089143165,-0.018328077246125396,0.71572163199147165,-0.12808462499650419,0.87230702964487672,-0.1909827459263207,-0.40947021908972925,0.90216242914574174,-0.53410806590308502,0.64279498957883985,0.52122943421739309,0.1836681638773785,-0.61111656722183683,-0.046619991190272936,0.53202221865426602,-0.81984757090859595,-0.91178152146833513,0.13477566469607138,0.56006972523495469,-0.14313338488674221
