-0.041258137954102381,-0.7244961342781433,0.22614374742809695,0.078060772271151713,-0.46682849197008602,-0.71309030375533133,0.6300430526422347,-0.72360749875734642,0.9914787550184414,-0.92795139822480599,0.63045671461128361,-0.59423800801915538,-0.9584077892432723,0.86364048556559347,0.43853369601931069,-0.80008641335802366,0.031941757156995321,-0.3471069840616976,0.49398796310429116,-0.30215268885398694,-0.48748782877357222,-0.50265054097345718,-0.73979869272690157,0.30173592661134463,0.84632812212557185,-0.50209176034768666
-0.81336537801224029,-0.91208817270506892,-0.84183018463961701,-0.8965119846619749,0.78752198380903105,0.1370336582171483,-0.07939432372265065,0.67479233017116469,0.75690722698407531,-0.093552346047887314,-0.54262064102086338,0.13529783445465693,0.30700108429021666,-0.77196032838668027,0.73817434442147478,0.32530668128168116,0.70240507826169329,0.43387491724034621,-0.11340391988604681,-0.5432857621810594,0.199132917748992,-0.76684589330870789,0.34203424304586272,0.40699024759131919,-0.091309864031924093,0.193507315225524
-0.59523622456142711,0.56732636360525257,0.37022167233376835,-0.87783517065795147,0.52388295036982679,-0.53870680706806851,-0.42737722169158299,0.15554745718795893,-0.77392178425490221,-0.96863981652867981,0.22587520143535289,0.24097182222890368,-0.055667374758706867,-0.16545083727669052,-0.77131628763669435,-0.16159073131777979,-0.69561811638894566,0.28747563755084493,0.33463134835223984,0.98538772463915514,-0.26741308601907687,0.41757845098237345,0.073787035100306708,-0.56121660998898282,-0.50947776247969223,0.26873132798943167
0.9190465028567596,0.31639404976868879,-0.21619100743137776,0.26106547257573731,0.92290333343299658,-0.86928376813694208,0.60800020699060209,0.7662574019498638,-0.32721276753304074,-0.81718421128668783,0.82639114226062249,0.52540170814672038,-0.63338351506320612,-0.27442977217555531,-0.31854490806249269,0.0046048831609242225,0.99608638893917711,-0.23014906166753413,-0.29527242694446154,-0.98471599118521946,0.53710127190929047,0.46627580036330807,0.4070639704123451,-0.42394013922904072,0.13483077722491954,0.43039717899084673
