-0.0098845997426115773,0.044241207604277522,0.050970160605587012,0.74231130295654157,-0.64844614812995616,0.38966597258215097,0.27224662759171525,-0.88773355950765387,-0.99790383444612241,0.99913698672934226,0.86521624379764539,0.57930537035006746,-0.51048402082790689,-0.88432870691251741,-0.36387015813613921,0.28067237013795432,-0.13123902480972127,-0.32468306080249731,0.39108723659124611,-0.14703087148394345,-0.80036412720606309,-0.29673549635076424,0.85481073885053993,-0.049362924943307407,-0.57571837654731284,0.5451451792804598
0.66632831296781059,-0.82393118356816464,-0.66551810653695886,0.087791193458043315,-0.47844279109063415,-0.059488042887007486,-0.067386417771322815,0.94615793352995459,-0.06171895815337014,0.30189990100088471,0.12444729449723102,-0.10361157613956684,0.35830989562106774,-0.31520745254965221,-0.49885318499464226,0.18774147554668952,-0.63780825133943364,0.55433813210057448,0.05165920054140094,-0.67518558578509347,0.48608999351137894,0.27683155967135309,0.96531305237432408,0.80302522150766831,0.11090784191010328,0.82887729953764322
0.0037716875192363997,-0.33148281354970477,0.32676854062261795,-0.7132196535635813,0.13656198976955269,0.91934628257280093,-0.62621459380270283,0.34877624743570679,-0.68430435365109599,-0.51051511354362455,0.74460528627481981,0.70771911416970457,-0.91603755882808868,-0.59928338012304305,0.52645997131460365,0.50379089820835166,-0.27626883497500421,0.30823907307377274,0.65336122491808157,-0.52419699538726272,-0.6314691991101804,-0.7032578888799812,0.39475471789493422,-0.86685112050154944,0.67290546492729719,-0.8540727515374309
-0.44690883883186805,0.49441688899511638,0.10141845923854365,0.90014278630767164,0.65953864917043759,-0.12447758618073634,0.46911277473982538,-0.018328077246125396,0.71572163199147165,-0.12808462499650419,0.87230702964487672,-0.1909827459263207,-0.40947021908972925,0.90216242914574174,-0.53410806590308502,0.64279498957883985,-0.32660117988899318,-0.092739148734150678,0.1893562784704732,-0.046619991190272936,0.53202221865426602,-0.16091471462014306,-0.91178152146833513,0.22129268091540633,-0.44251457863465649,0.54343279724393168
