-0.6615596702265012,0.80434206198045421,0.12047091579813451,-0.95129901884754142,0.2471847468269166,0.80857755763785,-0.42572735452357069,-0.56186405280376195,0.32482546053356987,0.74893158500264256,-0.0044146526203412417,0.038606911942251632,0.34238295151871601,-0.58093045495471207,0.75794890285799488,-0.4253877498746601,0.085816590136993609,-0.70370319343284615,-0.42562020312374793,-0.22656241416701084,0.49769269837968277,-0.089837811343277396,0.97745788813246581,0.62820640883299594,0.15212523838792724,0.069937070062563667
-0.46043217311911055,-0.98622902165621196,-0.86631765179848497,0.41085003392177799,-0.51005664554584107,-0.06322661610710778,0.9593744479882953,0.0325170603826066,0.79355320834812337,0.66790117996462461,0.21211656488101593,-0.39398944550747039,-0.69502957766876206,-0.0039835166476231976,-0.067972256591411151,-0.67230461728169755,-0.51033593803390231,0.50514208942632854,0.52636764214119802,0.044820137384758763,0.39163371242384071,0.021590388328071031,-0.91283568809491511,0.72152293991620065,-0.553961902290941,-0.18362958745862334
0.54337589695471178,-0.84955708668859486,-0.72555902998807609,-0.82570466997437131,0.41197898638155039,0.14290834953119735,-0.18186451210988097,-0.56009064964054223,0.32155715130996021,0.28471938283258469,-0.19136743023566205,-0.26526322478463538,0.89987724645455192,0.119192384125687,-0.39441217649471816,0.23387286068590618,-0.63970363913110084,-0.66263850912361577,0.80396505485306347,-0.67240727437166803,-0.44997916833075191,0.6349333160613424,-0.25521917285414708,-0.12941385570500641,-0.68461271616167085,-0.90877773214348867
-0.88751114067431924,-0.43192648952117918,0.024791718446520727,0.18794302005030872,0.60194857922953537,0.012345238294183769,0.47754437017736295,-0.58218513953420081,-0.72385495253166643,0.18696555132463644,-0.48131604024788177,-0.22401660450375305,0.65314895219822033,0.54910609431199209,-0.52460003903426,0.72717311213197711,-0.62846390178734124,-0.97262628152597164,0.8238139862934688,0.0097973647865541302,0.61353901200657068,0.73022649187582456,0.70516786905748874,-0.33712254524385132,0.60255855682425641,0.41558066389093318
