-0.8418617877169019,-0.56753743751970043,-0.92727862488456747,0.74231130295654157,-0.64844614812995616,0.38966597258215097,0.27224662759171525,-0.74740821847179983,0.19165759303852647,-0.23452196335594411,-0.91393583578078963,0.57930537035006746,0.62526253393631381,-0.88432870691251741,-0.27754623812639245,-0.38889333451231556,-0.13123902480972127,-0.32468306080249731,0.39108723659124611,-0.14703087148394345,0.47913746861911477,-0.29673549635076424,-0.6005446752485315,-0.85525770325015205,-0.57571837654731284,0.5451451792804598
0.66632831296781059,-0.37444051210726292,-0.66551810653695886,-0.018711765417900761,0.17459994259324296,-0.059488042887007486,-0.49000786700303856,0.31613902927730986,-0.06171895815337014,0.30189990100088471,-0.79496345740637819,-0.83168126383413798,0.35830989562106774,-0.1130778670122512,-0.49885318499464226,0.18774147554668952,-0.63780825133943364,0.50024248638699276,0.66702464290704389,-0.25618712381929609,0.84477715582160129,0.27683155967135309,0.96531305237432408,0.80302522150766831,0.69272592914112918,0.82887729953764322
0.0037716875192363997,-0.23123497697947126,-0.65995748980963898,-0.7132196535635813,0.13656198976955269,-0.54591614824246415,-0.28504969889953191,0.67486987401091714,-0.68430435365109599,-0.51051511354362455,-0.19129531863349625,-0.77113853002317456,-0.63040656439772502,-0.59928338012304305,0.52645997131460365,0.50379089820835166,-0.27626883497500421,0.74693397192139477,0.084629906723974191,-0.52419699538726272,-0.6314691991101804,0.21465671399264408,0.39475471789493422,-0.68293489581081057,0.67290546492729719,0.3348512205162637
-0.44690883883186805,0.49441688899511638,-0.13620049591437677,0.59600170959679155,0.65953864917043759,-0.86130966013480603,-0.62888208989812266,0.75711603402109695,0.71572163199147165,-0.12808462499650419,0.87230702964487672,-0.1909827459263207,-0.40947021908972925,0.90216242914574174,-0.53410806590308502,0.77244882238172075,0.24520743307704662,-0.39338791968628217,0.1893562784704732,-0.046619991190272936,0.53202221865426602,0.85002349359425478,0.33523340173299809,0.73010254163039789,-0.12017253664745331,-0.5652754080334188
