0.74620395839817766,0.91645561087654626,0.53218899031479916,-0.68025031807874003,-0.5132293822659173,-0.7895193382496819,0.1756973442085632,-0.98156553822859771,0.98016260529913768,-0.70343114874292723,0.4882536613893449,-0.83341098139342984,0.93511708800572135,-0.019563395648964255,-0.22258400638977327,0.77010927591470679,-0.80363333411262339,-0.99019497105609822,0.65621821649371581,-0.83894741995943112,-0.40291228815603763,-0.81211785954529159,0.78870319360287877,-0.44292820049107218,0.57329074173345429,0.14310868901368679
-0.053640390352723388,0.54916390630004042,-0.24735908031296461,-0.99891634975768206,-0.30605194990330631,-0.68018167631015736,-0.2308539250998114,0.88943930601073329,-0.71023660612383188,0.51695056311247733,-0.81785947259088032,-0.12810095401770827,-0.3073398457926948,0.39648915707968557,0.63466145702716581,-0.33822394581270543,-0.3983970490331834,0.22126260331955172,-0.14927618677899046,0.94416796377670975,0.75364296661952479,0.16049353915009212,-0.40114838488082971,-0.74229802249671506,-0.33785737002695626,-0.68890967937627279
-0.091292954196855902,-0.44035788180599789,0.0052244712715256991,0.52826250696440558,-0.087902963925361011,0.83338312677042836,-0.24043803305132982,0.29754843823069765,0.39080616277446545,0.80551992993126387,-0.74831354185312682,0.22637545097086709,0.52803531252318692,0.61665237945139695,-0.68472628495030508,-0.43638340248864549,0.23831624650766825,0.41805507794277097,-0.014350197379971563,0.33395454247320555,0.82341648274525703,-0.37317024473952398,0.69883498095730689,-0.95506161430356307,0.93781176783542186,-0.42610421886530259
0.78642783820925422,0.39465432793853772,0.260533219731651,0.88368026031777758,0.6954833296337366,-0.88974602372774236,0.70223358108804423,-0.082179473990635188,0.61808084095987081,0.85065848996342641,0.49537023858716989,0.9917589058132581,-0.50536102891140722,0.11206473282042428,0.88940554923452697,0.6756067673430135,0.70664583452306484,-0.58488065999203531,0.19606277478682288,0.26007203805314916,-0.67263582773344921,-0.12414776432659447,0.71404288687381046,-0.42966902499101045,0.31705174809825798,0.64688015820165901
