0.0016967673989136678,-0.56753743751970043,0.050970160605587012,0.74231130295654157,-0.64844614812995616,0.38966597258215097,0.27224662759171525,-0.99271269414443597,-0.99790383444612241,-0.23452196335594411,-0.91393583578078963,0.57930537035006746,-0.51048402082790689,-0.88432870691251741,-0.27754623812639245,0.28067237013795432,-0.73228874617015149,-0.32468306080249731,0.39108723659124611,-0.14703087148394345,-0.80036412720606309,0.019448987607923796,-0.6005446752485315,-0.049362924943307407,-0.57571837654731284,0.5451451792804598
0.66632831296781059,-0.37444051210726292,-0.66551810653695886,0.74284442560820452,-0.65712830301128666,-0.059488042887007486,-0.49000786700303856,0.31613902927730986,-0.06171895815337014,0.8619032137233178,0.98225153950703503,0.63515478565991046,0.35830989562106774,-0.1130778670122512,-0.49885318499464226,0.18774147554668952,0.20426331739341408,0.50024248638699276,-0.45335801235505979,-0.67518558578509347,0.46598691772575496,0.27683155967135309,0.96531305237432408,0.80302522150766831,-0.77289218250542513,0.82887729953764322
0.0037716875192363997,-0.23123497697947126,-0.039595584218212965,-0.7132196535635813,0.13656198976955269,-0.54591614824246415,-0.28504969889953191,0.51955034423398327,-0.68430435365109599,0.87381639005444622,-0.19129531863349625,0.70771911416970457,-0.63040656439772502,0.57372213294938934,-0.032897712718841454,-0.44120170020622007,-0.27626883497500421,0.30823907307377274,0.19647805916615435,0.99580359741911373,-0.6314691991101804,0.86772390833432334,0.39475471789493422,-0.024270020348838184,0.67290546492729719,0.40378656140750491
-0.44690883883186805,0.49441688899511638,-0.59213178169020009,0.59600170959679155,0.65953864917043759,-0.86130966013480603,-0.62888208989812266,0.75711603402109695,0.71572163199147165,-0.54591276364512797,-0.50174178249589962,-0.1909827459263207,-0.40947021908972925,-0.66796491973321293,-0.53410806590308502,0.64279498957883985,-0.32660117988899318,-0.39338791968628217,0.1893562784704732,-0.046619991190272936,0.94448913634618004,0.85002349359425478,-0.3983475637869307,0.73010254163039789,-0.12017253664745331,-0.5652754080334188
