0.39944100389265436,0.85134187207976897,0.38502185953549306,-0.91181016682837224,-0.78719859258156366,-0.79464777746093929,-0.40325276293399615,-0.86099215916282867,-0.72740847113226792,0.22007318573816681,0.98432920252886036,-0.9017446687285684,0.16216426903138093,-0.69079620408418063,-0.19599703128356283,0.62248707429209604,-0.52094826928185589,-0.11488356999730343,0.13161721532571824,0.50353554974489634,-0.82239332568958612,0.1242247465081574,0.37751762226889429,-0.55450383868419872,0.88606835819044916,0.70065841042456078
0.093802433290239406,-0.47504273242065875,0.90282029112087425,-0.23020939031697374,0.20295833259173124,0.29177052863357122,-0.59571550410897078,-0.96636093625101926,0.48988883518296089,-0.084172442769547162,-0.3540109785233827,-0.70539546059871228,0.44682767569769499,0.68168398383187312,-0.88284715800847424,-0.19313017357890838,0.091668218196957474,0.18875076780016409,-0.17654734338148081,0.94000777733154828,-0.024613180879171859,0.00748054318460456,-0.50942810931822002,0.38757242432587713,-0.29672230381553799,0.97980415168166646
-0.13625239908585951,0.75648137681436989,-0.50823942324974603,-0.77465715028388504,-0.85396874951399337,0.033637141115754332,0.34660309781373377,0.03777229080994049,-0.08842033659832671,-0.28398939600255124,-0.42803780695936755,-0.049415868282622677,0.82597144396769973,0.43423648258091641,-0.81433023978773056,0.88788382114280151,0.34330866123940607,0.39100748570283472,-0.035903858414542134,-0.97683297839529204,0.12218314870598324,-0.7326005359830019,0.33136880707472693,0.09272101448857617,0.042035180154647023,0.59021743813483596
-0.33084530840650794,0.27751098050005729,0.91432768824260702,0.29148909040246718,0.31233698975217128,0.90981738984253613,-0.027471104960193227,-0.13520380306311397,0.73605745688724,0.1005650926084718,-0.97109067314433917,0.80388469062718082,-0.18175189997033936,-0.52746488226228205,0.21163995783156131,-0.31640463585456469,-0.75442899546251829,0.093592153825807767,-0.34843685698570925,0.64591806679167441,0.74300711205919923,0.85491572745267286,0.12743267019310434,-0.50962527295731674,-0.69023796354112088,0.27328120842098591
