0.0016967673989136678,-0.56753743751970043,0.39681673977355336,0.27067708022417469,-0.64844614812995616,0.38966597258215097,0.81506630554028892,0.51814131293277432,-0.99790383444612241,-0.23452196335594411,-0.91393583578078963,0.35369036445396862,-0.51048402082790689,-0.88432870691251741,-0.27754623812639245,0.28067237013795432,0.14209627307783879,-0.87110943500371962,0.39108723659124611,-0.14703087148394345,-0.80036412720606309,-0.29673549635076424,-0.6005446752485315,-0.049362924943307407,-0.57571837654731284,-0.72394755725359605
0.30061531606858582,0.65251016104805681,-0.66551810653695886,-0.056189654133582456,0.33149584327948411,0.47408600710751636,-0.49000786700303856,-0.024078317062584231,-0.06171895815337014,0.73912794196678533,-0.84748440959309557,0.63515478565991046,0.35830989562106774,-0.1130778670122512,-0.49885318499464226,0.18774147554668952,0.72107388162426522,0.50024248638699276,0.66702464290704389,-0.67518558578509347,0.46598691772575496,0.27683155967135309,0.63003901169990284,0.12051196429633304,0.69272592914112918,0.8710664183253769
0.0037716875192363997,-0.23123497697947126,0.91236030730254347,-0.34589142514628768,0.13656198976955269,-0.35593334517932451,-0.28504969889953191,-0.87083268782885237,-0.68430435365109599,-0.51051511354362455,-0.19129531863349625,0.70771911416970457,-0.63040656439772502,0.7468653288044369,-0.30213674699749826,0.50379089820835166,-0.27626883497500421,0.63714518248625063,0.65336122491808157,-0.52419699538726272,-0.6314691991101804,0.86772390833432334,0.20855873859983998,-0.45422835825305774,0.67290546492729719,-0.31145443513738424
-0.44690883883186805,0.71522978060048703,-0.32550459982408286,-0.11575081383616048,-0.41605328216179815,-0.86130966013480603,0.36270530103949161,-0.0025426429035113607,0.71572163199147165,-0.2450797164118943,0.95719565421684916,-0.66957030555008212,-0.40947021908972925,0.90216242914574174,0.07494044184510984,0.64279498957883985,-0.47807414117463365,0.12183587534767581,-0.22819258555771116,-0.47585877067933602,0.53202221865426602,0.85002349359425478,0.27447746099876125,0.62989495025146613,0.064154844049946425,-0.69968334541113175
