0.0016967673989136678,-0.56753743751970043,0.050970160605587012,0.27067708022417469,-0.64844614812995616,0.47280499411950738,-0.29904250914436914,0.51814131293277432,-0.99790383444612241,0.069471110725781493,-0.91393583578078963,0.57930537035006746,-0.080195346001369794,0.28018941939189435,-0.27754623812639245,0.28067237013795432,-0.45965896685450214,-0.46747209102644161,0.39108723659124611,-0.14703087148394345,0.09072282781941321,-0.29673549635076424,-0.6005446752485315,-0.049362924943307407,0.26446087128542151,-0.72394755725359605
0.27921528228216608,0.65251016104805681,-0.66551810653695886,0.86919275240043925,0.33149584327948411,-0.32850011954614722,-0.49000786700303856,-0.024078317062584231,-0.06171895815337014,0.40137175220562615,-0.36401008588446637,0.63515478565991046,0.35830989562106774,-0.1130778670122512,-0.65276431172794691,0.39015804688231959,0.72107388162426522,0.50024248638699276,0.66702464290704389,-0.67518558578509347,0.46598691772575496,0.14569203468083947,-0.20019611356684952,-0.75761175555455362,-0.81046829196218284,-0.83960667201443173
0.0037716875192363997,-0.23123497697947126,0.91236030730254347,-0.34589142514628768,0.13656198976955269,0.35923770382044506,0.81943982432841644,-0.92111693527546668,-0.68430435365109599,0.15946316625660395,0.68160052043090702,0.70771911416970457,-0.63040656439772502,0.7468653288044369,-0.30213674699749826,0.50379089820835166,0.094659721377561512,0.30823907307377274,0.65336122491808157,-0.52419699538726272,-0.6314691991101804,0.88778241920677936,-0.41111279609470563,-0.68293489581081057,0.67290546492729719,-0.27221592713247333
-0.44690883883186805,0.98525600688588444,-0.32550459982408286,-0.62598415083326819,-0.52593955343618548,-0.86130966013480603,-0.62888208989812266,0.41552768000246831,-0.56749570995323628,-0.12808462499650419,-0.67430036239888569,-0.66957030555008212,-0.75914190504093293,0.08261870145260608,-0.53410806590308502,0.78076868955102308,0.99891141172297804,-0.39338791968628217,-0.37177608103988047,-0.22112154867638822,0.53202221865426602,0.39542433760012319,0.22116067567744579,-0.77123878592640627,0.4716341402737505,-0.5652754080334188
