0.35614464120475509,-0.32754889029459688,0.050970160605587012,-0.65956511703171139,-0.64844614812995616,-0.47451418287180691,-0.29904250914436914,0.51814131293277432,0.35224518359897505,0.45059258142350722,-0.84515754938239396,0.57930537035006746,-0.080195346001369794,-0.69965045837927464,-0.28358583281131211,0.82670561979825696,-0.60757109899352901,-0.46747209102644161,0.39108723659124611,-0.24308875661261609,-0.33988483414703641,-0.29673549635076424,-0.052224961120791003,-0.049362924943307407,-0.57571837654731284,-0.89557197096203534
-0.51675421603504401,0.35746781816024376,0.74961260597371826,-0.47114331332766568,-0.73908023146542878,0.85601545133518697,-0.49000786700303856,0.15527914658414321,-0.2744305093123105,-0.91246515879971257,0.51382488637720347,0.63515478565991046,0.066481846277397727,-0.31326892148663377,-0.65276431172794691,-0.41508657371765034,-0.51021598358272358,-0.43448301302952941,0.70344677250645526,-0.77777873120325669,0.2057858129932042,-0.99200740062355708,-0.68537148857067098,-0.75761175555455362,-0.81046829196218284,-0.26800117818842129
0.0037716875192363997,-0.23123497697947126,0.60568925734515044,-0.64572763521552434,0.2649750945496987,-0.20772777942148002,-0.28504969889953191,-0.44416284808747886,-0.68430435365109599,-0.51051511354362455,0.15112994453736794,0.70771911416970457,0.55984037972757794,0.7468653288044369,-0.30213674699749826,-0.24197665830205284,0.088491497454371126,0.30823907307377274,0.65336122491808157,-0.52419699538726272,0.16256721076510683,0.18424715663957469,0.53717343939158391,-0.68293489581081057,0.67290546492729719,-0.27221592713247333
0.13238603581139374,0.39331446249216673,-0.32550459982408286,-0.71940440196289379,-0.52593955343618548,-0.7665878381929947,-0.67250188246129539,0.012698738556999656,0.12641712589253751,-0.21309442193600914,-0.051308240401308769,-0.66957030555008212,0.72547450794869661,-0.83270611978317666,-0.66913494147476205,0.0041083874656413499,0.99891141172297804,-0.3691663079945704,-0.22819258555771116,0.65687554997968167,0.53202221865426602,-0.39059932479513759,-0.82158500116804545,0.22824474815819773,-0.12017253664745331,-0.78333986551391854
