-0.77107390708343826,0.52204889037726576,0.69367684083990544,-0.65956511703171139,-0.64844614812995616,-0.7523436419101075,0.11537422519106455,-0.50483324882670577,0.35224518359897505,0.069471110725781493,-0.84515754938239396,0.57930537035006746,-0.080195346001369794,-0.69965045837927464,-0.27754623812639245,0.29675518426372771,-0.60757109899352901,-0.46747209102644161,-0.61510099261407425,-0.14703087148394345,-0.44216500016079707,0.68974923800055921,0.60789001454040159,-0.049362924943307407,-0.57571837654731284,0.26108995046325245
0.12721452771798036,0.35746781816024376,-0.66551810653695886,-0.056189654133582456,0.17624927228500797,0.85601545133518697,-0.79937979486922872,0.90110026967242152,-0.053096304505894087,-0.91555616714237487,0.51382488637720347,0.63515478565991046,0.066481846277397727,-0.79612257884695703,-0.65276431172794691,-0.41508657371765034,-0.51021598358272358,0.60243501113873199,0.2920732630095666,-0.77777873120325669,0.46598691772575496,0.95993552671186122,-0.42975696526413176,-0.75761175555455362,-0.28052773383411633,-0.26800117818842129
-0.74131781908121464,0.10633372067918434,0.60568925734515044,-0.74608468450520316,0.2649750945496987,-0.31483162939084175,-0.28504969889953191,0.012333846192476461,-0.453416839560709,-0.51051511354362455,0.481986644464244,-0.48012944709737826,0.55984037972757794,0.7468653288044369,-0.30213674699749826,-0.24878449291558979,0.86667021329498062,0.64622293103606299,0.65336122491808157,0.51355150078607248,0.66944606420115305,0.85380124841733562,0.37119783375769799,-0.68293489581081057,-0.40598327888726038,-0.41178608879208412
-0.862308478719223,0.98525600688588444,-0.32550459982408286,-0.1156870827382146,-0.32300344956390425,-0.80416050409693729,-0.67250188246129539,0.012698738556999656,0.22934723901789345,-0.64940488868820867,0.088661202508294013,-0.66957030555008212,0.45428746666856368,0.08261870145260608,-0.66913494147476205,0.0041083874656413499,0.64204463492547137,0.53896591851828934,-0.22819258555771116,-0.25451111142432592,-0.39695970322963259,0.17409969371643497,-0.82158500116804545,0.22824474815819773,-0.12017253664745331,-0.5652754080334188
