-0.77107390708343826,0.52204889037726576,0.050970160605587012,-0.65956511703171139,-0.64844614812995616,-0.47451418287180691,0.11537422519106455,-0.50483324882670577,0.35224518359897505,0.069471110725781493,-0.84515754938239396,0.57930537035006746,-0.080195346001369794,-0.68880583295897657,-0.27754623812639245,0.28067237013795432,-0.65831112451490181,-0.46747209102644161,-0.31304596046930433,-0.77908168197393213,-0.33988483414703641,-0.074775551372887383,0.60789001454040159,-0.049362924943307407,-0.57571837654731284,0.26108995046325245
0.88665789138769457,0.35746781816024376,0.097682749627884702,-0.056189654133582456,0.29165211241838507,0.85601545133518697,-0.79937979486922872,0.83058388019975404,0.061284840144196773,0.7900516277673546,0.51382488637720347,0.63515478565991046,0.066481846277397727,0.56327481939204893,0.27643584520247999,-0.41508657371765034,-0.99153669575653169,0.50024248638699276,0.2920732630095666,-0.77777873120325669,-0.51793206180955242,0.95993552671186122,-0.42975696526413176,-0.75761175555455362,-0.81046829196218284,-0.26800117818842129
0.0037716875192363997,0.10633372067918434,0.60568925734515044,-0.74608468450520316,0.86712407775584666,-0.31483162939084175,-0.28504969889953191,0.40595057462616824,-0.453416839560709,0.86465588255163417,0.481986644464244,-0.44621832976107023,0.55984037972757794,0.7468653288044369,0.23544910452532464,-0.24197665830205284,0.86667021329498062,0.64622293103606299,0.65336122491808157,-0.0024013935391271612,0.16256721076510683,-0.69106708453849031,0.46799632396084312,-0.68293489581081057,0.67290546492729719,-0.27221592713247333
0.8747388152847968,0.98525600688588444,-0.32550459982408286,-0.32520039500815723,-0.5977396654289957,-0.80416050409693729,-0.67250188246129539,0.012698738556999656,0.22934723901789345,-0.64940488868820867,0.92448101376236469,-0.66957030555008212,-0.52723996781611815,0.15291825261069802,-0.88210992118484222,0.56845170036200687,0.99891141172297804,-0.92427130775178812,-0.22819258555771116,-0.25451111142432592,-0.75848288658490337,0.17409969371643497,-0.82158500116804545,-0.31877412460202614,0.46662891989271182,-0.5652754080334188
