-0.77107390708343826,0.52204889037726576,0.050970160605587012,0.50776555347550012,-0.64844614812995616,-0.47451418287180691,0.11537422519106455,-0.10678467322711649,-0.2949498693377115,-0.38189723296996703,-0.84515754938239396,0.91198338353357755,-0.64238210356293535,-0.69965045837927464,-0.27754623812639245,0.28067237013795432,-0.60757109899352901,-0.46747209102644161,-0.31304596046930433,-0.44760286627881385,-0.12108698215886116,-0.29673549635076424,0.60789001454040159,-0.049362924943307407,-0.57571837654731284,0.26108995046325245
0.12721452771798036,0.35746781816024376,-0.66551810653695886,-0.014820872743407598,0.29165211241838507,0.85601545133518697,-0.79937979486922872,-0.38779892935174076,-0.053096304505894087,-0.054668561961779494,0.51382488637720347,0.63515478565991046,0.066481846277397727,-0.89723381837080041,-0.6669997184712424,-0.41508657371765034,-0.51021598358272358,0.6884906345991455,0.4179243824629586,-0.77777873120325669,0.46598691772575496,0.25318155026239686,-0.42975696526413176,-0.75761175555455362,-0.43565106818301125,-0.26800117818842129
0.0037716875192363997,0.10633372067918434,0.60568925734515044,-0.74608468450520316,-0.26757203401634055,-0.4324212954892126,-0.28504969889953191,0.012333846192476461,-0.74549394775963096,0.55370608152212752,-0.45893720622864609,0.052462240247207692,-0.90186577034102111,0.56189234806235344,-0.30213674699749826,-0.24197665830205284,0.73722738602935411,-0.86728681268256347,0.32716892580547707,0.48711087898602745,-0.46091285916648062,0.54085070728027729,0.006254712572184129,0.13244146951221225,0.26394366212957676,-0.27221592713247333
-0.862308478719223,0.98525600688588444,0.64325493903287323,0.25839318350805507,0.71053138600101096,-0.75046326561575216,0.67927052703665947,0.76707302373973718,0.076087860368514226,-0.64940488868820867,0.92448101376236469,0.94114933189562122,0.6103589534163183,-0.77178932080997065,-0.66913494147476205,0.0041083874656413499,-0.39313746256293336,0.73552388661475976,-0.22819258555771116,-0.29971945537719802,-0.75848288658490337,0.17409969371643497,-0.82158500116804545,0.013088891683769477,-0.12017253664745331,0.44784475144498215
