-0.77107390708343826,0.52204889037726576,0.050970160605587012,-0.65956511703171139,-0.64844614812995616,-0.47451418287180691,0.11537422519106455,-0.50483324882670577,0.35224518359897505,0.0087798496197344367,-0.84515754938239396,0.57930537035006746,-0.080195346001369794,-0.72985628539992686,-0.27754623812639245,0.28067237013795432,-0.60757109899352901,-0.46747209102644161,-0.31304596046930433,-0.14703087148394345,-0.33988483414703641,-0.001326116508429509,0.60789001454040159,-0.81235608713059482,-0.57571837654731284,0.26108995046325245
-0.78830759073042422,-0.25930950903756878,0.88200777499729721,-0.056189654133582456,0.29165211241838507,0.85601545133518697,0.70549083942655977,0.90110026967242152,-0.016579001514768432,-0.91246515879971257,0.51382488637720347,0.73246575019599414,-0.17166172270879287,0.56327481939204893,-0.65276431172794691,0.35374628372532801,-0.70231467795481217,0.50024248638699276,0.2920732630095666,-0.77777873120325669,0.46598691772575496,-0.044514878459851914,-0.70222069754567151,-0.75761175555455362,-0.81046829196218284,-0.26800117818842129
0.0037716875192363997,-0.74404935789937565,0.60568925734515044,0.82476791288577034,-0.39734016719775034,-0.31483162939084175,-0.28504969889953191,0.77741745340432988,-0.453416839560709,-0.51051511354362455,0.481986644464244,0.546639520275644,0.54593783087955883,0.31885576381438008,0.12292499345755759,-0.24197665830205284,0.86667021329498062,0.64622293103606299,0.65336122491808157,-0.0024013935391271612,0.16256721076510683,-0.69106708453849031,-0.49651257211967548,-0.68293489581081057,0.67290546492729719,-0.27221592713247333
-0.73755742649733991,0.98525600688588444,-0.32550459982408286,0.38301028566888062,-0.52593955343618548,-0.80416050409693729,-0.67250188246129539,-0.86719702553058542,0.22934723901789345,-0.64940488868820867,0.92448101376236469,0.91133812927932767,-0.75914190504093293,0.08261870145260608,-0.66913494147476205,0.0041083874656413499,0.99891141172297804,0.53896591851828934,-0.22819258555771116,-0.25451111142432592,-0.018880240729028053,0.17409969371643497,-0.82158500116804545,0.22824474815819773,-0.12017253664745331,-0.5652754080334188
