-0.77107390708343826,0.52204889037726576,0.050970160605587012,0.31656845131844347,-0.64844614812995616,0.20051563564587194,0.11537422519106455,-0.10678467322711649,0.35224518359897505,0.069471110725781493,-0.94159179737684573,0.90107132556891578,-0.64238210356293535,-0.69965045837927464,-0.27754623812639245,0.28067237013795432,-0.60757109899352901,-0.46747209102644161,-0.31304596046930433,-0.44760286627881385,-0.12108698215886116,-0.012126778726428755,0.60789001454040159,-0.049362924943307407,-0.57571837654731284,0.26108995046325245
0.12721452771798036,0.35746781816024376,-0.66551810653695886,-0.014820872743407598,0.55436410506169187,0.80182476253079904,-0.79937979486922872,-0.38779892935174076,-0.053096304505894087,-0.054668561961779494,-0.68990800782936001,0.63515478565991046,0.066481846277397727,0.30311072543681084,-0.0041748040998585978,-0.91133843657468239,-0.51021598358272358,0.6884906345991455,0.2920732630095666,-0.77777873120325669,0.46598691772575496,-0.36019558125190332,-0.42975696526413176,-0.75761175555455362,-0.81046829196218284,-0.26800117818842129
0.0037716875192363997,0.80579473545688884,0.60568925734515044,-0.74608468450520316,-0.26757203401634055,-0.4324212954892126,-0.28504969889953191,-0.29362938982784192,-0.453416839560709,-0.19158895416027044,-0.45893720622864609,0.052462240247207692,0.07256848543933514,0.81335774900718438,-0.30213674699749826,-0.52553765121027696,0.066133317012114112,-0.86728681268256347,0.32716892580547707,-0.0024013935391271612,0.16256721076510683,-0.69106708453849031,0.051904157926096817,-0.68293489581081057,0.23902041066241431,-0.27221592713247333
-0.862308478719223,0.98525600688588444,0.64325493903287323,-0.32520039500815723,0.71053138600101096,0.62804330674221887,0.29741898443266335,0.76707302373973718,0.22934723901789345,-0.64940488868820867,0.13423745550565092,0.62733613120175713,-0.75914190504093293,0.08261870145260608,-0.66913494147476205,0.0041083874656413499,-0.61330092098275157,0.73552388661475976,-0.22819258555771116,0.00032468918197281482,-0.75848288658490337,0.17409969371643497,-0.82158500116804545,0.22824474815819773,-0.12017253664745331,0.44784475144498215
