-0.77107390708343826,0.52204889037726576,0.050970160605587012,-0.65956511703171139,-0.64844614812995616,-0.47451418287180691,0.21811501662430199,-0.81002609156870431,0.35224518359897505,-0.42565046290776665,-0.84515754938239396,0.57930537035006746,-0.080195346001369794,-0.69965045837927464,-0.27754623812639245,0.28067237013795432,-0.60757109899352901,-0.46747209102644161,-0.31304596046930433,-0.14703087148394345,-0.33988483414703641,-0.29673549635076424,0.60789001454040159,-0.049362924943307407,-0.57571837654731284,0.26108995046325245
0.12721452771798036,0.93178027248189399,-0.66551810653695886,-0.56701446857578297,0.29165211241838507,0.77277521121498416,-0.79937979486922872,0.90110026967242152,-0.053096304505894087,-0.91246515879971257,-0.45396892417371104,0.63515478565991046,0.066481846277397727,0.56327481939204893,0.12325357843302642,0.82695521702105235,-0.51021598358272358,-0.8143148877454478,0.2920732630095666,-0.77777873120325669,0.46598691772575496,0.95993552671186122,-0.42975696526413176,-0.75761175555455362,0.67556526140304118,-0.26800117818842129
0.0037716875192363997,0.10633372067918434,0.60568925734515044,-0.74608468450520316,0.2649750945496987,-0.31483162939084175,-0.28504969889953191,0.012333846192476461,-0.11322379876905297,-0.51051511354362455,0.481986644464244,-0.7087672866706749,0.55984037972757794,0.7468653288044369,-0.30213674699749826,-0.24197665830205284,0.86667021329498062,0.64622293103606299,-0.22853515392483237,0.16590127626424644,0.17391421208121649,-0.69106708453849031,-0.51123887506916765,-0.68293489581081057,0.67290546492729719,-0.27221592713247333
-0.51551869236199299,0.98525600688588444,-0.32550459982408286,-0.32520039500815723,-0.66505901121279565,-0.46159081944206415,-0.67250188246129539,0.012698738556999656,0.22934723901789345,-0.64940488868820867,0.92448101376236469,-0.66957030555008212,-0.40668758238506708,0.08261870145260608,0.83284436657837313,0.0041083874656413499,0.99891141172297804,0.53896591851828934,0.15028551609060825,-0.25451111142432592,-0.75848288658490337,0.250317456978143,-0.82158500116804545,0.22824474815819773,-0.12017253664745331,-0.5652754080334188
