-0.77107390708343826,0.52204889037726576,-0.86919975016545115,-0.65956511703171139,-0.64844614812995616,-0.47451418287180691,0.81988673828169523,0.97499179037057981,0.35224518359897505,0.069471110725781493,-0.84515754938239396,0.39838151913448483,-0.64238210356293535,-0.69965045837927464,0.24860303122431726,0.28067237013795432,-0.38803898153798588,-0.56657879776438969,0.76119656956627546,0.61059678919872717,-0.12108698215886116,-0.29673549635076424,0.60789001454040159,-0.049362924943307407,-0.57571837654731284,0.50277421756653706
0.12721452771798036,0.35746781816024376,-0.66551810653695886,-0.014820872743407598,0.29165211241838507,0.42178231824721824,0.89566665420288949,-0.38779892935174076,0.82094430923135531,-0.054668561961779494,-0.20228387868451558,0.63515478565991046,-0.040540825218735366,-0.92976797168184899,-0.0041748040998585978,-0.41508657371765034,0.0094538964898147615,0.6884906345991455,0.2920732630095666,-0.77777873120325669,0.43485478846038372,-0.47529272651183763,-0.42975696526413176,-0.75761175555455362,0.95195039136563775,-0.26800117818842129
0.0037716875192363997,0.10633372067918434,0.56023011418286783,-0.78845871592666472,0.95142813724135467,-0.4324212954892126,-0.28504969889953191,0.012333846192476461,-0.453416839560709,0.55370608152212752,0.59681801291825964,0.052462240247207692,0.55984037972757794,0.56189234806235344,0.83361832373958156,-0.24197665830205284,0.86667021329498062,-0.86728681268256347,-0.059810877043477095,0.99111432891362572,0.16256721076510683,-0.69106708453849031,0.75760544361918924,-0.68293489581081057,0.44542597023050456,-0.27221592713247333
-0.862308478719223,0.98525600688588444,-0.76090439637953589,0.73223963138058168,-0.31706897789878097,-0.75046326561575216,0.67927052703665947,0.76707302373973718,0.37312465575586162,-0.64940488868820867,0.96140907625233551,-0.66957030555008212,-0.75914190504093293,0.08261870145260608,-0.66913494147476205,-0.43956533837116507,-0.30638986632377718,0.2314731187199659,-0.40694589335941633,0.00032468918197281482,-0.75848288658490337,-0.63201357424141458,-0.82158500116804545,0.22824474815819773,-0.12017253664745331,0.090643875685510578
