-0.77107390708343826,0.52204889037726576,-0.86919975016545115,0.6747804316078081,0.68501048787873509,-0.47451418287180691,0.012093605415673281,0.97499179037057981,0.35224518359897505,0.069471110725781493,-0.84515754938239396,0.39838151913448483,-0.64238210356293535,-0.69965045837927464,-0.27754623812639245,0.28067237013795432,-0.60757109899352901,0.2872540151583387,-0.31304596046930433,0.61059678919872717,-0.12108698215886116,-0.29673549635076424,0.60789001454040159,-0.049362924943307407,-0.57571837654731284,0.26108995046325245
0.12721452771798036,0.35746781816024376,0.99549749880730731,-0.014820872743407598,0.40873923011410862,0.85601545133518697,-0.34846908860730919,-0.38779892935174076,-0.053096304505894087,-0.054668561961779494,-0.29855811239607255,0.63515478565991046,0.066481846277397727,0.30311072543681084,-0.0041748040998585978,-0.41508657371765034,0.70930135183679033,0.50492557891302781,0.2920732630095666,-0.77777873120325669,0.46598691772575496,-0.47529272651183763,-0.42975696526413176,-0.75761175555455362,0.72107582361610834,-0.26800117818842129
0.0037716875192363997,0.10633372067918434,0.60568925734515044,-0.51155291323230778,0.077474993401738912,0.76383366495830529,-0.22373673076562683,0.1169629220063646,-0.453416839560709,0.55370608152212752,-0.45893720622864609,0.052462240247207692,-0.36941107708840759,0.56189234806235344,-0.30213674699749826,-0.24197665830205284,0.86667021329498062,-0.86728681268256347,0.32415537264376026,0.99111432891362572,0.16256721076510683,-0.69106708453849031,0.18423048324437463,-0.68293489581081057,0.44542597023050456,-0.27221592713247333
-0.862308478719223,0.98525600688588444,0.64325493903287323,-0.32520039500815723,-0.46397823369976909,-0.75046326561575216,0.67927052703665947,0.76707302373973718,0.22934723901789345,-0.64940488868820867,0.23404738428560368,-0.66957030555008212,-0.75914190504093293,-0.51548746167157988,-0.66913494147476205,0.0041083874656413499,0.99891141172297804,0.2314731187199659,-0.40694589335941633,0.00032468918197281482,-0.47739452012887718,-0.27672159771135152,-0.82158500116804545,0.22824474815819773,-0.12017253664745331,0.090643875685510578
