-0.77107390708343826,0.52204889037726576,-0.91949713851123871,-0.14669652302534475,-0.64844614812995616,0.49430312087393125,0.012093605415673281,0.97499179037057981,0.24058828260734755,0.68399759862248,0.30799319397815283,0.39838151913448483,0.48561606166743365,-0.82093670473271763,-0.27754623812639245,0.28067237013795432,-0.60757109899352901,-0.3035658294335033,-0.81747572551044057,0.61059678919872717,0.9496763483808579,-0.29673549635076424,0.60789001454040159,-0.049362924943307407,-0.74949348137447447,0.88784027192536974
-0.073647467389388099,0.35746781816024376,-0.66551810653695886,-0.014820872743407598,0.29165211241838507,-0.41799202664905311,0.28989183310530509,-0.34309184002246784,-0.46414002485519656,0.92937309336229723,0.49889371476293887,0.63515478565991046,0.066481846277397727,0.25808165540408301,-0.41587587560258599,-0.41508657371765034,-0.24376998007973061,0.6884906345991455,0.2920732630095666,0.86156984169721551,-0.2729083033425268,-0.47529272651183763,-0.1926550953393289,-0.75761175555455362,0.72107582361610834,-0.26800117818842129
0.0037716875192363997,0.10633372067918434,-0.87374807242673302,0.65874164050938022,-0.26757203401634055,-0.4324212954892126,0.0027089950107672678,0.012333846192476461,-0.71846311354013936,0.55370608152212752,0.8637358108778983,-0.33970246999312081,0.55984037972757794,0.56189234806235344,0.21959324419166659,-0.24197665830205284,0.86667021329498062,-0.86728681268256347,0.091709748706210625,0.74418955821038923,-0.84143917448991834,-0.69106708453849031,0.75760544361918924,0.73290432241378012,0.42662517361557528,-0.29404749914721995
-0.80318343543534154,0.98525600688588444,0.64325493903287323,-0.32520039500815723,-0.55623654029679059,0.54448271761481926,-0.96687799389147999,0.85971579413853805,0.22934723901789345,-0.64940488868820867,0.96140907625233551,-0.66957030555008212,0.48890547363941339,0.08261870145260608,0.69670941546543674,0.92201938555579566,0.99891141172297804,0.74753114819519539,-0.40694589335941633,-0.6702320238869961,-0.75848288658490337,-0.63201357424141458,-0.34490723457256678,0.353653116670676,0.11159108569189913,0.090643875685510578
