0.29144192738773,0.34241232731221394,0.89883397513053342,-0.49851544722319541,0.93506523016350163,0.1609802592171754,-0.27108063065271315,0.98117998598589762,0.2216235035085139,-0.21921429259044856,0.80953460564178892,0.19595779734470464,0.035334959422196999,-0.13357283980386647,-0.30770958036018725,0.035206121363598575,-0.5178628454119103,0.5865556642212284,0.45771864954603014,0.38460063928558785,-0.31500950346294143,-0.63768692875108113,0.23836734385021097,0.6938693181715172,-0.0722138312603815,-0.70127331563720263
-0.23824477979310332,0.42208145408637177,-0.48703620396969893,-0.76620947301190601,0.98719599053630214,-0.75877445751813855,0.73116542293896392,0.70634221499963878,-0.24909997915994575,-0.092121526890699856,0.80506111483450682,-0.88137726411548867,-0.24862951479792983,-0.88363940877719727,-0.09988743812359191,0.5290937643127307,0.91416980951589366,-0.62229974642109531,-0.83421595466336784,0.27564351023180311,0.53552248527871904,-0.066165654759488213,0.91295785193775103,0.76108988988895798,0.50918787501610208,-0.47183143426708152
-0.33206731945221235,-0.58713433917735869,-0.38472377582979189,-0.24252502444303703,-0.56614330663546353,-0.32153535041286618,0.28583477188436923,-0.7707810581846577,0.53773007195703904,0.15458715249745758,0.87151651884893511,0.21889054573519107,-0.67689414739222853,-0.42508950590308681,-0.16101802061522852,0.13991546358518292,0.21928147818794863,-0.092176851369841106,-0.062845651901455302,0.59811437187279815,-0.70158679065001883,-0.6342694160575737,0.014833701490645002,0.8035880623725844,-0.10472044037140238,-0.085259728098558307
-0.31289197595324225,0.50028693739546481,0.81272179302769798,0.52617617119790761,-0.37762963371029623,-0.07459036708707556,-0.71477286644292137,0.20142255680724497,-0.6935688394614814,-0.089664651045775035,0.76187672110426674,-0.47065827758536605,0.29839363913180805,-0.58860189768693427,-0.10269854467232342,0.70250440943770931,0.25070343873230505,-0.55856165574780015,-0.001103002252119456,0.16917786831664117,0.57367036020772444,0.34385698283354826,-0.24691469631118834,0.20256197984488811,-0.66540922283299064,-0.93797652606792559
