0.29144192738773,-0.91779598712919275,0.39752284844132024,0.48046957591886574,0.32442186823962427,0.68613858362710944,-0.78316227847657882,-0.69618145331260584,-0.16585190075220591,-0.69509330637608469,0.80953460564178892,0.19595779734470464,0.035334959422196999,0.36225654795055839,0.53324103094343922,0.37764548990408509,-0.5178628454119103,0.5865556642212284,-0.75126151901428195,0.025247778907766083,-0.31500950346294143,-0.63768692875108113,0.23836734385021097,0.060770829322642106,0.16711747581098368,0.52549728513550731
-0.23824477979310332,0.29241113542708885,0.9779564967678962,-0.76620947301190601,-0.10377517458970598,-0.91968140635267748,0.94298467153549081,0.74162914141069614,-0.42273153432736632,-0.051080159211520204,0.71793522549732169,-0.88137726411548867,-0.24862951479792983,0.2956025733143528,-0.09988743812359191,0.5290937643127307,0.94592432133755677,-0.62229974642109531,0.32606210718630813,0.27564351023180311,0.51757279851917048,0.27683155967135309,-0.11854061976326524,0.2933384898781386,0.60417252878132444,0.96317393418558805
-0.032571290713625745,-0.58713433917735869,-0.38472377582979189,0.66065318202547418,-0.56614330663546353,-0.32153535041286618,0.28583477188436923,-0.7707810581846577,0.96404226076342625,0.95903056598087688,-0.2471264720253632,-0.13860571592835402,0.98886411063915336,-0.90674883418066554,-0.16101802061522852,0.13991546358518292,-0.26809616586273055,-0.092176851369841106,0.94579152297887492,-0.088022163316706648,-0.1239294879970001,0.7721748759234397,0.014833701490645002,0.43102088477513623,-0.10472044037140238,-0.085259728098558307
-0.31289197595324225,0.017821268388463318,-0.69208433342021869,0.52617617119790761,-0.37762963371029623,-0.07459036708707556,0.90243884225134141,0.20142255680724497,0.61759495643599127,-0.089664651045775035,0.76187672110426674,-0.047330690622908289,-0.66282205438852371,-0.53394609341937449,0.71639887628769894,0.51651180155024146,0.25070343873230505,0.62412734022408922,-0.001103002252119456,0.50987554269650159,0.2942050193234742,-0.027291471256590594,-0.65464666008232908,-0.61251238018683174,-0.66540922283299064,-0.43330173771980629
