0.29144192738773,-0.087029945972882938,0.39752284844132024,0.48046957591886574,0.32442186823962427,0.68613858362710944,-0.85379066507076407,-0.69618145331260584,0.2216235035085139,-0.69509330637608469,-0.9450171595856911,0.19595779734470464,0.035334959422196999,0.36225654795055839,-0.30770958036018725,0.37764548990408509,-0.5178628454119103,0.5865556642212284,0.93847583703783122,0.025247778907766083,-0.31500950346294143,-0.63768692875108113,0.64059138880073685,0.060770829322642106,-0.34153908344749695,-0.13909978763708608
-0.23824477979310332,0.29241113542708885,0.38952025277533742,-0.76620947301190601,-0.10377517458970598,-0.34694281699828378,0.94298467153549081,0.74162914141069614,0.71780287455767677,-0.051080159211520204,0.4936647417605915,-0.88137726411548867,-0.24862951479792983,-0.46965122725439445,-0.09988743812359191,0.5290937643127307,0.94592432133755677,-0.62229974642109531,-0.83421595466336784,0.27564351023180311,0.53552248527871904,0.27683155967135309,-0.084490583264092534,0.76108988988895798,0.69272592914112918,0.80702501916142122
-0.032571290713625745,-0.58713433917735869,-0.38472377582979189,0.14785730907930539,0.27210574926343556,-0.33216082176618555,0.28583477188436923,-0.7707810581846577,0.96404226076342625,0.84247947596127126,0.70900023531551049,-0.13860571592835402,-0.56987795104125971,-0.90674883418066554,-0.89873474876641213,0.28849094636508532,-0.26809616586273055,-0.092176851369841106,0.94579152297887492,-0.088022163316706648,-0.1239294879970001,-0.6342694160575737,0.014833701490645002,0.43102088477513623,-0.10472044037140238,-0.085259728098558307
-0.31289197595324225,0.73495176844989363,0.36769288000271594,0.52617617119790761,-0.37762963371029623,-0.07459036708707556,0.90243884225134141,-0.16975865317579686,0.61759495643599127,-0.089664651045775035,0.32296820755544964,-0.47065827758536605,-0.98318045392725639,-0.53394609341937449,0.97727660840047159,0.14904925711531947,-0.34093840778227302,0.62412734022408922,-0.001103002252119456,0.50987554269650159,0.2942050193234742,-0.027291471256590594,-0.65464666008232908,-0.61251238018683174,-0.66540922283299064,-0.43330173771980629
