-0.90956079503907383,0.43497770478380238,0.39752284844132024,0.0017483808769309661,0.32442186823962427,-0.31433255369250057,-0.59603102927437468,-0.69618145331260584,0.2216235035085139,-0.69509330637608469,0.80953460564178892,0.19595779734470464,0.16713303268213031,-0.061103567540722104,0.81486781206440262,0.37764548990408509,-0.67152974778310748,0.5865556642212284,0.93847583703783122,-0.7082081580917019,-0.31500950346294143,-0.63768692875108113,0.61335287458699073,-0.11468474377767035,-0.34153908344749695,0.52549728513550731
0.76882990629726122,0.29241113542708885,0.38952025277533742,-0.76620947301190601,-0.10377517458970598,0.57368390108252654,-0.58452116904475582,-0.49016712685429931,-0.9380036950629298,-0.54733274421888134,0.05729550729990418,-0.88137726411548867,-0.24862951479792983,-0.46965122725439445,-0.49885318499464226,-0.44199791298316415,0.33911354966348362,-0.62229974642109531,-0.18334307837057207,0.31107427690449985,-0.97806608602569978,0.27683155967135309,-0.11854061976326524,-0.69132210271527916,-0.89166236133488219,0.80702501916142122
-0.032571290713625745,-0.58713433917735869,-0.38472377582979189,-0.66932947959154077,-0.16468223949411254,-0.32153535041286618,0.28583477188436923,-0.7707810581846577,0.96404226076342625,0.70862778541612581,-0.2471264720253632,0.32819528632788342,-0.48095715814135143,-0.90674883418066554,0.53375443180257132,0.56104926634244023,-0.26809616586273055,-0.092176851369841106,0.94579152297887492,-0.088022163316706648,-0.1239294879970001,-0.222285545823665,0.014833701490645002,0.43102088477513623,-0.48711782179649776,0.59970539861086491
-0.31289197595324225,0.99880831320724073,-0.69208433342021869,0.52617617119790761,-0.37762963371029623,-0.028125533873314179,-0.18958231653296687,-0.018328077246125396,-0.24403850284307183,-0.089664651045775035,0.51217107949582852,-0.96852257698052813,0.84519627929855456,-0.53394609341937449,0.52962826676101415,-0.36644119422690746,-0.25945037393939785,-0.093964838963332298,-0.001103002252119456,0.91443561836744691,0.2942050193234742,0.36002642305070998,-0.19770458786174405,-0.61251238018683174,-0.26002436346227009,-0.82475760528322439
