0.29144192738773,0.37976432242439895,-0.62883933278421011,0.48046957591886574,0.32442186823962427,0.68613858362710944,-0.055027613815894938,-0.69618145331260584,0.2216235035085139,-0.69509330637608469,0.80953460564178892,-0.44337780211107236,0.035334959422196999,0.36225654795055839,-0.69229818402353738,0.37764548990408509,0.30358387595021097,-0.97017970868391146,0.93847583703783122,0.025247778907766083,-0.31500950346294143,-0.63768692875108113,0.23836734385021097,0.095971032986323035,-0.80671753536780488,0.52549728513550731
-0.23824477979310332,0.29241113542708885,0.57833376709678941,-0.76620947301190601,-0.10377517458970598,-0.91968140635267748,0.94298467153549081,-0.49016712685429931,-0.32822766665255143,-0.051080159211520204,0.05729550729990418,-0.88137726411548867,-0.24862951479792983,-0.46965122725439445,-0.49885318499464226,0.1206094594893834,0.33911354966348362,0.092833040600548422,-0.18334307837057207,-0.15143199056382906,-0.96474402597767828,0.27683155967135309,-0.11854061976326524,-0.69132210271527916,0.67543284555718874,0.80702501916142122
-0.032571290713625745,-0.58713433917735869,-0.38472377582979189,-0.70173103365635492,-0.14405243905238185,-0.32153535041286618,-0.3165423501065574,-0.7707810581846577,0.96404226076342625,0.70862778541612581,-0.2471264720253632,0.32819528632788342,-0.56987795104125971,-0.0035826655364357141,-0.16101802061522852,0.56104926634244023,-0.17721223721287771,-0.092176851369841106,0.94579152297887492,-0.088022163316706648,-0.77216617713184799,-0.222285545823665,0.014833701490645002,0.94075693419033812,-0.10472044037140238,-0.085259728098558307
-0.54069084198691253,0.99880831320724073,-0.69208433342021869,0.68643941881179726,-0.37762963371029623,-0.07459036708707556,-0.44333816221468636,-0.018328077246125396,-0.24403850284307183,-0.089664651045775035,0.51217107949582852,-0.47065827758536605,-0.66282205438852371,-0.53394609341937449,0.52962826676101415,-0.36644119422690746,0.25070343873230505,0.96159530500287271,-0.001103002252119456,0.50987554269650159,0.2942050193234742,-0.027291471256590594,0.45594163851471392,-0.61251238018683174,-0.66540922283299064,0.28865133976375001
