0.29144192738773,-0.087029945972882938,0.39752284844132024,0.48046957591886574,0.32442186823962427,0.68613858362710944,-0.59603102927437468,-0.69618145331260584,0.2216235035085139,-0.69509330637608469,0.80953460564178892,0.94000177633209958,0.035334959422196999,0.36225654795055839,0.81486781206440262,0.46544943403574979,-0.99050563099743449,0.5865556642212284,0.93847583703783122,0.025247778907766083,0.56375811081748695,-0.57387551782882507,0.16615431844185746,-0.74632768240981173,-0.34153908344749695,0.52549728513550731
-0.23824477979310332,0.29241113542708885,0.38952025277533742,-0.76620947301190601,0.77559521091440042,-0.91968140635267748,0.85873722289115273,0.65468514574377124,-0.42273153432736632,-0.99386971216814568,0.05729550729990418,-0.88137726411548867,-0.9056675969607586,-0.46965122725439445,0.75591943405081774,0.1206094594893834,-0.33251510829837416,0.58215119603637411,0.21250846962511249,-0.15143199056382906,-0.7420717232081504,0.27683155967135309,-0.019855128963452984,0.26181681099149201,0.69272592914112918,0.80702501916142122
0.64971064790920874,0.67788394427435295,-0.38472377582979189,0.79505222730175573,0.29752400324240358,-0.32153535041286618,0.30945438494448152,-0.7707810581846577,0.15722456235094473,-0.38353783910892059,-0.2471264720253632,0.73402846201714111,-0.22435513188549083,-0.42068833792068183,-0.16101802061522852,0.56104926634244023,-0.27626883497500421,-0.7934125246179804,0.94579152297887492,-0.088022163316706648,0.57183968579538003,-0.222285545823665,-0.89362776812726241,0.053495895568975271,-0.10472044037140238,-0.77354236211210381
0.38597202804079056,-0.89410591064753819,-0.69208433342021869,-0.4896530604215541,-0.37762963371029623,-0.07459036708707556,0.47314814966535645,-0.018328077246125396,0.11298814601176899,-0.089664651045775035,0.51217107949582852,-0.47065827758536605,-0.66282205438852371,-0.53394609341937449,0.52962826676101415,-0.36644119422690746,0.25070343873230505,0.96159530500287271,-0.99144800575569358,0.50987554269650159,0.2942050193234742,-0.027291471256590594,-0.35327402528215757,0.32589113921868584,0.1553403678136358,0.095919729019426914
