0.29144192738773,0.81411717881471257,0.39752284844132024,0.48046957591886574,-0.14459910014541744,0.68613858362710944,-0.59603102927437468,-0.69618145331260584,-0.39041179073348875,-0.69509330637608469,0.80953460564178892,0.41840398273824708,0.035334959422196999,0.36225654795055839,-0.037399907336079563,0.30826764523366101,-0.99050563099743449,-0.75534784516715825,0.80169618082586047,-0.39491329029142586,0.56375811081748695,-0.63768692875108113,0.23836734385021097,-0.74632768240981173,-0.34153908344749695,-0.17702731011968154
-0.012161843656198323,0.29241113542708885,0.38952025277533742,-0.76620947301190601,0.77559521091440042,-0.91968140635267748,-0.73963445297291019,-0.49016712685429931,-0.42273153432736632,-0.99386971216814568,0.05729550729990418,-0.88137726411548867,-0.24862951479792983,0.74482390141283084,-0.49885318499464226,0.1206094594893834,-0.87939046329388959,0.58215119603637411,-0.18334307837057207,-0.15143199056382906,0.74382506585826746,0.27683155967135309,-0.019855128963452984,0.22194691144446677,0.69272592914112918,0.80702501916142122
-0.9274605600761181,-0.3419313559853272,-0.38472377582979189,0.79505222730175573,0.11146182578191555,-0.32153535041286618,0.28583477188436923,-0.7707810581846577,0.20294768741131319,-0.38353783910892059,-0.2471264720253632,-0.52904645929776373,-0.56987795104125971,-0.90674883418066554,-0.16101802061522852,0.56104926634244023,-0.27626883497500421,0.058261382587583732,0.98294957636991942,0.81114490555820939,-0.076197650994830779,-0.222285545823665,0.014833701490645002,-0.8487122416547388,-0.10472044037140238,-0.085259728098558307
0.38597202804079056,0.99880831320724073,-0.69208433342021869,-0.2620665883184301,-0.37762963371029623,-0.07459036708707556,0.90243884225134141,-0.018328077246125396,-0.5259446115023465,-0.089664651045775035,0.51217107949582852,-0.47065827758536605,-0.66282205438852371,-0.69525861123987998,0.89448155619379488,0.13883915827633064,0.25070343873230505,0.96159530500287271,-0.99144800575569358,0.50987554269650159,0.2942050193234742,-0.027291471256590594,-0.19770458786174405,0.32589113921868584,0.1553403678136358,0.095919729019426914
