0.29144192738773,-0.97662079822076642,-0.98810733246611204,0.48046957591886574,0.32442186823962427,0.68613858362710944,-0.59603102927437468,0.094367810924310458,0.2216235035085139,-0.69509330637608469,0.80953460564178892,0.19595779734470464,0.035334959422196999,0.36225654795055839,0.015925153585266472,0.093585333742356447,0.12477985972131345,0.56310828362019238,0.93847583703783122,0.025247778907766083,0.56375811081748695,-0.63768692875108113,0.23836734385021097,-0.74632768240981173,0.72260177774691758,0.52549728513550731
-0.23824477979310332,0.29241113542708885,0.67787830065932297,-0.76620947301190601,0.77559521091440042,-0.91968140635267748,0.94298467153549081,0.363340951077052,0.81435411644564559,-0.99386971216814568,0.05729550729990418,-0.88137726411548867,-0.24862951479792983,-0.46965122725439445,-0.49885318499464226,0.1206094594893834,0.019680993670715408,0.64206279099304275,-0.18334307837057207,-0.047981322719098607,0.74382506585826746,0.27683155967135309,-0.019855128963452984,-0.69132210271527916,0.69272592914112918,0.80702501916142122
-0.032571290713625745,-0.3419313559853272,-0.38472377582979189,0.093869793241760702,-0.56614330663546353,-0.32153535041286618,0.28583477188436923,-0.7707810581846577,0.15722456235094473,-0.38353783910892059,-0.2471264720253632,-0.52904645929776373,-0.56987795104125971,-0.90674883418066554,-0.16101802061522852,0.56104926634244023,-0.27626883497500421,-0.34673665701148448,0.94579152297887492,-0.088022163316706648,0.57183968579538003,0.88357493084592509,0.014833701490645002,0.053495895568975271,-0.10472044037140238,-0.92406211361431123
-0.87349307583876068,0.99880831320724073,-0.69208433342021869,-0.94918273449680313,-0.37762963371029623,-0.07459036708707556,0.30728241753922436,-0.018328077246125396,-0.24403850284307183,0.50005141517292406,0.34801052198322324,-0.47065827758536605,-0.66282205438852371,-0.53394609341937449,0.52962826676101415,-0.36644119422690746,0.25070343873230505,0.96159530500287271,-0.15058753271576331,0.50987554269650159,0.43921068690234777,-0.027291471256590594,-0.19770458786174405,0.32589113921868584,0.1553403678136358,0.095919729019426914
