0.31517884725617917,-0.087029945972882938,0.39752284844132024,-0.83282102853568052,0.32442186823962427,0.68613858362710944,-0.59603102927437468,-0.69618145331260584,-0.35290801252103687,-0.69509330637608469,-0.83620127081708806,0.19595779734470464,0.035334959422196999,0.36225654795055839,0.81486781206440262,0.093585333742356447,-0.45068903899083312,0.82682008712264476,-0.012108123467970966,0.025247778907766083,0.56375811081748695,-0.63768692875108113,0.23836734385021097,-0.74632768240981173,0.048404737035087519,-0.50948657252015606
-0.23824477979310332,0.29241113542708885,0.38952025277533742,-0.76620947301190601,0.77559521091440042,0.56960270732143492,0.35228312142040186,-0.49016712685429931,-0.42273153432736632,-0.99386971216814568,0.24712535924856049,-0.3015612171521449,-0.24862951479792983,-0.66832643728124985,-0.49885318499464226,0.1206094594893834,-0.33251510829837416,-0.10717104148122036,-0.18334307837057207,-0.15143199056382906,-0.72856620793305815,0.27683155967135309,0.45090782555450915,-0.69132210271527916,-0.46978922360980047,0.80702501916142122
-0.032571290713625745,-0.3419313559853272,-0.38472377582979189,0.79505222730175573,0.058066893861823621,0.091394807356002916,0.28583477188436923,-0.7707810581846577,0.15722456235094473,-0.38353783910892059,0.90061978847070145,-0.79473774183015333,-0.56987795104125971,-0.90674883418066554,-0.16101802061522852,-0.68335945770467843,-0.27626883497500421,-0.34673665701148448,0.94579152297887492,-0.088022163316706648,0.57183968579538003,-0.222285545823665,0.014833701490645002,0.89572724711791896,-0.10472044037140238,-0.085259728098558307
0.97181071033456257,0.99880831320724073,-0.69208433342021869,-0.4896530604215541,-0.37762963371029623,-0.69219584582372273,-0.92408368602212931,-0.018328077246125396,-0.24403850284307183,-0.9529993464253006,0.51217107949582852,-0.47065827758536605,-0.66282205438852371,-0.53394609341937449,0.52962826676101415,-0.36644119422690746,0.25070343873230505,0.96159530500287271,-0.71950076899344473,0.50987554269650159,0.2942050193234742,-0.027291471256590594,-0.19770458786174405,0.32589113921868584,0.1553403678136358,0.095919729019426914
