0.29144192738773,-0.87658733376153353,0.050970160605587012,-0.6203930717212478,0.32442186823962427,0.68613858362710944,-0.59603102927437468,-0.69618145331260584,0.23443948827173022,-0.69509330637608469,-0.085442164820930255,-0.62607012130053219,0.035334959422196999,0.36225654795055839,0.81486781206440262,0.093585333742356447,-0.99050563099743449,0.5865556642212284,0.66068487100235451,0.025247778907766083,0.56375811081748695,-0.81013348330870216,0.23836734385021097,-0.74632768240981173,-0.34153908344749695,0.52549728513550731
-0.23824477979310332,0.29241113542708885,0.38952025277533742,0.53514741602994453,-0.28656085243764506,-0.91968140635267748,0.46548809695003346,0.49083619268554668,-0.094225648004924611,-0.99386971216814568,0.05729550729990418,-0.88137726411548867,-0.24862951479792983,-0.46965122725439445,-0.49885318499464226,0.1206094594893834,0.38494122322617286,-0.40668034965506727,-0.18334307837057207,0.36291332209940275,0.74382506585826746,0.47307817637713834,-0.019855128963452984,0.70823550583473738,0.69272592914112918,-0.31376465853485458
-0.40851816095920301,-0.3419313559853272,-0.58931137297295488,-0.7132196535635813,-0.56614330663546353,0.52453135428179354,0.28583477188436923,-0.7707810581846577,0.15722456235094473,0.0061342304037590445,-0.2471264720253632,-0.52904645929776373,-0.56987795104125971,-0.76104466562111739,-0.16101802061522852,-0.88299332082130744,-0.27626883497500421,-0.34673665701148448,0.94579152297887492,-0.088022163316706648,0.57183968579538003,-0.222285545823665,-0.62114040085137412,0.81671139553969674,0.23324536682362473,-0.085259728098558307
-0.70839794811134871,0.99880831320724073,-0.23023256480878418,-0.4896530604215541,-0.37762963371029623,0.57613668382298733,-0.82785678706288035,-0.38706810216764764,0.88021239289845532,-0.089664651045775035,0.79611569582160602,-0.47065827758536605,-0.66282205438852371,-0.53394609341937449,0.079834506238824599,-0.36644119422690746,-0.36791861306217144,0.21888828284233974,-0.99144800575569358,-0.85672716449631281,0.2942050193234742,0.51663212494068889,-0.19770458786174405,0.32589113921868584,0.85253052468005386,0.095919729019426914
