0.29144192738773,0.060801795516562063,-0.010958234703057679,0.017521524986527259,0.32442186823962427,0.38966597258215097,-0.58373501485359469,-0.69618145331260584,-0.41691311440880585,-0.69509330637608469,-0.11138183170252147,-0.70371131491487882,0.035334959422196999,0.29756526675485295,-0.9610541017106744,0.093585333742356447,-0.99050563099743449,-0.97194634564269156,0.93847583703783122,0.9686843354587189,0.56375811081748695,-0.29673549635076424,0.23836734385021097,-0.78011548896010274,-0.34153908344749695,0.52549728513550731
-0.23824477979310332,-0.82393118356816464,-0.39969769892568752,0.56938867406390248,0.23465127037596978,-0.059488042887007486,0.46548809695003346,0.66237009909501365,-0.82592756355226804,-0.99386971216814568,-0.26110228332907903,-0.88137726411548867,-0.24862951479792983,0.76782858920031694,-0.49885318499464226,0.49242961497328963,0.38494122322617286,0.58215119603637411,-0.18334307837057207,-0.28129419772057118,-0.011183598893332203,0.27683155967135309,-0.019855128963452984,0.70823550583473738,0.69272592914112918,-0.31376465853485458
-0.032571290713625745,0.96882474856927137,-0.58931137297295488,-0.7132196535635813,-0.56614330663546353,-0.32153535041286618,0.28583477188436923,-0.7707810581846577,0.15722456235094473,-0.96374364955810354,-0.2471264720253632,0.48752275214708951,-0.56987795104125971,0.68664752909949645,-0.16101802061522852,-0.22901675406234556,-0.27626883497500421,-0.34673665701148448,0.94579152297887492,-0.088022163316706648,0.57183968579538003,-0.94338058427515481,0.79877325629223472,0.3987170228186816,-0.10472044037140238,0.82926976899387039
0.38597202804079056,0.99880831320724073,0.48270938847682365,-0.4896530604215541,-0.37762963371029623,0.284784874768093,0.90243884225134141,-0.018328077246125396,0.85348066334609718,-0.089664651045775035,0.11596242773830823,-0.47065827758536605,0.55585707036986176,0.99176561443689404,0.079834506238824599,0.27127115461672835,0.25070343873230505,-0.12967906435631282,-0.99144800575569358,-0.94653898766546196,-0.7002825696198729,0.51663212494068889,-0.96702472119209748,-0.74622656735293402,-0.86448401829163934,0.095919729019426914
