-0.50888363684078031,-0.42046764772732192,-0.95167528369213783,0.68355986377350164,0.89578031339982256,-0.65039222896511362,-0.41832570592518059,-0.37245964271429211,-0.66652312437914651,0.83362618322424131,0.29204471066447879,0.70847909112735086,-0.45158943932772888,0.30207435500677149,0.85867639679858931,-0.15910082346251198,0.62886533656785959,-0.87772421123752364,-0.95023496039952238,-0.053226587419648697,0.53125887551712192,0.79964610904453526,0.96136685519847376,0.51159433796284626,-0.046767205929083566,-0.70718455992991536
-0.66779899275171584,0.048603778334439518,0.023280358223558562,-0.89909362699477136,0.85809072772826567,0.982366114093705,0.70842107344741345,-0.39215266166988494,0.087641719777749261,0.21623697697991218,-0.059624240941498208,-0.86629836612178757,-0.25484100011511202,-0.50588478671830828,0.63864584612571806,0.80664579575972817,-0.31348207921372362,0.14306440066419568,-0.45004212241027686,-0.77865093367071769,0.92538401483798549,0.92798207797892673,0.42685362947155481,-0.15791682627070802,-0.9138861221127843,0.36331876161817678
-0.19761760831136277,-0.7730080648207871,-0.15336697004012811,-0.80247511693664686,0.20027897954982987,0.3714301937246387,-0.53491541487297933,0.48751286310847375,-0.99349538824396966,0.69188104921647531,0.048516590670090842,0.35180530893439266,-0.30391775139630561,-0.75467286415214452,0.85273537260858889,0.36243215054920874,-0.077085549339245718,0.73642240566494355,0.034089332791642946,-0.82462313274030841,0.43581568022326778,0.17392385452292847,0.95349080256283525,-0.59250441550615207,-0.11308952060886734,-0.19276458853706213
-0.017649761599525693,0.44333352238047241,0.12236717015646215,-0.62576872391775296,-0.78423393522528273,0.86588681431531445,0.21412012778233058,0.24662854414486635,0.59018408914398957,-0.62988571484409461,-0.14504895951217844,-0.25580225924839994,-0.75756541767649122,0.28680703926273976,0.96705117592399326,-0.12890087069389433,0.32256654365779225,-0.20305997252481256,0.4492409441432843,-0.35310754527249411,0.80930283217612575,-0.83773141512932447,-0.036414885015680909,0.77061882727267017,0.59681611348435193,0.99993961802899722
