0.29144192738773,-0.49516149214769811,0.050970160605587012,-0.29206285338411697,0.32442186823962427,0.38966597258215097,-0.061321207860371763,-0.69618145331260584,-0.65893928292686565,-0.69509330637608469,0.53954900162962049,-0.58464981812620964,-0.0091228235165230487,-0.041544943170762183,-0.9610541017106744,0.093585333742356447,0.66752457199955195,-0.82574532079346952,0.39108723659124611,0.43534682826681737,-0.24437915125201859,-0.29673549635076424,0.23836734385021097,0.24397091698529749,-0.34153908344749695,0.52549728513550731
0.83045415878046214,0.2056811120678701,0.38952025277533742,0.56444943886997057,0.77559521091440042,-0.059488042887007486,0.84825287403464467,0.49083619268554668,0.65320352331181231,-0.99386971216814568,-0.26110228332907903,-0.88137726411548867,-0.24862951479792983,0.56420081242712583,-0.49885318499464226,0.10190840386829403,0.38494122322617286,0.58215119603637411,-0.18334307837057207,0.37360218538234702,-0.75386930461279444,0.27683155967135309,-0.019855128963452984,0.70823550583473738,0.69272592914112918,-0.31376465853485458
-0.032571290713625745,-0.92531859996466648,-0.58931137297295488,-0.7132196535635813,-0.56614330663546353,-0.32153535041286618,-0.097123737030104351,-0.68409657855688066,-0.68430435365109599,0.090639528611520692,0.046426894501345517,0.48752275214708951,0.4910342016926339,0.68664752909949645,-0.16101802061522852,0.84684340234559485,-0.27626883497500421,0.39676770801886518,0.94579152297887492,-0.52419699538726272,-0.35716167064415516,-0.19463979939665843,-0.52327916774089611,-0.97419557300294857,-0.10472044037140238,-0.7915058691161605
-0.57270902847526139,0.99880831320724073,0.48270938847682365,-0.4896530604215541,-0.47414886957974578,-0.12126491604671963,0.90243884225134141,-0.018328077246125396,0.85348066334609718,-0.93036892918294911,0.11596242773830823,-0.47065827758536605,0.55585707036986176,-0.4875359571254827,0.079834506238824599,0.27127115461672835,0.76442509126009761,-0.12967906435631282,-0.99144800575569358,-0.59345075915347012,-0.26243240986458294,-0.81984757090859595,-0.96702472119209748,0.84448287747715622,-0.64332070083601889,0.14337714618833197
