0.89257322100778858,0.044241207604277522,0.050970160605587012,-0.39991963845973566,-0.64844614812995616,0.38966597258215097,-0.46261160257927458,-0.69618145331260584,0.66803989384157414,-0.60711034092807692,-0.71198325338059987,-0.58464981812620964,-0.84568962796262515,-0.88432870691251741,0.94724350498884236,-0.17358835611306311,-0.45474500866397038,0.67466001942656351,0.39108723659124611,-0.48214257105077185,0.45058207773102121,-0.29673549635076424,0.87894022283565199,0.24397091698529749,-0.34153908344749695,0.52549728513550731
0.91124516918938991,-0.82393118356816464,0.38952025277533742,0.56938867406390248,-0.40447401933866267,-0.63779336704794742,-0.86727237576172644,0.29368189788171506,-0.36172320243949896,-0.11293859812823581,0.3758268060489931,-0.81354773570544303,-0.24862951479792983,-0.31520745254965221,-0.49885318499464226,0.10190840386829403,0.38494122322617286,0.55433813210057448,0.05165920054140094,0.96569645267124948,0.48608999351137894,0.27683155967135309,-0.68072056738315201,0.70823550583473738,0.69272592914112918,-0.26468353958753399
0.0037716875192363997,-0.6383171936318397,-0.58931137297295488,-0.7132196535635813,0.13656198976955269,0.82589972627322994,0.53831294547534347,-0.46421791918747224,-0.68430435365109599,-0.98004174573129399,-0.37123734429154354,0.20952719842581424,0.4910342016926339,0.68664752909949645,0.069954341217970839,-0.4342976777539731,-0.11578650658860057,0.39676770801886518,-0.49570439061574167,-0.52419699538726272,0.9773682998575195,0.46384573858962885,0.95133183892325013,0.4312928974010426,-0.27658626053035817,-0.085259728098558307
-0.90423992402202868,-0.46027835432187536,-0.012691326929348712,0.87216150212416754,0.24182240779580444,-0.12126491604671963,-0.47834357089143165,-0.88185055057140938,0.85348066334609718,0.53779966592380135,0.11596242773830823,0.27566388230714578,0.60387250255042346,-0.4875359571254827,-0.53410806590308502,0.27127115461672835,0.16286449870723119,-0.12967906435631282,-0.99144800575569358,0.0051648843515201825,0.53202221865426602,-0.81984757090859595,-0.91178152146833513,-0.1391050337861055,-0.64332070083601889,0.37842943425982511
