-0.76974706854491348,-0.0012425347262978725,0.050970160605587012,0.993289951896146,-0.64844614812995616,0.38966597258215097,0.27224662759171525,-0.69618145331260584,-0.99790383444612241,-0.40403003367171197,-0.033926474277588659,-0.58464981812620964,-0.84568962796262515,0.96987846656330601,-0.9610541017106744,0.43203002056443118,-0.88379080102417706,0.39157596243472104,0.39108723659124611,-0.8431241581717821,0.45058207773102121,-0.29673549635076424,-0.99483246268183234,0.24397091698529749,-0.34153908344749695,0.52549728513550731
-0.98296722994679264,-0.82393118356816464,0.38952025277533742,0.56938867406390248,-0.22517876772770085,-0.059488042887007486,-0.86727237576172644,-0.79583539796177272,-0.36172320243949896,-0.99386971216814568,0.3758268060489931,-0.81354773570544303,-0.24862951479792983,-0.31520745254965221,-0.49885318499464226,0.10190840386829403,0.38494122322617286,0.55433813210057448,0.05165920054140094,0.37360218538234702,0.48608999351137894,0.27683155967135309,-0.019855128963452984,0.70823550583473738,-0.91341509427914169,-0.6851764430736953
-0.055964528430843208,-0.23123497697947126,-0.58931137297295488,-0.7132196535635813,0.13656198976955269,0.82589972627322994,0.53831294547534347,0.47939005673726021,-0.68430435365109599,0.090639528611520692,-0.2471264720253632,-0.4598268030009518,0.4910342016926339,0.68664752909949645,0.069954341217970839,-0.0051324082258663584,-0.27626883497500421,0.39676770801886518,-0.49570439061574167,-0.52419699538726272,0.9773682998575195,0.46384573858962885,0.8955530578338442,-0.97419557300294857,0.67290546492729719,-0.085259728098558307
-0.90423992402202868,-0.46027835432187536,-0.012691326929348712,0.87216150212416754,-0.084976264394667878,-0.12126491604671963,-0.47834357089143165,0.37136787745281663,0.85348066334609718,0.53779966592380135,0.11596242773830823,0.23921917823567207,-0.87149846181867141,0.77516011456896217,-0.83768187065680633,0.27127115461672835,0.88426292859076461,-0.12967906435631282,-0.99144800575569358,0.13429156939197484,0.53202221865426602,-0.81984757090859595,0.24126452895365103,-0.090507696700945051,-0.64332070083601889,-0.14313338488674221
