0.67120768968649713,0.044241207604277522,0.969505091346202,0.81568044449666055,-0.64844614812995616,-0.82303512099482945,0.27224662759171525,-0.88773355950765387,-0.99790383444612241,-0.60711034092807692,0.95819401716063424,-0.6213090554487013,-0.51048402082790689,-0.88432870691251741,-0.49255350030402356,0.29951318853509989,-0.13123902480972127,-0.32468306080249731,0.39108723659124611,-0.74322761776707891,-0.80036412720606309,-0.29673549635076424,-0.44944016178326085,0.98846274313681359,-0.9975516060457752,0.52549728513550731
-0.9497539071733061,0.96115002760322432,0.41421710112252708,0.56938867406390248,-0.47844279109063415,-0.059488042887007486,-0.22943183396018796,0.31613902927730986,0.90203960039201969,0.30189990100088471,0.62590972483757934,0.63515478565991046,0.35830989562106774,-0.31520745254965221,-0.9371316661187763,-0.77908526618640939,0.78389735500535851,0.55433813210057448,0.05165920054140094,-0.10242742781158132,0.48608999351137894,0.27683155967135309,-0.67832324790977139,0.70823550583473738,0.69272592914112918,0.82887729953764322
-0.54030618932639118,-0.23123497697947126,-0.35695419881947443,0.23704846908699939,0.13656198976955269,0.64935158329740816,0.53831294547534347,0.47939005673726021,-0.68430435365109599,-0.74083777713298526,0.74460528627481981,0.31432633773897778,0.61091855719129673,-0.59928338012304305,-0.60108770068991024,0.78653503083360388,-0.27626883497500421,0.066674813682560341,-0.55349526705638663,-0.52419699538726272,0.9773682998575195,0.9849630192722274,0.39475471789493422,0.22758439258739038,0.67290546492729719,0.3348512205162637
-0.034010463734405638,0.23808493363639927,-0.84671968509725515,-0.19976574205647513,0.75308610402933351,-0.37344884960295688,-0.47834357089143165,-0.018328077246125396,0.16607248591719426,0.6055971620563172,0.11596242773830823,0.85360600579171875,-0.40947021908972925,0.13339674250496891,-0.53410806590308502,0.38927206269167502,0.25070343873230505,-0.75311833450885413,-0.99144800575569358,-0.046619991190272936,0.80670626983486415,-0.81984757090859595,-0.91178152146833513,0.88296536876602305,-0.64332070083601889,-0.14313338488674221
