-0.05655488493289873,-0.098176347036790901,-0.48337352937522859,-0.95445775062134675,0.12922749293009828,-0.28231267857111741,-0.58161761128013123,0.94941397506138059,0.46842496213846108,-0.95507561243115102,0.64061981483270469,0.27113614116445084,-0.59162826348409547,0.21391970753500722,-0.60011768026940704,0.22358333578280742,0.25704212821137951,-0.15374924301591153,-0.8121961564693998,0.40688544193801413,-0.62493163600986978,-0.53283046888609276,0.5558221525532907,-0.001217548696405224,0.075215725376961196,0.25736710789230033
0.41374287683717093,0.4737642849270538,0.43750606022015548,-0.040385706386051767,-0.39163238400531686,0.14394668043356518,0.82433553195901599,0.34955346518980801,-0.54918027153132654,-0.38114395336221851,-0.7371824734514012,0.51280817179100646,0.51008116565862127,0.14486797392608053,-0.47449540833558834,0.64696453999603909,-0.83364943572148853,-0.96554758483692282,0.49864673134133786,-0.05957544905790213,0.30210039731405725,-0.14627593328055077,0.13467649742062315,-0.58853385922187385,0.048732879990011524,-0.098102911364571277
0.70320830345610008,-0.56976771607920074,-0.55310626704575627,-0.92222947753134599,0.53206146874814952,0.80676921554761094,0.35804258895879593,-0.90403008581551725,-0.16712993742102178,0.76144641502521226,-0.60136538334547773,-0.38867569906218091,0.50368228426416661,-0.04844005415553676,0.61053883743397974,0.013203942412084446,0.94473508857179156,-0.91063335373729903,0.20697806946609965,-0.95026535174877869,0.09187549202457701,-0.72147131737501002,0.50687127178867963,0.19894002482431761,0.33907038473297524,-0.86625078688232748
0.076443743897587346,0.44398988497783987,0.5830030262992687,0.301247180806679,0.46780476973904195,0.41491324625024073,-0.33514169327867571,0.1206230939339783,0.23655916128380605,-0.55139993838230716,-0.29705132646078214,0.26299670166614963,-0.29080626727547543,0.8632453663584152,0.99265781499246053,-0.63644278950169864,-0.78370227084648358,0.55897414983576055,-0.81349060734524437,-0.2901921071817597,-0.90917396285549801,-0.6527303889660323,-0.62534831899600274,-0.0054280874435783666,0.81296451464152164,-0.4444680347018144
