-0.76974706854491348,-0.52568541856076001,0.050970160605587012,-0.29206285338411697,-0.64844614812995616,0.40994073300776601,0.27224662759171525,-0.69618145331260584,-0.94958014597233786,0.072261020493460837,-0.8188486895012137,-0.58464981812620964,0.54558472608286501,-0.88432870691251741,-0.36387015813613921,-0.98840753513727186,-0.13123902480972127,-0.32468306080249731,0.39108723659124611,0.48117946150860424,-0.4207847955448667,-0.29673549635076424,-0.44944016178326085,0.24397091698529749,-0.34153908344749695,-0.9928126819731129
0.66632831296781059,-0.82393118356816464,0.6445308710281823,0.56938867406390248,0.9018381924896588,-0.059488042887007486,-0.89642055611570237,0.31613902927730986,-0.06171895815337014,-0.99386971216814568,0.3758268060489931,-0.81354773570544303,-0.83697744412575403,-0.31520745254965221,0.87850908581466358,0.10190840386829403,0.38494122322617286,0.55433813210057448,-0.84763569152830476,-0.2310309875352714,0.48608999351137894,0.27683155967135309,-0.67832324790977139,-0.18425161005418778,0.69272592914112918,0.82887729953764322
0.0037716875192363997,-0.23123497697947126,0.31872790522903394,-0.7132196535635813,0.13656198976955269,0.64935158329740816,0.53831294547534347,0.47939005673726021,-0.30948790213384125,0.090639528611520692,0.61759784929706729,-0.25221441051581794,-0.47342499909025126,0.26988900109169411,0.069954341217970839,0.90391964373572331,-0.98660830457509374,-0.80710667499120592,-0.49570439061574167,-0.52419699538726272,0.9773682998575195,0.025534691120741249,-0.64948826091126888,0.65996673164598896,-0.70592436319546636,-0.085259728098558307
-0.7596072826693816,0.23808493363639927,0.89120459564006449,0.87216150212416754,-0.33012243671451458,-0.51385074815432108,-0.42889149320956177,-0.018328077246125396,0.16607248591719426,-0.39002253985254876,0.11596242773830823,0.77935651175986265,-0.810970949553806,0.13339674250496891,-0.53410806590308502,0.24584987356008203,-0.78979115287636992,-0.75311833450885413,-0.99144800575569358,-0.046619991190272936,0.381823895303389,-0.81984757090859595,-0.92045811013604117,0.88296536876602305,-0.64332070083601889,-0.14313338488674221
