0.3629461355968493,0.044241207604277522,0.86708071989963198,0.81568044449666055,-0.64844614812995616,0.38966597258215097,0.27224662759171525,0.89901812883991084,-0.99790383444612241,-0.60711034092807692,-0.94405652127854922,-0.88838868050851794,-0.51048402082790689,-0.13662963429388819,-0.36387015813613921,0.42449006503713749,-0.13123902480972127,-0.32468306080249731,0.39108723659124611,-0.74322761776707891,-0.80036412720606309,-0.29673549635076424,-0.78068379558304435,0.24397091698529749,-0.83197684044138831,0.52549728513550731
0.66632831296781059,0.67439388699129577,0.39049921628900619,0.56938867406390248,-0.47844279109063415,-0.059488042887007486,-0.82137394299338662,0.31613902927730986,-0.06171895815337014,-0.38490610512909873,-0.054542042387059286,0.39894313086440447,0.35830989562106774,-0.31520745254965221,-0.49885318499464226,-0.77908526618640939,-0.63780825133943364,0.55433813210057448,0.05165920054140094,-0.2310309875352714,0.48608999351137894,0.27683155967135309,-0.67832324790977139,-0.79381085243393334,0.36888601643384389,0.82887729953764322
0.0037716875192363997,-0.76368097726592854,0.86576284425706551,-0.7132196535635813,0.13656198976955269,0.64935158329740816,0.53831294547534347,0.86797823840297528,-0.68430435365109599,-0.74083777713298526,0.3983422259797087,0.31432633773897778,-0.44825519395053859,-0.59928338012304305,0.069954341217970839,0.78653503083360388,-0.27626883497500421,0.066674813682560341,0.74106485680297607,-0.52419699538726272,-0.16261759711440171,-0.7032578888799812,0.39475471789493422,-0.97419557300294857,0.67290546492729719,-0.36831539501488852
-0.44690883883186805,0.23808493363639927,-0.071906775075389673,-0.19976574205647513,0.054466264769249095,-0.37344884960295688,-0.47834357089143165,-0.018328077246125396,-0.90133754916642794,0.6055971620563172,0.11596242773830823,-0.1909827459263207,-0.40947021908972925,0.13339674250496891,-0.53410806590308502,0.64279498957883985,0.32865778085885089,-0.75311833450885413,-0.99144800575569358,-0.046619991190272936,-0.2451348712459358,-0.81984757090859595,-0.91178152146833513,0.88296536876602305,-0.64332070083601889,-0.14313338488674221
