0.01554389142992374,0.044241207604277522,-0.27919126240907732,0.74231130295654157,-0.64844614812995616,0.38966597258215097,0.27224662759171525,0.053106968858798842,-0.99790383444612241,-0.60711034092807692,-0.033926474277588659,-0.6213090554487013,-0.51048402082790689,-0.88432870691251741,-0.36387015813613921,0.28067237013795432,-0.13123902480972127,-0.32468306080249731,0.39108723659124611,-0.14703087148394345,-0.80036412720606309,-0.79332030957424493,-0.6005446752485315,0.24397091698529749,-0.9975516060457752,0.5451451792804598
0.66632831296781059,-0.82393118356816464,-0.66551810653695886,-0.270019949757349,-0.47844279109063415,-0.059488042887007486,-0.85307718995685433,0.78354669069229721,-0.06171895815337014,0.30189990100088471,-0.054542042387059286,0.63515478565991046,0.35830989562106774,-0.31520745254965221,-0.49885318499464226,0.18774147554668952,0.53285118831942957,0.55433813210057448,0.05165920054140094,-0.67518558578509347,0.48608999351137894,0.27683155967135309,-0.67832324790977139,-0.98073418017128011,0.69272592914112918,0.82887729953764322
-0.56185797506005586,-0.23123497697947126,-0.84786285494693825,-0.7132196535635813,0.13656198976955269,-0.54591614824246415,0.42783810249960652,0.34877624743570679,-0.68430435365109599,-0.74083777713298526,0.74460528627481981,0.31432633773897778,-0.10997375310431479,-0.48256524736614081,0.52645997131460365,0.50379089820835166,-0.27626883497500421,0.74697651491136163,0.65336122491808157,-0.41787312957678635,0.84573452615714739,-0.7032578888799812,0.39475471789493422,-0.97419557300294857,0.67290546492729719,0.3348512205162637
-0.44690883883186805,0.79309496976961613,0.54906295549011741,-0.19976574205647513,0.75308610402933351,-0.12447758618073634,-0.19990285309061506,-0.75949544279081294,0.71572163199147165,-0.12808462499650419,0.87230702964487672,-0.1909827459263207,-0.40947021908972925,0.90216242914574174,-0.53410806590308502,0.64279498957883985,-0.32660117988899318,0.1836681638773785,-0.041557278699267952,-0.046619991190272936,0.53202221865426602,-0.81984757090859595,-0.91178152146833513,-0.67706025556625082,-0.64332070083601889,-0.14313338488674221
