-0.20690216335835832,-0.28585693416609614,0.42813821667056562,0.65969260389122586,0.6308227217110054,-0.51096930558192377,0.94630196113926912,-0.82979068814541601,-0.31155273787171578,0.074773463491694336,-0.08088727869973189,-0.022812161254548213,-0.08576796350560234,-0.56209720986740175,0.50081315230968371,0.91290947650181664,-0.012368246571016428,0.22876308551930546,-0.45031659201567109,0.16055010924361679,0.75849644961703211,-0.33030447569386379,0.28556563670609125,-0.25583050650248262,0.30416038147929725,0.38982570075621426
0.066667368516421854,0.3955680551450742,-0.61201696861704669,0.95013672496373203,0.44040912311375524,0.72760215679640106,-0.61878081911321425,0.26227232258684885,-0.22167327692762728,0.39290616548250412,0.9623685092077936,-0.82858953159189364,0.8297489037481367,0.42481375568540081,0.93441635135926226,0.10079113508033832,0.48626309674026547,-0.44866124319687573,-0.86049580997087238,-0.507240963225424,0.68187583049881639,0.50114649216077267,-0.10022016455713478,-0.40241509896964867,0.52851475835976691,0.12789556517615175
-0.78981630333843,0.24422029182080407,0.4734022794617383,-0.32292423965981087,-0.5864339946811612,-0.64366187024337274,-0.1066016105172527,0.40839827616298519,0.047669878043407277,-0.57073244136670676,-0.59273760262583064,-0.2334767789139367,-0.60121752761663361,-0.83680767974715664,-0.80568888141942296,0.54912391875305899,0.26944105423407194,0.65867154219433965,0.36127203872821734,0.69515105319831116,-0.25772447987342817,0.086009913152055528,0.49657834136739809,0.96768507529272907,-0.98521172886069119,-0.771998778831543
-0.63752091635226216,-0.58702867918686197,0.35041343938495007,-0.68136366472151577,-0.41550455723903923,-0.71039483785550739,0.72765332732575172,-0.64875035961773908,0.17045658770469441,0.49372582653100561,-0.80462226437066398,0.01239012619168256,-0.47375602353130697,-0.066576047037083752,-0.05802014958478896,0.91871309223654696,0.70915556785877154,-0.054309202714363902,-0.98301626901851424,-0.28990511838795574,0.46907049953598046,0.14046838810116302,-0.55677616888795645,-0.68710673370248188,0.42830565372427909,0.35682838323814159
