0.01554389142992374,0.044241207604277522,0.050970160605587012,0.74231130295654157,-0.091801807028212723,0.38966597258215097,0.37819593829860021,-0.88773355950765387,-0.99790383444612241,0.10664387702149791,-0.033926474277588659,-0.6213090554487013,0.37210223708303136,-0.88432870691251741,-0.36387015813613921,0.28067237013795432,0.71997507475131317,0.17503126569716265,0.39108723659124611,-0.14703087148394345,-0.80036412720606309,-0.29673549635076424,0.96420024773721114,0.24397091698529749,-0.9975516060457752,-0.21592219671561819
0.66632831296781059,-0.82393118356816464,-0.66551810653695886,0.087791193458043315,-0.47844279109063415,0.15736640815435399,-0.85307718995685433,0.31613902927730986,-0.06171895815337014,0.0056555465089234147,-0.054542042387059286,0.63515478565991046,0.35830989562106774,-0.31520745254965221,-0.49885318499464226,0.18774147554668952,-0.63780825133943364,0.55433813210057448,0.05165920054140094,-0.67518558578509347,0.48608999351137894,0.27683155967135309,-0.67832324790977139,-0.53127668244887349,0.69272592914112918,0.35178517312436175
0.0037716875192363997,-0.23123497697947126,-0.33560787922393853,-0.7132196535635813,0.13656198976955269,-0.54591614824246415,-0.62621459380270283,0.34877624743570679,-0.68430435365109599,-0.74083777713298526,0.74460528627481981,0.27591646810143566,-0.10997375310431479,-0.59928338012304305,0.52645997131460365,0.50379089820835166,-0.27626883497500421,-0.42482281592079452,0.65336122491808157,-0.52419699538726272,-0.6314691991101804,0.85143068749683581,0.39475471789493422,0.58761034325757988,0.67290546492729719,0.3348512205162637
0.90977683107266816,0.23808493363639927,0.54906295549011741,-0.19976574205647513,0.75308610402933351,-0.12447758618073634,0.99754404632846105,-0.018328077246125396,0.70105054630033403,0.89626920226996876,0.87230702964487672,0.59981184725188164,-0.40947021908972925,0.90216242914574174,-0.53410806590308502,0.64279498957883985,-0.32660117988899318,0.1836681638773785,0.93589379336888734,-0.046619991190272936,0.73302354358710264,-0.81984757090859595,0.4795540320132643,0.88296536876602305,-0.64332070083601889,-0.72211773575922988
