0.21338357234581196,-0.14567052248460532,0.050970160605587012,0.74231130295654157,-0.23951791222188823,-0.8582880815674967,0.27224662759171525,-0.89287618278619241,-0.99790383444612241,0.99913698672934226,-0.50817646270525185,-0.57397339220893739,-0.51048402082790689,-0.88432870691251741,-0.36387015813613921,-0.63319681103970371,-0.13123902480972127,-0.32468306080249731,-0.14530378895698171,-0.14703087148394345,-0.80036412720606309,-0.29673549635076424,-0.6005446752485315,0.24690508236848041,-0.57571837654731284,0.5451451792804598
0.66632831296781059,0.4521355281681394,0.91022015993845895,0.087791193458043315,-0.47844279109063415,-0.059488042887007486,-0.73585257335551213,-0.92272331333337076,-0.06171895815337014,0.30189990100088471,0.12444729449723102,-0.34966671550901762,0.35830989562106774,-0.49712982922641613,0.36444190910773755,0.18774147554668952,-0.63780825133943364,0.55433813210057448,0.05165920054140094,-0.67518558578509347,0.48608999351137894,-0.82980501097670833,0.96531305237432408,0.80302522150766831,-0.5607270802830695,0.82887729953764322
0.0037716875192363997,0.00076826451157896436,0.32676854062261795,-0.7132196535635813,0.13656198976955269,-0.93721897174417368,-0.77893170522526534,0.34877624743570679,-0.68430435365109599,-0.51051511354362455,0.74460528627481981,0.70771911416970457,-0.63040656439772502,-0.59928338012304305,0.52645997131460365,0.50379089820835166,-0.27626883497500421,0.30823907307377274,0.65336122491808157,0.057969844881554655,-0.6314691991101804,-0.7032578888799812,0.39475471789493422,-0.68293489581081057,0.67290546492729719,0.70256149170621751
-0.44690883883186805,0.49441688899511638,-0.52686866972740343,-0.98934700857201263,0.65953864917043759,-0.12447758618073634,0.92412187652767486,-0.018328077246125396,-0.5604597443284618,-0.12808462499650419,-0.16972127355919198,-0.1909827459263207,-0.40947021908972925,-0.39597805333366387,-0.53410806590308502,-0.74614322550050316,-0.32660117988899318,-0.76873214689168701,-0.75686307911720818,-0.60517344878130386,0.073699209487132933,0.85002349359425478,-0.91178152146833513,-0.62773434848421061,0.38564761858320806,0.54343279724393168
