0.01554389142992374,0.044241207604277522,0.30494239439303805,0.74231130295654157,-0.64844614812995616,0.38966597258215097,-0.83734154057417265,-0.88773355950765387,-0.99790383444612241,-0.60711034092807692,-0.033926474277588659,0.11869531905351849,-0.51048402082790689,-0.88432870691251741,-0.36387015813613921,0.88879472667855097,-0.13123902480972127,-0.32468306080249731,0.63601457975019615,-0.14703087148394345,0.19604332975163419,-0.29673549635076424,-0.6005446752485315,0.24397091698529749,-0.9975516060457752,-0.48664800912826967
0.42022364339943352,-0.82393118356816464,-0.66551810653695886,-0.17099070710313824,-0.47844279109063415,0.9795564527226075,-0.85307718995685433,-0.48115053237930461,-0.06171895815337014,0.30189990100088471,0.35801412205675498,0.63515478565991046,-0.10305443684902982,-0.31520745254965221,-0.49885318499464226,0.52530496049975661,-0.63780825133943364,0.036876824188279755,-0.065614804006738803,-0.70182338953163459,0.48608999351137894,0.27683155967135309,-0.67832324790977139,-0.73826184360093916,0.69272592914112918,-0.98105102058795191
0.41506876819306937,-0.23123497697947126,0.32676854062261795,-0.7132196535635813,0.13656198976955269,-0.16039234264759616,-0.61964302731106247,0.34877624743570679,-0.68430435365109599,-0.74083777713298526,0.74460528627481981,0.31432633773897778,-0.10997375310431479,-0.59928338012304305,0.45547020444489594,-0.57532117410887107,-0.27626883497500421,-0.20046324573366525,0.21858464023281221,-0.52419699538726272,-0.6314691991101804,0.66499052793210267,0.39475471789493422,-0.97419557300294857,0.67290546492729719,0.3348512205162637
-0.44690883883186805,0.23808493363639927,0.97515308705784354,-0.19976574205647513,0.84703842797968698,-0.12447758618073634,-0.47834357089143165,-0.018328077246125396,0.71572163199147165,-0.12808462499650419,-0.56649795865953356,-0.1909827459263207,-0.48422802628596173,0.90216242914574174,-0.53410806590308502,0.64279498957883985,-0.32660117988899318,-0.9502373110818001,0.50655024833273776,-0.046619991190272936,-0.22869915296449572,-0.81984757090859595,-0.91178152146833513,0.88296536876602305,-0.64332070083601889,-0.14313338488674221
