0.47441249367252381,0.044241207604277522,0.050970160605587012,0.74231130295654157,-0.64844614812995616,0.38966597258215097,0.27224662759171525,-0.88773355950765387,0.33633463714940603,0.25862043042561678,-0.50817646270525185,0.99211355741708451,-0.51048402082790689,-0.88432870691251741,-0.36387015813613921,0.28067237013795432,-0.13123902480972127,-0.32468306080249731,0.39108723659124611,-0.75354265107461837,-0.80036412720606309,-0.29673549635076424,0.964216327345357,-0.049362924943307407,-0.46721334915924295,0.5451451792804598
-0.9187273389402022,-0.82393118356816464,0.38469402065577629,0.087791193458043315,-0.47844279109063415,-0.059488042887007486,-0.8318584984880657,0.31613902927730986,-0.06171895815337014,0.30189990100088471,0.12444729449723102,0.63515478565991046,0.35830989562106774,-0.31520745254965221,-0.49885318499464226,0.18774147554668952,-0.47597616118374142,0.55433813210057448,0.05165920054140094,-0.67518558578509347,0.48608999351137894,0.27683155967135309,0.037111014725999647,0.80302522150766831,-0.31177824013388111,0.82887729953764322
0.089438072285814352,-0.23123497697947126,0.32676854062261795,0.81789286826059748,0.8481373262920493,-0.54591614824246415,-0.62621459380270283,0.34877624743570679,0.48352348510118404,-0.51051511354362455,-0.032049894860406436,0.70771911416970457,-0.63040656439772502,-0.41730781797220051,0.52645997131460365,0.50379089820835166,-0.27626883497500421,0.30823907307377274,0.65336122491808157,-0.52419699538726272,-0.6314691991101804,-0.7032578888799812,0.39475471789493422,-0.68293489581081057,0.67290546492729719,0.3348512205162637
-0.44690883883186805,0.49441688899511638,-0.52686866972740343,-0.89215928691398383,0.65953864917043759,-0.12447758618073634,-0.47834357089143165,-0.018328077246125396,0.71572163199147165,-0.12808462499650419,0.87230702964487672,-0.1909827459263207,-0.40947021908972925,0.90216242914574174,-0.39793584440332275,0.64279498957883985,-0.32660117988899318,-0.45627167486793674,0.1893562784704732,-0.046619991190272936,-0.57962958534452169,0.85002349359425478,-0.91178152146833513,0.22129268091540633,-0.12017253664745331,-0.63007195107016978
