0.0016967673989136678,-0.56753743751970043,0.050970160605587012,0.74231130295654157,-0.64844614812995616,0.38966597258215097,0.26196455683699416,0.51814131293277432,-0.99790383444612241,-0.23452196335594411,-0.91393583578078963,0.57930537035006746,-0.51048402082790689,-0.88432870691251741,0.32445625344809081,0.28067237013795432,0.060612433098991225,-0.32468306080249731,0.39108723659124611,-0.14703087148394345,-0.80036412720606309,0.25236878781390959,-0.032191419525329001,-0.049362924943307407,0.79993956616094852,0.5451451792804598
0.66632831296781059,-0.37444051210726292,-0.57385139952645003,-0.056189654133582456,-0.65712830301128666,-0.059488042887007486,-0.49000786700303856,0.31613902927730986,-0.06171895815337014,0.20916310265680327,0.98225153950703503,-0.24143210058105957,0.15058129019027833,0.27478563179162463,-0.49885318499464226,0.18774147554668952,0.52874908891678007,0.50024248638699276,0.99886186137305888,0.823424563596582,0.46598691772575496,0.27683155967135309,0.96531305237432408,0.57233017066531855,0.32724168464859349,0.82887729953764322
0.0037716875192363997,0.75086336968126277,0.32676854062261795,-0.7132196535635813,0.13656198976955269,-0.54591614824246415,-0.28504969889953191,0.34877624743570679,-0.68430435365109599,-0.51051511354362455,-0.19129531863349625,0.70771911416970457,-0.63040656439772502,-0.59928338012304305,0.52645997131460365,0.50379089820835166,-0.27626883497500421,0.18857796404041549,0.65336122491808157,-0.94978270390031216,-0.6314691991101804,0.86772390833432334,0.39475471789493422,-0.68293489581081057,0.97605465190462626,-0.48055889622393844
0.18286114318511459,0.49441688899511638,0.29240401774938074,0.59600170959679155,0.65953864917043759,-0.86130966013480603,-0.62888208989812266,0.75711603402109695,-0.88942529359164335,-0.12808462499650419,0.16718919887454753,0.29482295009630377,0.99429821712403288,0.90216242914574174,0.2293255467781492,0.27306017841768315,-0.32660117988899318,-0.39338791968628217,0.1893562784704732,-0.046619991190272936,0.53202221865426602,0.85002349359425478,0.32224168267696718,0.73010254163039789,-0.89031617980154398,-0.5652754080334188
