0.0016967673989136678,0.32027211475766726,0.050970160605587012,0.74231130295654157,-0.64844614812995616,0.38966597258215097,0.27224662759171525,0.51814131293277432,-0.99790383444612241,-0.23452196335594411,-0.91393583578078963,-0.92849494685689904,-0.51048402082790689,0.11713285695548126,-0.27754623812639245,0.28067237013795432,-0.13123902480972127,-0.32468306080249731,0.39108723659124611,0.27217938731810087,-0.80036412720606309,-0.43412894191871731,-0.6005446752485315,-0.049362924943307407,0.88947840965045399,0.5451451792804598
0.66632831296781059,-0.37444051210726292,-0.66551810653695886,-0.056189654133582456,-0.65712830301128666,-0.059488042887007486,0.93813281784966684,0.31613902927730986,-0.06171895815337014,-0.15307722372177857,0.98225153950703503,-0.59973002029140443,0.35830989562106774,-0.1130778670122512,-0.49885318499464226,0.18774147554668952,-0.63780825133943364,0.50024248638699276,0.66702464290704389,-0.2253388404357286,0.46598691772575496,0.27683155967135309,0.96531305237432408,-0.29273061758682695,0.69272592914112918,0.82887729953764322
0.0037716875192363997,-0.23123497697947126,0.32676854062261795,-0.7132196535635813,-0.4846476741690966,-0.54591614824246415,-0.28504969889953191,0.34877624743570679,0.85159752931906385,0.91586621673698532,-0.19129531863349625,0.70771911416970457,-0.63040656439772502,-0.59928338012304305,0.52645997131460365,0.50379089820835166,0.14532200199613765,0.50701688898225172,0.65336122491808157,-0.11516664800326804,-0.6314691991101804,0.86772390833432334,0.39475471789493422,-0.68293489581081057,0.67290546492729719,0.92302873020099563
-0.44690883883186805,0.28645636513663475,-0.52686866972740343,0.59600170959679155,0.65953864917043759,-0.86130966013480603,-0.85496136735196804,0.75711603402109695,0.71572163199147165,-0.12808462499650419,0.98901930685700967,-0.76111903805685532,0.033654888066990907,0.90216242914574174,0.59058705554952939,0.64279498957883985,-0.32660117988899318,-0.24604087421607979,0.1893562784704732,-0.046619991190272936,0.53202221865426602,0.85002349359425478,-0.91178152146833513,0.73010254163039789,-0.12017253664745331,-0.5652754080334188
