0.0016967673989136678,-0.56753743751970043,0.050970160605587012,0.74231130295654157,-0.64844614812995616,0.38966597258215097,0.27224662759171525,0.51814131293277432,-0.99790383444612241,0.54552262223781622,-0.91393583578078963,-0.97204678191495542,-0.54786809124204794,-0.88432870691251741,-0.27754623812639245,0.28067237013795432,-0.13123902480972127,-0.32468306080249731,-0.8581302146039238,-0.14703087148394345,-0.80036412720606309,-0.29673549635076424,-0.6005446752485315,-0.17583918909682872,-0.57571837654731284,0.043542401519434115
0.66632831296781059,-0.37444051210726292,-0.66551810653695886,0.5182343807050962,-0.65712830301128666,-0.059488042887007486,-0.49000786700303856,-0.36649831182985104,-0.031604213848266394,0.30189990100088471,0.98225153950703503,0.63515478565991046,0.501568170202221,-0.1130778670122512,-0.49885318499464226,0.18774147554668952,-0.63780825133943364,0.50024248638699276,0.66702464290704389,-0.67518558578509347,0.46598691772575496,0.27683155967135309,0.96531305237432408,0.80302522150766831,0.69272592914112918,0.82887729953764322
-0.7587811491741534,-0.23123497697947126,0.32676854062261795,-0.7132196535635813,0.13656198976955269,-0.54591614824246415,-0.28504969889953191,0.34877624743570679,-0.68430435365109599,-0.51051511354362455,-0.19129531863349625,0.70771911416970457,-0.63040656439772502,-0.59928338012304305,-0.78810186448868724,0.072231325308324879,-0.27626883497500421,0.30823907307377274,0.65336122491808157,-0.52419699538726272,-0.6314691991101804,0.86772390833432334,-0.98443786668494537,-0.68293489581081057,-0.92572297891566713,0.89254314817688085
-0.44690883883186805,0.49441688899511638,-0.52686866972740343,0.59600170959679155,0.65953864917043759,-0.86130966013480603,-0.62888208989812266,0.75711603402109695,0.26865093264708584,-0.12808462499650419,0.87230702964487672,-0.1909827459263207,-0.40947021908972925,0.90216242914574174,-0.53410806590308502,0.54836877557945596,-0.71953337751868118,-0.39338791968628217,0.1893562784704732,0.27443678569633723,0.53202221865426602,0.85002349359425478,-0.91178152146833513,-0.82568732667519695,-0.12017253664745331,0.12799730194368086
