0.0016967673989136678,-0.56753743751970043,0.050970160605587012,0.74231130295654157,-0.64844614812995616,0.62098587235007541,0.27224662759171525,0.51814131293277432,-0.99790383444612241,-0.23452196335594411,-0.91393583578078963,0.57930537035006746,-0.51048402082790689,-0.88432870691251741,0.24907568714312656,0.28067237013795432,-0.13123902480972127,-0.32468306080249731,0.40304680692290984,-0.85259709819305241,-0.80036412720606309,-0.29673549635076424,-0.6005446752485315,-0.049362924943307407,-0.57571837654731284,0.5451451792804598
0.66632831296781059,-0.37444051210726292,-0.66551810653695886,-0.056189654133582456,-0.16386949402047346,-0.88267060064343794,-0.49000786700303856,0.31613902927730986,-0.06171895815337014,-0.888350894730636,-0.26018775754340084,0.63515478565991046,0.35830989562106774,0.31929889587326166,-0.49885318499464226,0.18774147554668952,-0.63780825133943364,0.50024248638699276,0.66702464290704389,-0.67518558578509347,0.46598691772575496,0.30736032094025401,0.96531305237432408,-0.74736261473400933,0.69272592914112918,0.82887729953764322
0.0037716875192363997,-0.23123497697947126,0.32676854062261795,-0.7132196535635813,0.2285736715896225,0.59492196383243501,-0.28504969889953191,0.54814900971262914,-0.5810200275504005,-0.51051511354362455,-0.19129531863349625,0.23544919501907691,0.75463576376517261,0.97024821428456387,0.52645997131460365,0.46153573944701098,-0.27626883497500421,0.30823907307377274,0.65336122491808157,-0.52419699538726272,-0.6314691991101804,0.86772390833432334,0.39475471789493422,-0.68293489581081057,0.67290546492729719,-0.72385747984680338
-0.44690883883186805,0.49441688899511638,0.96851800882600547,-0.84486232351278967,0.20188246794347631,-0.22146855354981243,-0.62888208989812266,0.75711603402109695,0.71572163199147165,0.46543012861818234,0.87230702964487672,-0.1909827459263207,-0.40947021908972925,0.90216242914574174,-0.53410806590308502,0.33163685786561747,-0.84048414710892838,-0.39338791968628217,0.1893562784704732,-0.046619991190272936,0.53202221865426602,0.85002349359425478,0.045383223750473656,0.73010254163039789,0.93032575803260054,-0.5652754080334188
