0.96072994134346024,-0.56753743751970043,0.050970160605587012,0.27067708022417469,-0.64844614812995616,0.38966597258215097,-0.043180840070912607,0.51814131293277432,-0.99790383444612241,-0.23452196335594411,-0.91393583578078963,0.57930537035006746,-0.51048402082790689,-0.88432870691251741,-0.27754623812639245,0.28067237013795432,-0.11296447642956742,-0.87110943500371962,0.39108723659124611,0.17990135624344306,-0.80036412720606309,-0.29673549635076424,0.02964765784843082,0.097612169386234404,-0.57571837654731284,-0.72394755725359605
0.66632831296781059,0.65251016104805681,-0.66551810653695886,-0.056189654133582456,-0.27286049378475585,0.47408600710751636,-0.49000786700303856,-0.40846347967260943,0.61524855442727611,0.73912794196678533,-0.3073050877672634,0.78509200541994306,0.35830989562106774,-0.1130778670122512,0.71499460575226514,0.18774147554668952,0.72107388162426522,0.50024248638699276,0.66702464290704389,-0.67518558578509347,-0.68649253130452825,0.27683155967135309,0.63003901169990284,0.12051196429633304,0.69272592914112918,0.16548840338326154
0.0037716875192363997,-0.23123497697947126,0.91236030730254347,-0.80741134242052981,0.13656198976955269,-0.54591614824246415,-0.28504969889953191,-0.92111693527546668,-0.68430435365109599,-0.51051511354362455,-0.19129531863349625,0.70771911416970457,-0.63040656439772502,0.7468653288044369,-0.30213674699749826,0.096794024465795658,-0.27626883497500421,-0.087905196184751233,0.65336122491808157,-0.52419699538726272,-0.6314691991101804,-0.68625936275105781,0.77129193266762974,-0.68293489581081057,0.67290546492729719,-0.31145443513738424
0.55518923172846302,0.71522978060048703,-0.32550459982408286,-0.11575081383616048,-0.41605328216179815,-0.86130966013480603,-0.62888208989812266,0.018988815809311888,0.71572163199147165,-0.12808462499650419,0.98080441838394594,-0.46691200385151532,-0.40947021908972925,0.90216242914574174,0.94964891452302846,0.64279498957883985,0.99891141172297804,-0.39338791968628217,0.17716214262266017,-0.47585877067933602,0.53202221865426602,0.85002349359425478,0.85165675903701743,0.62989495025146613,-0.12017253664745331,-0.5652754080334188
