0.20951239302221181,0.19225089816496799,0.050970160605587012,0.82810861466338914,-0.64844614812995616,0.55042733409210287,0.27224662759171525,-0.66105203504845567,-0.7523047060334358,-0.23452196335594411,0.72673041757837886,-0.40066595915032588,-0.51048402082790689,-0.88432870691251741,-0.20302579193184989,0.28067237013795432,-0.45965896685450214,-0.87110943500371962,0.39108723659124611,-0.14703087148394345,-0.80036412720606309,-0.29673549635076424,-0.6005446752485315,-0.049362924943307407,-0.57571837654731284,-0.72394755725359605
-0.21945172736962548,0.65251016104805681,-0.66551810653695886,0.85194836612216718,0.33149584327948411,0.47408600710751636,-0.49000786700303856,-0.024078317062584231,-0.059245052024627043,0.73912794196678533,-0.3073050877672634,0.014280827311798472,0.7136738192447345,0.40081890959139232,-0.49885318499464226,0.18774147554668952,0.72107388162426522,0.50024248638699276,0.66702464290704389,-0.67518558578509347,0.46598691772575496,-0.22118433967806284,0.63003901169990284,0.12051196429633304,0.69272592914112918,0.46059388983080818
0.0037716875192363997,-0.23123497697947126,0.91236030730254347,-0.34589142514628768,0.13656198976955269,-0.54591614824246415,-0.28504969889953191,-0.13679180537303903,-0.68430435365109599,-0.51051511354362455,-0.40347420499774111,-0.67859214227918918,-0.63040656439772502,0.7468653288044369,-0.30213674699749826,0.50379089820835166,-0.27626883497500421,0.30823907307377274,0.65336122491808157,-0.52419699538726272,-0.6314691991101804,0.37227408137606099,-0.41111279609470563,0.11092831163156758,0.20689155404276094,-0.31145443513738424
-0.44690883883186805,0.71522978060048703,0.88379806023107621,-0.11575081383616048,-0.41605328216179815,-0.63132117538802301,-0.62888208989812266,0.94999932877025772,0.71572163199147165,-0.12808462499650419,0.98080441838394594,-0.66957030555008212,-0.40947021908972925,0.90216242914574174,-0.53410806590308502,0.014378062447909734,0.99891141172297804,-0.39338791968628217,-0.22819258555771116,-0.011325913714230529,0.53202221865426602,0.85002349359425478,0.27447746099876125,0.62989495025146613,-0.12017253664745331,-0.5652754080334188
