0.0016967673989136678,-0.095457979968257112,0.050970160605587012,0.27067708022417469,0.60508468107796398,0.84457381453761826,0.27224662759171525,0.51814131293277432,-0.99790383444612241,-0.90581403154627593,-0.91393583578078963,0.57930537035006746,-0.51048402082790689,-0.88432870691251741,0.1764907617653475,0.28067237013795432,-0.45965896685450214,0.70666935994375835,0.22893353289558904,-0.36852807472762805,-0.80036412720606309,0.4759535844913374,-0.20268461287694417,-0.049362924943307407,-0.41422445405673791,-0.036473065785775471
0.66632831296781059,0.55176727042857854,-0.66551810653695886,-0.056189654133582456,0.33149584327948411,-0.40083986453707765,-0.49000786700303856,-0.024078317062584231,-0.06171895815337014,0.73912794196678533,0.42809288758577679,0.63515478565991046,0.35830989562106774,-0.1130778670122512,-0.49885318499464226,0.18774147554668952,0.72107388162426522,0.50024248638699276,0.66702464290704389,-0.87704730415158849,0.46598691772575496,0.27683155967135309,0.88244257929987335,0.22788340025828324,0.69272592914112918,-0.20710033063116451
0.0037716875192363997,-0.23123497697947126,0.91236030730254347,-0.34589142514628768,0.13656198976955269,-0.8077846943824869,0.71242008869544637,-0.92111693527546668,-0.68430435365109599,-0.25409448401536561,0.3271633177770974,0.11984897505720804,-0.63040656439772502,0.15330931907032874,-0.87570878061971369,0.50379089820835166,-0.27626883497500421,0.58130982828110422,0.65336122491808157,-0.52419699538726272,-0.6314691991101804,0.86772390833432334,-0.41111279609470563,-0.68293489581081057,-0.47019828360965343,-0.31145443513738424
-0.38252773543918916,0.71522978060048703,-0.32550459982408286,-0.11575081383616048,-0.41605328216179815,0.7631801433586638,0.063282240142777502,-0.16683477976464456,0.71572163199147165,-0.12808462499650419,0.98080441838394594,-0.66957030555008212,0.41912991857713044,0.90216242914574174,-0.53410806590308502,0.64279498957883985,0.99891141172297804,-0.97742981691794473,-0.22819258555771116,-0.47585877067933602,0.53202221865426602,0.85002349359425478,0.27447746099876125,0.067441906948839447,-0.12017253664745331,0.29040027174282201
