0.0016967673989136678,-0.56753743751970043,0.079038905846178231,0.27067708022417469,-0.64844614812995616,0.38966597258215097,-0.29904250914436914,0.096934365229464081,-0.37365493110398162,0.26574769737039894,-0.91393583578078963,0.57930537035006746,-0.080195346001369794,-0.56937217482154256,0.11544342704382893,0.28067237013795432,0.068318751328656058,-0.55390387629946725,0.39108723659124611,-0.14703087148394345,-0.50437619110632137,-0.29673549635076424,0.41746889458883363,-0.049362924943307407,-0.57571837654731284,-0.72394755725359605
-0.014432541297916046,0.99039996488025195,-0.66551810653695886,0.93673811253600192,0.33149584327948411,0.47408600710751636,-0.49000786700303856,0.86954409006435029,-0.06171895815337014,0.40137175220562615,-0.3073050877672634,0.63515478565991046,0.35830989562106774,-0.1130778670122512,-0.12516974752157095,0.18774147554668952,0.72107388162426522,0.56899192567766255,0.66702464290704389,-0.58005198775811406,0.46598691772575496,0.14569203468083947,-0.42975696526413176,-0.75761175555455362,-0.94842769443256536,-0.26800117818842129
0.0037716875192363997,0.058376727282908103,0.91236030730254347,-0.34589142514628768,0.13656198976955269,-0.20772777942148002,-0.28504969889953191,-0.0013718848047443721,-0.68430435365109599,-0.51051511354362455,-0.19129531863349625,0.70771911416970457,-0.63040656439772502,-0.74360566788664095,-0.30213674699749826,0.22150727862211905,-0.27626883497500421,0.30823907307377274,0.65336122491808157,-0.52419699538726272,-0.6314691991101804,0.88778241920677936,0.7416080447663973,-0.68293489581081057,0.67290546492729719,-0.27221592713247333
-0.44690883883186805,-0.92037982141120001,-0.32550459982408286,-0.62598415083326819,-0.52593955343618548,-0.86130966013480603,-0.62888208989812266,0.41552768000246831,-0.56749570995323628,-0.12808462499650419,0.41614041959134562,-0.66957030555008212,-0.75914190504093293,0.08261870145260608,-0.53410806590308502,0.64279498957883985,0.99891141172297804,-0.39338791968628217,-0.22819258555771116,-0.22112154867638822,0.53202221865426602,0.39542433760012319,0.22116067567744579,-0.25485488683424307,-0.12017253664745331,-0.46326367548119296
