0.38876451384715205,-0.56753743751970043,0.050970160605587012,0.58937364027098504,-0.64844614812995616,0.38966597258215097,-0.29904250914436914,0.51814131293277432,0.71658647123934371,0.069471110725781493,-0.91393583578078963,0.70837257288402578,-0.080195346001369794,-0.56937217482154256,0.53157742894851223,0.28067237013795432,0.051194688578149794,-0.46747209102644161,0.39108723659124611,-0.4147482544357135,0.43393759702220391,-0.98886608979875978,-0.6005446752485315,0.31991327536082914,-0.57571837654731284,-0.72394755725359605
0.66632831296781059,0.65251016104805681,0.28925822991901828,0.27153485846571579,0.33149584327948411,0.47408600710751636,0.73410926312288871,0.053446303416142316,-0.75880930683669479,0.40137175220562615,-0.3073050877672634,0.63515478565991046,0.35830989562106774,-0.1130778670122512,-0.65276431172794691,0.18774147554668952,0.72107388162426522,0.50024248638699276,0.66702464290704389,-0.67518558578509347,0.46598691772575496,0.69866179429534703,-0.42975696526413176,-0.75761175555455362,-0.020139629797687242,-0.26800117818842129
0.064765284047066496,-0.23123497697947126,0.91236030730254347,-0.34589142514628768,0.082165902040916006,-0.8131730948270568,-0.28504969889953191,-0.92111693527546668,-0.68430435365109599,0.16091112573132671,-0.19129531863349625,0.70771911416970457,-0.63040656439772502,0.7468653288044369,-0.38803717044675312,0.50379089820835166,-0.27626883497500421,0.30823907307377274,0.65336122491808157,-0.52419699538726272,-0.6314691991101804,0.88778241920677936,-0.41111279609470563,0.34473421698489881,0.67290546492729719,-0.27221592713247333
-0.44690883883186805,-0.56807772520566568,0.83889187013775768,-0.62598415083326819,0.81270665169910927,-0.86130966013480603,-0.62888208989812266,-0.31919722673041839,-0.40178005458287114,-0.12808462499650419,-0.78733403487465714,0.33280872717518406,-0.75914190504093293,0.08261870145260608,-0.51486236620347947,0.64279498957883985,0.99891141172297804,-0.73293251293211825,-0.23458167423971199,-0.01797815798345237,0.53202221865426602,0.39542433760012319,0.6476762081619607,-0.77123878592640627,0.42338761964282479,-0.5652754080334188
