0.8732111913886762,0.14878527623038673,-0.22880994348546468,-0.66126817204567612,-0.14682271642136935,0.041705379677421606,0.36146661204073638,0.59099280360518347,-0.27715752977470598,-0.60032784621451651,0.90802025945336928,0.44369155545499739,0.29292925878142451,0.54797397808492954,-0.98494382000855918,0.077020410980847442,0.44591675142581089,0.374674586490646,-0.42478866501270041,0.63768933749664236,-0.051464494482428735,-0.5379896882180113,-0.63152754705998659,0.36649963820383147,-0.33618690407589757,-0.41079904573814074
0.80525622503021754,-0.89723621825297917,-0.17046584361090011,-0.15436762096075651,0.95283762228749525,-0.27062038923407994,0.83730324987450411,-0.18920692441717102,0.12843930010824955,-0.15058040059673439,-0.21702241790914667,0.4640448972430975,-0.37329303748370468,0.76490416875206302,0.45687300882662329,-0.92238521747811908,-0.24890641677336567,-0.59289677761383519,-0.013448096584068647,0.84113311074711694,-0.69019490442978815,-0.37535812440090033,0.10984369323250642,0.24592169695051158,-0.47709508471606976,-0.1356335816000469
-0.53075101080399456,-0.35185127799304805,0.44841722705034792,0.5919837490879063,0.60559411772202743,-0.30800232248822956,-0.093303019396538955,-0.42562010254808014,0.75999424159130058,0.36625594882427293,-0.23737267900114789,0.25874284618389831,-0.93062666411195738,0.6109760426396047,0.51018248178816528,0.87348804188524354,0.023429950125065435,-0.88690742601777051,0.7791115620010387,0.060231708342999069,-0.15541289507553424,0.96700190874410996,0.017439191868047876,0.66146206840956956,0.32969609405171951,0.95275077187475299
-0.5740015933066136,-0.49058803617248503,0.90043959654198003,0.26494493734385682,0.1423369089970552,-0.73624138211469692,0.027900595184557231,-0.7293598206948344,-0.67832533466283174,-0.22273235456754858,0.6022350095853588,-0.944754267147216,-0.47272694534835358,0.15649608013256411,-0.4790789919459888,0.31954784011699999,0.22894930526972201,0.37156551619334688,-0.88361081683669229,-0.55797217436708069,0.26833879838643426,-0.78197141518040114,0.48759628310511216,-0.79981292819665506,0.4363499379813216,-0.70320092155918434
