-0.46884332086154612,-0.32754889029459688,0.050970160605587012,0.27067708022417469,-0.64844614812995616,0.79973011683712136,0.48271333422869245,0.51814131293277432,-0.99790383444612241,0.069471110725781493,-0.66102579045675336,0.57930537035006746,-0.080195346001369794,0.59403961264582228,-0.27754623812639245,0.28067237013795432,-0.84345451365637203,-0.46747209102644161,0.39108723659124611,-0.14703087148394345,0.4687304918373687,-0.29673549635076424,0.53798471506026413,0.56288433547899852,-0.57571837654731284,0.26108995046325245
0.58467782252760592,0.65251016104805681,-0.66551810653695886,-0.056189654133582456,0.33149584327948411,0.91492712679634858,-0.49000786700303856,0.38343219249916638,0.84617365344098916,-0.95190954099158054,0.28819435375061975,0.63515478565991046,-0.63725963934218677,0.1793124648788238,-0.65276431172794691,0.18774147554668952,-0.52100423145210528,-0.88923734996696724,-0.38769655482261833,-0.67518558578509347,0.46598691772575496,0.14569203468083947,-0.42975696526413176,-0.75761175555455362,-0.63500372797640048,-0.26800117818842129
0.0037716875192363997,-0.23123497697947126,0.60568925734515044,0.99138988477779311,0.98324772862246435,-0.33887634845586723,-0.86612188026417813,-0.92111693527546668,-0.95184790119945806,0.12889839233416156,0.24768597808671511,0.84744178541104986,-0.63040656439772502,0.7468653288044369,0.9957869439915743,-0.090372763253258492,0.12273286477375978,0.30823907307377274,0.65336122491808157,-0.52419699538726272,-0.6314691991101804,0.80198888580381134,-0.41111279609470563,0.65476901562820733,0.67290546492729719,0.18722261378663529
-0.44690883883186805,0.36896130620325573,-0.32550459982408286,-0.62598415083326819,-0.88158549314241053,-0.86130966013480603,-0.62888208989812266,0.012698738556999656,-0.56749570995323628,-0.12808462499650419,0.98080441838394594,-0.09280682366331372,-0.75914190504093293,0.08261870145260608,-0.038642832629343982,0.64279498957883985,-0.63990622009710152,0.25366809997005757,-0.22819258555771116,0.97384729397166625,0.53202221865426602,0.39542433760012319,-0.65787970708809196,0.22824474815819773,-0.12017253664745331,-0.5652754080334188
