-0.77107390708343826,0.060535990365254033,0.050970160605587012,-0.65956511703171139,-0.1874127715027929,-0.47451418287180691,0.11537422519106455,-0.50483324882670577,0.35224518359897505,-0.58994837678458745,-0.84515754938239396,-0.28858985675819548,-0.080195346001369794,-0.69965045837927464,-0.27754623812639245,0.28067237013795432,-0.880598705736096,-0.46747209102644161,-0.31304596046930433,-0.14703087148394345,-0.33988483414703641,-0.29673549635076424,0.60789001454040159,0.4008256063794069,-0.57571837654731284,-0.61325799639381295
0.12721452771798036,-0.48244065519132406,-0.66551810653695886,-0.54927815898124877,0.29165211241838507,0.80409237669747546,0.23684920577531066,0.90110026967242152,-0.053096304505894087,-0.91246515879971257,0.51382488637720347,0.63515478565991046,0.066481846277397727,0.56327481939204893,0.057357684157312461,-0.41508657371765034,-0.51021598358272358,0.50024248638699276,0.85428288094383409,-0.77777873120325669,-0.099238107578225376,0.95993552671186122,-0.94758300699038278,0.73838083320028569,-0.81046829196218284,-0.26800117818842129
-0.89658846089131061,0.10633372067918434,0.60568925734515044,-0.74608468450520316,0.2649750945496987,0.22569149070024808,-0.28504969889953191,0.012333846192476461,-0.453416839560709,-0.51051511354362455,0.481986644464244,-0.44621832976107023,0.55984037972757794,-0.28393396187095776,-0.30213674699749826,-0.24197665830205284,0.86667021329498062,-0.55871639700919529,0.65336122491808157,-0.46409031993822913,0.16256721076510683,0.79803052016559661,0.88411145273060332,-0.68293489581081057,0.67290546492729719,0.74918696415241892
-0.862308478719223,0.98525600688588444,-0.32550459982408286,-0.32520039500815723,0.26659270104157762,0.53994543253548399,-0.67250188246129539,0.012698738556999656,0.38849197336171359,-0.64940488868820867,0.92448101376236469,-0.88814603054737562,-0.75914190504093293,0.08261870145260608,-0.66913494147476205,0.0041083874656413499,0.99891141172297804,0.53896591851828934,0.2877202257439655,-0.25451111142432592,-0.75848288658490337,0.17409969371643497,-0.82158500116804545,-0.90422030426866096,-0.12017253664745331,-0.5652754080334188
