0.35614464120475509,-0.32754889029459688,0.1683496795388908,-0.65956511703171139,-0.64844614812995616,-0.47451418287180691,-0.29904250914436914,0.51814131293277432,0.35224518359897505,0.069471110725781493,-0.84515754938239396,0.57930537035006746,-0.86102324353242299,-0.69965045837927464,-0.27754623812639245,0.28067237013795432,-0.60757109899352901,-0.65746617177879618,0.13054481270459894,-0.2665497849432088,0.3684790133883562,-0.29673549635076424,0.60789001454040159,-0.049362924943307407,-0.57571837654731284,0.26108995046325245
0.12721452771798036,0.35746781816024376,-0.66551810653695886,-0.056189654133582456,0.33149584327948411,0.85601545133518697,-0.49000786700303856,0.90110026967242152,-0.2744305093123105,-0.91246515879971257,0.51382488637720347,0.63515478565991046,0.066481846277397727,-0.1130778670122512,-0.65276431172794691,-0.41508657371765034,-0.51021598358272358,0.91542334017021876,0.86511794352225491,-0.77777873120325669,0.4401391070484022,0.83708529476327054,-0.42975696526413176,0.40536566204937463,-0.81046829196218284,-0.0078559826584028158
0.0037716875192363997,-0.23123497697947126,0.60568925734515044,-0.74608468450520316,0.2649750945496987,-0.20772777942148002,-0.28504969889953191,0.93278177117023464,-0.68430435365109599,0.1930832670005278,0.15112994453736794,0.70771911416970457,0.55984037972757794,0.7468653288044369,-0.80999538971750251,0.6029381100247273,0.86667021329498062,0.30823907307377274,0.65336122491808157,-0.25871340721366942,0.16256721076510683,0.18424715663957469,-0.5751139633828859,-0.68293489581081057,0.76688467880165612,-0.27221592713247333
-0.44690883883186805,0.98525600688588444,-0.32550459982408286,-0.32520039500815723,-0.52593955343618548,-0.7665878381929947,-0.97149257201707218,0.012698738556999656,-0.56749570995323628,-0.85920835978085841,0.92448101376236469,0.10031428833780631,-0.75914190504093293,0.08261870145260608,-0.66913494147476205,0.0041083874656413499,0.99891141172297804,-0.3691663079945704,-0.22819258555771116,-0.25451111142432592,0.53202221865426602,-0.39059932479513759,-0.82158500116804545,0.22824474815819773,-0.12017253664745331,-0.1460507814432801
