-0.77107390708343826,0.52204889037726576,0.050970160605587012,-0.65956511703171139,-0.64844614812995616,-0.47451418287180691,0.0679088197094464,-0.10678467322711649,0.35224518359897505,0.069471110725781493,-0.84515754938239396,0.91198338353357755,-0.64238210356293535,-0.12145823817664714,-0.27754623812639245,-0.15143651617382425,-0.60757109899352901,-0.46747209102644161,-0.31304596046930433,-0.44760286627881385,-0.12108698215886116,-0.29673549635076424,0.60789001454040159,-0.64507830295304847,0.25188736068152529,0.26108995046325245
0.12721452771798036,0.35746781816024376,-0.66551810653695886,-0.014820872743407598,0.29165211241838507,0.85601545133518697,-0.79937979486922872,0.36158765026581263,0.87368519199271422,-0.054668561961779494,0.20549110109139823,0.52466906373335442,0.066481846277397727,0.30311072543681084,-0.0041748040998585978,-0.41508657371765034,-0.51021598358272358,-0.3297354012278424,0.2920732630095666,-0.77777873120325669,-0.79628851479014484,-0.47529272651183763,-0.42975696526413176,0.64542757864943634,-0.81046829196218284,-0.26800117818842129
-0.8624980768320698,0.10633372067918434,0.60568925734515044,-0.74608468450520316,-0.26757203401634055,-0.4324212954892126,-0.28504969889953191,0.012333846192476461,-0.453416839560709,0.55370608152212752,-0.72573137321484071,0.091272219507801511,0.55984037972757794,0.56189234806235344,-0.30213674699749826,-0.24197665830205284,0.86667021329498062,-0.86728681268256347,0.32716892580547707,-0.0024013935391271612,0.16256721076510683,-0.69106708453849031,0.75760544361918924,0.76754161995749892,0.44542597023050456,-0.27221592713247333
-0.862308478719223,0.83546992839465783,0.64325493903287323,-0.32520039500815723,-0.41628967647415904,-0.2255425292964881,0.67927052703665947,0.76707302373973718,0.22934723901789345,0.86418324579013239,0.92448101376236469,-0.66957030555008212,-0.75914190504093293,0.08261870145260608,0.089340055747251679,0.0041083874656413499,-0.79362364729978974,0.73552388661475976,0.23501242536419165,0.00032468918197281482,-0.75848288658490337,0.17409969371643497,-0.82158500116804545,0.22824474815819773,-0.12017253664745331,0.44784475144498215
