0.57116839268277242,0.52204889037726576,0.050970160605587012,-0.65956511703171139,-0.64844614812995616,-0.47451418287180691,0.11537422519106455,-0.10678467322711649,0.35224518359897505,0.069471110725781493,-0.84515754938239396,0.91198338353357755,-0.09265693356123883,-0.69965045837927464,-0.27754623812639245,0.28067237013795432,-0.60757109899352901,-0.46747209102644161,-0.56999136973091424,0.67745778585125493,-0.12108698215886116,-0.29673549635076424,0.60789001454040159,-0.049362924943307407,-0.57571837654731284,0.26108995046325245
0.12721452771798036,0.35746781816024376,-0.66551810653695886,-0.014820872743407598,0.29165211241838507,0.85601545133518697,-0.79937979486922872,-0.38779892935174076,-0.053096304505894087,-0.054668561961779494,0.52849990680605741,0.237824136379295,-0.20093554545823356,-0.25273183519054099,-0.0041748040998585978,-0.41508657371765034,-0.51021598358272358,0.6884906345991455,0.2920732630095666,-0.77777873120325669,-0.56063563826588103,-0.47529272651183763,-0.42975696526413176,0.60340229879660079,0.32958696598155157,-0.26800117818842129
0.0037716875192363997,0.94325825676161279,0.60568925734515044,0.0012591255009044566,-0.26757203401634055,-0.4324212954892126,-0.28504969889953191,0.012333846192476461,-0.453416839560709,-0.81497102615030648,-0.45893720622864609,-0.030572066965689926,0.59069570071944666,0.56189234806235344,-0.30213674699749826,-0.24197665830205284,0.86667021329498062,-0.86728681268256347,0.32716892580547707,-0.0024013935391271612,0.16256721076510683,0.98302159247791265,0.75760544361918924,-0.21800141648149562,0.44542597023050456,-0.27221592713247333
-0.862308478719223,0.98525600688588444,0.95956898640436439,-0.32520039500815723,0.71053138600101096,-0.75046326561575216,0.67927052703665947,0.76707302373973718,0.22934723901789345,0.077992789057447887,0.92448101376236469,-0.36674478833769797,-0.75914190504093293,0.08261870145260608,-0.66913494147476205,0.93083894310745463,0.95980379190378229,-0.89484719497250165,-0.22819258555771116,0.00032468918197281482,-0.75848288658490337,0.17409969371643497,-0.82158500116804545,0.22824474815819773,-0.12017253664745331,0.44784475144498215
