-0.90583880723890187,0.52204889037726576,0.050970160605587012,-0.65956511703171139,-0.64844614812995616,-0.68018868372479813,0.11537422519106455,-0.10678467322711649,0.35224518359897505,0.069471110725781493,0.45304197426761261,0.91198338353357755,-0.6724878317566727,-0.69965045837927464,-0.39225005383430323,0.28067237013795432,-0.60757109899352901,-0.46747209102644161,0.44150566014045611,0.17562208457836426,-0.12108698215886116,-0.29673549635076424,0.60789001454040159,-0.049362924943307407,-0.57571837654731284,0.26108995046325245
0.33414694717934146,0.80765717592616793,-0.66551810653695886,-0.13151450105526563,0.29165211241838507,0.67963909767518182,-0.79937979486922872,-0.58180376610051376,-0.053096304505894087,-0.1469204662777206,0.51382488637720347,0.63515478565991046,0.066481846277397727,0.30311072543681084,-0.6042131215305675,-0.41508657371765034,-0.51021598358272358,0.6884906345991455,-0.61879949339273543,-0.77777873120325669,-0.54730438614170973,-0.47529272651183763,0.25243769586616094,-0.4747434512308355,-0.81046829196218284,-0.26800117818842129
0.0037716875192363997,0.10633372067918434,0.60568925734515044,-0.74608468450520316,-0.26757203401634055,-0.4324212954892126,-0.28504969889953191,0.012333846192476461,-0.72675081547321319,0.1492337860091304,-0.45893720622864609,0.42465774341792084,0.55984037972757794,0.56189234806235344,-0.30213674699749826,0.095530771589123376,0.86667021329498062,-0.7291927799057869,0.32716892580547707,-0.0024013935391271612,0.16256721076510683,-0.69106708453849031,-0.11000193937318548,-0.68293489581081057,0.44542597023050456,-0.27221592713247333
-0.862308478719223,-0.87568490132692456,0.64325493903287323,-0.58226522273782444,0.71053138600101096,-0.75046326561575216,-0.27934454627918193,-0.86768079887958183,0.22934723901789345,-0.065193870559004941,-0.92766938162306767,-0.66957030555008212,-0.75914190504093293,0.08261870145260608,-0.66913494147476205,0.76029199260966207,0.19036951655518153,0.73552388661475976,-0.22819258555771116,0.00032468918197281482,-0.75848288658490337,0.17409969371643497,-0.82158500116804545,0.22824474815819773,-0.12017253664745331,0.44784475144498215
