-0.77107390708343826,0.52204889037726576,-0.86919975016545115,-0.95067552165056757,-0.64844614812995616,-0.47451418287180691,-0.43678934659394053,0.97499179037057981,0.35224518359897505,0.069471110725781493,0.86283920108961487,-0.62468546355636612,-0.64238210356293535,-0.69965045837927464,-0.27754623812639245,0.28067237013795432,-0.60757109899352901,0.2872540151583387,-0.31304596046930433,0.61059678919872717,-0.12108698215886116,-0.29673549635076424,0.60789001454040159,0.90948512790713698,-0.57571837654731284,0.26108995046325245
0.12721452771798036,0.35746781816024376,0.90365500257739551,-0.014820872743407598,0.29165211241838507,0.85601545133518697,0.50486650387041365,-0.38779892935174076,-0.053096304505894087,-0.054668561961779494,0.99734125554376551,0.63515478565991046,0.066481846277397727,0.30311072543681084,-0.0041748040998585978,-0.41508657371765034,0.70930135183679033,0.6884906345991455,0.2920732630095666,-0.77777873120325669,0.46598691772575496,-0.47529272651183763,0.19146722886708933,-0.75761175555455362,0.72107582361610834,-0.26800117818842129
0.0037716875192363997,0.10633372067918434,0.60568925734515044,-0.74608468450520316,-0.26757203401634055,-0.4324212954892126,-0.28504969889953191,0.012333846192476461,-0.453416839560709,0.55370608152212752,-0.76575155077499413,0.052462240247207692,0.55984037972757794,0.56189234806235344,-0.30213674699749826,-0.24197665830205284,0.86667021329498062,-0.86728681268256347,-0.91371333215761985,0.99111432891362572,0.80205417284660241,-0.69106708453849031,0.75760544361918924,-0.68293489581081057,-0.56322678697868289,-0.27221592713247333
-0.862308478719223,0.98525600688588444,-0.37866813804350685,0.18880929884545683,0.71053138600101096,-0.75046326561575216,0.67927052703665947,0.76707302373973718,0.22934723901789345,-0.64940488868820867,0.34261551157301584,-0.16905287204412112,-0.75914190504093293,0.08261870145260608,-0.66913494147476205,0.82938054565091113,0.99891141172297804,0.2314731187199659,0.86833915952627372,0.00032468918197281482,-0.75848288658490337,-0.63201357424141458,-0.82158500116804545,0.22824474815819773,-0.096141225064168445,0.090643875685510578
