-0.77107390708343826,0.52204889037726576,-0.86919975016545115,-0.90810941847991344,-0.64844614812995616,-0.47451418287180691,0.012093605415673281,0.97499179037057981,0.35224518359897505,0.68399759862248,-0.84515754938239396,0.39838151913448483,-0.43793046449063788,-0.82093670473271763,-0.27754623812639245,0.28067237013795432,-0.60757109899352901,-0.3035658294335033,-0.81747572551044057,0.61059678919872717,0.081288437124567015,-0.29673549635076424,0.60789001454040159,-0.049362924943307407,-0.74949348137447447,0.88784027192536974
0.12721452771798036,0.35746781816024376,-0.66551810653695886,-0.014820872743407598,0.29165211241838507,0.85601545133518697,-0.79937979486922872,-0.38779892935174076,-0.46414002485519656,-0.79607685732712685,0.99734125554376551,0.63515478565991046,0.066481846277397727,0.25808165540408301,-0.0041748040998585978,-0.41508657371765034,-0.24376998007973061,0.6884906345991455,0.2920732630095666,0.86156984169721551,-0.2729083033425268,-0.69457213945713359,0.91089880619747232,-0.060622789343212968,0.72107582361610834,-0.16274169093519175
0.0037716875192363997,0.016300089781475791,-0.69741200585345142,-0.74608468450520316,-0.031653538503533252,-0.4324212954892126,0.59553251668187723,0.012333846192476461,-0.71846311354013936,0.55370608152212752,-0.45893720622864609,0.052462240247207692,0.55984037972757794,0.77727102201966369,-0.86484850722566642,-0.24197665830205284,-0.41662207434455256,-0.86728681268256347,0.091709748706210625,0.74418955821038923,0.16256721076510683,-0.69106708453849031,0.99419144103093449,-0.10986019259435564,0.44542597023050456,0.71502543886583725
-0.80318343543534154,0.76234751949881963,0.64325493903287323,0.49003672351857852,-0.55623654029679059,0.54448271761481926,-0.96687799389147999,0.76707302373973718,-0.26047017296584607,-0.64940488868820867,0.96140907625233551,-0.29717717573958913,-0.75914190504093293,0.08261870145260608,0.74864041381948354,-0.89027937159794601,0.99891141172297804,0.74753114819519539,-0.40694589335941633,0.96612871201048445,-0.75848288658490337,-0.63201357424141458,-0.42354595705457498,0.353653116670676,0.11159108569189913,-0.06259323871067024
