0.94804981665464605,0.52204889037726576,-0.86919975016545115,-0.90810941847991344,-0.64844614812995616,-0.11049967522127835,-0.42322998219594266,0.279042920346388,0.35224518359897505,0.68399759862248,-0.9452738737958879,0.39838151913448483,0.48561606166743365,-0.50437333593942313,-0.27754623812639245,0.28067237013795432,-0.60757109899352901,-0.3035658294335033,-0.81747572551044057,0.61059678919872717,0.9496763483808579,-0.25356353117500263,0.60789001454040159,-0.049362924943307407,-0.74949348137447447,0.88784027192536974
0.85233720814714586,0.23105042364922945,-0.66551810653695886,-0.014820872743407598,0.29165211241838507,0.095180531361759968,-0.79937979486922872,-0.38779892935174076,0.88937063020930651,0.92937309336229723,0.99734125554376551,0.99129539078330331,0.066481846277397727,0.25268632820017123,-0.0041748040998585978,-0.41508657371765034,0.13044160757439149,0.6884906345991455,0.2920732630095666,0.86156984169721551,-0.2729083033425268,0.031498339648262874,-0.34063658994057078,-0.75761175555455362,0.72107582361610834,-0.26800117818842129
0.0037716875192363997,0.10633372067918434,-0.69741200585345142,-0.74608468450520316,0.91331671813273707,-0.4324212954892126,0.2451087862292991,0.012333846192476461,0.039178736478461484,-0.25763075189320972,-0.45893720622864609,0.052462240247207692,0.55984037972757794,0.56189234806235344,-0.49599333154689496,-0.24197665830205284,0.86667021329498062,-0.86728681268256347,0.091709748706210625,-0.92254456306623389,-0.43087055201805957,-0.69106708453849031,0.75760544361918924,-0.14018525253280179,-0.15749851478918209,-0.29404749914721995
-0.80318343543534154,0.98525600688588444,0.64325493903287323,-0.32520039500815723,-0.55623654029679059,0.54448271761481926,-0.96687799389147999,-0.27540552018159947,0.22934723901789345,-0.64940488868820867,0.96140907625233551,-0.66957030555008212,-0.75914190504093293,0.08261870145260608,0.73634499778404172,0.0041083874656413499,-0.39535072007217265,0.74753114819519539,-0.40694589335941633,-0.6702320238869961,-0.06598916619918227,0.80759049319462983,-0.34490723457256678,0.353653116670676,0.11159108569189913,0.090643875685510578
