-0.77107390708343826,0.52204889037726576,0.46292892827349252,0.15840754375846333,-0.64844614812995616,0.96612567960888907,0.019658463984266961,-0.024794501469483032,0.35224518359897505,0.68399759862248,0.70147507985842661,-0.47438699077144864,0.48561606166743365,-0.82093670473271763,-0.27754623812639245,0.28067237013795432,-0.60757109899352901,-0.3035658294335033,0.059627712647587705,0.61059678919872717,0.9496763483808579,-0.29673549635076424,0.60789001454040159,-0.049362924943307407,0.52215184701363948,0.92633271638742554
0.12721452771798036,0.35746781816024376,-0.66551810653695886,-0.014820872743407598,0.29165211241838507,-0.30673009268929108,-0.80179312773075972,0.47206438997519129,-0.46414002485519656,0.73723659690454402,-0.49963249993454406,0.63515478565991046,0.36830131784275655,0.25808165540408301,-0.0041748040998585978,-0.11189137786044734,-0.24376998007973061,0.6884906345991455,0.84924846791298902,-0.29845845903678359,-0.16265123546637117,-0.47529272651183763,-0.42975696526413176,-0.75761175555455362,0.61014520782019832,-0.26800117818842129
0.39473547315869428,0.10633372067918434,-0.69741200585345142,-0.74608468450520316,-0.43156287230107182,-0.4324212954892126,-0.049607095957098446,0.012333846192476461,-0.71846311354013936,0.54893757250931219,0.95066810698560289,0.052462240247207692,0.55984037972757794,0.56189234806235344,0.21959324419166659,-0.24197665830205284,0.99322942535653702,0.36844743905533339,0.091709748706210625,0.74418955821038923,0.077701660385400828,-0.69106708453849031,0.93551987092101596,-0.14018525253280179,-0.74855119383686097,-0.29404749914721995
-0.058763918035829033,0.51591051657150788,0.077294489668460864,-0.32520039500815723,-0.55623654029679059,-0.21706076321847734,-0.96687799389147999,-0.3080121132314495,0.22934723901789345,0.70945634546575587,-0.67957459825291022,-0.66957030555008212,0.55206119516876528,0.32968834088570498,0.74864041381948354,0.0041083874656413499,0.56675603868071711,0.74753114819519539,0.35181655279305546,0.0059623252205751598,-0.75848288658490337,-0.63201357424141458,-0.34490723457256678,0.353653116670676,0.70045220363978622,0.090643875685510578
