-0.12297113209459143,0.71781008551984526,0.89883397513053342,-0.26113692406639855,0.93506523016350163,-0.94046289237341418,-0.20800226389954757,0.98117998598589762,0.2216235035085139,-0.14204677781696518,-0.9827766725691911,0.19595779734470464,-0.74985201834979254,0.36225654795055839,-0.82058245312868539,0.035206121363598575,-0.5178628454119103,0.5865556642212284,0.27005404962634616,0.38460063928558785,-0.31500950346294143,-0.44140447030373942,0.10472764475024654,-0.78283247650324261,-0.0722138312603815,-0.70127331563720263
-0.98711054345770566,0.42208145408637177,0.21002791684125266,-0.76620947301190601,0.0016952872127047325,-0.75877445751813855,0.12425345900794671,0.74162914141069614,-0.42273153432736632,-0.051080159211520204,-0.40491107941234405,-0.88137726411548867,-0.24862951479792983,-0.88363940877719727,-0.09988743812359191,-0.48673065986152309,-0.73230542190155523,-0.62229974642109531,-0.83421595466336784,0.27564351023180311,0.53552248527871904,0.74289210979415143,-0.19533319666988236,0.76108988988895798,-0.45287498768206058,0.80702501916142122
-0.33206731945221235,-0.58713433917735869,-0.38472377582979189,-0.24252502444303703,-0.56614330663546353,-0.64323264843443173,0.28583477188436923,-0.7707810581846577,0.96660677009082074,0.15458715249745758,0.87151651884893511,-0.13860571592835402,-0.053067582756842535,-0.90674883418066554,-0.16101802061522852,0.33569732349120285,-0.26809616586273055,-0.092176851369841106,-0.062845651901455302,0.85702243918930199,-0.1239294879970001,-0.6342694160575737,0.014833701490645002,0.8035880623725844,0.57730176198373839,0.37409663259784298
-0.31289197595324225,0.071557137571445217,0.60506407949789898,0.52617617119790761,-0.25804587370465559,-0.07459036708707556,0.5168439170661332,0.20142255680724497,-0.73764498339058826,-0.089664651045775035,0.9586696435623645,0.39072266888273632,0.29839363913180805,-0.58860189768693427,-0.10269854467232342,0.14904925711531947,-0.33951566494158936,0.62412734022408922,-0.001103002252119456,0.16917786831664117,0.78096201892136374,-0.027291471256590594,-0.65464666008232908,0.20256197984488811,0.72365283053048479,-0.93797652606792559
