0.29144192738773,-0.5979619154636433,0.39752284844132024,-0.28426365652430552,0.93506523016350163,-0.91790925147156255,0.88089582262426736,0.11223350695501932,0.2216235035085139,-0.81091657574601239,-0.0078387110892890188,0.19595779734470464,0.035334959422196999,-0.32966661094439775,0.61083938615969946,0.035206121363598575,-0.5178628454119103,0.5865556642212284,-0.76155906546859709,0.025247778907766083,-0.31500950346294143,-0.63768692875108113,0.23836734385021097,0.39247134614202928,-0.0722138312603815,0.52549728513550731
-0.23824477979310332,0.024478118354714695,-0.76594399515574874,-0.76620947301190601,0.98719599053630214,-0.75877445751813855,0.94298467153549081,0.11554967331476473,-0.42273153432736632,-0.051080159211520204,-0.40491107941234405,-0.88137726411548867,0.97924013105008623,-0.60651501306713351,-0.09988743812359191,0.5290937643127307,0.91416980951589366,-0.62229974642109531,-0.83421595466336784,0.27564351023180311,0.53552248527871904,0.27683155967135309,-0.19533319666988236,0.76108988988895798,0.69272592914112918,0.80702501916142122
-0.032571290713625745,-0.58713433917735869,0.10542712980677527,-0.11086511901111562,-0.56614330663546353,-0.32153535041286618,0.28583477188436923,-0.7707810581846577,0.34030352295071808,0.70862778541612581,-0.80124072732060925,-0.13860571592835402,-0.48654731810752727,0.18521216408321428,-0.16101802061522852,0.13991546358518292,-0.26809616586273055,-0.7477083654926755,0.94579152297887492,-0.088022163316706648,0.20212882684235534,-0.6342694160575737,0.014833701490645002,-0.62271094338684807,-0.10472044037140238,-0.085259728098558307
-0.31289197595324225,-0.041120046803623023,0.012775431815121863,0.52617617119790761,-0.37762963371029623,-0.07459036708707556,0.90243884225134141,0.3937632550856196,0.16962040567414238,-0.089664651045775035,0.012702061194361125,-0.47065827758536605,-0.35420677000367862,-0.53394609341937449,0.97727660840047159,-0.094941134271144811,0.25070343873230505,0.62412734022408922,-0.67652001745064716,0.16917786831664117,0.2942050193234742,0.12260207176237969,-0.65464666008232908,0.20256197984488811,-0.66540922283299064,-0.93797652606792559
