0.56429516468224006,0.99034363620168731,0.24596603250272908,0.71935299467466485,-0.28004091864906533,0.038061500488708377,-0.50331402846740492,-0.070864652570297615,-0.51886790552308248,-0.98227229963702034,0.55031841715560481,0.57094981483333962,-0.34049575859999393,0.79727146907081647,0.22245035967206461,0.02398994625045936,0.37932064063329407,-0.16907586913873995,-0.49428451102771387,-0.69014773901581195,0.78755936167246188,0.97774623118180437,0.94196013485926344,-0.18680633500080401,-0.30376436876416246,0.76329598091374096
0.64151866273561309,0.28942200343095026,0.9941815615401719,0.40318631843387975,-0.78421882904843332,0.25934516212214276,-0.8322373479966223,-0.34478291499007585,0.27452455517071206,-0.31581367287586515,0.33289705835799555,-0.97459576329095943,-0.68526265033734046,-0.67018391844500225,-0.19064636087093856,-0.555486690195508,-0.75722962748983802,-0.38487705575993392,0.82090179222190018,0.72581995547730771,-0.64851971742125536,-0.45858282015257035,-0.047364451941139141,-0.073980914934967057,0.16125394910811464,-0.27797111451147449
0.63021039232722531,-0.52754284831230569,0.11684536996973272,0.68181614065186946,0.95577014005787553,-0.34695094067264409,-0.12560791244767699,-0.026638574981119767,0.19095883883813825,-0.45464014830030997,-0.74435112757385746,-0.45270900995732055,0.10255875748242471,0.69542568099630908,-0.50000836277056693,-0.31101153845044704,0.95718857512271915,-0.40944156220911077,0.61037127538137792,0.15838374471127215,0.33762582264507124,-0.31122642598374628,-0.51888616847345781,-0.3456147581550435,0.31654800358557278,-0.64476760523512189
0.20101864637099398,0.40983292048774844,-0.03723213904219258,-0.60156303419979573,0.65127201017976777,-0.96103735904177912,-0.38351178195386093,0.77423988931287391,0.81616373357732708,-0.95503570907280344,-0.52610936778843831,0.18123295026377839,0.084027242574069794,-0.59189688332751378,0.81775360329065938,0.22732239070744953,-0.27234930803762158,0.41431523219140365,-0.26183106984441462,0.36554011394993124,0.72510264483515852,-0.22936739561688668,0.58900496062613783,-0.098057922899965622,0.18916460720536166,0.13418218810267968
