0.29144192738773,0.7904871117342307,0.39752284844132024,0.10701038564438381,0.32442186823962427,0.29773507578174252,-0.85379066507076407,-0.69618145331260584,0.2216235035085139,-0.69509330637608469,0.80953460564178892,0.19595779734470464,0.035334959422196999,-0.4052606547614761,-0.19719903953538664,0.37764548990408509,-0.5178628454119103,0.5865556642212284,0.93847583703783122,0.025247778907766083,-0.31500950346294143,-0.63768692875108113,0.23836734385021097,0.28237799641578065,-0.61520078176256932,0.52549728513550731
0.093992491839059111,-0.27356547390292918,0.38952025277533742,-0.76620947301190601,-0.10377517458970598,-0.91968140635267748,0.94298467153549081,0.74162914141069614,-0.42273153432736632,-0.051080159211520204,-0.40491107941234405,-0.5251012214133326,-0.24862951479792983,-0.46965122725439445,-0.23002212908828779,0.5290937643127307,-0.56588018135991591,0.66623406596228696,-0.83421595466336784,0.27564351023180311,0.27696285028913836,0.27683155967135309,-0.11854061976326524,0.76108988988895798,-0.69061003086990258,0.80702501916142122
-0.032571290713625745,-0.58713433917735869,-0.38472377582979189,-0.11086511901111562,-0.56614330663546353,-0.32153535041286618,0.28583477188436923,-0.7707810581846577,0.96404226076342625,0.70862778541612581,-0.2471264720253632,-0.13860571592835402,-0.56987795104125971,-0.62123679635615403,-0.38176520594924934,0.13991546358518292,-0.26809616586273055,-0.092176851369841106,0.94579152297887492,-0.088022163316706648,-0.1239294879970001,0.65171287180478354,0.79773822894527546,0.43102088477513623,-0.88389851331436886,-0.085259728098558307
-0.84345240040296265,0.73495176844989363,0.88857061847591545,0.52617617119790761,-0.37762963371029623,-0.22217490343796453,0.90243884225134141,0.20142255680724497,0.61759495643599127,-0.089664651045775035,0.28014149692610446,-0.47065827758536605,-0.66282205438852371,-0.53394609341937449,0.97727660840047159,0.14904925711531947,0.25070343873230505,-0.13646678554354175,-0.001103002252119456,-0.85081990983691669,0.2942050193234742,-0.027291471256590594,0.22283844702845168,0.2890913559994821,-0.66540922283299064,-0.43330173771980629
