0.29144192738773,-0.087029945972882938,0.39752284844132024,-0.57404830681715246,0.32442186823962427,0.68613858362710944,-0.85379066507076407,-0.69618145331260584,0.2216235035085139,-0.69509330637608469,0.80953460564178892,-0.61976881800069328,-0.38382537166628383,0.36225654795055839,-0.30770958036018725,-0.32141285104799566,0.73465423778573924,0.5865556642212284,0.93847583703783122,0.025247778907766083,-0.31500950346294143,-0.63768692875108113,-0.45898534145763414,0.060770829322642106,-0.34153908344749695,0.52549728513550731
-0.23824477979310332,0.29241113542708885,-0.69357390849615941,-0.76620947301190601,-0.61908457849370135,-0.91968140635267748,0.94298467153549081,0.74162914141069614,-0.42273153432736632,0.77391203752348781,-0.40491107941234405,-0.88137726411548867,0.49051663250274191,-0.46965122725439445,-0.09988743812359191,0.13489729308331833,0.94592432133755677,-0.62229974642109531,-0.67794981833076418,-0.78817196397287059,0.53552248527871904,0.27683155967135309,-0.11854061976326524,0.65182988951515108,-0.6974471144468255,0.80702501916142122
-0.80815665615923127,-0.58713433917735869,-0.38472377582979189,-0.11086511901111562,-0.90732500099161406,-0.32153535041286618,0.93924601387746387,0.60707773749225757,-0.33454828409375947,0.70862778541612581,-0.38085295086584847,-0.13860571592835402,-0.56987795104125971,-0.90674883418066554,-0.16101802061522852,0.77815951934883842,-0.26809616586273055,-0.092176851369841106,0.94579152297887492,-0.088022163316706648,-0.1239294879970001,-0.6342694160575737,0.014833701490645002,0.43102088477513623,-0.53296223388776487,-0.085259728098558307
-0.31289197595324225,-0.25885566056509735,-0.69208433342021869,0.1882949203130635,-0.37762963371029623,-0.07459036708707556,0.90243884225134141,0.20142255680724497,0.090659843582511446,-0.089664651045775035,0.61331396827567053,-0.47065827758536605,-0.66282205438852371,-0.53394609341937449,0.97727660840047159,0.24084261148716535,0.25070343873230505,0.62412734022408922,-0.001103002252119456,-0.73830119321606213,0.2942050193234742,0.73399843088047656,-0.0056263091257438003,-0.52551529749258119,-0.66540922283299064,0.88540526431705158
