-0.75112910733356397,0.48001194017606852,-0.2697283783104174,0.3589609330829846,-0.34004573065151278,0.57563420012934463,-0.97875604824787454,-0.30104024831734799,-0.48816624690577459,-0.27548546188336176,-0.42329816256630393,0.85597875720688599,0.067055338897498817,0.045966060197021097,-0.41954861864112569,0.15944988973043639,-0.36769898673636536,-0.45165765397217106,-0.37541520532460182,0.49794957780327054,0.67891301158153117,-0.40556726127953313,-0.36168863129082429,-0.072694081788397868,-0.1753477418445113,0.67921628571343851
-0.42760774320414918,-0.6252043164298251,0.37706340497628643,0.74902104446193229,-0.21586738830906738,-0.12509023992967139,-0.14277649520441971,0.64844097684559543,0.12975550354385335,-0.5697700761649962,-0.57894330311102671,-0.47900174644264282,0.44229775064919408,0.88939420972193206,0.044240499889271367,0.68213587756428717,0.53282630226819094,-0.75944910830502788,0.95252668158558818,-0.97236621191491635,0.84455743748193557,-0.19354289363557808,0.90776157296565785,0.024337809003240451,0.11970347583365371,-0.25959684521249327
0.37089371385740444,0.91977837341566282,0.37700300591623837,0.82538927782068039,-0.82996378531469084,-0.42665797970904196,0.93506855548451351,-0.71001244787272233,0.040817812894960337,-0.021506740025814652,0.2476861308623739,-0.74819729647632793,-0.41823244571436491,0.73396560898414243,0.71947189166833225,-0.89418675280518456,-0.021391889854079027,-0.35772594855972906,-0.53708190184401627,0.73257314401667273,0.7780255985156872,0.046946642644236425,-0.0057830552803146418,0.43581240557968659,-0.085998575537912014,0.092038596347861379
-0.57530122310394294,0.76969354473166973,0.18782112119763017,-0.21584353113728683,-0.48502021856897648,0.88584474593474472,0.93380909238226173,0.90486649803613739,-0.52532571376877613,-0.62486101995731946,-0.67052699225966217,0.92496557487829745,0.37786123316215536,-0.9210641160514923,0.088614914847484183,-0.11792925789887398,-0.73463498497543656,-0.19989035824720958,0.82463523305141484,-0.84093904407726505,-0.26070250577197607,-0.19250801094681314,-0.3943364487049339,0.84314273540874973,-0.786923413303936,0.3883519070367436
