-0.26693964354845079,0.00099838784412353831,0.050970160605587012,-0.6203930717212478,0.32442186823962427,0.68613858362710944,-0.59603102927437468,-0.69618145331260584,0.2216235035085139,0.33436399840009035,0.57139715540044533,0.19595779734470464,0.035334959422196999,0.55524251042759309,0.81486781206440262,0.093585333742356447,-0.99050563099743449,-0.77742637178902396,0.39044132606021242,0.025247778907766083,0.56375811081748695,-0.29673549635076424,0.23836734385021097,-0.091777653187521624,-0.34153908344749695,0.52549728513550731
-0.23824477979310332,-0.36137267604904344,0.38952025277533742,-0.76620947301190601,-0.88731991716306036,-0.44075777977107111,0.46548809695003346,0.49083619268554668,-0.42273153432736632,-0.99386971216814568,0.05729550729990418,0.8342517481826166,-0.24862951479792983,-0.56433927003918294,-0.49885318499464226,0.1206094594893834,0.38494122322617286,0.66011837986426669,-0.18334307837057207,-0.15143199056382906,0.74382506585826746,0.27683155967135309,-0.019855128963452984,0.067631952425103004,0.69272592914112918,-0.23225687346527657
-0.032571290713625745,0.55567265628309204,-0.17291381997273869,-0.7132196535635813,-0.56614330663546353,-0.32153535041286618,0.28583477188436923,-0.7707810581846577,0.15722456235094473,-0.38353783910892059,-0.2471264720253632,-0.20574670161626796,-0.56987795104125971,-0.31494537991046889,-0.16101802061522852,-0.48990392825897033,-0.27626883497500421,-0.78237063319796429,0.96704031453480543,-0.088022163316706648,0.57183968579538003,-0.222285545823665,-0.35570716560692062,0.3987170228186816,-0.10472044037140238,0.094618603286983571
0.38597202804079056,0.99880831320724073,-0.79398695547369225,-0.4896530604215541,-0.37762963371029623,0.96599397374048457,0.88638201480812984,-0.018328077246125396,0.14046469759693325,-0.089664651045775035,-0.46962072394485155,-0.47065827758536605,-0.66282205438852371,-0.31925737840460955,0.079834506238824599,-0.36644119422690746,0.25070343873230505,-0.12967906435631282,-0.99144800575569358,-0.94653898766546196,0.34031860757542232,0.51663212494068889,0.364230847531261,0.32589113921868584,0.85253052468005386,0.095919729019426914
