0.29144192738773,-0.87658733376153353,0.050970160605587012,-0.6203930717212478,-0.97307377149850738,0.68613858362710944,-0.59603102927437468,0.90452466745672866,0.74331530437675686,-0.69509330637608469,-0.085442164820930255,0.19595779734470464,-0.4829985070682794,-0.11495424465015947,0.81486781206440262,0.093585333742356447,-0.99050563099743449,0.5865556642212284,-0.7239306287224383,0.025247778907766083,0.56375811081748695,-0.29673549635076424,0.23836734385021097,-0.74632768240981173,-0.34153908344749695,0.52549728513550731
-0.23824477979310332,0.29241113542708885,0.38952025277533742,-0.76620947301190601,0.77559521091440042,-0.91968140635267748,0.46548809695003346,0.49083619268554668,0.10277024205601371,-0.99386971216814568,-0.82611917896198173,-0.88137726411548867,-0.5988503067596207,-0.46965122725439445,-0.49885318499464226,0.1206094594893834,0.38494122322617286,0.58215119603637411,0.047822364264620276,-0.15143199056382906,0.74382506585826746,0.27683155967135309,-0.019855128963452984,0.70823550583473738,0.69272592914112918,-0.31376465853485458
-0.032571290713625745,-0.3419313559853272,0.35393877804884033,-0.7132196535635813,-0.56614330663546353,-0.32153535041286618,0.28583477188436923,-0.7707810581846577,0.15722456235094473,-0.38353783910892059,-0.2471264720253632,-0.52904645929776373,-0.7784022467252123,0.68664752909949645,-0.16101802061522852,-0.22901675406234556,-0.27626883497500421,-0.34673665701148448,-0.11129622871287204,0.40065207389382396,-0.88787640764892584,-0.222285545823665,-0.73517779199248467,0.3987170228186816,-0.10472044037140238,-0.16689187784356463
0.38597202804079056,-0.96572706174842349,0.48270938847682365,-0.4896530604215541,-0.37762963371029623,0.284784874768093,0.90243884225134141,-0.018328077246125396,-0.24403850284307183,-0.089664651045775035,0.79611569582160602,-0.47065827758536605,-0.66282205438852371,-0.67729255036866465,0.079834506238824599,-0.36644119422690746,-0.6816550295358208,0.36902086917249544,-0.99144800575569358,-0.94653898766546196,0.2942050193234742,0.51663212494068889,-0.19770458786174405,0.32589113921868584,-0.98551798911636723,0.095919729019426914
