0.29144192738773,-0.49516149214769811,-0.55337696452020291,-0.15967960291364869,0.32442186823962427,-0.81928970229227827,0.36934682993545165,0.25672635994591286,-0.41691311440880585,-0.69509330637608469,-0.085442164820930255,-0.30330688337825307,0.035334959422196999,0.36225654795055839,0.83321341310005836,-0.81935312322425702,-0.99050563099743449,-0.16940260119651507,-0.27992160217018314,0.9686843354587189,0.035782308296259391,-0.29673549635076424,0.23836734385021097,-0.74632768240981173,-0.34153908344749695,0.52549728513550731
-0.23824477979310332,-0.87459207446869724,0.38952025277533742,0.56938867406390248,0.77559521091440042,-0.059488042887007486,0.46548809695003346,0.49083619268554668,-0.57782270074523101,0.35479661927692252,-0.26110228332907903,-0.54727584245010541,-0.24862951479792983,-0.46965122725439445,-0.11766635301407269,0.1206094594893834,0.38494122322617286,0.58215119603637411,-0.18334307837057207,0.37360218538234702,0.74382506585826746,0.27683155967135309,-0.019855128963452984,0.9983364882257777,0.69272592914112918,-0.31376465853485458
-0.11356577460901041,0.18808431501015588,-0.58931137297295488,-0.77811115270281661,-0.56614330663546353,-0.32153535041286618,0.28583477188436923,0.84040027673038398,0.15722456235094473,0.049274895177395361,0.80087040735528747,0.48752275214708951,-0.56987795104125971,0.68664752909949645,-0.16101802061522852,-0.22901675406234556,-0.27626883497500421,-0.34673665701148448,0.94579152297887492,-0.088022163316706648,0.57183968579538003,0.87669034736658724,0.79877325629223472,-0.96418138008279852,-0.10472044037140238,-0.085259728098558307
0.38597202804079056,0.26741243183045693,-0.12397379581503465,-0.4896530604215541,-0.37762963371029623,0.284784874768093,0.90243884225134141,-0.018328077246125396,0.85348066334609718,-0.089664651045775035,0.11596242773830823,-0.47065827758536605,0.55585707036986176,0.13815243807236799,-0.060489258104982735,-0.080769187996568403,0.25070343873230505,-0.21405061428602812,0.17123266331895381,-0.97296963894723931,-0.63446279938292949,0.51663212494068889,-0.39266169345289792,-0.10575339671337192,0.85253052468005386,0.095919729019426914
