0.29144192738773,-0.49516149214769811,0.050970160605587012,-0.29206285338411697,0.32442186823962427,0.38966597258215097,0.65578254937526603,0.38351676406288915,-0.65893928292686565,-0.69509330637608469,0.53954900162962049,-0.58464981812620964,0.035334959422196999,0.17792627405366046,-0.9610541017106744,0.093585333742356447,0.399198022049849,-0.82574532079346952,0.39108723659124611,0.9686843354587189,0.45058207773102121,-0.30004722944072326,0.23836734385021097,0.24397091698529749,-0.34153908344749695,0.11043488724804273
-0.23824477979310332,-0.82393118356816464,0.19627248867125124,0.56938867406390248,0.77559521091440042,-0.059488042887007486,0.68019920400943357,0.49083619268554668,-0.36172320243949896,-0.99386971216814568,-0.26110228332907903,0.84143298793091881,-0.24862951479792983,-0.46965122725439445,-0.49885318499464226,0.10190840386829403,0.38494122322617286,0.58215119603637411,-0.18334307837057207,0.37360218538234702,0.48608999351137894,0.27683155967135309,-0.019855128963452984,0.14859395178008472,-0.098795034523489367,-0.31376465853485458
-0.032571290713625745,-0.7557023471926132,-0.58931137297295488,-0.7132196535635813,-0.56614330663546353,0.31838790011176776,0.53831294547534347,-0.7707810581846577,-0.68430435365109599,0.090639528611520692,0.50806331602661103,-0.92498375275882649,-0.28816690853448956,-0.043445158296805397,-0.16101802061522852,0.84684340234559485,0.40745247928161543,0.39676770801886518,0.93661295425274993,-0.52419699538726272,-0.68984333121796193,0.87669034736658724,0.79877325629223472,-0.22168776783804023,-0.6892172112155277,-0.085259728098558307
0.21309386918038076,0.99880831320724073,0.094098606930517192,-0.4896530604215541,-0.47414886957974578,-0.12126491604671963,0.90243884225134141,-0.2964410101962196,0.85348066334609718,0.53779966592380135,0.11596242773830823,-0.47065827758536605,0.70086573876967107,0.67147103830328447,0.079834506238824599,0.27127115461672835,0.33824560723241692,-0.12967906435631282,0.1595013109701493,-0.59345075915347012,-0.63357448893638924,-0.81984757090859595,-0.96702472119209748,0.91318821251875448,-0.44538199565182501,0.095919729019426914
