0.29144192738773,-0.49516149214769811,0.050970160605587012,-0.29206285338411697,-0.98195376546247481,0.38966597258215097,-0.58373501485359469,-0.69618145331260584,-0.65893928292686565,-0.69509330637608469,-0.30793659514465244,-0.58464981812620964,0.035334959422196999,-0.51465445723694403,-0.64606927340137554,0.093585333742356447,0.66752457199955195,-0.82574532079346952,0.39108723659124611,0.9686843354587189,0.45058207773102121,-0.29673549635076424,0.23836734385021097,0.24397091698529749,-0.34153908344749695,0.52549728513550731
-0.23824477979310332,-0.82393118356816464,0.38952025277533742,0.82762113148964755,0.04628630045741855,-0.62478043775749836,0.84825287403464467,0.9050865945474591,0.75236185768785879,0.26210620694951303,-0.26110228332907903,-0.88137726411548867,-0.24862951479792983,-0.46965122725439445,-0.49885318499464226,0.10190840386829403,0.38494122322617286,0.61328014444588885,-0.18334307837057207,0.87119178577582956,0.48608999351137894,-0.11803352265404166,0.89265862710581878,0.70823550583473738,0.69272592914112918,-0.31376465853485458
-0.032571290713625745,0.18808431501015588,-0.58931137297295488,-0.7132196535635813,-0.56614330663546353,-0.78339900443831678,0.53831294547534347,0.61958141510046238,-0.68430435365109599,0.090639528611520692,-0.2471264720253632,-0.70672447131655702,0.4910342016926339,0.16652555648351108,-0.87500426963085043,0.84684340234559485,-0.27626883497500421,0.39676770801886518,0.94579152297887492,-0.52419699538726272,0.57183968579538003,0.87669034736658724,-0.39353464726696674,-0.97419557300294857,-0.10472044037140238,-0.085259728098558307
0.7201354352859235,0.99880831320724073,0.48270938847682365,-0.4896530604215541,-0.47414886957974578,-0.12126491604671963,0.83771601685176789,-0.018328077246125396,0.72630297275813249,0.53779966592380135,0.17504016946098089,-0.47065827758536605,0.55585707036986176,-0.4875359571254827,0.079834506238824599,0.27127115461672835,-0.50057943071068656,-0.12967906435631282,-0.10414655011374085,-0.59345075915347012,0.95617999949107757,-0.81984757090859595,-0.29082124958138511,0.84448287747715622,0.054708880574890095,0.095919729019426914
