0.29144192738773,-0.49516149214769811,0.050970160605587012,0.87328399023734149,0.32442186823962427,0.38966597258215097,-0.58373501485359469,-0.79129788186920913,0.22033437118096311,-0.69509330637608469,0.31280480272393607,-0.58464981812620964,0.035334959422196999,0.36225654795055839,0.9164849737298173,0.15500172129661349,0.66752457199955195,0.11670933256250215,0.39108723659124611,0.63275509555396092,0.45058207773102121,-0.29673549635076424,0.23836734385021097,0.11700219675756807,-0.34153908344749695,0.52549728513550731
-0.23824477979310332,-0.82393118356816464,0.38952025277533742,-0.40328697935570701,0.77559521091440042,-0.059488042887007486,-0.14593584800583059,0.49083619268554668,-0.36172320243949896,-0.99386971216814568,-0.26110228332907903,-0.88137726411548867,-0.24862951479792983,-0.46965122725439445,-0.1912265732597549,0.10190840386829403,0.38494122322617286,-0.98128208585842636,0.48940985629340861,0.37360218538234702,0.61783134048962896,0.27683155967135309,-0.019855128963452984,0.70823550583473738,0.69272592914112918,-0.31376465853485458
-0.032571290713625745,0.18808431501015588,-0.58931137297295488,-0.7132196535635813,-0.56614330663546353,-0.32153535041286618,0.72669691534828385,-0.7707810581846577,-0.68430435365109599,0.090639528611520692,-0.16026034500246022,0.48752275214708951,0.4910342016926339,0.68664752909949645,-0.16101802061522852,0.84684340234559485,-0.27626883497500421,-0.53236545330245622,-0.37761193249274916,-0.92820120674489481,0.57183968579538003,0.87669034736658724,0.79877325629223472,-0.97419557300294857,0.10851142717568174,0.8605301872432729
-0.57270902847526139,0.99880831320724073,-0.6121528403091252,-0.4896530604215541,-0.47414886957974578,-0.073918651241852595,0.50058838203533851,-0.018328077246125396,0.85348066334609718,0.53779966592380135,0.11596242773830823,-0.23941287537875611,0.55585707036986176,0.1133760667595487,0.079834506238824599,0.27127115461672835,0.25070343873230505,-0.12967906435631282,-0.29827874099741214,-0.59345075915347012,0.2942050193234742,-0.81984757090859595,-0.96702472119209748,0.72454123504398882,-0.64332070083601889,-0.98094082919033765
