0.29144192738773,-0.077776783949725647,0.050970160605587012,-0.29206285338411697,0.32442186823962427,0.38966597258215097,-0.58373501485359469,-0.69618145331260584,-0.65893928292686565,0.10795857314618851,0.53954900162962049,-0.58464981812620964,0.88481674511142816,0.36225654795055839,-0.9610541017106744,0.093585333742356447,0.66752457199955195,0.60360374114816584,0.39108723659124611,0.9686843354587189,-0.8136421150025801,-0.29673549635076424,-0.26374461434252927,0.24397091698529749,-0.34153908344749695,0.044624369623954108
-0.27438117803548856,-0.82393118356816464,-0.46475794561367767,0.56938867406390248,0.77559521091440042,-0.059488042887007486,0.68360721410048275,0.49083619268554668,0.56596726402702036,-0.40637048791010888,-0.26110228332907903,-0.88137726411548867,0.32649731880497712,-0.46965122725439445,-0.2615248273870634,-0.67802725846375345,-0.39869200946284233,0.58215119603637411,-0.18334307837057207,-0.14323187614751709,-0.28268208317975452,0.27683155967135309,-0.019855128963452984,0.70823550583473738,0.69272592914112918,-0.31376465853485458
-0.032571290713625745,0.18808431501015588,-0.58931137297295488,0.95731532856750445,-0.56614330663546353,0.2952740893917738,0.53831294547534347,-0.7707810581846577,0.1722433012405149,0.090639528611520692,0.94228739142249984,0.26014887482022653,0.49962905733516183,0.68664752909949645,-0.16101802061522852,0.84684340234559485,-0.27626883497500421,0.0078052305709701564,0.20888307487824975,-0.52419699538726272,0.35490539444553693,-0.11716530369458078,-0.10917233071453536,-0.97419557300294857,-0.10472044037140238,-0.085259728098558307
0.010613222169737035,-0.37123817308090379,0.48270938847682365,-0.4896530604215541,-0.4979720476181364,-0.12126491604671963,0.90243884225134141,-0.018328077246125396,0.85348066334609718,0.53779966592380135,0.11596242773830823,-0.47065827758536605,0.55585707036986176,0.55293537046355312,0.079834506238824599,0.27127115461672835,-0.86648057488213848,-0.9686449798612724,-0.99144800575569358,0.51638731704555885,-0.20306587205733306,-0.7274257318010291,-0.96702472119209748,0.17802310922560349,-0.64332070083601889,0.095919729019426914
