-0.15088407545087357,0.11520356041023638,0.62691435070349,-0.94482407563928272,-0.19357476912376081,-0.79482797034659947,-0.90347637987298612,-0.78386726654227323,0.10802268111335356,-0.0056068407790641484,0.042479764520643615,0.7597917370655809,-0.28942167731622903,-0.96022793414695728,-0.23089388390995391,0.57992346312730092,0.88287760812790683,0.33740736018113648,-0.98840089128206654,-0.69341022997065949,0.4312156513377563,-0.77017170075096364,0.99846686747260205,0.57872579678079417,0.074615056359168097,0.57320712152507558
0.89912177948787297,0.13305392427870255,0.6777196141045676,0.85493840318866487,0.31084257910856072,-0.3417240576894458,-0.044244434523838194,0.079246495709103915,0.30271401564377265,-0.62289187250540268,0.69569534666245025,-0.3966975975775302,0.31921042707246317,-0.2592142838229563,0.75680681729302601,0.1330113064458871,0.10249220097215517,0.10013315859537375,-0.48476269830644769,-0.41908145202924119,0.078526399854918383,0.67163710961254752,-0.86621219090779711,-0.18047937424254679,-0.49414721357365954,0.85337551751399388
0.60684581666253434,0.75605060384594736,-0.65922124581064301,-0.63403776416114921,-0.236164823660864,0.31166614476572851,0.18868559690203179,-0.44369553189595456,-0.85820571237204812,0.9271631263048441,0.64279731262277173,0.78226059923787394,-0.21930555340059299,-0.82743708159923313,-0.21998674565856668,0.0038681095222155015,0.12626304764722618,-0.16263564511297957,0.093458513882878291,-0.2276596532849815,-0.13821952623645362,-0.69202778129028975,-0.046773014805348012,0.73313295112338372,-0.43257149287942553,0.37164682863196208
-0.28643361706849535,-0.1939862322886825,0.5581178247025238,0.80804482048854553,0.84150639306630626,-0.29749454069198,0.38427379217508784,0.63621839090477383,0.43850052412803375,0.46156349467379565,-0.46102186616234087,0.0090522393546663693,0.62239326623990299,0.021871567750024523,-0.48591753761988854,0.41672168909578078,-0.73136586405639359,-0.5375346746069154,-0.56948324230843816,0.37008881712484687,0.38535866062707291,0.5690966102348749,0.81500943434506623,-0.70316584840480711,-0.38442293255574356,0.14687523386507051
