0.46507922800276491,0.044241207604277522,0.050970160605587012,-0.29206285338411697,-0.99737307189403834,0.38966597258215097,0.27224662759171525,-0.69618145331260584,-0.99790383444612241,-0.60711034092807692,-0.033926474277588659,-0.95538784553313016,-0.84568962796262515,-0.88432870691251741,-0.9610541017106744,-0.17358835611306311,-0.45474500866397038,0.67466001942656351,0.52557798942199141,-0.8431241581717821,-0.6422097657078798,-0.29673549635076424,0.87894022283565199,0.24397091698529749,-0.34153908344749695,0.54171275054181289
0.91124516918938991,-0.82393118356816464,-0.80278432512663533,0.56938867406390248,0.9018381924896588,0.41318351882302595,-0.78334001249786978,0.29368189788171506,-0.36172320243949896,-0.99386971216814568,-0.25289157049599464,-0.81354773570544303,-0.24862951479792983,-0.31520745254965221,-0.49885318499464226,0.82284081814187138,-0.43089545410454111,0.97803079898060963,0.05165920054140094,0.37360218538234702,0.48608999351137894,0.27683155967135309,-0.22486957932465179,-0.82804210428097247,0.29505627840936666,-0.26468353958753399
-0.81422575492956017,0.12980124645016344,-0.68065725643241448,0.84473972349537041,0.13656198976955269,0.32466828188124741,0.53831294547534347,0.25809325706818975,-0.68430435365109599,0.090639528611520692,-0.43891824515227351,0.48752275214708951,0.4910342016926339,-0.87714424267547475,0.069954341217970839,-0.0051324082258663584,-0.27626883497500421,0.39676770801886518,-0.49570439061574167,-0.87852225800562667,0.9773682998575195,0.46384573858962885,0.39475471789493422,-0.97419557300294857,0.67290546492729719,-0.085259728098558307
-0.90423992402202868,-0.46027835432187536,-0.012691326929348712,0.87216150212416754,-0.33012243671451458,-0.12126491604671963,-0.47834357089143165,-0.018328077246125396,0.85348066334609718,0.53779966592380135,0.11596242773830823,0.23921917823567207,0.55585707036986176,-0.4875359571254827,0.10110533546029421,-0.086932944531996181,0.25070343873230505,-0.41106418773175157,-0.99144800575569358,-0.046619991190272936,0.42326794838596049,-0.81984757090859595,0.61624522812919924,-0.090507696700945051,0.94732443082236228,-0.94476182928914088
