-0.76974706854491348,0.044241207604277522,0.050970160605587012,-0.29206285338411697,-0.018948206485736696,0.38966597258215097,0.27224662759171525,-0.69618145331260584,-0.99790383444612241,-0.60711034092807692,0.78355552985151422,-0.58464981812620964,0.54558472608286501,0.11093389503367601,-0.36387015813613921,-0.17358835611306311,0.73817798309202831,-0.67866068543150893,0.39108723659124611,0.19732673626513719,-0.80036412720606309,-0.19700781143168045,-0.44944016178326085,0.24397091698529749,-0.34153908344749695,0.52549728513550731
-0.30509598184474385,-0.82393118356816464,0.38952025277533742,0.56938867406390248,0.9018381924896588,-0.059488042887007486,0.23684625599229325,0.47841675008680262,-0.06171895815337014,-0.99386971216814568,0.3758268060489931,-0.38349712744159725,-0.14733190664048257,0.32766058400580245,-0.49885318499464226,0.10190840386829403,0.38494122322617286,-0.17120390808351482,0.05165920054140094,-0.2310309875352714,0.48608999351137894,0.55792374823175916,-0.67832324790977139,0.70823550583473738,-0.31678984135885213,0.82887729953764322
0.0037716875192363997,-0.56263843266819591,0.31872790522903394,-0.7132196535635813,0.13656198976955269,0.64935158329740816,0.53831294547534347,-0.81393884364451097,-0.65448663250087535,0.090639528611520692,0.61759784929706729,0.48752275214708951,-0.47342499909025126,0.26988900109169411,0.069954341217970839,0.90391964373572331,-0.88909248355374793,0.066674813682560341,-0.96587910605879435,-0.52419699538726272,0.9773682998575195,-0.7032578888799812,0.39475471789493422,-0.73719321894709888,0.70033104398348578,-0.085259728098558307
-0.90423992402202868,0.23808493363639927,0.89120459564006449,0.1831294445710725,-0.33012243671451458,0.61552976445638818,-0.47834357089143165,-0.57177353047113133,0.16607248591719426,0.6055971620563172,0.11596242773830823,0.23921917823567207,-0.40947021908972925,0.13339674250496891,-0.53410806590308502,0.27127115461672835,0.25070343873230505,0.92282812256886548,-0.99144800575569358,-0.78396033397650688,0.061820028763294399,-0.81984757090859595,-0.91178152146833513,0.38952083306491647,-0.64332070083601889,0.56483957200900337
