-0.76974706854491348,0.74418818081973415,0.050970160605587012,-0.29206285338411697,-0.64844614812995616,0.38966597258215097,0.27224662759171525,-0.69618145331260584,-0.99790383444612241,0.5823305251190305,-0.033926474277588659,-0.58464981812620964,-0.15070988167593335,-0.88432870691251741,-0.36387015813613921,0.10250157871171872,-0.13123902480972127,-0.32468306080249731,0.39108723659124611,0.19732673626513719,-0.80036412720606309,-0.29673549635076424,-0.44944016178326085,0.24397091698529749,-0.34153908344749695,0.52549728513550731
0.66632831296781059,-0.82393118356816464,-0.42903817654912046,-0.30474715561590249,0.9018381924896588,-0.059488042887007486,-0.86727237576172644,0.31613902927730986,-0.06171895815337014,0.46406517348112453,0.3758268060489931,-0.81354773570544303,0.35830989562106774,-0.31520745254965221,-0.43148071770366569,0.10190840386829403,0.38494122322617286,0.55433813210057448,0.05165920054140094,-0.82213504451935671,0.48608999351137894,0.27683155967135309,-0.67832324790977139,0.70823550583473738,0.69272592914112918,0.82887729953764322
0.60919825725145693,-0.23123497697947126,0.31872790522903394,-0.7132196535635813,0.13656198976955269,0.64935158329740816,0.53831294547534347,-0.10387546991592522,0.78167367248011943,0.090639528611520692,0.61759784929706729,0.48752275214708951,-0.47342499909025126,0.4109912863920997,0.069954341217970839,0.90391964373572331,-0.65899402593467604,0.066674813682560341,-0.49570439061574167,-0.72959370113722288,0.9773682998575195,0.18737907915416896,0.39475471789493422,-0.97419557300294857,0.67290546492729719,0.57076309736950281
-0.90423992402202868,0.23808493363639927,0.89120459564006449,0.87216150212416754,-0.33012243671451458,0.87985452034252987,-0.47834357089143165,-0.018328077246125396,0.16607248591719426,0.6055971620563172,0.11596242773830823,0.23921917823567207,-0.3851348376188195,0.13339674250496891,-0.53410806590308502,0.27127115461672835,0.25070343873230505,0.099460530850259632,-0.99144800575569358,0.18606440441265959,0.53202221865426602,-0.81984757090859595,0.71298488727873965,0.88296536876602305,-0.64332070083601889,-0.14313338488674221
