0.40525113313855998,0.044241207604277522,0.050970160605587012,0.81568044449666055,-0.64844614812995616,0.38966597258215097,-0.74617692864077467,-0.88773355950765387,-0.99790383444612241,-0.60711034092807692,-0.033926474277588659,-0.6213090554487013,-0.51048402082790689,-0.88432870691251741,-0.36387015813613921,0.42449006503713749,-0.13123902480972127,-0.32468306080249731,0.39108723659124611,0.31860725612721108,-0.80036412720606309,-0.29673549635076424,-0.44944016178326085,0.24397091698529749,-0.9975516060457752,0.52549728513550731
0.60633431562312667,-0.82393118356816464,0.61766011544563204,0.56938867406390248,-0.47844279109063415,-0.059488042887007486,-0.22943183396018796,0.31613902927730986,-0.86080469206549637,0.30189990100088471,-0.054542042387059286,0.63515478565991046,0.35830989562106774,-0.31520745254965221,-0.49885318499464226,-0.77908526618640939,-0.63780825133943364,0.25028382633634005,0.05165920054140094,-0.61615651965074125,0.48608999351137894,0.27683155967135309,-0.67832324790977139,0.70823550583473738,0.69272592914112918,0.82887729953764322
0.0037716875192363997,0.55625017076539618,0.35383310480527452,-0.7132196535635813,0.13656198976955269,0.64935158329740816,0.004141316371460757,0.47939005673726021,-0.68430435365109599,-0.74083777713298526,0.74460528627481981,0.31432633773897778,-0.47342499909025126,0.65761812408548281,0.069954341217970839,0.78653503083360388,-0.27626883497500421,0.066674813682560341,-0.55349526705638663,-0.52419699538726272,0.65414033090154322,-0.7032578888799812,0.39475471789493422,-0.97419557300294857,0.67290546492729719,0.3348512205162637
-0.44690883883186805,0.23808493363639927,0.89120459564006449,-0.19976574205647513,0.75308610402933351,-0.37344884960295688,-0.51465064814674966,-0.018328077246125396,0.16607248591719426,-0.79108997458223218,0.11596242773830823,-0.1909827459263207,-0.40947021908972925,0.77663642956775192,0.73644406339851365,0.64279498957883985,0.25070343873230505,-0.75311833450885413,-0.99144800575569358,-0.046619991190272936,0.53202221865426602,-0.81984757090859595,-0.91178152146833513,0.88296536876602305,-0.64332070083601889,-0.14313338488674221
