0.51665107757695128,-0.65075089947424081,0.95584768264235387,0.096322831558627753,-0.33033929304827137,0.59774495271875949,0.63979515512125307,-0.10830232848314636,-0.65402526889641077,-0.6780680261877976,-0.12996898194620021,0.56707541422516861,-0.48904466216813525,-0.67340482199478835,-0.84754191965929859,0.76310722095528205,0.11042123646360569,-0.32494794606035127,-0.27140140372889787,0.16602710336985527,0.30764827507789172,-0.74003715648383483,-0.85761879340354241,0.8128910102870035,0.85857852929677714,-0.034285193734110209
-0.11773079410061782,0.77627286421707731,-0.73896990519213435,0.64358328074949855,-0.83373964579783033,-0.80602099976059582,-0.09279355119242183,0.78670811015421815,-0.92481143513512842,0.17691421378504413,-0.27314333731007934,-0.94255930327077686,-0.20761650850292934,-0.081478679951564992,0.63433445130791477,0.20924922250064371,-0.95022641178636325,-0.035334471834548298,-0.017856480765115812,-0.86506500425614563,-0.69035431848822704,0.88465754913300487,0.6158218829522264,0.59219844760738427,0.23289491109474847,-0.38520235111956835
0.81308306190980129,-0.44358397798560634,0.41479658260769914,-0.92838224146292903,0.23787100858304444,0.27030967375665105,-0.98455183230676302,0.91171975746898148,-0.21439064834620369,-0.74081373670759953,0.023772863583520376,-0.060598376762628359,0.30904257614014763,0.9099322795352236,-0.13079659653991293,-0.37021514215038898,-0.92516762753512549,0.2155126208160425,-0.6015420703858021,0.43707583865694888,0.45847305136370031,0.49885814053713418,-0.2626194679512952,-0.40024385570930132,-0.094425271408097755,-0.029102812349346197
-0.10114293505188821,-0.50105663359764319,0.89498914283530784,-0.021608943036704131,-0.10662652626335256,-0.89407833908293988,-0.74161385018309867,-0.43015089075704593,0.92501887077276601,-0.32609697724342568,-0.95759205174815154,0.22142084523660288,-0.35158179933266531,0.20704407965131932,-0.95369801705134782,-0.13650853111542527,-0.11067864618738676,-0.32207632609535852,0.74224770006640695,0.82786388983500903,-0.35338055791319745,-0.31793392289050892,0.68580724123771653,0.026071678390217512,0.96976291452576358,0.01622338236255394
