0.21338357234581196,0.044241207604277522,0.050970160605587012,0.52186124893367181,-0.64844614812995616,0.086178665749994332,-0.98006184851054745,-0.88773355950765387,-0.99790383444612241,0.99913698672934226,-0.50817646270525185,-0.65483811944490866,-0.51048402082790689,-0.88432870691251741,-0.36387015813613921,0.65244873060711517,-0.13123902480972127,-0.32468306080249731,0.39108723659124611,-0.9167082129023405,-0.80036412720606309,-0.29673549635076424,-0.6005446752485315,-0.049362924943307407,-0.57571837654731284,0.5451451792804598
0.75003949398702718,-0.82393118356816464,-0.35627670740056772,0.087791193458043315,-0.47844279109063415,-0.059488042887007486,-0.49000786700303856,0.31613902927730986,-0.42244469980279908,-0.2505948537829128,0.12444729449723102,0.63515478565991046,-0.53068145117653387,0.11626922803295558,-0.49885318499464226,0.18774147554668952,-0.63780825133943364,0.55433813210057448,0.05165920054140094,-0.67518558578509347,0.48608999351137894,0.27683155967135309,0.96531305237432408,0.80302522150766831,0.69272592914112918,0.82887729953764322
-0.514160190134062,-0.23123497697947126,0.32676854062261795,0.85869429740201464,0.13656198976955269,-0.54591614824246415,-0.62621459380270283,0.34877624743570679,-0.83174381076720749,-0.51051511354362455,0.74460528627481981,0.70771911416970457,-0.8677012823521133,-0.59928338012304305,-0.53810786278869571,-0.97110290476814454,-0.27626883497500421,0.30823907307377274,0.58103530452352459,-0.52419699538726272,-0.6314691991101804,-0.83899108173636971,0.39475471789493422,-0.68293489581081057,0.67290546492729719,0.3348512205162637
-0.44690883883186805,0.49441688899511638,-0.52686866972740343,-0.19976574205647513,0.65953864917043759,-0.12447758618073634,-0.47834357089143165,-0.018328077246125396,0.71572163199147165,-0.12808462499650419,0.87230702964487672,-0.52668311862401196,-0.40947021908972925,0.90216242914574174,-0.53410806590308502,0.64279498957883985,-0.32660117988899318,-0.45627167486793674,0.1893562784704732,-0.046619991190272936,0.53202221865426602,0.85002349359425478,-0.91178152146833513,0.22129268091540633,-0.12017253664745331,-0.3656456142452158
