0.8140132664715507,-0.56753743751970043,0.050970160605587012,0.74231130295654157,-0.23193237105550213,0.38966597258215097,-0.32692360821937894,0.51814131293277432,-0.99790383444612241,0.068147792204201751,-0.91393583578078963,0.57930537035006746,-0.51048402082790689,-0.88432870691251741,0.82663292027114266,0.28067237013795432,-0.13123902480972127,-0.076220679789300583,0.39108723659124611,-0.14703087148394345,-0.52590083633502105,-0.44100621810010865,-0.6005446752485315,-0.049362924943307407,-0.57571837654731284,0.5451451792804598
-0.2263879606274164,-0.37444051210726292,-0.66551810653695886,0.80290414648427433,-0.65712830301128666,-0.019209996199103241,-0.49000786700303856,0.31613902927730986,-0.48111910730895469,0.30189990100088471,0.98225153950703503,0.82879954544338208,0.35830989562106774,-0.1130778670122512,-0.49885318499464226,0.18774147554668952,-0.63780825133943364,0.50024248638699276,-0.32243825059742215,-0.67518558578509347,-0.7160254014341485,0.27683155967135309,0.96531305237432408,0.80302522150766831,0.69272592914112918,0.82887729953764322
0.0037716875192363997,-0.23123497697947126,0.32676854062261795,-0.7132196535635813,0.13656198976955269,-0.54591614824246415,-0.28504969889953191,0.34877624743570679,-0.68430435365109599,0.48557661543455244,-0.19673771271507778,0.7846997463995149,0.55644093428985753,-0.33000222798150758,-0.93024414905910868,0.50379089820835166,-0.27626883497500421,0.30823907307377274,0.65336122491808157,-0.52419699538726272,-0.6314691991101804,0.1582100448320789,0.39475471789493422,-0.68293489581081057,0.67290546492729719,0.3348512205162637
-0.44690883883186805,0.49441688899511638,-0.52686866972740343,0.59600170959679155,0.65953864917043759,-0.86130966013480603,-0.62888208989812266,0.4242135956335833,0.71572163199147165,-0.12808462499650419,0.87230702964487672,0.3224731184228038,-0.40947021908972925,0.90216242914574174,-0.55972331706681477,0.64279498957883985,0.8227606670035732,-0.39338791968628217,0.1893562784704732,-0.046619991190272936,0.18568024397774385,0.85002349359425478,-0.91178152146833513,0.73010254163039789,-0.12017253664745331,-0.5652754080334188
