0.0016967673989136678,-0.56753743751970043,0.95101421414210474,0.27067708022417469,-0.64844614812995616,0.91764960767598591,0.27224662759171525,0.093158900735925476,-0.84408154624174148,-0.53990752741315373,0.6740077473661521,0.57930537035006746,-0.51048402082790689,-0.88432870691251741,-0.27754623812639245,0.28067237013795432,-0.45965896685450214,-0.87110943500371962,0.39108723659124611,-0.14703087148394345,-0.80036412720606309,-0.29673549635076424,-0.6005446752485315,-0.92033453303530544,-0.16465745782712227,-0.72394755725359605
-0.99450827482196025,0.65251016104805681,-0.66551810653695886,-0.056189654133582456,0.92796263950439672,0.47408600710751636,0.36551114204654533,-0.024078317062584231,-0.06171895815337014,0.73912794196678533,-0.42282911571666526,0.63515478565991046,0.35830989562106774,-0.1130778670122512,-0.49885318499464226,0.18774147554668952,0.72107388162426522,0.50024248638699276,0.66702464290704389,-0.67518558578509347,0.46598691772575496,0.27683155967135309,0.63003901169990284,0.12051196429633304,0.69272592914112918,0.8710664183253769
0.55125566469536569,-0.84169025343257609,-0.35185745534814394,0.49699933151478493,0.13656198976955269,-0.54591614824246415,-0.28504969889953191,0.66582492832351359,-0.68430435365109599,-0.33504701143611415,-0.49042299781691456,0.70771911416970457,-0.63040656439772502,0.7468653288044369,-0.58884190993557772,0.56351424226338942,-0.27626883497500421,0.30823907307377274,0.65336122491808157,-0.52419699538726272,-0.6314691991101804,-0.32467093547437931,-0.41111279609470563,-0.68293489581081057,0.22268976758106462,-0.31145443513738424
-0.44690883883186805,0.24496737233844246,-0.32550459982408286,-0.11575081383616048,-0.41605328216179815,-0.86130966013480603,-0.62888208989812266,-0.96944261775436802,0.71572163199147165,-0.12808462499650419,0.98080441838394594,-0.66957030555008212,-0.40947021908972925,0.90216242914574174,-0.53410806590308502,0.64279498957883985,0.99891141172297804,-0.39338791968628217,-0.22819258555771116,-0.47585877067933602,0.69846554265047223,0.85002349359425478,0.36499899177661099,0.62989495025146613,-0.12017253664745331,-0.5652754080334188
