0.0016967673989136678,-0.56753743751970043,0.84823942859193102,0.27067708022417469,-0.64844614812995616,0.38966597258215097,0.27224662759171525,0.51814131293277432,-0.5487769687410502,-0.23452196335594411,0.84338355838492007,0.57930537035006746,-0.51048402082790689,-0.88432870691251741,-0.27754623812639245,0.74247749698831012,-0.45965896685450214,0.82796088664419276,0.39108723659124611,-0.14703087148394345,-0.80036412720606309,-0.29673549635076424,-0.6005446752485315,-0.049362924943307407,-0.57571837654731284,-0.72394755725359605
0.66632831296781059,0.65251016104805681,-0.42930293403633391,-0.056189654133582456,-0.70873371409228314,0.47408600710751636,-0.49000786700303856,-0.024078317062584231,-0.86187632595383135,0.73912794196678533,-0.3073050877672634,0.63515478565991046,0.35830989562106774,-0.1130778670122512,0.47687853477222464,0.62081900112320332,0.72107388162426522,0.50024248638699276,0.66702464290704389,-0.67518558578509347,0.46598691772575496,0.27683155967135309,0.63003901169990284,0.12051196429633304,0.69272592914112918,-0.012847608571210145
0.0037716875192363997,-0.23123497697947126,0.5860566288146023,-0.34589142514628768,-0.28085026601559449,-0.091250680437377607,-0.28504969889953191,-0.92111693527546668,-0.68430435365109599,-0.51051511354362455,-0.19129531863349625,0.70771911416970457,-0.63040656439772502,-0.21039684419700611,-0.30213674699749826,0.56866198290984138,-0.27626883497500421,0.3927322085434708,0.65336122491808157,0.87217742926792607,-0.6314691991101804,0.86772390833432334,-0.41111279609470563,-0.68293489581081057,0.67290546492729719,-0.31145443513738424
0.14583727946051805,0.024096129079357098,-0.32550459982408286,-0.11575081383616048,-0.41605328216179815,-0.87068029639934896,-0.62888208989812266,-0.93520147054389668,-0.87867734194781422,-0.12808462499650419,0.98080441838394594,-0.66957030555008212,-0.40947021908972925,-0.87215408654362858,0.60147597958972221,0.18010182703095512,0.99891141172297804,-0.39338791968628217,-0.84430098638910356,-0.47585877067933602,0.53202221865426602,0.85002349359425478,0.27447746099876125,0.62989495025146613,-0.12017253664745331,-0.5652754080334188
