0.0016967673989136678,-0.56753743751970043,0.050970160605587012,0.27067708022417469,-0.64844614812995616,0.38966597258215097,0.27224662759171525,0.51814131293277432,-0.99790383444612241,-0.23452196335594411,-0.91393583578078963,0.57930537035006746,0.14653226006464082,-0.88432870691251741,-0.27754623812639245,0.28067237013795432,-0.45965896685450214,-0.87110943500371962,-0.75211839411403547,-0.14703087148394345,-0.26837169834740271,-0.29673549635076424,-0.6005446752485315,-0.049362924943307407,-0.57571837654731284,-0.72394755725359605
0.66632831296781059,0.65251016104805681,0.0810397707785524,-0.056189654133582456,0.33149584327948411,0.99694382961383887,0.17802644352159769,-0.024078317062584231,-0.06171895815337014,0.77297424160383454,0.38129630068059628,0.63515478565991046,0.35830989562106774,-0.1130778670122512,-0.49885318499464226,0.18774147554668952,0.72107388162426522,0.50024248638699276,0.93948332243734622,-0.67518558578509347,0.18777780621364615,0.27683155967135309,0.63003901169990284,0.12051196429633304,0.69272592914112918,0.8710664183253769
0.0037716875192363997,-0.7131829009173809,0.91236030730254347,-0.66019066387170722,0.13656198976955269,-0.54591614824246415,-0.28504969889953191,-0.92111693527546668,0.93357595771206481,-0.51051511354362455,-0.19129531863349625,-0.70756856559595782,-0.63040656439772502,0.7468653288044369,0.12033049595692002,0.50379089820835166,-0.27626883497500421,0.30823907307377274,0.65336122491808157,-0.30776493151789874,-0.6314691991101804,0.86772390833432334,-0.41111279609470563,-0.68293489581081057,0.67290546492729719,0.033797286443153274
-0.44690883883186805,0.71522978060048703,-0.32550459982408286,-0.11575081383616048,0.26065797500943666,-0.86130966013480603,-0.62888208989812266,-0.92358474863158979,0.71572163199147165,-0.12808462499650419,0.98080441838394594,-0.46569441415299617,-0.40947021908972925,0.90216242914574174,-0.53410806590308502,0.64279498957883985,0.99891141172297804,-0.39338791968628217,-0.22819258555771116,-0.47585877067933602,0.53202221865426602,0.85002349359425478,0.27447746099876125,0.62989495025146613,0.20123872012128263,0.045248982661429071
