0.0016967673989136678,-0.56753743751970043,0.050970160605587012,0.72512679838392113,-0.64844614812995616,0.38966597258215097,-0.29904250914436914,-0.33594183548925693,-0.072194419334048687,0.069471110725781493,-0.91393583578078963,0.57930537035006746,-0.080195346001369794,-0.27615731112053377,-0.27754623812639245,0.28067237013795432,0.68990645973589615,0.16005707480061804,0.39108723659124611,-0.14703087148394345,-0.80036412720606309,-0.014929038759647684,-0.37512301486070609,-0.049362924943307407,0.72790334007889124,0.71774027497216242
0.66632831296781059,-0.2301015182399524,-0.66551810653695886,-0.056189654133582456,0.17170956842111651,0.47408600710751636,-0.49000786700303856,-0.024078317062584231,-0.06171895815337014,0.40137175220562615,-0.3073050877672634,0.63515478565991046,0.35830989562106774,-0.1130778670122512,-0.85826390214119375,0.18774147554668952,0.72107388162426522,0.50024248638699276,0.66702464290704389,-0.67518558578509347,0.46598691772575496,-0.14471362847984315,-0.42975696526413176,-0.75761175555455362,-0.81046829196218284,-0.26800117818842129
0.0037716875192363997,-0.23123497697947126,0.41957876910269531,-0.34589142514628768,0.082298599146113594,-0.20772777942148002,-0.28504969889953191,-0.92111693527546668,-0.90552488171867163,-0.51051511354362455,-0.8124300460688969,0.70771911416970457,-0.63040656439772502,0.7468653288044369,-0.79129602244157327,0.50379089820835166,0.85093642086033561,0.30823907307377274,0.78488823910672845,-0.52419699538726272,-0.49737632207330074,0.88778241920677936,-0.41111279609470563,-0.68293489581081057,0.67290546492729719,0.35479769716622367
-0.80967992900450714,0.76267445032659564,-0.32550459982408286,-0.62598415083326819,-0.063968054507341554,-0.86130966013480603,-0.62888208989812266,0.41552768000246831,0.29850094894735113,-0.90335069286980851,0.98080441838394594,-0.66957030555008212,-0.75914190504093293,-0.42050128017906441,-0.53410806590308502,0.64279498957883985,0.99891141172297804,0.19705024048040221,-0.22819258555771116,-0.22112154867638822,0.12090533569962036,-0.48779344450509843,0.22116067567744579,-0.9295362127610034,0.29942923968129564,-0.65033713751375766
