-0.46884332086154612,-0.32754889029459688,-0.29419483367948018,0.41295460054246913,0.68661471785399097,-0.47451418287180691,-0.90737015310352387,0.55088759929417708,-0.99790383444612241,-0.17783340394173974,-0.84515754938239396,0.57930537035006746,-0.080195346001369794,-0.69965045837927464,0.70793538696146729,0.28067237013795432,0.84000554811423211,-0.46747209102644161,0.39108723659124611,-0.14703087148394345,-0.80227070030905634,-0.29673549635076424,-0.5455877925046877,-0.049362924943307407,-0.57571837654731284,0.057709861583274291
0.58467782252760592,0.65251016104805681,-0.66551810653695886,-0.056189654133582456,0.33149584327948411,0.47408600710751636,0.12479336399800567,-0.024078317062584231,-0.06171895815337014,0.40137175220562615,-0.3073050877672634,0.63515478565991046,-0.63725963934218677,0.40302855873484766,-0.65276431172794691,0.18774147554668952,0.81171207491027175,0.50024248638699276,0.66702464290704389,0.58440084743651077,0.46598691772575496,0.34974754408773356,-0.42975696526413176,-0.75761175555455362,-0.81046829196218284,0.087932684110683779
0.56032906113327119,0.1867751662973911,0.028658847442002866,-0.34589142514628768,0.13656198976955269,-0.20772777942148002,-0.28504969889953191,-0.92111693527546668,-0.68430435365109599,0.12445914699697469,-0.88722194707379054,0.70771911416970457,-0.63040656439772502,0.7468653288044369,-0.30213674699749826,0.76027417661285179,0.86667021329498062,-0.39367198056868147,0.65336122491808157,-0.52419699538726272,-0.35502373178772828,0.24356152107315565,-0.41111279609470563,-0.68293489581081057,0.67290546492729719,-0.27221592713247333
-0.44690883883186805,-0.90994871245003806,-0.82251673195318808,-0.62598415083326819,-0.52593955343618548,-0.86130966013480603,-0.62888208989812266,0.012698738556999656,-0.56749570995323628,0.66515642419037491,0.98080441838394594,-0.66957030555008212,-0.75914190504093293,0.77913284728914034,-0.66913494147476205,0.64279498957883985,-0.71823174787170441,-0.3691663079945704,-0.22819258555771116,0.79952619757610721,0.53202221865426602,0.39542433760012319,-0.65787970708809196,0.22824474815819773,-0.12017253664745331,-0.5652754080334188
