-0.86511232359598678,0.45062888967486869,0.3078121784649297,0.29458558694724823,-0.59481604239621744,0.93777042910805641,0.43782474964766194,0.30787403643820888,-0.54291924355560406,0.62702014792041183,0.879195815432112,-0.040706120828699843,-0.85212822850549474,-0.38375220663940413,0.57510471519265294,-0.81282105907365398,0.40331081427865501,0.7279033604823808,-0.18026869011992286,0.33507559483072691,0.27493361868700883,0.33009928115287779,-0.23553087753166935,0.89359562392169845,-0.48766549656672908,0.87089583271317794
0.29618540602273624,0.73676388108662505,0.71133172456741423,-0.89515002108919561,-0.34331055537705257,0.62297779169160372,-0.51682358147339214,-0.12834035410600042,-0.62462168290824138,-0.63773167007118792,-0.96145128655357248,-0.56675789543734267,0.4012127518794999,0.078741254864659549,0.083083823779139365,-0.7687197449575025,-0.5284173078835479,0.54213735029327537,-0.37514340800588375,-0.66012549233736206,0.13676644802917171,-0.25092740061180807,0.29543983858215173,-0.53152101815319752,-0.76692026783529954,0.84586316128523142
-0.3438077943284561,0.75462590671464613,0.99872514524339073,0.47318031289203,-0.68790664442013716,0.23895197676218283,-0.70613616192536477,-0.34034886452358615,-0.19160249241617988,-0.90932355910316653,0.044946305100227679,0.70609030594034072,0.74032814107262168,0.72223492029403191,-0.21013787054882349,0.82572340537900391,-0.018701062595971596,-0.90764305243900822,0.1490401519050939,0.062720038678822032,0.73725231378130052,-0.073627770525882985,-0.85843794555002839,-0.99783817932925434,-0.061839274217475371,0.44111426904156925
0.31188216938556113,-0.17075154811240023,0.5466566427888897,0.53504033298205034,0.53374385273361757,0.21362607959210211,-0.46382807372424506,-0.60149655687750725,0.34983507876928144,-0.25231891074272461,-0.72431315744275548,0.40641782179556096,0.30546008477981546,0.76477964263921883,-0.74808378647222762,0.10723850920830813,0.19496740229480736,0.18583821052655081,-0.96040866934132274,-0.56562925847412071,0.6768105988339943,0.93025956461644399,-0.19987794224517863,0.76834420101111611,0.17995690386788654,-0.24399657184897627
