-0.77107390708343826,0.52204889037726576,0.050970160605587012,-0.51783728539324669,-0.64844614812995616,-0.47451418287180691,0.11537422519106455,-0.50483324882670577,0.35224518359897505,0.85780450976762745,-0.84515754938239396,0.57930537035006746,-0.080195346001369794,-0.69965045837927464,-0.27754623812639245,0.28067237013795432,-0.60757109899352901,-0.46747209102644161,-0.31304596046930433,-0.14703087148394345,-0.33988483414703641,-0.29673549635076424,0.60789001454040159,-0.049362924943307407,-0.20828526644438639,0.26108995046325245
-0.24357798080387028,0.35746781816024376,-0.66551810653695886,-0.72889302330959449,0.90605003588235555,0.85601545133518697,-0.79937979486922872,0.90110026967242152,-0.053096304505894087,-0.91246515879971257,0.51382488637720347,0.63515478565991046,0.066481846277397727,0.870428055392241,0.69357527372400152,0.535573801715852,-0.51021598358272358,0.50024248638699276,0.2920732630095666,-0.77777873120325669,0.46598691772575496,-0.75551421762744453,-0.42975696526413176,-0.28737091713687835,-0.81046829196218284,0.8457307798205731
-0.58922081094406931,0.10633372067918434,0.60568925734515044,0.68598474651142261,0.2649750945496987,-0.43193809758471313,-0.42066065253532603,0.012333846192476461,-0.75924939307429207,-0.51051511354362455,0.481986644464244,-0.44621832976107023,0.96846862053015892,0.7468653288044369,0.43851681728559955,-0.66406708932810776,0.86667021329498062,0.64622293103606299,0.65336122491808157,-0.0024013935391271612,0.16256721076510683,-0.49156046192662139,0.75760544361918924,-0.68293489581081057,0.31829079853750586,-0.27221592713247333
-0.862308478719223,0.56632390737295246,-0.32550459982408286,-0.32520039500815723,-0.52593955343618548,-0.80416050409693729,-0.67250188246129539,0.012698738556999656,0.28202976342297514,-0.64940488868820867,0.92448101376236469,-0.66957030555008212,-0.75914190504093293,0.08261870145260608,-0.66913494147476205,0.0041083874656413499,0.91139709564437199,0.53896591851828934,-0.22819258555771116,0.0099883560109705893,-0.75848288658490337,0.17409969371643497,-0.82158500116804545,0.22824474815819773,-0.12017253664745331,-0.5652754080334188
