-0.77107390708343826,0.52204889037726576,-0.27338962161349833,0.084432346562984595,-0.64844614812995616,-0.87651392647118298,0.11537422519106455,-0.10678467322711649,0.35224518359897505,0.069471110725781493,-0.84515754938239396,0.91198338353357755,-0.64238210356293535,-0.69965045837927464,-0.27754623812639245,0.28067237013795432,-0.60757109899352901,-0.46747209102644161,-0.31304596046930433,-0.44760286627881385,-0.12108698215886116,-0.1226033413564811,0.60789001454040159,-0.049362924943307407,-0.57571837654731284,0.26108995046325245
0.55935273477343705,0.35746781816024376,0.81412450922304358,-0.014820872743407598,0.29165211241838507,0.85601545133518697,-0.79937979486922872,-0.87807633283128328,-0.053096304505894087,-0.054668561961779494,0.51382488637720347,0.63515478565991046,0.066481846277397727,0.38151857042388393,-0.43731467151933301,-0.41508657371765034,-0.75838713274859981,0.6884906345991455,-0.1604136887145593,-0.038651459508888264,0.46598691772575496,-0.47529272651183763,-0.42975696526413176,-0.85994436055910239,-0.81046829196218284,-0.26800117818842129
0.0037716875192363997,0.6462245624059153,0.60568925734515044,-0.74608468450520316,-0.26757203401634055,-0.4324212954892126,0.43708323077033384,0.37289613002259503,-0.453416839560709,0.55370608152212752,0.72683167953304606,0.052462240247207692,0.55984037972757794,0.56189234806235344,-0.30213674699749826,-0.24197665830205284,0.86667021329498062,-0.86728681268256347,0.32716892580547707,-0.0024013935391271612,0.16256721076510683,-0.46631518469462496,0.75760544361918924,-0.68293489581081057,0.44542597023050456,-0.27221592713247333
0.48569879313443765,0.98525600688588444,-0.82254000536051186,-0.32520039500815723,0.71053138600101096,-0.75046326561575216,-0.7288585064686246,-0.33719880995695806,0.58904030472182356,-0.64940488868820867,0.92448101376236469,-0.66957030555008212,-0.94184847355809498,0.08261870145260608,-0.66913494147476205,0.0041083874656413499,-0.11454079948147933,0.73552388661475976,-0.22819258555771116,0.00032468918197281482,-0.75848288658490337,0.17409969371643497,-0.82158500116804545,-0.035673144151799008,-0.12017253664745331,0.44784475144498215
