-0.77107390708343826,0.52204889037726576,-0.86919975016545115,0.78440532386019601,-0.64844614812995616,-0.72967700122355872,0.52004306333073402,0.97499179037057981,0.35224518359897505,0.069471110725781493,0.18265467208829889,0.39838151913448483,-0.64238210356293535,-0.69965045837927464,0.58961566546266098,0.28067237013795432,-0.60757109899352901,-0.99050500160393185,-0.31304596046930433,0.46359120841417845,-0.12108698215886116,0.40249641413633119,0.60789001454040159,-0.049362924943307407,-0.57571837654731284,0.26108995046325245
0.12721452771798036,0.35746781816024376,-0.66551810653695886,0.9692192951257006,0.29165211241838507,0.85601545133518697,-0.79937979486922872,-0.38779892935174076,-0.053096304505894087,-0.054668561961779494,0.034152396237130622,0.63515478565991046,0.066481846277397727,0.30311072543681084,-0.0041748040998585978,-0.41508657371765034,0.70930135183679033,0.6884906345991455,0.092511995246582934,0.0084359724354845511,0.46598691772575496,-0.47529272651183763,0.77469704430593778,-0.75761175555455362,0.72107582361610834,-0.26800117818842129
0.21986533323201396,0.10633372067918434,0.60568925734515044,-0.74608468450520316,-0.26757203401634055,-0.4324212954892126,0.17188177301907825,0.012333846192476461,-0.453416839560709,0.77650867274030366,-0.45893720622864609,0.052462240247207692,0.55984037972757794,0.56189234806235344,-0.30213674699749826,-0.24197665830205284,0.86667021329498062,-0.86728681268256347,0.32716892580547707,0.99111432891362572,0.16256721076510683,0.020921335935230934,0.75760544361918924,-0.68293489581081057,0.44542597023050456,-0.27221592713247333
0.73827962472725894,0.98525600688588444,0.45325319650486939,-0.32520039500815723,0.71053138600101096,0.99940903060329633,-0.80345363380277046,0.76707302373973718,0.22934723901789345,-0.80768100858640679,0.96140907625233551,-0.66957030555008212,-0.75914190504093293,0.08261870145260608,-0.66913494147476205,0.0041083874656413499,0.99891141172297804,0.2314731187199659,-0.40694589335941633,0.00032468918197281482,-0.75848288658490337,0.33602083156351181,0.80829827044861546,0.22824474815819773,-0.12017253664745331,-0.88552506008462206
