-0.9659617297872265,0.52204889037726576,-0.86919975016545115,-0.90810941847991344,-0.64844614812995616,-0.47451418287180691,0.012093605415673281,0.97499179037057981,0.35224518359897505,0.653256231446391,-0.84515754938239396,0.39838151913448483,0.48561606166743365,-0.82093670473271763,-0.27754623812639245,0.28067237013795432,-0.60757109899352901,-0.3035658294335033,-0.81747572551044057,0.61059678919872717,0.9496763483808579,-0.29673549635076424,0.89021949777923615,-0.049362924943307407,-0.74949348137447447,0.88784027192536974
0.12721452771798036,0.35746781816024376,0.30410669903205023,-0.014820872743407598,0.00049394961945270488,-0.20717674204912306,-0.79937979486922872,-0.38779892935174076,-0.46414002485519656,0.198164341820666,0.77911420393288866,0.078288761627257619,0.066481846277397727,0.25808165540408301,-0.0041748040998585978,-0.41508657371765034,0.41948748246989687,0.6884906345991455,0.2920732630095666,0.86156984169721551,-0.2729083033425268,0.03995256070100095,-0.42975696526413176,-0.75761175555455362,0.72107582361610834,-0.26800117818842129
0.0037716875192363997,0.10633372067918434,0.79484081277946217,-0.74608468450520316,-0.26757203401634055,-0.4324212954892126,-0.089043129042156277,0.012333846192476461,-0.71846311354013936,0.55370608152212752,-0.45893720622864609,0.052462240247207692,0.55984037972757794,-0.6444337475532671,0.21959324419166659,-0.24197665830205284,0.86667021329498062,-0.34427902472034866,0.091709748706210625,0.74418955821038923,0.97520546933723873,-0.69106708453849031,0.75760544361918924,-0.14018525253280179,0.73027104493586226,-0.29404749914721995
-0.80318343543534154,0.98525600688588444,0.64325493903287323,-0.32520039500815723,-0.55623654029679059,0.35968100856429785,-0.96687799389147999,0.76707302373973718,0.81322950383614945,-0.64940488868820867,0.96140907625233551,-0.66957030555008212,-0.75914190504093293,0.61497809038174989,0.74864041381948354,0.0041083874656413499,0.99891141172297804,-0.28732517996238438,-0.40694589335941633,-0.6702320238869961,-0.48578982780264957,-0.63201357424141458,-0.34490723457256678,0.353653116670676,0.11159108569189913,0.89598971968466179
