-0.77107390708343826,0.52204889037726576,-0.86919975016545115,-0.90810941847991344,-0.43985069004178046,0.35377930246425837,0.012093605415673281,0.97499179037057981,0.35224518359897505,0.68399759862248,-0.84515754938239396,0.39838151913448483,0.48561606166743365,0.98386789782448014,-0.27754623812639245,0.28067237013795432,0.14214391259974546,-0.3035658294335033,-0.81747572551044057,0.61059678919872717,0.9496763483808579,-0.17317273560611901,0.60789001454040159,-0.049362924943307407,-0.74949348137447447,0.88784027192536974
0.12721452771798036,0.67957784169666535,-0.66551810653695886,-0.014820872743407598,0.29165211241838507,0.85601545133518697,-0.79937979486922872,-0.38779892935174076,0.24690801903812964,0.92937309336229723,0.99734125554376551,0.63515478565991046,-0.94425187776235009,0.25808165540408301,-0.0041748040998585978,-0.41508657371765034,-0.24376998007973061,0.6884906345991455,0.37160566540759921,0.86156984169721551,0.45499010984179011,-0.47529272651183763,0.72608313989943141,-0.38841941077889297,0.72107582361610834,-0.58183971560794068
0.0037716875192363997,0.10633372067918434,-0.69741200585345142,0.27234164855823217,-0.26757203401634055,-0.4324212954892126,0.2451087862292991,-0.13047633779764212,-0.71846311354013936,-0.69176846483391685,-0.45893720622864609,-0.82875091082525421,0.55984037972757794,0.56189234806235344,0.21959324419166659,-0.24197665830205284,0.86667021329498062,-0.86728681268256347,0.091709748706210625,0.74418955821038923,0.16256721076510683,-0.69106708453849031,0.75760544361918924,-0.14018525253280179,0.44542597023050456,-0.29404749914721995
-0.80318343543534154,0.98525600688588444,0.073395063524765991,-0.32520039500815723,0.0053396764417625864,-0.06978798948052134,-0.96687799389147999,0.76707302373973718,0.22921514772472729,-0.64940488868820867,0.96140907625233551,-0.66957030555008212,-0.75914190504093293,0.16982917789603214,0.74864041381948354,0.79654815007565705,0.99891141172297804,0.74753114819519539,-0.40694589335941633,-0.6702320238869961,-0.75848288658490337,-0.63201357424141458,-0.34490723457256678,0.353653116670676,0.11159108569189913,0.090643875685510578
