-0.77107390708343826,0.52204889037726576,-0.20232792119323006,0.11035971940639855,-0.64844614812995616,-0.47451418287180691,0.40584416992581018,-0.89339748909442518,0.35224518359897505,0.68399759862248,-0.84515754938239396,0.39838151913448483,0.48561606166743365,-0.82093670473271763,-0.20390292364350038,0.28067237013795432,-0.60757109899352901,-0.3035658294335033,-0.81747572551044057,0.18351203864308974,0.9496763483808579,-0.29673549635076424,0.60789001454040159,-0.049362924943307407,-0.74949348137447447,0.88784027192536974
0.96437484440837395,0.35746781816024376,-0.79563958970195792,-0.014820872743407598,0.29165211241838507,0.076289196959993921,-0.79937979486922872,-0.38779892935174076,-0.46414002485519656,0.92937309336229723,0.99734125554376551,0.63515478565991046,0.066481846277397727,0.25808165540408301,-0.0041748040998585978,-0.89724330217121273,-0.24376998007973061,0.041069404945028198,0.2920732630095666,0.86156984169721551,-0.2729083033425268,-0.47529272651183763,-0.42975696526413176,-0.75761175555455362,0.72107582361610834,-0.26800117818842129
0.0037716875192363997,0.10633372067918434,-0.69741200585345142,-0.74608468450520316,-0.26757203401634055,-0.4324212954892126,0.2451087862292991,0.012333846192476461,-0.53561748642036044,0.55370608152212752,-0.4287107356317057,-0.8094232867808544,0.55984037972757794,-0.33294729993550254,0.21959324419166659,0.6483649025253122,-0.98772455469424902,-0.86728681268256347,0.28853546778483197,0.74418955821038923,0.15056788100087282,-0.6478669527666423,0.75760544361918924,-0.14018525253280179,0.44542597023050456,-0.4791144329681889
-0.80318343543534154,0.98525600688588444,0.64325493903287323,-0.88996199591418201,-0.55623654029679059,0.54448271761481926,-0.96687799389147999,0.76707302373973718,0.22934723901789345,-0.64940488868820867,0.96140907625233551,-0.66957030555008212,-0.70230152902859255,0.08261870145260608,0.74864041381948354,0.0041083874656413499,0.3040087083212959,0.74753114819519539,-0.40694589335941633,-0.6702320238869961,-0.75848288658490337,-0.63201357424141458,-0.34490723457256678,0.353653116670676,0.11159108569189913,0.090643875685510578
