-0.77107390708343826,0.52204889037726576,-0.86919975016545115,-0.90810941847991344,-0.64844614812995616,-0.47451418287180691,0.012093605415673281,0.97499179037057981,0.35224518359897505,0.38119858032878562,-0.84515754938239396,0.39838151913448483,0.48561606166743365,-0.82093670473271763,-0.27754623812639245,0.28067237013795432,-0.60757109899352901,-0.3035658294335033,-0.81747572551044057,0.61059678919872717,0.9496763483808579,0.47803941999037591,0.58089472747338622,-0.049362924943307407,-0.74949348137447447,-0.76233928169422338
-0.5752366366719166,-0.52645700048296917,-0.66551810653695886,0.82754070028016979,0.29165211241838507,0.85601545133518697,-0.79937979486922872,-0.38779892935174076,-0.46414002485519656,0.92937309336229723,0.25515403149404525,0.63515478565991046,0.066481846277397727,0.25808165540408301,-0.0041748040998585978,-0.41508657371765034,-0.24376998007973061,0.6884906345991455,0.2920732630095666,0.86156984169721551,-0.73928521573778494,-0.47529272651183763,-0.88495852491233218,-0.75761175555455362,0.93626381768774114,-0.26800117818842129
0.0037716875192363997,0.10633372067918434,-0.75505282136609941,-0.74608468450520316,0.8130283651362149,-0.4324212954892126,0.2451087862292991,0.012333846192476461,-0.71846311354013936,0.55370608152212752,-0.45893720622864609,0.052462240247207692,0.55984037972757794,0.56189234806235344,0.21959324419166659,-0.24197665830205284,0.86667021329498062,-0.86728681268256347,0.091709748706210625,0.74418955821038923,0.16256721076510683,-0.69106708453849031,0.75760544361918924,-0.14018525253280179,0.44542597023050456,-0.29404749914721995
-0.80318343543534154,-0.27297547637185615,0.64325493903287323,-0.32520039500815723,-0.55623654029679059,0.54448271761481926,-0.96687799389147999,0.76707302373973718,0.22934723901789345,-0.64940488868820867,0.96140907625233551,-0.54927146734423671,-0.75914190504093293,0.08261870145260608,0.74864041381948354,0.0041083874656413499,-0.89505573232594626,0.74753114819519539,-0.40694589335941633,0.64501994835667187,-0.75848288658490337,-0.63201357424141458,0.38336415878589403,0.28177673674876269,0.83153873250080679,0.090643875685510578
