-0.77107390708343826,0.52204889037726576,-0.86919975016545115,-0.90810941847991344,-0.64844614812995616,-0.47451418287180691,0.012093605415673281,0.97499179037057981,0.35224518359897505,0.68399759862248,-0.84515754938239396,0.39838151913448483,0.48561606166743365,-0.82093670473271763,-0.27754623812639245,0.28067237013795432,-0.60757109899352901,-0.3035658294335033,-0.81747572551044057,-0.0010114703323391705,0.15420669836666656,-0.29673549635076424,0.60789001454040159,-0.049362924943307407,-0.74949348137447447,0.88784027192536974
0.5010431744885484,0.35746781816024376,-0.66551810653695886,-0.014820872743407598,0.29165211241838507,0.85601545133518697,-0.79937979486922872,0.42657001212125811,-0.46414002485519656,0.92937309336229723,0.03697873721045486,0.63515478565991046,0.066481846277397727,-0.25738317965171298,-0.078992900927236542,-0.29506601257318454,-0.24376998007973061,0.34164984676285992,0.2920732630095666,0.86156984169721551,-0.2729083033425268,0.81069367666088388,-0.42975696526413176,-0.23097804636005237,0.72107582361610834,-0.53060993011152835
-0.37219249780146413,0.10633372067918434,0.74763125685268306,-0.74608468450520316,-0.73315438467480631,-0.4324212954892126,0.2451087862292991,0.012333846192476461,-0.71846311354013936,0.55370608152212752,-0.45893720622864609,0.052462240247207692,0.55984037972757794,0.56189234806235344,0.21959324419166659,-0.16084799492884905,0.86667021329498062,-0.86728681268256347,0.091709748706210625,0.74418955821038923,-0.053894313658693349,0.6754373800806901,0.75760544361918924,0.35028090734920347,0.44542597023050456,0.010707961324599502
-0.80318343543534154,0.98525600688588444,-0.91698740077944918,-0.71529695148044126,0.7321902097244839,0.54448271761481926,-0.96687799389147999,0.76707302373973718,-0.071631475519420507,-0.64940488868820867,0.96140907625233551,0.04319372413516831,0.5030508829160425,0.08261870145260608,0.74864041381948354,0.0041083874656413499,0.99891141172297804,0.74753114819519539,-0.40694589335941633,-0.64424300070546692,-0.75848288658490337,-0.63201357424141458,-0.34490723457256678,0.353653116670676,0.22573760056156567,0.090643875685510578
