0.19395029580377221,0.52204889037726576,-0.86919975016545115,0.15840754375846333,-0.64844614812995616,0.96612567960888907,0.012093605415673281,0.97499179037057981,0.35224518359897505,0.68399759862248,-0.84515754938239396,0.39838151913448483,0.48561606166743365,0.74909237553121133,0.52847680510852535,0.28067237013795432,-0.60757109899352901,-0.3035658294335033,-0.81747572551044057,0.61059678919872717,0.9496763483808579,-0.29673549635076424,0.60789001454040159,-0.049362924943307407,0.52215184701363948,0.92633271638742554
0.12721452771798036,0.87479612801040774,-0.66551810653695886,-0.014820872743407598,0.70686606335462421,0.4295680532079289,-0.79937979486922872,0.17863654938279816,0.8849124937420878,-0.22134083786104219,-0.99215227722105404,-0.86687962846583577,0.36830131784275655,0.25808165540408301,-0.0041748040998585978,-0.11189137786044734,-0.79145943113515105,0.6884906345991455,0.84924846791298902,0.37102946895709343,-0.2729083033425268,-0.47529272651183763,-0.42975696526413176,-0.75761175555455362,0.72107582361610834,-0.26800117818842129
0.39473547315869428,-0.55784700401483578,-0.69741200585345142,-0.74608468450520316,0.9155143211598189,-0.4324212954892126,-0.049607095957098446,0.012333846192476461,-0.71846311354013936,0.55370608152212752,-0.45893720622864609,0.052462240247207692,0.55984037972757794,0.56189234806235344,0.21959324419166659,-0.24197665830205284,0.86667021329498062,-0.53185510536486746,0.091709748706210625,0.74418955821038923,0.077701660385400828,-0.69106708453849031,0.93551987092101596,-0.14018525253280179,0.44542597023050456,-0.29404749914721995
-0.80318343543534154,0.28516971436261707,0.64325493903287323,-0.32520039500815723,-0.55623654029679059,0.54448271761481926,-0.96687799389147999,0.43557070192506697,0.22934723901789345,0.70945634546575587,0.96140907625233551,-0.66957030555008212,0.55206119516876528,0.08261870145260608,-0.4813730901991109,0.0041083874656413499,0.19075560459312291,0.74753114819519539,0.35181655279305546,0.30655836979481799,-0.69254712838422283,-0.63201357424141458,-0.50711675605772766,0.353653116670676,0.11159108569189913,0.090643875685510578
