0.1380946343517595,0.44645905354250837,-0.093977419083968172,0.15840754375846333,-0.64844614812995616,0.49989687251113679,0.012093605415673281,0.97499179037057981,0.35224518359897505,0.68399759862248,0.32939501884384748,0.39838151913448483,0.90135926541784239,-0.88375460760581181,-0.27754623812639245,0.5477415779673156,-0.60757109899352901,-0.3035658294335033,-0.81747572551044057,0.61059678919872717,0.9496763483808579,-0.29673549635076424,0.60789001454040159,-0.049362924943307407,0.38948267801397329,0.92633271638742554
-0.65345521879931345,0.35746781816024376,0.34349975090380003,-0.014820872743407598,0.29165211241838507,0.85601545133518697,0.42344261242610548,0.22045390970135981,0.89443368283378755,0.73723659690454402,0.99734125554376551,-0.55466323963023645,0.36830131784275655,0.71852753881490505,-0.0041748040998585978,-0.11189137786044734,0.36087008697507361,0.6884906345991455,0.84924846791298902,0.37102946895709343,-0.2729083033425268,-0.47529272651183763,0.48514169108602645,-0.75761175555455362,0.72107582361610834,-0.26800117818842129
0.39473547315869428,0.10633372067918434,0.67681837509426224,-0.74608468450520316,-0.16295858285063236,-0.4324212954892126,-0.049607095957098446,0.012333846192476461,-0.71846311354013936,-0.22061781285143778,-0.45893720622864609,0.68138755719834965,0.55984037972757794,0.56189234806235344,0.21959324419166659,-0.24197665830205284,0.56679443802829921,0.12626982698544031,0.091709748706210625,0.74418955821038923,0.077701660385400828,-0.69106708453849031,0.93551987092101596,-0.14018525253280179,-0.85258349417845603,-0.29404749914721995
-0.90723513097291675,0.51591051657150788,-0.34722678364566906,0.49353920562867137,-0.92002450222795362,-0.30088372024988419,-0.96687799389147999,0.43557070192506697,0.22934723901789345,0.47898961491361747,0.96140907625233551,-0.66957030555008212,0.55206119516876528,0.08261870145260608,0.74864041381948354,-0.62414812124701102,0.56675603868071711,0.74753114819519539,0.35181655279305546,-0.64555128830376374,-0.75848288658490337,-0.63201357424141458,-0.34490723457256678,-0.54586351184736026,0.11159108569189913,0.090643875685510578
