-0.24742339474160957,-0.95423518174195054,0.96202536934632921,0.15840754375846333,-0.64844614812995616,0.96612567960888907,0.012093605415673281,0.97499179037057981,0.35224518359897505,0.68399759862248,-0.84515754938239396,0.39838151913448483,-0.41624717572783543,-0.82093670473271763,-0.27754623812639245,0.28067237013795432,-0.60757109899352901,-0.3035658294335033,-0.81747572551044057,0.61059678919872717,0.9496763483808579,-0.93944845970846758,0.60789001454040159,-0.049362924943307407,0.52215184701363948,0.32703309679594605
0.12721452771798036,0.35746781816024376,-0.66551810653695886,-0.014820872743407598,0.29165211241838507,0.85601545133518697,-0.79937979486922872,0.22045390970135981,-0.46414002485519656,0.73723659690454402,0.99734125554376551,0.63515478565991046,0.36830131784275655,0.25808165540408301,-0.078230630259256362,-0.11189137786044734,-0.98019386666314312,0.6884906345991455,0.84924846791298902,0.37102946895709343,-0.2729083033425268,0.83617106590424561,-0.42975696526413176,-0.75761175555455362,0.72107582361610834,-0.26800117818842129
0.39473547315869428,0.10633372067918434,0.31725508667377755,-0.74608468450520316,-0.43156287230107182,-0.33671458237375784,0.93391604367500669,-0.41202633624504159,-0.56360737110310644,0.55370608152212752,-0.45893720622864609,0.052462240247207692,0.63804855004489558,-0.97058535817870073,0.21959324419166659,-0.24197665830205284,0.86667021329498062,0.12626982698544031,-0.02490381046701784,0.74418955821038923,0.077701660385400828,-0.59936405529817383,0.93551987092101596,0.039170003258219177,-0.5817528226501294,-0.29404749914721995
-0.80318343543534154,0.51591051657150788,0.64325493903287323,-0.74296399374062672,-0.55623654029679059,0.54448271761481926,-0.45027398076970138,0.43557070192506697,-0.34297013849361435,0.70945634546575587,-0.53708230818424618,-0.66957030555008212,0.73023570840149521,0.08261870145260608,0.5600998957850829,0.038935802280429366,-0.39911616901166314,0.64371000802157874,0.35181655279305546,0.0059623252205751598,-0.75848288658490337,-0.63201357424141458,-0.20577931221976642,0.353653116670676,0.88178952794577459,0.090643875685510578
