0.29144192738773,0.71781008551984526,-0.79442683348120724,-0.49851544722319541,0.93506523016350163,0.68613858362710944,-0.85379066507076407,0.98117998598589762,0.2216235035085139,-0.49819221442866235,0.38334081480679627,0.00080882344212840351,0.035334959422196999,0.36225654795055839,-0.30770958036018725,0.035206121363598575,-0.5178628454119103,0.5865556642212284,0.27005404962634616,0.59785876905448365,-0.31500950346294143,-0.58893069937194009,0.23836734385021097,0.91780363806345822,-0.0722138312603815,-0.70127331563720263
-0.23824477979310332,0.67139634473463938,-0.48703620396969893,-0.76620947301190601,0.39911202561126302,-0.93833898450095887,0.73116542293896392,0.88194435605295629,-0.42273153432736632,-0.051080159211520204,-0.40491107941234405,-0.88137726411548867,-0.24862951479792983,-0.88363940877719727,-0.09988743812359191,0.5290937643127307,0.91416980951589366,-0.62229974642109531,-0.83421595466336784,0.90795621824045547,0.53552248527871904,0.27683155967135309,-0.19533319666988236,0.76108988988895798,0.69272592914112918,0.80702501916142122
-0.33206731945221235,-0.58713433917735869,-0.38472377582979189,-0.24252502444303703,-0.56614330663546353,-0.32153535041286618,0.28583477188436923,-0.7707810581846577,0.95064764391641776,0.15458715249745758,0.87151651884893511,-0.13860571592835402,-0.46321890765588125,-0.90674883418066554,-0.16101802061522852,0.63856637463253474,-0.26809616586273055,-0.092176851369841106,-0.062845651901455302,0.59811437187279815,-0.1239294879970001,0.7263864393284436,0.014833701490645002,0.8035880623725844,0.72166815566278086,-0.085259728098558307
-0.20364928049788467,0.50028693739546481,0.60506407949789898,0.52617617119790761,-0.37762963371029623,-0.78991712934432301,0.5168439170661332,0.20142255680724497,-0.6935688394614814,-0.075430097319852507,0.76187672110426674,-0.47065827758536605,0.29839363913180805,-0.9024536270182093,0.099423666290670676,-0.98470937929671543,0.25070343873230505,0.62412734022408922,-0.001103002252119456,-0.077199099426896955,-0.87393221546397193,-0.027291471256590594,-0.65464666008232908,0.20256197984488811,-0.66540922283299064,-0.93797652606792559
