0.29144192738773,0.71781008551984526,0.89883397513053342,-0.49851544722319541,0.93506523016350163,-0.057182565911565231,0.76425906749606987,0.98117998598589762,0.2216235035085139,-0.14204677781696518,0.80953460564178892,0.19595779734470464,0.035334959422196999,0.36225654795055839,-0.30770958036018725,0.035206121363598575,-0.5178628454119103,-0.40613635886865862,0.27005404962634616,0.38460063928558785,-0.31500950346294143,-0.63768692875108113,0.23836734385021097,-0.78283247650324261,-0.0722138312603815,-0.70127331563720263
-0.23824477979310332,-0.741048403194976,-0.48703620396969893,-0.76620947301190601,0.98719599053630214,-0.75877445751813855,0.73116542293896392,0.74162914141069614,-0.42273153432736632,0.1552468536701288,-0.40491107941234405,-0.88137726411548867,0.62309602859455171,-0.3272402115625872,-0.76036749864395303,0.5290937643127307,0.91416980951589366,-0.62229974642109531,-0.70538062613788388,0.27564351023180311,0.53552248527871904,0.27683155967135309,-0.19533319666988236,-0.99861087988137176,0.69272592914112918,0.80702501916142122
-0.33206731945221235,-0.58713433917735869,0.8011928903341492,-0.24252502444303703,-0.18394655241221125,-0.32153535041286618,-0.86031875019397841,-0.7707810581846577,0.53773007195703904,-0.28288140379024429,0.87151651884893511,-0.13860571592835402,-0.053067582756842535,-0.90674883418066554,-0.16101802061522852,0.13991546358518292,-0.26809616586273055,-0.092176851369841106,-0.13162105819322778,0.59811437187279815,0.66202968490188963,-0.29351015651702905,0.014833701490645002,0.8035880623725844,-0.10472044037140238,-0.085259728098558307
-0.31289197595324225,0.50028693739546481,0.60506407949789898,0.52617617119790761,-0.37762963371029623,-0.041059561106314701,0.5168439170661332,0.20142255680724497,-0.6935688394614814,-0.089664651045775035,0.76187672110426674,-0.47065827758536605,0.29839363913180805,-0.58860189768693427,-0.10269854467232342,-0.88316800754784408,0.97218639258674733,0.62412734022408922,-0.001103002252119456,0.16917786831664117,0.51332226272161963,-0.027291471256590594,-0.65464666008232908,0.20256197984488811,-0.29065901624670554,-0.93797652606792559
