0.29144192738773,0.71781008551984526,0.94215086661225156,-0.03879583764731831,0.91947796115669389,0.68613858362710944,-0.41133052262255321,0.79319589575384475,0.2216235035085139,0.0092900575921615047,0.80953460564178892,0.19595779734470464,0.11755470461633322,-0.10776069169122149,-0.30770958036018725,0.035206121363598575,-0.5534330219327821,-0.049571523575861143,0.27005404962634616,0.38460063928558785,-0.31500950346294143,-0.63768692875108113,0.23836734385021097,-0.78283247650324261,-0.0722138312603815,-0.70127331563720263
-0.23824477979310332,0.42208145408637177,-0.48703620396969893,-0.76620947301190601,-0.13562233902574561,-0.75877445751813855,-0.74976110400656504,-0.37018369436655263,-0.060997228700791162,-0.58008534031638503,-0.40491107941234405,-0.88137726411548867,-0.24862951479792983,-0.88363940877719727,-0.09988743812359191,0.5290937643127307,0.91416980951589366,-0.62229974642109531,-0.83421595466336784,0.27564351023180311,0.53552248527871904,0.27683155967135309,-0.46209852216489233,0.76108988988895798,0.69272592914112918,0.80702501916142122
-0.33206731945221235,-0.58713433917735869,-0.38472377582979189,-0.24252502444303703,-0.56614330663546353,-0.32153535041286618,0.28583477188436923,0.50111257547125199,0.53773007195703904,-0.68623330797636317,0.87151651884893511,-0.13860571592835402,-0.053067582756842535,-0.90674883418066554,-0.16101802061522852,0.13991546358518292,-0.26809616586273055,0.9651447195280638,-0.062845651901455302,0.59811437187279815,-0.1239294879970001,-0.6342694160575737,0.014833701490645002,0.8035880623725844,-0.12707718463670559,-0.085259728098558307
0.48912298190778092,0.50028693739546481,0.60506407949789898,0.52617617119790761,-0.37762963371029623,0.14612226987024401,0.5168439170661332,0.20142255680724497,-0.61673922836596495,-0.50038500837739508,0.76187672110426674,-0.032942393696718142,0.29839363913180805,-0.58860189768693427,-0.10269854467232342,-0.0016261169696536459,0.25070343873230505,-0.71481855832854468,-0.027002139271460557,0.16917786831664117,-0.062116551133514886,-0.027291471256590594,-0.65464666008232908,-0.44953545907257397,-0.66540922283299064,-0.93797652606792559
