-0.065360809803643782,-0.61659860985189852,-0.98381040944837594,-0.17011683518419884,-0.51747877716072543,0.7319971082315555,0.13683987885723714,-0.7374517019125777,-0.23581844067279456,0.79462540831724282,-0.77217006301266355,-0.046115060556494614,0.73796408401801794,-0.82003193548374109,0.89029366218583639,0.1050005820272879,0.5065151062177724,0.23924939410311308,0.086281348392913682,-0.63637424757095418,-0.090677903265312443,-0.93400824805999449,-0.81605405269903719,-0.25894068748143861,0.086220840912867081,0.59081915494419901
0.25104200974354751,0.86362817700221206,-0.4557873328946942,-0.20258974162816945,0.20689656486096508,-0.80145084470665662,-0.88182427230322413,0.16632345852399233,-0.53634441724788817,0.93397793308875632,0.49253574314288717,-0.81553253067192855,-0.27375546764480996,0.98435788687171288,0.13102810831070077,-0.47671687153192632,-0.19788797675425784,0.58626115868433537,-0.83327156561275295,0.014461469743795918,0.12971849643735656,0.48457724697217297,-0.29912452202046658,-0.034720652036053901,0.11282797273911016,-0.071819407392237355
0.18588421651033271,0.78405799127537668,0.9723734488277469,0.79408409148357739,0.50144986902299094,0.20140443736937907,0.67294850676405704,-0.013549167075866286,-0.59414766387806095,-0.1286616803815348,-0.22566821674510096,0.60943426967828307,0.28154332322666509,-0.13582429900931725,0.97228885173808988,0.89559993813799155,-0.62898819958297891,-0.14558716046165787,0.55273204050881053,0.051804458583750268,0.94793124982586363,0.25632404011784904,-0.18036281279260447,-0.72818536426531044,0.031805805953201149,-0.44262355026256062
0.83955962108707682,0.099567480750669901,-0.31064497683028103,-0.089935458621337894,-0.93210567571678538,0.71838375700469315,0.12213967721223118,-0.73636840803032966,0.48112440872586126,-0.12614826971489923,0.60730098951895983,-0.9851000449878522,-0.51130422175336365,-0.44106207628984118,0.9281448593965389,0.87702824781240629,0.38879791735759506,0.24963233860356526,-0.84656622386102609,0.82152900442181043,0.71123805919245831,-0.21799239189828934,-0.20147668486286618,0.13027749463302651,0.53518581254950082,-0.45200272439772182
