0.29144192738773,-0.094096248551934103,0.39752284844132024,0.48046957591886574,0.93506523016350163,0.5010484857331452,-0.85379066507076407,0.98117998598589762,0.2216235035085139,-0.81091657574601239,0.80953460564178892,0.50723412565740822,0.035334959422196999,0.086028016970849386,-0.30770958036018725,0.035206121363598575,0.95352108835113092,0.5865556642212284,0.68429977542256193,0.025247778907766083,-0.31500950346294143,-0.39720979924750699,-0.86586136642266465,-0.78283247650324261,-0.0722138312603815,0.77976595479053246
-0.23824477979310332,-0.16611688918663248,-0.48703620396969893,-0.76620947301190601,-0.99650353897776278,-0.75877445751813855,0.94298467153549081,0.74162914141069614,-0.42273153432736632,-0.051080159211520204,-0.40491107941234405,-0.69848866340757843,-0.24862951479792983,-0.46965122725439445,-0.09988743812359191,0.5290937643127307,0.91416980951589366,-0.62229974642109531,-0.83421595466336784,0.27564351023180311,0.37207849158261341,0.27683155967135309,0.03712002451865648,0.76108988988895798,0.69272592914112918,0.80702501916142122
-0.032571290713625745,-0.58713433917735869,0.4710195277935183,-0.11086511901111562,-0.56614330663546353,-0.76351709234294218,0.91255086927630935,-0.7707810581846577,-0.86458844411361957,0.70862778541612581,-0.9777699457371376,0.55199868839811694,-0.48654731810752727,-0.059280689546924004,-0.16101802061522852,0.13991546358518292,-0.69192411255076891,-0.092176851369841106,0.94579152297887492,-0.088022163316706648,0.18926808322864508,-0.6342694160575737,0.014833701490645002,-0.62271094338684807,0.73851278343561377,-0.085259728098558307
-0.31289197595324225,-0.79414370423401315,0.012775431815121863,0.52617617119790761,-0.37762963371029623,-0.07459036708707556,0.90243884225134141,0.99691854717351736,-0.6935688394614814,-0.089664651045775035,0.76187672110426674,-0.57671454049018633,-0.66282205438852371,-0.53394609341937449,0.97727660840047159,0.14904925711531947,-0.39103767514926924,0.62412734022408922,-0.51855333453667996,0.16917786831664117,-0.56144076620968453,-0.027291471256590594,-0.65464666008232908,0.20256197984488811,-0.66540922283299064,-0.93797652606792559
