0.32415356631134862,-0.5979619154636433,0.39752284844132024,0.33701368686076782,0.93506523016350163,0.68613858362710944,-0.85379066507076407,0.98117998598589762,0.2216235035085139,-0.81091657574601239,0.80953460564178892,0.19595779734470464,0.035334959422196999,0.36225654795055839,0.59594332689158991,0.035206121363598575,-0.5178628454119103,0.5865556642212284,0.68429977542256193,0.025247778907766083,-0.31500950346294143,-0.63768692875108113,0.23836734385021097,-0.86261965373564964,-0.0722138312603815,-0.057441334600092375
-0.23824477979310332,0.42208145408637177,0.69969477588791462,-0.76620947301190601,0.98719599053630214,-0.75877445751813855,0.33745475491331933,0.74887522154133568,-0.73133568861615061,-0.051080159211520204,-0.40491107941234405,-0.88137726411548867,-0.24862951479792983,0.67256392560433742,0.34233768753308635,0.54347451032437477,0.91416980951589366,-0.62229974642109531,-0.83421595466336784,0.27564351023180311,0.53552248527871904,0.27683155967135309,-0.19533319666988236,0.71593969914467004,0.69272592914112918,0.80702501916142122
-0.032571290713625745,-0.58713433917735869,-0.38472377582979189,-0.11086511901111562,-0.096917838935949518,-0.32153535041286618,0.28583477188436923,0.82885222041162843,0.34030352295071808,0.70862778541612581,-0.80124072732060925,-0.43045847840259532,-0.48654731810752727,-0.39080704099731189,-0.16101802061522852,0.13991546358518292,-0.26809616586273055,-0.4686013535650928,0.94579152297887492,-0.088022163316706648,-0.1239294879970001,-0.6342694160575737,0.014833701490645002,-0.62271094338684807,-0.10472044037140238,-0.085259728098558307
-0.31289197595324225,0.50028693739546481,0.012775431815121863,0.52617617119790761,-0.37762963371029623,-0.07459036708707556,0.90243884225134141,0.20142255680724497,-0.6935688394614814,-0.089664651045775035,0.76187672110426674,-0.47065827758536605,-0.66282205438852371,-0.53394609341937449,0.055274688175744657,0.14904925711531947,-0.49009863984062285,0.16391472162241705,-0.001103002252119456,0.16917786831664117,0.2942050193234742,-0.44103424285933368,0.42140924294937121,0.20256197984488811,-0.66540922283299064,-0.93797652606792559
