0.29144192738773,0.17709993828298787,0.39752284844132024,0.48046957591886574,0.93506523016350163,-0.5726406638966286,-0.85379066507076407,0.98117998598589762,0.2216235035085139,-0.95246271151916595,0.80953460564178892,0.19595779734470464,-0.93874423391705331,0.36225654795055839,-0.30770958036018725,0.035206121363598575,-0.5178628454119103,0.5865556642212284,0.68429977542256193,0.025247778907766083,-0.48785088378705055,-0.79946856289288704,0.23836734385021097,-0.78283247650324261,-0.0722138312603815,-0.11948089212794932
-0.23824477979310332,-0.79573263644119718,-0.48703620396969893,-0.76620947301190601,0.98719599053630214,-0.75877445751813855,-0.78730378804663159,0.74162914141069614,-0.42273153432736632,-0.68433734914979216,-0.40491107941234405,-0.88137726411548867,-0.24862951479792983,-0.46965122725439445,-0.09988743812359191,0.5290937643127307,0.17349531007527363,-0.62229974642109531,-0.83421595466336784,0.27564351023180311,0.53552248527871904,0.27683155967135309,-0.19533319666988236,0.76108988988895798,0.69272592914112918,0.80702501916142122
-0.032571290713625745,-0.58713433917735869,-0.38472377582979189,-0.11086511901111562,-0.56614330663546353,-0.32153535041286618,0.28583477188436923,-0.7707810581846577,0.34030352295071808,-0.66211479813606156,-0.80124072732060925,-0.89733054958161906,-0.48654731810752727,-0.90674883418066554,-0.69986273195657311,0.13991546358518292,0.88903886046009495,-0.43211850352292847,0.94579152297887492,-0.088022163316706648,-0.1239294879970001,-0.6342694160575737,0.014833701490645002,-0.62271094338684807,-0.10472044037140238,-0.085259728098558307
-0.95470674567611069,-0.67278692524831962,-0.19491077733683704,0.52617617119790761,-0.37762963371029623,0.029837676981188999,0.90243884225134141,0.20142255680724497,-0.6935688394614814,-0.089664651045775035,0.76187672110426674,-0.47065827758536605,-0.66282205438852371,-0.53394609341937449,0.97727660840047159,0.14904925711531947,0.25070343873230505,0.62412734022408922,-0.95001915298265249,0.16917786831664117,0.2942050193234742,-0.027291471256590594,-0.65464666008232908,-0.45038538641922687,-0.66540922283299064,0.65813072694234598
