0.29144192738773,0.75746295442984213,0.3049358653760208,0.48046957591886574,0.93506523016350163,0.68613858362710944,-0.85379066507076407,0.98117998598589762,0.2216235035085139,-0.81091657574601239,0.80953460564178892,0.19595779734470464,0.035334959422196999,0.36225654795055839,-0.30770958036018725,0.035206121363598575,-0.35943184775879344,0.5865556642212284,0.68429977542256193,0.025247778907766083,-0.31500950346294143,-0.63768692875108113,0.23836734385021097,-0.78283247650324261,-0.0722138312603815,0.52549728513550731
-0.23824477979310332,0.42967503293279252,-0.5589287811530792,-0.76620947301190601,0.98719599053630214,-0.87664680982359533,0.94298467153549081,0.74162914141069614,-0.42273153432736632,-0.051080159211520204,-0.40491107941234405,0.80641769419460263,-0.24862951479792983,-0.46965122725439445,-0.09988743812359191,0.5290937643127307,0.91416980951589366,-0.62229974642109531,-0.83421595466336784,0.27564351023180311,-0.15730296130387611,0.27683155967135309,-0.19533319666988236,0.76108988988895798,0.69272592914112918,0.80702501916142122
-0.032571290713625745,-0.58713433917735869,-0.38472377582979189,-0.11086511901111562,-0.56614330663546353,-0.32153535041286618,0.28583477188436923,-0.7409135872584689,0.34030352295071808,0.70862778541612581,-0.80124072732060925,-0.13860571592835402,-0.48654731810752727,-0.90674883418066554,-0.16101802061522852,0.22156502619581731,-0.26809616586273055,-0.092176851369841106,-0.5840858618688709,-0.088022163316706648,-0.1239294879970001,0.49521119634877331,0.014833701490645002,-0.24228292766669557,-0.10472044037140238,-0.085259728098558307
-0.31289197595324225,0.50028693739546481,0.012775431815121863,0.52617617119790761,-0.37762963371029623,0.13563797527772548,0.90243884225134141,-0.57906324110305207,-0.6935688394614814,-0.1846353594805541,-0.3866139389541432,-0.47065827758536605,-0.66282205438852371,-0.48926488542132152,-0.38573314827073468,0.14904925711531947,-0.27920587912467321,-0.62748554968553583,-0.001103002252119456,0.16917786831664117,0.2942050193234742,-0.027291471256590594,-0.032126968595745709,0.56468056960607971,-0.3902822844361078,-0.93797652606792559
