0.89983351731862626,0.36234224494046985,0.82091778392258519,-0.87700655226596247,-0.1619856679451066,0.27542728926022808,-0.34178980337219045,-0.65925118364967483,0.96351779722245023,-0.076822260061597536,0.1134597783753839,-0.82050525516753425,-0.91773570229476809,-0.23729391537211697,0.65677236478145473,-0.1844762390473238,0.98433591333495007,-0.1274162016123217,0.87626717315993963,-0.97252848406724546,-0.9643381850419237,0.12777966290422671,-0.76732783872859733,-0.94078911162756707,0.18222792757621975,-0.20341687166435674
-0.63515886862257687,-0.84377978901905548,-0.67924530605996458,-0.41782088377600068,-0.78309884626794068,0.46962981858149289,-0.87929891822042006,-0.97670772879129153,-0.09467379408190979,-0.95425646644325135,0.96836817419287313,0.62827102136864776,-0.16409968113776729,-0.36315429232524643,0.24075405369480296,0.066560839145933359,0.45351329777332494,-0.56729437183747122,0.33681450616848574,-0.64646836277982533,-0.5283576614934089,0.9224591319664619,-0.41514803553880575,0.63669969359536016,-0.41350775550345031,0.51935208028406121
-0.70814145030144937,0.16841459982305085,-0.10066060729856918,0.40101542783677835,0.96360680197913173,-0.77942715454335776,0.6121373386445359,0.9036199879545086,0.87634008366040783,0.8373111347156057,0.30273757952615621,0.080662729703353975,-0.48103596759728973,-0.43807553388911469,-0.097153212582940185,0.32566585053221431,0.82384921896637131,0.36079883470877583,-0.93120101742037664,0.75983512105952045,0.84955525022888545,-0.73776325778696927,0.41128966728064453,0.6498909561800772,-0.02487054961338675,0.010880576268213815
-0.56064756834591867,-0.60386329360100799,-0.58775830617861891,0.064533881785527214,-0.16515704319553404,-0.42990631627422582,-0.12898688394509095,0.093843036119736656,-0.85678348227963097,0.43609405231064513,-0.97952426833367379,0.39045093799058228,0.62787718481532284,0.96504912291634093,-0.019583750517125464,-0.13103848355747805,0.091354330284561192,-0.66309550888975455,-0.35774815794260539,-0.83924371127978858,0.2184235515711801,0.64435947444119868,-0.64509687705354768,-0.47269473580050514,-0.061994286737892201,-0.26770138514468211
