0.29144192738773,-0.087029945972882938,0.39752284844132024,0.84985254232115715,0.32442186823962427,-0.39688484580754402,-0.59603102927437468,-0.69618145331260584,0.2216235035085139,-0.69509330637608469,0.80953460564178892,0.19595779734470464,0.035334959422196999,0.36225654795055839,0.81486781206440262,0.093585333742356447,-0.99050563099743449,0.5865556642212284,0.93847583703783122,0.2506613275885945,0.56375811081748695,-0.63768692875108113,0.23836734385021097,0.81598889986716538,0.66332415098632369,0.52549728513550731
-0.23824477979310332,0.29241113542708885,0.38952025277533742,-0.76620947301190601,0.77559521091440042,-0.91968140635267748,0.94298467153549081,-0.49016712685429931,-0.42273153432736632,0.32274533262438121,0.05729550729990418,-0.88137726411548867,-0.24862951479792983,-0.46965122725439445,-0.034031009551129365,0.1206094594893834,-0.33251510829837416,0.58215119603637411,-0.18334307837057207,-0.15143199056382906,0.74382506585826746,0.27683155967135309,-0.019855128963452984,-0.69132210271527916,0.69272592914112918,-0.47953896520510453
-0.032571290713625745,-0.3419313559853272,-0.18777830236316873,0.79505222730175573,-0.75981147341227473,0.81995773731595945,0.28583477188436923,-0.7707810581846577,0.15722456235094473,-0.38353783910892059,-0.2471264720253632,-0.52904645929776373,-0.078527311359496643,-0.90674883418066554,0.4602270806795925,-0.22686123638606048,0.83270654835994051,0.67870278432120035,0.94579152297887492,-0.088022163316706648,0.57183968579538003,-0.222285545823665,0.014833701490645002,0.92431796212185646,-0.10472044037140238,-0.085259728098558307
0.38597202804079056,0.99880831320724073,-0.69208433342021869,-0.68197244563810444,-0.37762963371029623,-0.07459036708707556,0.90243884225134141,-0.018328077246125396,0.76123549129045487,-0.089664651045775035,0.21232702342880883,-0.47065827758536605,-0.66282205438852371,-0.53394609341937449,0.52962826676101415,-0.36644119422690746,-0.29092816007925859,0.96159530500287271,-0.99144800575569358,0.4192726208415769,0.9719680412318692,-0.027291471256590594,-0.19770458786174405,0.8202570551145556,0.011711166742927714,0.095919729019426914
