0.29144192738773,-0.1877121404752855,0.39752284844132024,0.48046957591886574,0.32442186823962427,0.68613858362710944,-0.14500651870432946,-0.69618145331260584,0.2216235035085139,-0.69509330637608469,0.80953460564178892,0.19595779734470464,0.035334959422196999,0.36225654795055839,0.81486781206440262,0.093585333742356447,-0.99050563099743449,0.73968202971598385,-0.27208696107980734,0.025247778907766083,0.56375811081748695,-0.63768692875108113,0.23836734385021097,-0.25805014553328554,-0.34153908344749695,-0.37655067791480823
-0.23824477979310332,-0.11076071422938627,0.38952025277533742,-0.76620947301190601,0.77559521091440042,-0.91968140635267748,0.94298467153549081,-0.49016712685429931,-0.42273153432736632,-0.99386971216814568,0.05729550729990418,-0.88137726411548867,-0.24862951479792983,-0.46965122725439445,0.16580148637122316,0.1206094594893834,-0.35542556142450366,0.58215119603637411,-0.18334307837057207,-0.15143199056382906,0.74382506585826746,0.27683155967135309,-0.019855128963452984,-0.69132210271527916,0.69272592914112918,0.29740647617378135
-0.032571290713625745,-0.3419313559853272,-0.38472377582979189,0.79505222730175573,-0.56614330663546353,-0.32153535041286618,0.28583477188436923,-0.7707810581846577,0.15722456235094473,-0.38353783910892059,-0.2471264720253632,-0.52904645929776373,-0.42713072350901138,-0.7643614583119005,0.32987143360419546,0.56104926634244023,-0.27626883497500421,-0.34673665701148448,0.91073919181875485,-0.088022163316706648,0.57183968579538003,0.59618906136213679,0.014833701490645002,-0.71684385514853055,-0.23265345052884379,0.33357765779556825
0.38597202804079056,0.99880831320724073,0.98053758189600937,0.49509912795677047,0.41521637475717066,-0.07459036708707556,0.90243884225134141,-0.018328077246125396,-0.24403850284307183,-0.64551958816386268,0.51217107949582852,-0.47065827758536605,-0.66282205438852371,-0.53394609341937449,-0.7478294349254142,-0.24995177773554489,0.25070343873230505,0.96159530500287271,-0.99144800575569358,0.50987554269650159,0.7070572683210179,0.56612317979199789,-0.19770458786174405,0.32589113921868584,-0.75203414502258759,0.095919729019426914
