0.29144192738773,0.09229271436438502,0.050970160605587012,-0.15967960291364869,0.32442186823962427,0.38966597258215097,-0.58373501485359469,-0.69618145331260584,-0.41691311440880585,-0.69509330637608469,-0.085442164820930255,-0.70696941887530107,0.035334959422196999,0.36225654795055839,-0.9610541017106744,0.093585333742356447,-0.59352485500226759,-0.10687264255669904,-0.6476612132879096,0.9686843354587189,0.56375811081748695,-0.29673549635076424,0.23836734385021097,-0.74632768240981173,-0.34153908344749695,0.52549728513550731
-0.23824477979310332,-0.82393118356816464,0.23990487900160762,0.56938867406390248,0.77559521091440042,-0.059488042887007486,0.46548809695003346,0.49083619268554668,-0.42273153432736632,-0.99386971216814568,-0.26110228332907903,-0.88137726411548867,-0.24862951479792983,-0.46965122725439445,-0.49885318499464226,0.1206094594893834,0.38494122322617286,0.58215119603637411,-0.18334307837057207,0.37360218538234702,0.74382506585826746,0.27683155967135309,0.93637469219602765,-0.28060387969945788,0.69272592914112918,-0.31376465853485458
-0.032571290713625745,0.18808431501015588,0.50316618892639431,-0.7132196535635813,-0.56614330663546353,-0.32153535041286618,0.28583477188436923,-0.7707810581846577,0.15722456235094473,-0.96374364955810354,-0.2471264720253632,0.48752275214708951,-0.56987795104125971,0.68664752909949645,-0.16101802061522852,-0.95982462683432535,-0.27626883497500421,-0.34673665701148448,0.94579152297887492,-0.088022163316706648,0.57183968579538003,0.87669034736658724,0.79877325629223472,0.3987170228186816,-0.10472044037140238,-0.085259728098558307
0.38597202804079056,0.99880831320724073,0.48270938847682365,-0.4896530604215541,-0.37762963371029623,0.284784874768093,0.90243884225134141,-0.018328077246125396,0.47939584209769359,-0.089664651045775035,0.11596242773830823,0.34911539157114424,0.55585707036986176,-0.16664869721565778,-0.63643634908569569,0.27127115461672835,0.25070343873230505,-0.37514857828448922,-0.99144800575569358,-0.56807036567974323,0.2942050193234742,0.51663212494068889,-0.96702472119209748,0.27013975716316518,0.85253052468005386,0.095919729019426914
