0.35603909571356529,-0.49516149214769811,0.050970160605587012,0.08799577264598657,-0.74757234593140565,0.38966597258215097,0.37628297572531566,-0.69618145331260584,-0.41691311440880585,-0.69509330637608469,-0.085442164820930255,-0.85611996238197907,0.035334959422196999,0.36225654795055839,-0.9610541017106744,0.093585333742356447,-0.99050563099743449,-0.16940260119651507,0.93847583703783122,0.9686843354587189,0.56375811081748695,-0.29673549635076424,0.23836734385021097,-0.82281957976084685,-0.34153908344749695,0.52549728513550731
-0.23824477979310332,-0.82393118356816464,0.38952025277533742,-0.9918156036732686,0.77559521091440042,-0.059488042887007486,0.46548809695003346,0.49083619268554668,0.54406550501157946,-0.99386971216814568,-0.26110228332907903,-0.88137726411548867,-0.24862951479792983,-0.46965122725439445,-0.38853662006736567,0.1206094594893834,-0.33033783372202641,0.58215119603637411,-0.18334307837057207,0.37360218538234702,0.098932275252338053,0.27683155967135309,0.041856579753279055,0.70823550583473738,0.69272592914112918,-0.31376465853485458
-0.032571290713625745,0.18808431501015588,-0.58931137297295488,0.26676866452489567,-0.56614330663546353,-0.32153535041286618,0.28583477188436923,0.28205307504736621,0.15722456235094473,-0.96374364955810354,-0.2471264720253632,0.048268071460396689,-0.56987795104125971,0.68664752909949645,-0.16101802061522852,-0.22901675406234556,-0.27626883497500421,0.88248699270592579,0.92478432798780696,-0.088022163316706648,0.8178640448244141,0.87669034736658724,0.79877325629223472,0.3987170228186816,-0.10472044037140238,-0.9355907169921851
-0.75818104791492158,0.06243431603555849,0.48270938847682365,-0.4896530604215541,-0.37762963371029623,0.284784874768093,0.060504276228701803,-0.25366889083628541,0.85348066334609718,-0.089664651045775035,0.11596242773830823,-0.47065827758536605,0.55585707036986176,-0.16664869721565778,-0.58292625131610531,0.27127115461672835,0.25070343873230505,-0.12967906435631282,-0.99144800575569358,-0.57962731101872667,0.2942050193234742,0.51663212494068889,-0.96702472119209748,0.84448287747715622,0.85253052468005386,0.095919729019426914
