0.29144192738773,-0.49516149214769811,0.050970160605587012,-0.29206285338411697,0.32442186823962427,0.92551734475515901,-0.58373501485359469,-0.69618145331260584,-0.65893928292686565,-0.69509330637608469,-0.25524572206601626,-0.58464981812620964,0.76831787801115947,0.36225654795055839,-0.9610541017106744,0.093585333742356447,0.66752457199955195,0.31917609051116957,0.39108723659124611,0.9686843354587189,0.45058207773102121,0.0075442293365424185,0.23836734385021097,0.24397091698529749,-0.34153908344749695,0.52549728513550731
0.16736483002819558,0.53735346446144616,0.38952025277533742,0.56938867406390248,0.77559521091440042,-0.059488042887007486,0.84825287403464467,0.49083619268554668,-0.36172320243949896,-0.89002403703295019,-0.26110228332907903,-0.88137726411548867,-0.24862951479792983,-0.46965122725439445,0.9291610407373827,0.6844990668269888,0.38494122322617286,0.58215119603637411,-0.26748662792959488,0.37360218538234702,0.96456823445991469,0.1803988122516258,0.015627918931976792,0.70823550583473738,0.69272592914112918,0.9876178065147434
0.98268297483935396,0.18808431501015588,0.71356521520366867,-0.57126855223308737,-0.56614330663546353,0.93709454022995908,0.53831294547534347,-0.7707810581846577,-0.12264149043402384,0.090639528611520692,-0.2471264720253632,0.48752275214708951,0.4910342016926339,0.68664752909949645,-0.16101802061522852,0.84684340234559485,-0.27626883497500421,0.39676770801886518,0.94579152297887492,-0.52419699538726272,0.57183968579538003,0.87669034736658724,0.79877325629223472,-0.97419557300294857,-0.10472044037140238,-0.085259728098558307
-0.57270902847526139,-0.063284907518141198,0.48270938847682365,0.74247084142772035,-0.47414886957974578,-0.12126491604671963,-0.62160796657107142,0.46596461431658986,0.57894537898304055,0.53779966592380135,0.11596242773830823,-0.47065827758536605,0.0070430482065912958,-0.4875359571254827,0.079834506238824599,0.27127115461672835,0.25070343873230505,-0.12967906435631282,-0.99144800575569358,-0.59345075915347012,0.2942050193234742,-0.81984757090859595,-0.30856094305913628,0.84448287747715622,-0.64332070083601889,0.095919729019426914
