0.29144192738773,-0.49516149214769811,0.050970160605587012,-0.29206285338411697,0.32442186823962427,0.38966597258215097,-0.58373501485359469,-0.69618145331260584,-0.65893928292686565,0.23691364488271516,-0.56419599524155895,-0.58464981812620964,0.035334959422196999,0.36225654795055839,-0.9610541017106744,0.093585333742356447,0.66752457199955195,-0.17508367416231674,0.39108723659124611,0.9686843354587189,0.45058207773102121,-0.29673549635076424,0.23836734385021097,0.24397091698529749,-0.34153908344749695,0.52549728513550731
-0.23824477979310332,-0.82393118356816464,0.38952025277533742,0.56938867406390248,0.77559521091440042,-0.059488042887007486,0.84825287403464467,0.49083619268554668,-0.36172320243949896,0.41126496925482359,-0.26110228332907903,-0.88137726411548867,0.56486844054014607,-0.46965122725439445,-0.49885318499464226,0.29942009528675428,0.38494122322617286,0.58215119603637411,-0.18334307837057207,0.37360218538234702,0.48608999351137894,-0.27018587040099806,0.1530377295276959,-0.36468195433095918,0.69272592914112918,-0.42258125163255245
0.12493926017128598,0.18808431501015588,-0.58931137297295488,-0.7132196535635813,-0.56614330663546353,-0.32153535041286618,-0.91900282606169248,-0.7707810581846577,0.34059567517166611,0.99253991460232371,-0.2471264720253632,0.48752275214708951,-0.77623439744162259,0.68664752909949645,-0.16101802061522852,0.84684340234559485,-0.27626883497500421,0.39676770801886518,0.94579152297887492,-0.87175569429039679,0.67828101729733414,0.87669034736658724,0.79877325629223472,-0.97419557300294857,-0.10472044037140238,-0.085259728098558307
-0.57270902847526139,0.1417423590042306,0.48270938847682365,-0.64671732329676646,0.0089981029226382514,-0.12126491604671963,0.90243884225134141,-0.018328077246125396,0.85348066334609718,0.22695617394261358,0.11596242773830823,-0.47065827758536605,0.55585707036986176,-0.4875359571254827,0.079834506238824599,0.27127115461672835,0.25070343873230505,-0.12967906435631282,-0.99144800575569358,-0.59345075915347012,-0.76643221413052687,0.25091014141630863,-0.96702472119209748,0.84448287747715622,-0.64332070083601889,0.095919729019426914
