0.44281511510308702,-0.49516149214769811,0.86499328057269587,0.6464751464148033,0.32442186823962427,0.38966597258215097,-0.58373501485359469,-0.69618145331260584,0.5357294572552187,-0.69509330637608469,-0.033926474277588659,-0.58464981812620964,0.58285066829321197,-0.88432870691251741,-0.26406597433039125,0.83392980733945721,0.66752457199955195,0.28183092906430685,-0.52061618540262145,0.45589948571724093,0.45058207773102121,-0.29673549635076424,-0.3624185828430222,0.24397091698529749,0.75859425604871977,0.73668947172641275
0.91124516918938991,-0.82393118356816464,0.17846711139595928,0.56938867406390248,0.9018381924896588,-0.29012129437585776,-0.86727237576172644,0.11443851212733214,-0.36172320243949896,-0.99386971216814568,0.60639909171772133,-0.22880946289080906,-0.22399317352252801,-0.46965122725439445,-0.49885318499464226,0.10190840386829403,0.38494122322617286,0.58215119603637411,0.32525954422304704,-0.29863519612756573,0.48608999351137894,0.62779043767324505,-0.019855128963452984,0.70823550583473738,0.69272592914112918,0.11623439424778437
-0.032571290713625745,-0.23123497697947126,0.61702463428868204,-0.7132196535635813,0.13656198976955269,0.82589972627322994,0.53831294547534347,0.47939005673726021,-0.68430435365109599,0.090639528611520692,-0.2471264720253632,-0.73185294628207043,0.4910342016926339,0.68664752909949645,-0.1105127288245078,0.84684340234559485,-0.27626883497500421,0.39676770801886518,0.37399943385436862,-0.52419699538726272,0.57183968579538003,0.46384573858962885,0.39475471789493422,-0.97419557300294857,0.67290546492729719,-0.085259728098558307
-0.15886221764788111,0.98552321415729072,0.48270938847682365,-0.98572158282927602,0.87245998067079467,-0.12126491604671963,-0.16444378629868961,-0.018328077246125396,0.42446555832120114,0.53779966592380135,0.11596242773830823,-0.47065827758536605,-0.76926208593754275,-0.4875359571254827,0.079834506238824599,0.27127115461672835,0.25070343873230505,-0.12967906435631282,-0.99144800575569358,-0.59345075915347012,-0.7088300534009826,-0.81984757090859595,-0.79408810743286429,0.84448287747715622,-0.64332070083601889,-0.367944218470871
