-0.76974706854491348,0.044241207604277522,0.5798963363591827,0.041453937797490514,-0.64844614812995616,0.38966597258215097,0.55875711777134063,-0.69618145331260584,-0.99790383444612241,-0.60437670481794092,-0.4708820243244658,-0.58464981812620964,-0.081623323676947468,-0.88432870691251741,-0.9610541017106744,0.33817366064948229,-0.45474500866397038,0.67466001942656351,0.39108723659124611,-0.8431241581717821,0.45058207773102121,0.25027705054695248,0.87894022283565199,0.24397091698529749,-0.34153908344749695,0.52549728513550731
0.91124516918938991,-0.82393118356816464,0.38952025277533742,0.56938867406390248,0.9018381924896588,-0.059488042887007486,-0.86727237576172644,0.29368189788171506,-0.36172320243949896,0.63554550132329823,0.3758268060489931,-0.81354773570544303,-0.24862951479792983,-0.31520745254965221,-0.49885318499464226,-0.96701513386249149,0.38494122322617286,0.55433813210057448,0.05165920054140094,0.37360218538234702,0.48608999351137894,0.7865107159732474,-0.019855128963452984,0.70823550583473738,0.69272592914112918,0.43155789620342122
-0.78107364219754749,0.54023403581497087,0.92439428346098196,0.31188351198115427,0.13656198976955269,0.82589972627322994,0.53831294547534347,0.47939005673726021,-0.68430435365109599,0.090639528611520692,0.63288943218989901,0.48752275214708951,0.4910342016926339,0.68664752909949645,0.069954341217970839,-0.0051324082258663584,-0.27626883497500421,0.39676770801886518,-0.49570439061574167,-0.52419699538726272,0.9773682998575195,0.46384573858962885,0.39475471789493422,-0.32157141781834264,0.52899247028260832,0.34856698323687141
-0.90423992402202868,-0.46027835432187536,-0.58121677722064202,0.87216150212416754,-0.89459803741521382,-0.12126491604671963,-0.47834357089143165,-0.018328077246125396,0.85348066334609718,0.53779966592380135,0.11596242773830823,0.23921917823567207,0.55585707036986176,-0.4875359571254827,-0.16966599210726963,0.27127115461672835,0.25070343873230505,-0.12967906435631282,-0.99144800575569358,-0.046619991190272936,-0.43083152037997841,-0.59004141598735704,-0.91178152146833513,-0.090507696700945051,0.48679201470024425,-0.14313338488674221
