-0.43435718067706097,-0.033113939100295697,0.050970160605587012,-0.29206285338411697,-0.64844614812995616,0.69369752597092837,0.27224662759171525,-0.69618145331260584,-0.99790383444612241,-0.60711034092807692,-0.033926474277588659,0.50295808058673885,0.83364894940104772,-0.88432870691251741,-0.9610541017106744,-0.17358835611306311,-0.45474500866397038,0.67466001942656351,0.39108723659124611,-0.8431241581717821,0.45058207773102121,-0.29673549635076424,0.87894022283565199,-0.66238611362725708,-0.56776487432916012,0.52549728513550731
0.91124516918938991,-0.078524772182812397,0.38952025277533742,0.56938867406390248,0.34302788137024165,-0.059488042887007486,-0.86727237576172644,0.29368189788171506,-0.36172320243949896,-0.99386971216814568,0.3758268060489931,-0.81354773570544303,-0.24862951479792983,-0.31520745254965221,0.61361395492123916,0.10190840386829403,0.38494122322617286,-0.78811289597463885,-0.84701268025158494,0.37360218538234702,0.48608999351137894,0.27683155967135309,-0.019855128963452984,-0.69660346653128125,0.69272592914112918,-0.26468353958753399
0.0037716875192363997,-0.23123497697947126,-0.58931137297295488,-0.7132196535635813,0.13656198976955269,0.82589972627322994,0.53831294547534347,0.47939005673726021,-0.75161659603085051,0.090639528611520692,-0.2471264720253632,0.48752275214708951,0.4910342016926339,0.30885993712782134,0.18421402154548416,-0.0051324082258663584,0.0058917650602885452,0.39676770801886518,-0.49570439061574167,-0.52419699538726272,0.9773682998575195,0.46384573858962885,0.39475471789493422,-0.97419557300294857,0.67290546492729719,-0.085259728098558307
0.92346513938088237,-0.46027835432187536,-0.012691326929348712,0.87216150212416754,-0.33012243671451458,-0.99041791373863974,0.23309804077776586,-0.018328077246125396,0.85348066334609718,0.53779966592380135,0.11596242773830823,0.95705844121611894,0.55585707036986176,-0.4875359571254827,-0.53410806590308502,0.27127115461672835,0.25070343873230505,-0.12967906435631282,-0.08333792379328453,-0.90434498333331637,0.53202221865426602,-0.81984757090859595,-0.91178152146833513,-0.090507696700945051,-0.64332070083601889,-0.14313338488674221
