-0.76974706854491348,0.044241207604277522,0.050970160605587012,-0.29206285338411697,-0.64844614812995616,0.38966597258215097,0.27224662759171525,0.9677930039606446,-0.99790383444612241,-0.60711034092807692,-0.033926474277588659,-0.58464981812620964,0.54558472608286501,-0.88432870691251741,-0.14597955860042444,-0.17358835611306311,-0.13123902480972127,-0.32468306080249731,0.39108723659124611,0.19732673626513719,-0.28230345870419815,-0.29673549635076424,-0.44944016178326085,0.56781457319987738,-0.34153908344749695,0.52549728513550731
0.66632831296781059,-0.82393118356816464,-0.12086138312547967,0.56938867406390248,0.9018381924896588,-0.059488042887007486,-0.86727237576172644,0.31613902927730986,-0.06171895815337014,-0.99386971216814568,0.3758268060489931,-0.49159799441216889,0.35830989562106774,-0.31520745254965221,-0.49885318499464226,0.10190840386829403,0.38494122322617286,0.55433813210057448,0.05165920054140094,-0.2310309875352714,0.48608999351137894,0.27683155967135309,-0.67832324790977139,0.70823550583473738,0.69272592914112918,0.82887729953764322
0.0037716875192363997,0.92646237555961819,0.31872790522903394,-0.7132196535635813,0.45922658233687086,0.64935158329740816,0.53831294547534347,-0.55269445653488636,0.33688750949382529,0.090639528611520692,0.61759784929706729,0.48752275214708951,-0.47342499909025126,0.26988900109169411,0.069954341217970839,0.90391964373572331,-0.27626883497500421,0.066674813682560341,0.74705815507048423,-0.52419699538726272,-0.6272144050341808,-0.7032578888799812,0.39475471789493422,0.70808930148595395,0.67290546492729719,-0.085259728098558307
-0.90423992402202868,0.23808493363639927,0.89120459564006449,0.87216150212416754,-0.33012243671451458,0.17350025900309296,-0.47834357089143165,-0.018328077246125396,-0.89008961769908912,0.11754128820752618,0.11596242773830823,0.58348472923806671,-0.40947021908972925,0.13339674250496891,-0.34965211458384915,-0.56963271450134467,0.25070343873230505,-0.75311833450885413,0.66681847108025627,-0.046619991190272936,0.53202221865426602,0.56044001810581356,-0.91178152146833513,0.88296536876602305,-0.64332070083601889,-0.14313338488674221
