0.44675000837997381,-0.49038866007293502,0.95800750500698695,0.91956697287868927,0.91291908713244063,-0.33036994630359651,-0.58897965332170599,-0.47101931228990424,0.94247377159883361,0.086259599893414363,0.045562826192023342,0.62897594104567989,-0.38396637915663723,-0.64033347712662292,-0.61875421322396962,-0.44671616983606821,0.81645345963892013,-0.79678416734034618,-0.053882398957680211,0.23410485041278473,0.89377047919677177,-0.20189324971034206,-0.28004323587658164,-0.083148303028013126,-0.73827645468442582,-0.86977382378830947
0.43159812993220137,0.28587346666012881,-0.36035403268682709,-0.72393671970556195,-0.91974607224854266,-0.72445593176687373,-0.87294181636292745,0.26586122226489084,-0.010025850792921176,-0.71248885919292682,-0.360354915684306,-0.0023274341904790941,0.82452166004669869,0.97799624396458862,-0.76847210510471387,0.44820525402196787,0.7939065300402095,-0.15006265003586261,-0.39186239398599421,-0.63058748256170083,0.7932686532478157,-0.74724859006362898,0.028207436027405608,0.98650439865069472,0.40095888591783058,0.43328191941405625
-0.43737866909000167,0.72595074849709285,0.56137296155714411,0.3083834087361037,0.84982866661949408,0.79808281821999438,-0.24182008171946823,0.88533920563337132,-0.41942371210897855,0.70709852625052183,-0.83305798099066286,0.47839562775166034,0.19984711122941601,-0.20613642054369952,0.97754235991207183,-0.13617295430676357,0.82198596065500129,-0.62896709260823447,0.094091817671006384,0.72660937581565421,0.65549959693518867,-0.51891367956785994,0.96277327501162091,-0.7675620104933043,0.39771400714738503,0.64476757047472399
0.2613907532139359,0.16995773557451943,0.23786573431550551,-0.4682583821170887,0.16330657497279888,-0.17085479251217128,-0.56507275369973731,-0.16027497645315858,-0.38526435801037229,0.68430365345657651,0.12941386600575733,0.30551296845281661,0.28171799496562233,-0.017021428652134629,0.92812825420705947,-0.96569251558805624,-0.20219880454620354,-0.28680989199039031,-0.92701666542632766,0.75742300576339394,-0.70844678187589483,-0.89895672919402014,-0.73371732306852855,-0.96424945505768123,-0.34509595612336996,-0.2692239262478362
