0.40525113313855998,0.044241207604277522,0.050970160605587012,0.81568044449666055,0.147616047581411,0.38966597258215097,0.049485163598155912,-0.88773355950765387,-0.41566042927451785,-0.60711034092807692,-0.033926474277588659,0.36206610433123965,-0.51048402082790689,-0.33764139816421723,-0.36387015813613921,0.42449006503713749,-0.13123902480972127,-0.32468306080249731,0.39108723659124611,-0.74322761776707891,-0.80036412720606309,0.12932062884050199,-0.44944016178326085,0.24397091698529749,-0.95914386695226561,0.52549728513550731
-0.089964148891553686,-0.82393118356816464,-0.66551810653695886,0.56938867406390248,-0.47844279109063415,-0.059488042887007486,0.53199921057652855,0.31613902927730986,-0.06171895815337014,0.30189990100088471,-0.054542042387059286,0.63515478565991046,0.35830989562106774,-0.31520745254965221,-0.49885318499464226,-0.77908526618640939,-0.63780825133943364,0.55433813210057448,0.62496621282781328,-0.2310309875352714,0.48608999351137894,0.27683155967135309,-0.67832324790977139,0.70823550583473738,0.69272592914112918,0.82887729953764322
0.97484690715244593,-0.23123497697947126,0.35383310480527452,-0.7132196535635813,0.13656198976955269,0.64935158329740816,0.57993278485920108,-0.27093690452380637,-0.68430435365109599,-0.016722162619151382,0.74460528627481981,0.31432633773897778,-0.66778565542857282,-0.59928338012304305,-0.80798967316317638,0.78653503083360388,-0.27626883497500421,-0.19622773500877377,0.41197201119544369,-0.52419699538726272,-0.77170377349922181,-0.7032578888799812,0.39475471789493422,-0.97419557300294857,0.67290546492729719,0.3348512205162637
-0.44690883883186805,-0.2289099662954388,0.89120459564006449,-0.19976574205647513,0.75308610402933351,-0.37344884960295688,-0.47834357089143165,-0.018328077246125396,0.16607248591719426,0.6055971620563172,-0.22991988074847636,-0.1909827459263207,-0.40947021908972925,-0.34206661689777573,-0.53410806590308502,0.64279498957883985,0.25070343873230505,-0.75311833450885413,-0.99144800575569358,-0.046619991190272936,0.53202221865426602,-0.81984757090859595,0.13326677345526705,0.88296536876602305,-0.64332070083601889,0.52464779538455453
