0.19137780468379684,0.37596842050071033,-0.87834276105462883,-0.5566850689787064,0.20392831896655239,0.62608011403936814,-0.32667566649939772,0.70846899310037625,0.97834656558636346,0.24977549241596719,-0.26668872388261189,-0.47007001343334909,-0.85894126877365884,-0.93660015171905386,-0.092635192108736719,0.20285709135007801,-0.22650613294468713,0.54095780859434628,-0.33126372602737386,0.28859083294290544,-0.61117887712614416,0.49656840007320158,-0.55664467849762889,0.15623269339252333,-0.030963163198764132,0.22487724462349856
-0.32601098970715192,-0.055632427521696615,-0.16204222457311701,-0.96129539374142303,0.67895143898088284,-0.8875899825602811,0.61660043425715871,-0.45820718915628245,-0.99852419088123545,0.62156298245255792,0.69782741049194796,-0.14884886173842626,-0.34643178477701309,-0.48350821121591259,-0.67916816835032168,0.36823843614130825,0.5250651581971193,-0.51320558531331151,0.4487782765434245,0.12601849020670941,0.69862341179646648,0.30388468704557581,0.21486554747159237,0.37610866042657132,0.52689783386368561,-0.74437619913226305
-0.29603623977484372,0.054321333476494482,0.89628426439673037,0.74857710115972687,0.87901761658601618,0.63689683538668529,0.082383054279155932,0.58037594540870807,0.84137507633713815,-0.28779866846291879,-0.15986170309837244,0.027264379107759584,0.64781568572048265,0.94640518918673511,0.66582679959068636,-0.0061980240173293843,0.55383423563749612,-0.78708742891584582,-0.0026484067911867193,0.53468192286584348,0.62289918179711568,-0.20951377831390161,0.26813948760858963,-0.60720318029147302,0.99005423524639879,0.058503847495771977
-0.31508579318563523,0.79236229830419846,0.94370685224916473,0.3274891723230422,-0.86964682414433936,0.71103683833479692,0.62235293189282781,0.50408249093984669,0.59238546537874859,-0.17393130987705474,0.31334775073567833,-0.40044056946274176,0.07053067488524678,0.64427144913841405,-0.73733672679763185,0.30511427178202832,-0.43277638893784709,-0.5448750454347655,0.98789164334088686,-0.76812105506739936,-0.39396765167315984,-0.079178970084476941,0.45725867401130516,-0.68154038418105256,0.75850859271215509,-0.35599213173443833
