0.01554389142992374,0.044241207604277522,0.050970160605587012,0.74231130295654157,-0.64844614812995616,0.38966597258215097,0.27224662759171525,0.51178659557253559,-0.99790383444612241,0.33149351981274378,-0.033926474277588659,-0.6213090554487013,-0.51048402082790689,-0.88432870691251741,0.87809793454972773,0.28067237013795432,-0.13123902480972127,-0.32468306080249731,0.52418729312515522,-0.14703087148394345,-0.80036412720606309,-0.29673549635076424,-0.6005446752485315,-0.62885807846848696,-0.9975516060457752,-0.15845783675499869
0.66632831296781059,-0.82393118356816464,0.17489745115801569,0.087791193458043315,-0.47844279109063415,-0.059488042887007486,-0.85307718995685433,0.31613902927730986,-0.06171895815337014,0.30189990100088471,-0.054542042387059286,0.63515478565991046,0.35830989562106774,-0.31520745254965221,-0.49885318499464226,-0.45400288373660724,-0.96494601491430521,0.55433813210057448,-0.430124665828296,-0.52768504515452119,0.48608999351137894,0.27683155967135309,-0.67832324790977139,0.80302522150766831,0.69272592914112918,0.82887729953764322
0.0037716875192363997,-0.23123497697947126,0.32676854062261795,-0.7132196535635813,0.13656198976955269,0.77590752957088793,-0.25799905982961091,0.34877624743570679,-0.68430435365109599,0.076570892534099766,0.74460528627481981,0.5409290865752483,-0.10997375310431479,-0.59928338012304305,0.52645997131460365,-0.42484820865816175,-0.27626883497500421,0.74697651491136163,-0.061630406435702279,-0.52419699538726272,-0.6314691991101804,-0.7032578888799812,0.39475471789493422,-0.59344685003873776,0.026813412519506308,0.3348512205162637
-0.44690883883186805,-0.76820731195383107,0.54906295549011741,-0.19976574205647513,0.75308610402933351,-0.12447758618073634,-0.28182551558684144,-0.018328077246125396,0.71572163199147165,-0.12808462499650419,0.87230702964487672,0.20730937484601109,-0.40947021908972925,-0.76834207998134385,-0.53410806590308502,0.64279498957883985,-0.32660117988899318,0.1836681638773785,-0.61111656722183683,-0.64233543461179354,0.79388211189305546,0.68979390548088837,-0.91178152146833513,-0.90789142496796749,-0.64332070083601889,0.41787471482062677
