-0.70403971119723852,-0.79142373962349866,0.2731449471402625,-0.67476698334354124,0.50310447523431479,-0.33444569262441681,0.66209466922468807,-0.90176477046186876,0.85452465776419895,0.22038019597144709,-0.84476503139294135,-0.60543075854981998,0.73472505229087837,-0.90161233128499929,-0.3382933827312562,0.22904412196815715,0.082344295837029291,-0.77203437222338156,0.55473660786860068,0.87754544486432029,0.23956509162999362,0.17228732851466777,0.18869308214001146,0.32823524959182815,0.30886807551558837,0.81872267783817398
-0.08992099707925072,-0.76596441975324758,0.29732034507145078,0.70703768049818794,0.95191762897697974,-0.058783608474952009,-0.69394454483755474,0.88914597211735336,-0.74555633843005653,-0.35212699693877525,-0.73615698168818855,-0.49924819514405261,-0.84427175133474486,0.9785533178526642,0.1842373427541113,-0.18119393821523189,0.31258515029156775,0.15477040590486713,0.1325153984142533,-0.93468338460431233,0.77064048792750262,-0.082716474571286502,-0.93503369629270394,-0.19202406745186051,0.011619387590382724,0.55375159245742123
-0.94648890924390328,0.17884464644567544,-0.33240745477349298,-0.9902945442953619,0.17841757515561829,-0.85710733889177271,0.55887245540122277,0.99822721208021803,-0.78360438938073407,0.72365981194942797,0.10799217815634776,0.47748976182638669,-0.28130664843026199,0.8224031640398084,-0.31398371677161774,-0.23566879090708515,0.7916401105402362,0.55097429872701187,0.78804813527940509,0.12657255129388223,-0.81788284932011313,-0.27966418543323401,-0.74784178018581948,-0.93384519017563794,0.3937106987963217,-0.91749262514024066
-0.57311799199235969,-0.53253338420160468,0.16230264527962368,-0.63545205365353996,0.23813030815899761,0.70484155158016137,-0.26426131257285701,-0.52854184419986372,0.36482697152059274,-0.51048774220695847,0.36176038235593699,-0.14501422294732946,-0.65621072476344278,-0.61785191798477368,-0.5325873637223304,0.13256830526571917,0.010948562501047254,0.92981557328420461,0.85247824790714422,0.1730074954996339,0.95786866727232356,-0.61872156863235706,-0.17000318143598347,0.72937659735620741,-0.508140973667911,-0.98520329050625555
