0.21338357234581196,0.044241207604277522,0.050970160605587012,0.74231130295654157,-0.64844614812995616,0.38966597258215097,0.27224662759171525,-0.88773355950765387,-0.99790383444612241,0.99913698672934226,-0.50817646270525185,0.57930537035006746,-0.51048402082790689,-0.88432870691251741,-0.36387015813613921,0.28067237013795432,-0.13123902480972127,-0.32468306080249731,-0.46340522624218927,-0.14703087148394345,-0.80036412720606309,-0.29673549635076424,-0.6005446752485315,-0.049362924943307407,-0.57571837654731284,0.5451451792804598
0.96424404880494663,-0.82393118356816464,0.19272271877954572,0.087791193458043315,-0.47844279109063415,-0.059488042887007486,-0.49000786700303856,0.31613902927730986,-0.06171895815337014,-0.17289500416818182,0.12444729449723102,0.63515478565991046,0.76290908931741841,-0.31520745254965221,-0.49885318499464226,0.19842030421397938,-0.94334953609761363,0.53373937180410413,0.15365277991304782,-0.67518558578509347,-0.64608314493549446,0.1228104507288641,0.96531305237432408,0.80302522150766831,0.69272592914112918,0.20744893690177513
0.0037716875192363997,-0.23123497697947126,0.32676854062261795,-0.82615191916089148,0.13656198976955269,-0.54591614824246415,-0.62621459380270283,0.34877624743570679,-0.68430435365109599,-0.51051511354362455,0.74460528627481981,0.50485186149537142,-0.63040656439772502,-0.59928338012304305,0.52645997131460365,0.70918938204995952,-0.27626883497500421,0.30823907307377274,0.65336122491808157,-0.52419699538726272,-0.6314691991101804,-0.7032578888799812,-0.45601846727453443,-0.68293489581081057,0.67290546492729719,0.3348512205162637
-0.44690883883186805,0.82638519157660006,-0.52686866972740343,-0.12939333386486274,0.65953864917043759,-0.36277105385752484,0.68487258291199593,-0.018328077246125396,0.71572163199147165,-0.12808462499650419,0.87230702964487672,-0.1909827459263207,-0.60104853667744629,0.90216242914574174,-0.53410806590308502,0.64279498957883985,-0.32660117988899318,-0.45627167486793674,0.1893562784704732,-0.046619991190272936,-0.27091323157758551,-0.076037237659477119,-0.91178152146833513,0.22129268091540633,-0.22718789441248521,0.54343279724393168
