0.0016967673989136678,-0.33146870205921886,0.050970160605587012,0.74231130295654157,-0.14611875371540495,0.38966597258215097,0.27224662759171525,0.51814131293277432,-0.99790383444612241,-0.23452196335594411,-0.91393583578078963,0.57930537035006746,-0.51048402082790689,-0.88432870691251741,-0.27754623812639245,0.28067237013795432,-0.13123902480972127,-0.32468306080249731,0.46031647957524879,-0.14703087148394345,-0.80036412720606309,-0.96819128839592206,0.37231389282867755,-0.049362924943307407,-0.57571837654731284,0.5451451792804598
0.25446774837338726,-0.37444051210726292,-0.66551810653695886,-0.056189654133582456,0.28767306295783146,-0.059488042887007486,-0.532055482996872,0.31613902927730986,-0.81413196834457202,0.30189990100088471,0.98225153950703503,0.26531559506257452,0.35830989562106774,-0.1130778670122512,-0.49885318499464226,0.18774147554668952,-0.63780825133943364,0.50024248638699276,0.66702464290704389,-0.67518558578509347,0.40853367716610167,-0.4055029426783674,0.96531305237432408,-0.32048926904930575,-0.30147485950014885,-0.39874279898737131
0.90792078849325497,-0.23123497697947126,0.43505683745824486,-0.35174798246605676,0.13656198976955269,-0.54591614824246415,-0.28504969889953191,0.34877624743570679,-0.68430435365109599,-0.51051511354362455,-0.19129531863349625,0.70771911416970457,0.95895361863589357,-0.59928338012304305,0.52645997131460365,0.50379089820835166,-0.27626883497500421,0.30823907307377274,0.65336122491808157,-0.52419699538726272,-0.6314691991101804,0.86772390833432334,0.39475471789493422,-0.68293489581081057,0.67290546492729719,0.3348512205162637
-0.44690883883186805,0.49441688899511638,0.87912149056089417,0.52809176664709412,0.65953864917043759,-0.86130966013480603,-0.62888208989812266,-0.0064646179265881454,0.71572163199147165,-0.12808462499650419,0.87230702964487672,-0.1909827459263207,-0.40947021908972925,0.90216242914574174,-0.53410806590308502,0.69493276773122625,-0.32660117988899318,0.43315244051053203,0.1893562784704732,-0.050349531444837892,0.93976876957433686,0.85002349359425478,-0.56693680502451915,0.73010254163039789,-0.12017253664745331,-0.5652754080334188
