0.0016967673989136678,-0.56753743751970043,-0.044299425738596909,0.27067708022417469,-0.64844614812995616,0.38966597258215097,0.27224662759171525,0.83678597735890659,-0.99790383444612241,-0.23452196335594411,-0.91393583578078963,0.57930537035006746,-0.51048402082790689,-0.88432870691251741,0.42465908669815233,0.28067237013795432,-0.45965896685450214,-0.87110943500371962,0.39108723659124611,-0.14703087148394345,-0.80036412720606309,-0.29673549635076424,0.79060285050843326,-0.049362924943307407,-0.57571837654731284,-0.72394755725359605
0.66632831296781059,0.65251016104805681,-0.55035902969957951,-0.056189654133582456,0.33149584327948411,0.47408600710751636,-0.49000786700303856,-0.024078317062584231,-0.06171895815337014,0.73912794196678533,0.087913838243576459,0.63515478565991046,0.35830989562106774,-0.1130778670122512,-0.49885318499464226,0.18774147554668952,0.72107388162426522,0.50024248638699276,0.54151347051426146,-0.67518558578509347,0.46598691772575496,-0.49847606248379672,0.71586528771179636,0.12051196429633304,0.77560510663166116,0.8710664183253769
-0.017031963652614834,-0.23123497697947126,0.91236030730254347,-0.34589142514628768,0.13656198976955269,-0.54591614824246415,-0.28504969889953191,-0.54799474608702381,0.09273793075556358,-0.51051511354362455,-0.14065275331270866,0.70771911416970457,-0.63040656439772502,0.7468653288044369,-0.30213674699749826,0.50379089820835166,-0.21790888689575749,0.30823907307377274,0.65336122491808157,-0.52419699538726272,-0.6314691991101804,0.86772390833432334,-0.41111279609470563,0.53334054140861542,0.67290546492729719,-0.31145443513738424
-0.44690883883186805,0.71522978060048703,-0.32550459982408286,-0.11575081383616048,-0.41605328216179815,-0.86130966013480603,0.67313970646297538,-0.93520147054389668,0.71572163199147165,-0.12808462499650419,0.98080441838394594,-0.37816042159060448,-0.40947021908972925,0.90216242914574174,-0.53410806590308502,0.64279498957883985,0.99891141172297804,-0.39338791968628217,-0.22819258555771116,-0.47585877067933602,0.53202221865426602,0.41111640572813135,0.27447746099876125,0.62989495025146613,0.7502117552620029,-0.5652754080334188
