0.0016967673989136678,-0.56753743751970043,0.050970160605587012,0.27067708022417469,-0.64844614812995616,0.38966597258215097,0.95483736217885573,0.20618320044152472,-0.99790383444612241,-0.23452196335594411,-0.91393583578078963,0.57930537035006746,-0.51048402082790689,-0.88432870691251741,-0.99032539384301299,0.12277542396666763,-0.45965896685450214,0.0164232216748188,0.5180421023984445,-0.14703087148394345,-0.35716184752447866,-0.29673549635076424,-0.6005446752485315,-0.049362924943307407,-0.57571837654731284,0.49347372856798177
0.66632831296781059,0.65251016104805681,-0.66551810653695886,-0.056189654133582456,0.33149584327948411,0.47408600710751636,-0.49000786700303856,-0.71137392083907458,-0.06171895815337014,0.73912794196678533,-0.3073050877672634,0.63515478565991046,0.35830989562106774,-0.1130778670122512,-0.49885318499464226,-0.012691113101414464,0.72107388162426522,0.50024248638699276,0.66702464290704389,-0.67518558578509347,0.46598691772575496,0.27683155967135309,0.63003901169990284,0.12051196429633304,0.69272592914112918,-0.11761164521690559
0.0037716875192363997,-0.23123497697947126,0.91236030730254347,0.84684229945601319,0.13656198976955269,-0.3883933469424643,-0.28504969889953191,-0.92111693527546668,-0.68430435365109599,-0.51051511354362455,0.54864185369997776,0.70771911416970457,-0.63040656439772502,0.7468653288044369,-0.30213674699749826,-0.95326419154182118,-0.34932860322901771,0.30823907307377274,0.65336122491808157,-0.52419699538726272,-0.042853398179710345,0.86772390833432334,-0.27420953286165228,0.43614688147202041,-0.017301115004077827,-0.37379862628067517
-0.3637350112607467,-0.23763031319893835,-0.67141752480418049,-0.11575081383616048,-0.41605328216179815,-0.86130966013480603,-0.62888208989812266,-0.92056440288941177,0.71572163199147165,-0.12808462499650419,0.98080441838394594,-0.66957030555008212,-0.40947021908972925,0.90216242914574174,-0.92016244129533109,-0.75004851693635377,0.99891141172297804,-0.39338791968628217,-0.22819258555771116,0.39722103204820636,0.53202221865426602,0.85002349359425478,0.27447746099876125,0.62989495025146613,-0.12017253664745331,-0.5652754080334188
