0.14710022870463813,-0.56753743751970043,0.050970160605587012,0.27067708022417469,-0.64844614812995616,-0.44176016174441135,0.021390341740611829,-0.27032795414665078,-0.99790383444612241,0.069471110725781493,-0.76086262439515973,0.57930537035006746,-0.080195346001369794,-0.56937217482154256,-0.27754623812639245,0.28067237013795432,-0.45965896685450214,-0.46747209102644161,0.39108723659124611,0.63589477998370225,-0.80036412720606309,-0.29673549635076424,-0.6005446752485315,-0.049362924943307407,-0.57571837654731284,-0.72394755725359605
0.66632831296781059,0.65251016104805681,-0.66551810653695886,-0.056189654133582456,0.13620171294639216,0.6046858016382517,0.57407913661823295,-0.024078317062584231,-0.06171895815337014,0.40137175220562615,-0.3073050877672634,0.63515478565991046,-0.18956248758480543,-0.27218146173913649,0.64918679943115376,-0.2888862494344353,0.72107388162426522,-0.16121871155991174,0.66702464290704389,-0.67518558578509347,0.46598691772575496,0.14569203468083947,-0.42975696526413176,-0.75761175555455362,-0.81046829196218284,-0.26800117818842129
0.0037716875192363997,-0.23123497697947126,0.91236030730254347,-0.34589142514628768,0.13656198976955269,0.1090254317899193,-0.28504969889953191,-0.92111693527546668,-0.68430435365109599,0.65656752955374142,-0.19129531863349625,0.70771911416970457,-0.63040656439772502,0.7468653288044369,-0.30213674699749826,0.61573878937488113,-0.27626883497500421,-0.68039148096441848,0.65336122491808157,-0.52419699538726272,-0.6314691991101804,0.88778241920677936,-0.41111279609470563,-0.68293489581081057,0.67290546492729719,-0.27221592713247333
-0.44690883883186805,0.98525600688588444,-0.32550459982408286,-0.3990009858837138,-0.52593955343618548,-0.86130966013480603,-0.62888208989812266,0.17634313122832745,-0.56749570995323628,-0.12808462499650419,0.98080441838394594,-0.66957030555008212,-0.38232917106661857,-0.49312920758351075,-0.53410806590308502,0.94926487315492425,0.99891141172297804,0.81978709344740097,0.24117603893566342,-0.14810948770176013,0.53202221865426602,0.39542433760012319,0.22116067567744579,0.047928308323618607,-0.12017253664745331,-0.5652754080334188
