-0.46884332086154612,-0.32754889029459688,0.050970160605587012,0.27067708022417469,-0.7787639828161208,-0.47451418287180691,-0.29904250914436914,-0.27407892783903498,-0.99790383444612241,0.069471110725781493,-0.84515754938239396,0.57930537035006746,-0.080195346001369794,-0.69965045837927464,-0.27754623812639245,0.28067237013795432,-0.45965896685450214,0.96206219937686299,0.39108723659124611,-0.14703087148394345,-0.73586258128151183,-0.22487387010887083,0.53798471506026413,-0.049362924943307407,-0.57571837654731284,0.26108995046325245
0.99346282146722387,0.65251016104805681,-0.66551810653695886,-0.056189654133582456,0.33149584327948411,0.47408600710751636,-0.49000786700303856,-0.024078317062584231,-0.06171895815337014,0.40137175220562615,-0.3073050877672634,0.63515478565991046,-0.63725963934218677,-0.1130778670122512,-0.65276431172794691,0.18774147554668952,0.31665857799097741,0.50024248638699276,0.66702464290704389,-0.67518558578509347,0.46598691772575496,0.14569203468083947,-0.26230029773826602,-0.51702625956430492,-0.81046829196218284,-0.26800117818842129
0.0037716875192363997,-0.23123497697947126,0.60568925734515044,-0.098010889498107545,0.13656198976955269,-0.20772777942148002,-0.28504969889953191,-0.92111693527546668,-0.68430435365109599,-0.51051511354362455,0.24768597808671511,-0.02048872092857934,-0.63040656439772502,0.7468653288044369,-0.088875934971970105,0.50379089820835166,0.86667021329498062,0.30823907307377274,0.65336122491808157,-0.52419699538726272,-0.6314691991101804,0.18424715663957469,-0.41111279609470563,0.061296270770490713,0.67290546492729719,-0.27221592713247333
-0.44690883883186805,0.98525600688588444,-0.32550459982408286,0.64131221238430713,0.11235230848619127,-0.86130966013480603,-0.62888208989812266,0.92555020480689465,-0.56749570995323628,-0.12808462499650419,0.98080441838394594,-0.66957030555008212,-0.75914190504093293,0.08261870145260608,0.74795294642578702,0.64279498957883985,0.99891141172297804,-0.3691663079945704,0.60804351503305076,0.67450644514351676,0.53202221865426602,0.39542433760012319,-0.65787970708809196,0.22824474815819773,0.76071029057347084,0.25988226617815435
