0.38399602722701043,0.15986942547606331,-0.5974857887037055,-0.11663636765123231,-0.81580995318178751,0.21022862380995244,0.26518567561619211,-0.58966765078896088,0.7947466846486011,0.81744643622965496,-0.3019012242145771,0.93173818950835963,-0.41344931605876933,0.29989454106297186,-0.34526643432386761,0.17430663997816254,0.8054670494284033,0.77971394615929035,-0.17104314506656504,-0.20657544804548866,0.96729784096481519,-0.30386167859215929,0.86109842469598408,-0.15063314500287395,-0.33920592678376082,0.74271662797418592
0.39699373135034177,0.61643414095718074,-0.97686275974875003,0.75523436804420063,0.53293838013330808,-0.36600782706085844,0.90491301826307891,0.014627252703116822,0.10396294029351139,-0.97871090092541135,-0.89606249710836172,-0.40415603622266216,-0.14470964324758473,0.71637269957415772,-0.031081380268067393,-0.84509971089779468,0.19295453639638471,0.28815871190237874,-0.1044689636364875,0.15552910010420251,-0.55852643131092772,0.27713645892599326,0.37386643046811097,-0.67525113540865189,0.30162064666076738,-0.83449770688768954
-0.53729797333690588,-0.21171699066679817,-0.96344109324970773,0.90397262454935823,-0.93136000687784914,0.79181504196658459,-0.20635529742694425,0.39231653384120646,-0.55572540480885424,0.83681456449319125,0.85383277295659088,0.84371813672434715,0.1249630529027379,-0.61949084650125696,-0.59934873988363124,0.90196712412706703,0.64276112439986632,0.19413909114255601,0.92925501100498442,0.82234477998421163,-0.62782890935958968,0.042661617460287626,0.88246848005079781,-0.94833624660127924,-0.44409847099515321,0.67406583816881271
-0.65501515943953859,-0.35961009690902257,0.81110456313352763,0.11942051980634427,0.15202517615095212,-0.97891424967805474,-0.51511126229598259,-0.93562482042786588,0.44855835856905402,-0.53400550175423689,-0.70613200265762366,0.14567964019863,-0.43356429171170552,-0.30018174994289915,0.9041456424171308,-0.087039967156082643,0.19061518522247423,-0.28600817434178927,0.79253106768710779,0.075597437253206001,0.23231972815836799,0.76307621272610615,-0.72621806600528793,0.62066821978585085,0.49087266889061665,0.94039585121869185
