-0.27298004892433836,-0.32754889029459688,0.050970160605587012,-0.34223214811332858,0.86356370265118665,0.30157605711291624,-0.29904250914436914,0.51814131293277432,-0.99790383444612241,0.069471110725781493,-0.84515754938239396,0.77427633066931967,-0.052847030277020091,-0.69965045837927464,-0.27754623812639245,0.28067237013795432,-0.45965896685450214,-0.46747209102644161,0.39108723659124611,-0.14703087148394345,-0.76147783506276112,-0.29673549635076424,0.53798471506026413,0.81563094839581884,-0.57571837654731284,0.26108995046325245
-0.50910842071632612,0.40843552266254091,-0.66551810653695886,-0.056189654133582456,0.33149584327948411,-0.28871049666734039,-0.12838608477715141,-0.024078317062584231,-0.06171895815337014,0.40137175220562615,-0.3073050877672634,0.40832351328775074,-0.63725963934218677,-0.1130778670122512,-0.65276431172794691,0.18774147554668952,-0.52100423145210528,0.50024248638699276,0.66702464290704389,0.096822715620787481,0.46598691772575496,0.14569203468083947,0.91248027307764379,-0.75761175555455362,-0.81046829196218284,-0.26800117818842129
0.0037716875192363997,-0.23123497697947126,0.60568925734515044,-0.34589142514628768,0.41000064254091817,-0.60002425819325955,-0.28504969889953191,-0.90456847758138537,-0.68430435365109599,-0.51051511354362455,0.24768597808671511,0.70771911416970457,-0.63040656439772502,0.7468653288044369,-0.30213674699749826,0.50379089820835166,0.86667021329498062,0.30823907307377274,0.65336122491808157,-0.52419699538726272,-0.6314691991101804,0.18424715663957469,-0.41111279609470563,-0.68293489581081057,0.67290546492729719,-0.27221592713247333
-0.44690883883186805,0.98525600688588444,-0.32550459982408286,-0.62598415083326819,-0.52593955343618548,0.98018035279842164,-0.62888208989812266,0.012698738556999656,-0.010226570147203295,-0.98908750301840609,0.98080441838394594,-0.66957030555008212,-0.87579075234206205,0.08261870145260608,-0.66913494147476205,0.64279498957883985,0.99891141172297804,-0.3691663079945704,-0.22819258555771116,0.97384729397166625,0.53202221865426602,0.39542433760012319,-0.65787970708809196,0.22824474815819773,-0.12017253664745331,-0.5652754080334188
