-0.46884332086154612,-0.32754889029459688,0.79802885795472878,0.27067708022417469,-0.64844614812995616,-0.30278025433395528,-0.29904250914436914,0.51814131293277432,0.24981151806623814,0.069471110725781493,-0.84515754938239396,0.57930537035006746,-0.080195346001369794,-0.69965045837927464,0.17244538198467718,0.28067237013795432,-0.45965896685450214,-0.46747209102644161,-0.34203954017428218,-0.14703087148394345,-0.76147783506276112,-0.29673549635076424,0.53798471506026413,-0.049362924943307407,-0.57571837654731284,-0.42326584163293801
0.58467782252760592,-0.31352261132060688,-0.70750320104227948,-0.88292475855774666,-0.081117874781752031,0.91378805249793493,0.70782237590224217,-0.024078317062584231,-0.06171895815337014,0.40137175220562615,-0.3073050877672634,0.63515478565991046,-0.84442476417159384,-0.1130778670122512,-0.65276431172794691,0.18774147554668952,-0.11780582669623185,0.50024248638699276,0.66702464290704389,-0.67518558578509347,0.46598691772575496,0.14569203468083947,-0.42975696526413176,-0.75761175555455362,-0.81046829196218284,-0.26800117818842129
-0.48072448532031564,-0.23123497697947126,0.60568925734515044,-0.34589142514628768,-0.10741054429597585,-0.20772777942148002,0.8623700568822954,-0.92111693527546668,-0.68430435365109599,-0.92542272016604032,0.24768597808671511,0.70771911416970457,-0.63040656439772502,0.7468653288044369,-0.30213674699749826,0.4865535623013344,0.86667021329498062,-0.074517476877496103,0.65336122491808157,-0.52419699538726272,-0.6314691991101804,0.18424715663957469,-0.41111279609470563,-0.68293489581081057,0.67290546492729719,0.40659112588568291
-0.44690883883186805,0.98525600688588444,-0.32550459982408286,-0.62598415083326819,-0.52593955343618548,0.05621301343031293,0.21323427953276419,-0.44242085559993405,-0.9350860124328908,-0.12808462499650419,0.98080441838394594,-0.66957030555008212,-0.75914190504093293,0.08261870145260608,0.16790949286718648,0.64279498957883985,0.99891141172297804,-0.3691663079945704,-0.22819258555771116,0.97384729397166625,0.53202221865426602,0.39542433760012319,-0.65787970708809196,0.22824474815819773,-0.12017253664745331,-0.5652754080334188
