0.58393930506535607,0.14445526536169617,0.050970160605587012,0.82706860255604164,-0.64844614812995616,0.025285065922007854,-0.54295679852708534,0.38649052540975148,0.35224518359897505,0.91384437209744918,-0.84515754938239396,0.20783792844683191,-0.080195346001369794,-0.69965045837927464,0.39008514419927542,0.28067237013795432,-0.60757109899352901,-0.46747209102644161,0.39108723659124611,-0.14703087148394345,-0.33988483414703641,-0.29673549635076424,0.60789001454040159,0.59648963741995953,-0.57571837654731284,0.26108995046325245
0.12721452771798036,0.35746781816024376,-0.66551810653695886,-0.056189654133582456,0.33149584327948411,0.85601545133518697,0.82362180298426013,0.90110026967242152,0.93341742565511132,0.61445095643397041,0.51382488637720347,0.63515478565991046,0.066481846277397727,-0.45139114530277036,-0.65276431172794691,-0.44785512529867599,-0.64418393585232758,-0.62378501987153512,0.2920732630095666,-0.78044404708956483,-0.041318723988488015,0.14569203468083947,-0.42975696526413176,-0.75761175555455362,-0.03655731880788915,-0.26800117818842129
0.0037716875192363997,-0.23123497697947126,-0.8044874275926206,-0.74608468450520316,0.2649750945496987,-0.20772777942148002,0.48977957403768713,0.012333846192476461,-0.68430435365109599,-0.51051511354362455,0.15112994453736794,0.70771911416970457,0.50284408833029137,0.7468653288044369,-0.30213674699749826,-0.24197665830205284,0.86667021329498062,0.30823907307377274,0.65336122491808157,-0.52419699538726272,0.16256721076510683,0.18424715663957469,0.79713357610370794,-0.65532547910029271,0.67290546492729719,-0.27221592713247333
-0.44690883883186805,0.98525600688588444,-0.32550459982408286,-0.32520039500815723,-0.52593955343618548,-0.7665878381929947,0.58835379164336876,-0.3618566708196187,0.29432011974329519,-0.85920835978085841,0.92448101376236469,-0.66957030555008212,-0.48104777532707099,0.08261870145260608,-0.66913494147476205,0.0041083874656413499,0.99891141172297804,-0.3691663079945704,-0.22819258555771116,-0.25451111142432592,0.53202221865426602,-0.39059932479513759,-0.82158500116804545,-0.43542893909560987,-0.12017253664745331,-0.5652754080334188
