0.35614464120475509,-0.32754889029459688,0.050970160605587012,-0.65956511703171139,-0.64844614812995616,-0.88358274079866406,0.59957294141762318,0.23918488312115205,0.35224518359897505,0.069471110725781493,-0.84515754938239396,0.57930537035006746,-0.080195346001369794,-0.55796160412628515,-0.91440466028798073,0.28067237013795432,-0.60757109899352901,-0.26469496934318859,0.16444886772370571,-0.14703087148394345,-0.33988483414703641,-0.29673549635076424,0.25193024440402811,-0.75405435198198023,-0.57571837654731284,0.26108995046325245
0.15642902256373592,0.35746781816024376,-0.66551810653695886,0.12316954594921103,0.66168035169787842,-0.42250272227183583,-0.013377706254881216,0.99745614992722165,-0.2744305093123105,-0.91246515879971257,0.51382488637720347,0.63515478565991046,0.066481846277397727,-0.1130778670122512,-0.65276431172794691,-0.41508657371765034,-0.51021598358272358,-0.35058159773045872,0.2920732630095666,-0.77777873120325669,0.46598691772575496,0.14569203468083947,-0.42975696526413176,-0.75761175555455362,-0.81046829196218284,-0.26800117818842129
0.27863809642406645,-0.23123497697947126,0.60568925734515044,-0.74608468450520316,0.2649750945496987,0.38401931482987695,-0.28504969889953191,0.012333846192476461,-0.68430435365109599,0.12260331335727703,0.88479966343972238,0.70771911416970457,0.55984037972757794,0.7468653288044369,-0.30213674699749826,-0.43495309640393875,0.86667021329498062,0.30823907307377274,-0.24130154824173355,-0.52419699538726272,-0.77509724634358612,0.18424715663957469,0.26086133968522218,-0.68293489581081057,0.67290546492729719,-0.27221592713247333
-0.44690883883186805,0.98525600688588444,-0.32550459982408286,-0.098862848078473897,-0.52593955343618548,-0.7665878381929947,-0.89575721997395807,0.012698738556999656,-0.56749570995323628,-0.85920835978085841,0.4305349348792511,-0.66957030555008212,-0.75914190504093293,0.08261870145260608,-0.66913494147476205,0.0041083874656413499,0.99891141172297804,-0.3691663079945704,-0.22819258555771116,0.81406951438621933,-0.9965676170188118,-0.73318961941254268,-0.82158500116804545,-0.24555933562218524,-0.12017253664745331,-0.5652754080334188
