-0.77629660913703957,-0.50031922659445383,-0.62435423104017462,0.17229960126875321,-0.59529828049466804,-0.071645231802718312,0.95825688413572263,-0.59704993058916056,0.85547426541804095,0.21050379749655668,0.65131552276480131,0.19799638304375256,-0.79500910667733327,-0.60305157771207862,-0.52975322590844054,0.21314094409014683,-0.31339375482635345,-0.040372127844408245,-0.75055168789075388,0.75882965226425436,0.56952484574809992,0.43426480943981449,-0.39922169306497923,0.097210466105628557,-0.012384417967454819,-0.46376154642478773
0.18709544204552309,0.69264401313841351,0.50325350330665386,-0.089257287760029946,-0.64102343334329315,-0.73162406792913726,-0.40904419289422811,-0.69006129100756053,-0.45563537322711656,-0.11727071662685939,0.43569244155783093,0.49897412060363022,0.58623734294796037,0.8705040530567516,-0.6578188456763685,-0.73465541180004856,0.76194765327054714,0.13429696392221069,0.53135603966405087,-0.10306695273888189,-0.99465023599584246,-0.32556453875083036,-0.35984045365557304,0.60431564331103771,-0.60702631010015273,-0.78863586848891165
0.51374674659128305,0.96053515258942279,-0.41675165666787373,0.80144016176651323,0.12030884080567161,-0.34636306614470613,-0.9754825663288571,-0.13776362070333792,-0.85073894789437632,0.47706974813472147,-0.078642940156344876,-0.8939816076809397,-0.08532796428475331,-0.92508523063268244,-0.72698352224266194,0.80802698529080841,-0.68071804492899801,-0.49362005654313634,0.80257894210942249,0.87982251428092684,0.61056184927004042,-0.80511940385296765,-0.10476809883375382,0.40915109316102316,0.17344157915431757,-0.57668765617013173
0.29243064829969057,-0.8232498009044209,0.3771450727937895,0.24871554387501327,-0.12589191307633008,-0.73778844094275731,-0.88072789714024502,0.4430521150380009,0.9850271651280087,-0.29735166254283962,-0.88167252782571159,-0.27297817655354262,-0.74535521337354971,-0.22067665382881918,0.54225026672196175,-0.86381014577959125,0.40079117604551739,0.30779561554815427,-0.10969899930891991,0.77733255458414963,-0.20038182074523436,0.49439496555868145,0.47803514338509268,0.73788584496347376,-0.37767966142293918,-0.6405607552470538
