-0.27632857943129707,-0.89936402406668914,0.28547263404836642,0.4465933850149213,0.87722305176943327,0.93292965032859088,-0.63719809318566889,0.15271974336826144,-0.77975167922265753,0.65887637549108136,0.90007234704218808,-0.19915674783716741,-0.87696981455779999,0.83340996530922951,-0.84641155473518936,-0.34934207255953176,0.76287586424396348,0.7846109232841243,-0.74572906386563043,-0.64763574213815267,0.89024812072870807,-0.051980361582356638,-0.32309366648510429,0.19177023023098849,0.2186008006593998,-0.32129182614884688
-0.49088972108724493,0.56254221525359771,0.52363111210795776,-0.32954103751679442,-0.46772872548301025,-0.33704963159356671,-0.70065999607935692,-0.53442967030196353,-0.75916449223235705,0.54464752837902441,0.61900781616602041,-0.59529340371159356,-0.85064311043746565,0.87661865703514064,-0.047512806908176053,0.59509045148460649,-0.14633464025804388,-0.62138586511495197,0.94878017442928964,0.95499000227201902,-0.11864722287973017,0.48320355258806247,-0.95309988972717186,0.41582710704248727,-0.40772633523007062,-0.77685608438849152
0.23167362551160142,0.61190107728260501,0.35325533807371401,0.20706599983257457,-0.35986821152339643,0.54229183865292163,0.22618236786658041,-0.60106360245719559,-0.7231039098441836,-0.2462404523442141,0.075475609536574506,0.90039463582553969,0.22202514173177113,0.82799010451188204,0.42944894106314591,0.042211367210374995,0.57868075190793133,8.417929221571363e-05,-0.085759186022008382,0.082704008789431516,-0.71910501173869079,-0.43129051752847758,0.098207143381525697,-0.91858758796087447,0.52746563854679462,-0.8559153162902966
0.12686894561839401,0.77400242765291694,-0.94822670427976385,-0.19246193215287066,-0.31728848033960455,0.71104493315009365,-0.56840047197646104,0.68956238850186802,0.11064314455570323,-0.51785528929750457,-0.060375178164944421,-0.70439837176553155,0.044828347022586978,-0.8443253890057445,-0.56443031515445319,-0.78321396027170165,0.45731916421501384,-0.99973637998226139,0.40755163585470489,-0.02553760612519862,-0.9429717713066077,0.3210845127760813,-0.7103447757060517,0.57431754238139554,0.21165384743447269,0.81733066005261512
