-0.62737970751032957,-0.6378789760281387,0.89883397513053342,-0.49851544722319541,0.93506523016350163,0.68613858362710944,-0.85379066507076407,-0.50846418528273651,0.2216235035085139,0.50873018741078346,0.80953460564178892,0.19595779734470464,0.035334959422196999,0.36225654795055839,-0.30770958036018725,0.035206121363598575,-0.5178628454119103,0.5865556642212284,0.27005404962634616,0.38460063928558785,0.23996711249933744,-0.63768692875108113,0.82843661671968927,-0.78283247650324261,-0.0722138312603815,-0.70127331563720263
-0.67000376433088049,0.42208145408637177,-0.48703620396969893,-0.76620947301190601,-0.71441328762389023,-0.75877445751813855,0.73116542293896392,0.74162914141069614,-0.42273153432736632,-0.051080159211520204,-0.40491107941234405,-0.88137726411548867,-0.24862951479792983,-0.88363940877719727,-0.09988743812359191,0.5290937643127307,-0.11014404116097376,-0.62229974642109531,-0.83421595466336784,0.27564351023180311,0.49220692653699372,0.69095097322452581,-0.19533319666988236,0.76108988988895798,0.69272592914112918,0.80702501916142122
-0.33206731945221235,-0.053344991444858936,-0.38472377582979189,-0.24252502444303703,-0.56614330663546353,-0.32153535041286618,0.28583477188436923,-0.7707810581846577,0.53773007195703904,-0.17116651959640738,-0.60509840262794534,-0.13860571592835402,-0.053067582756842535,0.63787976820560877,-0.53532374172843444,-0.88874687965835597,-0.26809616586273055,-0.092176851369841106,-0.40953834180819482,0.1584391739688491,-0.1239294879970001,-0.6342694160575737,-0.57425503590880012,0.8035880623725844,-0.10472044037140238,-0.085259728098558307
-0.31289197595324225,0.50028693739546481,0.60506407949789898,0.52617617119790761,-0.10398183800222904,-0.07459036708707556,0.5168439170661332,0.20142255680724497,-0.6935688394614814,-0.90102760201542531,0.91958553840025403,-0.20302820128718091,0.29839363913180805,0.96826524095319089,-0.25752492720670084,0.14904925711531947,0.25070343873230505,-0.8996319815627527,-0.001103002252119456,0.16917786831664117,0.2942050193234742,-0.027291471256590594,-0.65464666008232908,0.75975861779984788,-0.66540922283299064,-0.37857553035303826
