-0.77107390708343826,0.52204889037726576,0.050970160605587012,-0.65956511703171139,-0.64844614812995616,-0.47451418287180691,0.11537422519106455,-0.45139021056139028,0.35224518359897505,0.069471110725781493,-0.84515754938239396,0.91198338353357755,-0.64238210356293535,-0.69965045837927464,-0.27754623812639245,0.28067237013795432,-0.60757109899352901,-0.46747209102644161,-0.31304596046930433,-0.44760286627881385,-0.12108698215886116,-0.231267663679535,0.60789001454040159,-0.049362924943307407,0.45419371977466971,0.26108995046325245
0.12721452771798036,0.35746781816024376,-0.66551810653695886,-0.014820872743407598,0.29165211241838507,0.85601545133518697,0.64035053324631885,-0.38779892935174076,-0.053096304505894087,-0.054668561961779494,-0.61539153599367169,-0.4056732281330393,0.066481846277397727,0.58740445195591118,-0.0041748040998585978,-0.41508657371765034,0.088661060235433631,0.6884906345991455,0.2920732630095666,-0.77777873120325669,0.20701256998158124,-0.47529272651183763,-0.42975696526413176,-0.93762353710072865,-0.21571594178294728,-0.26800117818842129
0.0037716875192363997,-0.80044298407750181,0.60568925734515044,-0.74608468450520316,-0.26757203401634055,-0.4324212954892126,-0.28504969889953191,-0.71401097008222791,-0.453416839560709,0.55370608152212752,0.42063537489733238,0.052462240247207692,0.55984037972757794,0.56189234806235344,-0.30213674699749826,-0.24197665830205284,0.86667021329498062,-0.86728681268256347,0.32716892580547707,0.12576669948740737,0.16256721076510683,-0.69106708453849031,0.75760544361918924,0.21610488531324878,0.44542597023050456,-0.27221592713247333
-0.862308478719223,0.98525600688588444,0.64325493903287323,-0.32520039500815723,0.71053138600101096,-0.75046326561575216,0.67927052703665947,0.76707302373973718,0.22934723901789345,-0.64940488868820867,0.92448101376236469,-0.66957030555008212,-0.5932745211101762,0.08261870145260608,-0.66913494147476205,-0.54107894457869077,-0.74991458675672851,0.73552388661475976,-0.22819258555771116,0.93856900987494196,-0.75848288658490337,0.17409969371643497,-0.82158500116804545,0.22824474815819773,-0.12017253664745331,0.44784475144498215
