-0.77107390708343826,0.52204889037726576,-0.86919975016545115,-0.65956511703171139,-0.64844614812995616,-0.47451418287180691,0.012093605415673281,0.97499179037057981,0.35224518359897505,0.97530920492591933,-0.84515754938239396,0.39838151913448483,-0.64238210356293535,-0.69965045837927464,-0.27754623812639245,0.28067237013795432,0.019953287456364377,0.2872540151583387,-0.31304596046930433,0.61059678919872717,-0.12108698215886116,-0.29673549635076424,0.60789001454040159,-0.049362924943307407,-0.57571837654731284,0.26108995046325245
0.12721452771798036,0.35746781816024376,-0.66551810653695886,-0.28243659862094317,-0.049552858004940914,0.85601545133518697,-0.79937979486922872,0.68643718178587609,0.8170749110979616,0.83942848240337975,0.99734125554376551,0.63515478565991046,0.066481846277397727,0.30311072543681084,-0.0041748040998585978,-0.41508657371765034,0.70930135183679033,-0.7281991170179265,0.27639168005654513,-0.77777873120325669,0.46598691772575496,-0.47529272651183763,-0.42975696526413176,-0.75761175555455362,0.72107582361610834,-0.26800117818842129
0.0037716875192363997,-0.88240091350060768,0.60568925734515044,-0.74608468450520316,-0.26757203401634055,0.92547199440728045,-0.28504969889953191,0.012333846192476461,-0.453416839560709,0.55370608152212752,-0.45893720622864609,0.052462240247207692,0.55984037972757794,0.56189234806235344,-0.30213674699749826,-0.24197665830205284,0.86667021329498062,-0.86728681268256347,-0.10742308140683399,0.99111432891362572,0.16256721076510683,-0.69655089520383418,0.75760544361918924,-0.68293489581081057,0.44542597023050456,-0.27221592713247333
-0.862308478719223,0.98525600688588444,0.83540408161715596,0.0061827673603762623,0.71053138600101096,-0.75046326561575216,0.67927052703665947,0.76707302373973718,0.22934723901789345,-0.64940488868820867,0.96140907625233551,-0.90598041361317661,-0.75914190504093293,0.08261870145260608,-0.66913494147476205,0.39536451786244431,0.082168053478702374,0.2314731187199659,-0.40694589335941633,0.00032468918197281482,-0.75848288658490337,-0.090284045403234536,-0.82158500116804545,0.22824474815819773,-0.12017253664745331,0.090643875685510578
