0.68136432326996221,-0.63703341672342617,-0.068326690584737948,-0.31712875105932303,0.5199932661557134,0.6063926940840656,-0.38272705168449761,-0.21147292047951072,0.026773721452347354,-0.40631097834924246,0.53144201481904352,0.44721231495112557,-0.11029059970807631,0.2804690888614243,-0.725027598914328,0.16335223978182078,-0.58986703928419226,0.86978487771688551,-0.36352120873295068,-0.53135823806883797,-0.50197203329946838,0.48026881514431374,-0.4426368891595156,-0.8856167932063268,-0.96422834615234421,0.058957022339113818
0.5841053046263518,0.0033037184145063847,0.42341974642290547,0.83634923231504477,0.71598811524946293,-0.86788255066637521,0.14251073903008593,0.94866346409289659,0.22633834225690674,0.061872310172703671,0.97238025999750732,-0.91725715969819421,-0.036619082173496631,0.40931050474378905,-0.14358750174689017,0.29676469997933408,0.45061186419469923,0.7926444936811583,-0.86009992988770056,0.97196077536971837,-0.12276608049872495,0.50070939161811134,0.64138988686778542,-0.33575949940846006,-0.46258540937959758,0.64333786406195803
-0.85263601870345784,-0.86889716532602645,-0.4447715890319639,0.23974416335473436,-0.2039382502674616,0.088627198563594911,0.35405007912870667,0.9661575645681475,0.62369856312558936,-0.20070889577443229,-0.93035884221806331,0.98530939250499139,-0.65669472032832799,-0.30915216678345758,0.25484635741600226,0.04110556926135378,-0.13429451890655519,0.10320657513874831,-0.28293109284785367,0.91719820807141406,0.047524610846442217,0.55926884644436403,-0.46484180105963557,0.61704209175111102,-0.42872879557194099,-0.51786496003194138
-0.19140696441647753,0.2137118311353341,-0.43812242603237062,0.37306472834426585,-0.28704818527800424,0.27952415788858342,0.96664639208288405,0.83560087216206091,0.36303858534327582,0.012681503968194674,-0.41211418688036483,0.92595360979400421,0.21759795408330884,-0.652372396363603,-0.79768867673758792,-0.47354245534746875,-0.63406597609842685,-0.38427436606815002,0.61432800688647071,0.06085570897655157,0.77405284917514039,0.36060483571534596,-0.30996089954415851,0.033291206352299207,-0.071472572642096388,-0.096466553457218662
