-0.77107390708343826,0.52204889037726576,-0.86919975016545115,-0.90810941847991344,-0.64844614812995616,-0.47451418287180691,0.012093605415673281,-0.67680387504083184,0.13843068000099445,0.68399759862248,-0.7344868542476628,0.39838151913448483,0.48561606166743365,-0.82093670473271763,0.23711950422447226,-0.78828789151650769,-0.60757109899352901,0.57006521786894115,-0.81747572551044057,0.61059678919872717,0.78657392811728166,-0.29673549635076424,0.60789001454040159,-0.049362924943307407,-0.74949348137447447,0.88784027192536974
0.12721452771798036,0.35746781816024376,-0.66551810653695886,-0.014820872743407598,0.29165211241838507,0.85601545133518697,-0.79937979486922872,-0.38779892935174076,-0.46414002485519656,0.92937309336229723,-0.26439306976894916,0.63515478565991046,0.066481846277397727,0.96118020451185116,-0.0041748040998585978,-0.29576619702328832,-0.7741598665014382,-0.59927190509206851,0.2920732630095666,0.86156984169721551,-0.2729083033425268,-0.47529272651183763,-0.42975696526413176,-0.76045979226931548,0.72107582361610834,0.92820784837646286
0.62371656856342206,0.10633372067918434,-0.69741200585345142,-0.74608468450520316,-0.26757203401634055,0.63879630135422261,0.2451087862292991,0.71180145647715931,-0.71846311354013936,0.55370608152212752,-0.45893720622864609,0.052462240247207692,0.55984037972757794,0.56189234806235344,0.21959324419166659,-0.24197665830205284,0.86667021329498062,-0.86728681268256347,-0.77264901844681422,0.74418955821038923,0.16256721076510683,-0.69106708453849031,0.75760544361918924,-0.14018525253280179,0.44542597023050456,-0.29404749914721995
-0.80318343543534154,0.98525600688588444,0.64325493903287323,-0.32520039500815723,-0.55623654029679059,0.54448271761481926,0.99632672279431955,0.76707302373973718,0.22934723901789345,-0.64940488868820867,0.96140907625233551,-0.66957030555008212,-0.75914190504093293,0.08261870145260608,0.74864041381948354,0.0041083874656413499,0.99891141172297804,0.74753114819519539,-0.40694589335941633,-0.6702320238869961,-0.75848288658490337,-0.63201357424141458,0.10339465746459719,-0.059876518342666607,0.11159108569189913,0.090643875685510578
