-0.77107390708343826,0.50674259423916634,-0.59296174736947571,-0.10209463054895873,-0.64844614812995616,0.96612567960888907,-0.084477394543446938,0.97499179037057981,0.35224518359897505,0.53189392388349077,0.7236991137663682,0.39838151913448483,0.48561606166743365,-0.82093670473271763,-0.27754623812639245,0.28067237013795432,-0.60757109899352901,-0.3035658294335033,-0.48998516826857008,0.61059678919872717,0.9496763483808579,0.14703079089306148,0.60789001454040159,-0.049362924943307407,0.52215184701363948,0.92633271638742554
0.12721452771798036,0.35746781816024376,-0.66551810653695886,-0.80560684356322199,0.29165211241838507,0.85601545133518697,-0.79937979486922872,0.22045390970135981,0.84247324428266945,-0.38071267925185115,0.99734125554376551,0.74491882478194782,0.36830131784275655,0.25808165540408301,-0.0041748040998585978,-0.11189137786044734,-0.24376998007973061,0.6884906345991455,0.84924846791298902,0.37102946895709343,0.63805097732781579,-0.47529272651183763,-0.75565314306543141,-0.75761175555455362,0.72107582361610834,-0.26800117818842129
0.39473547315869428,0.10633372067918434,-0.69741200585345142,-0.16997187725797369,-0.43156287230107182,0.7244146437026977,-0.049607095957098446,0.012333846192476461,-0.71846311354013936,0.55370608152212752,-0.45893720622864609,0.052462240247207692,0.55984037972757794,0.8468505996302722,0.21959324419166659,-0.24197665830205284,0.86667021329498062,0.12626982698544031,0.091709748706210625,0.74418955821038923,0.2901248542548478,-0.69106708453849031,-0.52679111377396715,-0.79166153606021505,0.44542597023050456,-0.81625798815936568
-0.80318343543534154,0.51591051657150788,0.64325493903287323,-0.32520039500815723,-0.33715675795644895,0.54448271761481926,-0.96687799389147999,0.43557070192506697,0.22934723901789345,0.70945634546575587,-0.76833022839804777,0.17957173885340016,0.55206119516876528,0.08261870145260608,-0.41656710597453905,0.0041083874656413499,0.56675603868071711,0.74753114819519539,0.35181655279305546,0.0059623252205751598,-0.75848288658490337,-0.63201357424141458,-0.2399458371916221,0.353653116670676,0.38929333063615013,0.090643875685510578
