-0.34808791632649871,0.84091107078012439,0.89883397513053342,0.32940359718810663,0.46559141520432479,-0.51565881983612627,-0.85379066507076407,0.98117998598589762,-0.52438424930344207,-0.14204677781696518,0.80953460564178892,0.19595779734470464,0.035334959422196999,0.36225654795055839,-0.30770958036018725,0.035206121363598575,-0.5178628454119103,0.5865556642212284,0.27005404962634616,-0.87099374647323669,0.24755432551816803,-0.63768692875108113,0.23836734385021097,-0.78283247650324261,-0.63431390472749705,-0.70127331563720263
-0.23824477979310332,0.42208145408637177,-0.48703620396969893,-0.76620947301190601,-0.44455375596011981,-0.75877445751813855,0.73116542293896392,0.74162914141069614,-0.42273153432736632,-0.051080159211520204,-0.40491107941234405,-0.88137726411548867,0.30082524532247579,-0.88363940877719727,-0.132632671935621,0.5290937643127307,0.19998926246584436,-0.62229974642109531,-0.83421595466336784,0.27564351023180311,0.53552248527871904,0.27683155967135309,-0.19533319666988236,0.76108988988895798,0.69272592914112918,-0.013102148535549141
-0.33206731945221235,-0.58713433917735869,-0.38472377582979189,-0.24252502444303703,0.054731313610064891,-0.32153535041286618,0.17230706719676969,-0.7707810581846577,0.53773007195703904,-0.58095345352265282,0.87151651884893511,-0.13860571592835402,-0.053067582756842535,-0.90674883418066554,-0.16101802061522852,0.13991546358518292,-0.26809616586273055,-0.092176851369841106,-0.062845651901455302,0.59811437187279815,-0.1239294879970001,-0.6342694160575737,-0.75085702379576524,0.8035880623725844,-0.10472044037140238,-0.085259728098558307
-0.31289197595324225,0.50028693739546481,0.60506407949789898,0.41899177105368923,-0.37762963371029623,-0.07459036708707556,0.5168439170661332,0.20142255680724497,-0.6935688394614814,0.48817543870992441,0.76187672110426674,-0.47065827758536605,0.29839363913180805,-0.47558999022446713,-0.10269854467232342,0.14904925711531947,0.25070343873230505,0.62412734022408922,-0.001103002252119456,-0.93745857423712042,0.2942050193234742,0.46427893842256585,-0.65464666008232908,0.20256197984488811,-0.66540922283299064,0.85880357009368269
