0.29144192738773,0.040530781343938838,0.39752284844132024,0.48046957591886574,0.93506523016350163,0.68613858362710944,-0.85379066507076407,-0.0044012465501919174,-0.9035994002160892,0.84846137775949138,0.80953460564178892,0.19595779734470464,0.035334959422196999,-0.72158991554786045,-0.30770958036018725,0.035206121363598575,-0.61104172059163386,0.5865556642212284,-0.068885883799556513,0.8179903066842813,-0.31500950346294143,0.48584064261201831,0.23836734385021097,-0.70979930086381127,-0.0722138312603815,0.52549728513550731
-0.23824477979310332,0.87516706942032907,-0.48703620396969893,-0.76620947301190601,0.98719599053630214,-0.75877445751813855,0.94298467153549081,0.74162914141069614,0.03518291577812116,-0.051080159211520204,-0.40491107941234405,-0.88137726411548867,-0.24862951479792983,-0.46965122725439445,-0.09988743812359191,0.5290937643127307,0.25901126529226115,0.10402202908580138,-0.51771732781148527,0.96308614916910673,0.53552248527871904,0.27683155967135309,-0.34190550682888321,0.76108988988895798,0.69272592914112918,0.80702501916142122
0.13318531591578875,-0.58713433917735869,-0.38472377582979189,-0.11086511901111562,-0.31590456318161975,-0.32153535041286618,0.28583477188436923,-0.7707810581846577,0.34030352295071808,0.70862778541612581,-0.80124072732060925,-0.13860571592835402,-0.48654731810752727,-0.90674883418066554,-0.16101802061522852,-0.058889577528109083,-0.26809616586273055,0.79244516218939154,0.94579152297887492,-0.088022163316706648,-0.1239294879970001,-0.81984696888614272,0.014833701490645002,-0.62271094338684807,-0.10472044037140238,-0.085259728098558307
-0.31289197595324225,0.50028693739546481,0.012775431815121863,0.52617617119790761,-0.37762963371029623,-0.13716090180413731,0.90243884225134141,0.1932976768197745,0.62960624385599084,-0.42731942253987443,0.76187672110426674,-0.47065827758536605,-0.66282205438852371,-0.53394609341937449,-0.81468961320379774,0.14904925711531947,0.25070343873230505,0.62412734022408922,-0.34507882658292011,0.16917786831664117,0.2942050193234742,-0.027291471256590594,-0.5600839538361444,0.20256197984488811,0.48369422783584093,-0.93797652606792559
