0.29144192738773,-0.087029945972882938,0.80304913148483092,0.48046957591886574,-0.83417729131945451,0.86855779429343394,-0.85379066507076407,-0.69618145331260584,0.2216235035085139,-0.69509330637608469,0.80953460564178892,0.19595779734470464,0.035334959422196999,0.36225654795055839,-0.30770958036018725,0.37764548990408509,-0.5178628454119103,0.5865556642212284,0.93847583703783122,0.95850115706013317,-0.61348737837196476,-0.57672839462762671,0.23836734385021097,0.060770829322642106,-0.34153908344749695,0.52549728513550731
-0.23824477979310332,0.29241113542708885,0.38952025277533742,-0.76620947301190601,-0.10377517458970598,-0.91968140635267748,0.94298467153549081,0.32399739744127953,-0.42273153432736632,0.79457393880499749,-0.40491107941234405,0.12973631640683703,0.19284402747603924,-0.46965122725439445,-0.09988743812359191,0.5290937643127307,0.94592432133755677,-0.62229974642109531,-0.33236203924701391,0.27564351023180311,0.53552248527871904,0.27683155967135309,-0.11854061976326524,0.76108988988895798,0.69272592914112918,0.80702501916142122
-0.032571290713625745,-0.58713433917735869,-0.57935815768838084,-0.11086511901111562,0.46671554406606086,-0.32153535041286618,0.092536207481273003,-0.7707810581846577,0.96404226076342625,0.70862778541612581,-0.2471264720253632,0.56096270134051962,-0.56987795104125971,-0.90674883418066554,0.54623243745082095,0.13991546358518292,-0.26809616586273055,-0.092176851369841106,0.94579152297887492,0.27443783581456893,-0.1239294879970001,-0.6342694160575737,0.014833701490645002,0.43102088477513623,0.80239751300830031,-0.085259728098558307
-0.31289197595324225,0.73495176844989363,0.70000668153669809,0.52617617119790761,-0.37762963371029623,-0.07459036708707556,-0.72485998727087986,0.20142255680724497,0.61759495643599127,-0.089664651045775035,0.76187672110426674,-0.47065827758536605,-0.66282205438852371,-0.53394609341937449,0.97727660840047159,0.14904925711531947,0.25070343873230505,0.62412734022408922,-0.001103002252119456,-0.73804851741441757,0.2942050193234742,0.27803129970048857,-0.65464666008232908,0.38249125023399033,-0.66540922283299064,0.70195532253488868
