-0.40112794443302069,-0.087029945972882938,0.39752284844132024,-0.47773439201179069,0.32442186823962427,0.68613858362710944,-0.85379066507076407,-0.0041160065995271555,0.2216235035085139,-0.69509330637608469,0.80953460564178892,0.19595779734470464,0.67676917170718087,0.36225654795055839,-0.30770958036018725,-0.1710428265368753,-0.5178628454119103,-0.56549870734178653,0.93847583703783122,0.025247778907766083,-0.31500950346294143,0.91657471650394928,0.23836734385021097,0.008231462512489518,-0.96827457971295616,-0.72835852231898945
-0.23824477979310332,0.29241113542708885,0.38952025277533742,-0.27357334543266809,-0.011231155972738716,-0.91968140635267748,0.94298467153549081,-0.75853125232073637,0.985071165307146,0.95185706548264415,-0.59696609015492963,-0.88137726411548867,-0.24862951479792983,-0.46965122725439445,-0.09988743812359191,0.5290937643127307,0.94592432133755677,-0.62229974642109531,0.021195129355115139,0.27564351023180311,0.53552248527871904,0.27683155967135309,-0.11854061976326524,0.76108988988895798,0.69272592914112918,0.80702501916142122
-0.032571290713625745,-0.58713433917735869,-0.38472377582979189,-0.11086511901111562,-0.53582024804098216,0.66651690937635522,-0.7787525177557999,-0.7707810581846577,0.12232973823374449,0.70862778541612581,-0.2471264720253632,-0.13860571592835402,-0.56987795104125971,-0.90674883418066554,0.25233812128115951,0.13991546358518292,-0.33813058286604902,-0.092176851369841106,0.94579152297887492,-0.088022163316706648,-0.1239294879970001,-0.73833515794807125,0.014833701490645002,0.43102088477513623,-0.10472044037140238,0.42505867892748661
-0.31289197595324225,0.73495176844989363,-0.69208433342021869,0.87949086966814205,-0.77885570584356612,0.4344813859888943,0.90243884225134141,0.20142255680724497,0.61759495643599127,-0.089664651045775035,0.76187672110426674,0.5328656474882254,-0.66282205438852371,0.93277791170023927,0.97727660840047159,0.67018710142695515,0.25070343873230505,0.62412734022408922,-0.001103002252119456,0.50987554269650159,0.2942050193234742,-0.027291471256590594,-0.65464666008232908,-0.61251238018683174,-0.66540922283299064,-0.43330173771980629
