0.29144192738773,-0.087029945972882938,0.39752284844132024,-0.75882194207305309,0.39131623998582388,0.68613858362710944,-0.59603102927437468,-0.0594534694146025,0.75952709718166034,0.21976013816545659,0.80953460564178892,0.19595779734470464,0.035334959422196999,0.36225654795055839,0.81486781206440262,0.37764548990408509,-0.5178628454119103,0.5865556642212284,-0.93852007519087799,0.025247778907766083,-0.31500950346294143,-0.63768692875108113,0.23836734385021097,-0.11468474377767035,-0.34153908344749695,0.52549728513550731
0.032415170372047442,0.29241113542708885,0.38952025277533742,-0.76620947301190601,-0.33134880205780037,-0.91968140635267748,0.94298467153549081,-0.49016712685429931,-0.42273153432736632,-0.26195127742164503,0.05729550729990418,-0.88137726411548867,-0.7313126141667825,-0.25456877979947556,-0.49885318499464226,0.1206094594893834,0.33911354966348362,-0.62229974642109531,-0.18334307837057207,-0.15143199056382906,0.53552248527871904,0.27683155967135309,-0.11854061976326524,-0.69132210271527916,0.69272592914112918,0.80702501916142122
0.63948106199478194,-0.58713433917735869,0.81216756214333508,0.79505222730175573,-0.56614330663546353,-0.32153535041286618,0.28583477188436923,-0.7707810581846577,0.96404226076342625,0.45746275933495584,-0.2471264720253632,0.05241690160513035,-0.56987795104125971,-0.90674883418066554,-0.16101802061522852,0.56104926634244023,0.3939795255519134,-0.092176851369841106,0.80425380831898252,0.18285077015754303,-0.1239294879970001,-0.222285545823665,-0.62759426885703706,0.43102088477513623,0.10998048683730133,-0.085259728098558307
-0.31289197595324225,-0.32561929036650206,-0.69208433342021869,0.52617617119790761,-0.37762963371029623,-0.07459036708707556,0.90243884225134141,-0.018328077246125396,-0.24403850284307183,0.5842784284835425,0.98113286186238069,0.61439143339954572,0.71957379465360383,-0.53394609341937449,0.52962826676101415,-0.36644119422690746,0.25070343873230505,-0.24771941138983156,-0.001103002252119456,0.50987554269650159,0.2942050193234742,-0.68276428354788976,-0.19770458786174405,-0.61251238018683174,-0.66540922283299064,0.095919729019426914
