0.29144192738773,-0.087029945972882938,-0.12368314361211885,0.48046957591886574,0.32442186823962427,0.68613858362710944,-0.59603102927437468,0.46636301677641412,0.2216235035085139,0.59351206566427783,-0.89327980338986035,-0.036412780120459454,0.035334959422196999,0.36225654795055839,0.81486781206440262,0.37764548990408509,-0.5178628454119103,0.5865556642212284,0.72467042492025913,0.025247778907766083,-0.31500950346294143,-0.63768692875108113,0.23836734385021097,-0.11468474377767035,-0.34153908344749695,0.52549728513550731
-0.23824477979310332,0.29241113542708885,-0.077478618609387651,0.8665779082511722,-0.10377517458970598,-0.49535644302040294,0.94298467153549081,-0.49016712685429931,-0.42273153432736632,-0.051080159211520204,0.05729550729990418,-0.88137726411548867,-0.24862951479792983,-0.6425795524360236,-0.49885318499464226,0.1206094594893834,0.33911354966348362,-0.62229974642109531,0.76276658967673883,-0.15143199056382906,0.53552248527871904,0.27683155967135309,-0.28387194921340764,-0.69132210271527916,0.69272592914112918,0.80702501916142122
-0.032571290713625745,-0.58713433917735869,0.1752777409567845,-0.42075981861805545,-0.56614330663546353,-0.32153535041286618,0.28583477188436923,-0.7707810581846577,-0.34593524890964789,0.70862778541612581,-0.97530214272953741,0.21982630661956826,-0.56987795104125971,0.052125153046742145,-0.16101802061522852,-0.13231712190579659,-0.39086725801572952,-0.092176851369841106,0.94579152297887492,-0.088022163316706648,-0.1239294879970001,0.60171299691900026,0.014833701490645002,0.43102088477513623,0.9842088429246012,-0.085259728098558307
-0.31289197595324225,0.81044924435905319,-0.69208433342021869,0.52617617119790761,-0.78881440198907971,-0.07459036708707556,0.90243884225134141,-0.018328077246125396,-0.24403850284307183,-0.32740588014791516,0.51217107949582852,0.41792983861648492,-0.66282205438852371,-0.53394609341937449,-0.42509452760194022,-0.36644119422690746,0.25070343873230505,-0.78039641504029844,-0.001103002252119456,0.79073425631429628,0.2942050193234742,-0.027291471256590594,-0.19770458786174405,-0.61251238018683174,-0.66540922283299064,0.095919729019426914
