0.29144192738773,-0.087029945972882938,0.39752284844132024,0.80913014407415451,0.32442186823962427,0.68613858362710944,-0.59603102927437468,-0.69618145331260584,0.2216235035085139,-0.69509330637608469,0.80953460564178892,0.19595779734470464,0.035334959422196999,0.36225654795055839,0.81486781206440262,0.093585333742356447,-0.99050563099743449,-0.21798374179359392,0.93847583703783122,0.025247778907766083,-0.917127876110859,-0.63768692875108113,0.23836734385021097,-0.48708373285718354,-0.34153908344749695,0.52549728513550731
-0.23824477979310332,-0.12184266839876723,0.38952025277533742,-0.76620947301190601,0.054640241017299251,-0.91968140635267748,0.94298467153549081,-0.49016712685429931,-0.42273153432736632,-0.99386971216814568,0.05729550729990418,0.83998314688794529,-0.24862951479792983,0.33963582581055141,-0.49885318499464226,0.1206094594893834,-0.33251510829837416,-0.50569408743698729,0.79249510063057493,-0.15143199056382906,0.74382506585826746,0.27683155967135309,-0.019855128963452984,-0.69132210271527916,0.69272592914112918,0.80702501916142122
-0.032571290713625745,-0.3419313559853272,0.28260696551854014,0.79505222730175573,-0.56614330663546353,-0.32153535041286618,-0.18013298936403377,-0.7707810581846577,0.15722456235094473,-0.38353783910892059,-0.2471264720253632,-0.52904645929776373,-0.56987795104125971,0.28689243250590479,-0.16101802061522852,0.56104926634244023,-0.11179411662255445,-0.34673665701148448,0.94579152297887492,0.28474934037637634,0.57183968579538003,-0.222285545823665,0.014833701490645002,0.053495895568975271,-0.10472044037140238,-0.10132171407821855
0.38597202804079056,0.99880831320724073,0.81961915201769142,-0.4896530604215541,-0.37762963371029623,0.25711011670173911,0.90243884225134141,-0.018328077246125396,-0.24403850284307183,-0.6891392229031037,0.51217107949582852,-0.47065827758536605,-0.66282205438852371,-0.53394609341937449,0.52962826676101415,-0.36644119422690746,0.25070343873230505,0.96159530500287271,-0.99144800575569358,0.50987554269650159,0.2942050193234742,0.21725326586462379,-0.19770458786174405,0.32589113921868584,0.79243977185005821,0.095919729019426914
